tree
version=v3
num_class=1
num_tree_per_iteration=1
label_index=0
max_feature_idx=74
objective=regression
feature_names=OpenBidPrice OpenBidSize OpenAskPrice OpenAskSize FirstTradePrice FirstTradeSize HighBidPrice HighBidSize HighAskPrice HighAskSize HighTradePrice HighTradeSize LowBidPrice LowBidSize LowAskPrice LowAskSize LowTradePrice LowTradeSize CloseBidPrice CloseBidSize CloseAskPrice CloseAskSize LastTradePrice LastTradeSize MinSpread MaxSpread CancelSize VolumeWeightPrice NBBOQuoteCount TradeAtBid TradeAtBidMid TradeAtMid TradeAtMidAsk TradeAtAsk TradeAtCrossOrLocked Volume TotalTrades FinraVolume FinraVolumeWeightPrice UptickVolume DowntickVolume RepeatUptickVolume RepeatDowntickVolume UnknownTickVolume TradeToMidVolWeight TradeToMidVolWeightRelative TimeWeightBid TimeWeightAsk ret1min ret2min ret3min ret4min ret5min ret6min ret7min ret8min ret9min ret10min ret11min ret12min ret13min ret14min ret20min ret25min ret30min ret35min ret40min ret45min ret50min ret55min ret60min ret90min ret120min quarter stock_id
feature_infos=[0:233.33000000000001] [0:224000] [0:233.34999999999999] [0:718900] [89.680000000000007:233.34999999999999] [1:8480631] [89.430000000000007:233.36000000000001] [100:224000] [89.760000000000005:299] [100:1180300] [89.760000000000005:233.38] [1:8480631] [87:233.19999999999999] [100:224000] [89.640000000000001:233.21000000000001] [0:718900] [89.620000000000005:233.19999999999999] [1:5910942] [89.430000000000007:233.30000000000001] [100:207600] [89.700000000000003:233.31999999999999] [100:649700] [89.689999999999998:233.31950000000001] [1:1765973] [0:2.8100000000000001] [0:169.66999999999999] [0:1212500] [0:233.26792] [0:33734] [0:22743254] [0:7155002] [0:5027629] [0:6448554] [0:9354002] [0:5914343] [0:22791191] [1:19656] [0:3040029] [0:233.27072999999999] [0:22742353] [0:9408782] [0:4964757] [0:6107551] none [-441.53498000000002:185.54411999999999] [-228.48052999999999:92.778090000000006] [89.416470000000004:233.24637000000001] [89.686840000000004:233.27123] [-0.10669817846437624:0.18740111338997933] [-0.10669817846437624:inf] [-0.10690410327339794:inf] [-0.10690410327339794:inf] [-0.10690410327339794:inf] [-0.10690410327339794:inf] [-0.10731566820276495:inf] [-0.10705848458657452:inf] [-0.10705848458657452:inf] [-0.10695556964213682:inf] [-0.10685263097227826:inf] [-0.10685263097227826:inf] [-0.09409827760891587:inf] [-0.10685263097227826:inf] [-0.1071099331643236:inf] [-0.10731566820276495:inf] [-0.10808633093525177:inf] [-0.1080349948198458:inf] [-0.10808633093525177:inf] [-0.1080349948198458:inf] [-0.10782959124928027:inf] [-0.10788095101030459:inf] [-0.09910081053698061:inf] [-0.10829161631854534:inf] [-0.097834346504559244:inf] [1:4] none
tree_sizes=1732 1726 1746 1735 1736 1722 1717 1710 1727 1716 1748 1731 1744 1720 1756 1748 1754 1739 1744 1730 1724 1724 1723 1732 1736 1743 1733 1741 1709 1721 1752 1732 1707 1731 1705 1737 1750 1732 1735 1752 1718 1739 1711 1739 1711 1721 1714 1731 1740 1726 1739 1722 1733 1717 1729 1712 1733 1712 1730 1730 1733 1742 1739 1734 1746 1727 1703 1733 1733 1730 1726 1736 1727 1712 1733 1731 1714 1748 1726 1728 1720 1714 1731 1710 1726 1716 1727 1702 1740 1729 1722 1753 1713 1735 1718 1704 1740 1725 1724 1729 1742 1727 1722 1712 1716 1740 1732 1728 1729 1719 1709 1739 1727 1737 1730 1715 1716 1697 1731 1722 1722 1725 1748 1711 1726 1717 1757 1734 1732 1740 1714 1748 1727 1717 1728 1715 1715 1754 1747 1739 1714 1705 1713 1727 1716 1712 1726 1738 1732 1706 1709 1732 1709 1697 1719 1727 1736 1727 1722 1717 1696 1732 1723 1747 1723 1716 1719 1736 1750 1734 1720 1720 1731 1720 1734 1742 1730 1712 1742 1724 1721 1716 1730 1743 1737 1725 1742 1726 1703 1728 1722 1727 1706 1736 1704 1744 1733 1721 1720 1726 1721 1718 1707 1716 1694 1741 1716 1728 1711 1717 1708 1705 1731 1715 1703 1728 1743 1715 1730 1743 1723 1733 1738 1721 1715 1708 1720 1716 1716 1707 1718 1751 1699 1706 1719 1686 1729 1736 1724 1751 1725 1717 1736 1719 1716 1713 1708 1693 1699 1736 1729 1730 1716 1712 1718 1701 1717 1722 1711 1719 1702 1726 1745 1717 1713 1719 1713 1715 1740 1692 1722 1715 1744 1726 1738 1728 1726 1722 1730 1720 1727 1707 1753 1702 1738 1728 1698 1725 1738 1722 1722 1718 1710 1705 1734 1707 1715 1705 1733 1723 1719 1711 1714 1719 1705 1713 1735 1728 1747 1737 1702 1715 1752 1703 1718 1716 1711 1735 1744 1708 1712 1740 1714 1747 1766 1723 1720 1731 1719 1704 1710 1745 1715 1726 1734 1728 1714 1732 1741 1712 1733 1736 1732 1711 1721 1708 1708 1722 1723 1712

Tree=0
num_leaves=16
num_cat=0
split_feature=15 50 35 25 58 25 13 71 11 28 21 69 28 45 21
split_gain=6.0651e-05 0.00058739 3.27089e-05 3.07648e-05 7.12188e-05 2.82725e-05 2.12385e-05 2.02208e-05 0.000109018 2.97216e-05 1.92978e-05 4.71276e-05 6.87521e-05 1.81597e-05 1.43955e-05
threshold=6850.0000000000009 -0.00023763932752535186 91395.500000000015 0.13500000000000004 -0.0024847929578870605 0.24500000000000002 450.00000000000006 -0.012193138136372848 1.5000000000000002 4667.0000000000009 450.00000000000006 -0.0093712517073232787 3081.0000000000005 -0.26732499999999998 350.00000000000006
decision_type=2 2 2 2 2 2 2 2 2 2 2 2 2 2 2
left_child=2 -2 7 13 -5 14 -3 8 -1 -10 -9 12 -12 -4 -6
right_child=1 6 3 4 5 -7 -8 10 9 -11 11 -13 -14 -15 -16
leaf_value=4.911649609049725e-05 0.00011172927418918342 -2.036702736671622e-05 1.2297199511412793e-05 4.6816525612927742e-05 2.5406631190013281e-05 -1.4963504536294363e-05 -2.3340426898140592e-07 -3.8468965231228087e-07 -2.6965913504646648e-06 1.8653213518378392e-05 -4.9616164083273275e-05 -1.6107798814480686e-06 -1.4648060551681339e-09 8.1695316018929852e-07 1.65843912712318e-06
leaf_weight=507 507 699 1487 512 510 529 2092 192723 4351 767 503 266300 628 18774 511
leaf_count=507 507 699 1487 512 510 529 2092 192723 4351 767 503 266300 628 18774 511
internal_value=-8.04164e-07 1.27113e-05 -8.95485e-07 2.84382e-06 1.44807e-05 3.79945e-06 -5.27583e-06 -1.0747e-06 4.88466e-06 5.02959e-07 -1.14754e-06 -1.69729e-06 -2.20671e-05 1.65951e-06 1.35209e-05
internal_weight=0 3298 488102 22323 2062 1550 2791 465779 5625 5118 460154 267431 1131 20261 1021
internal_count=491400 3298 488102 22323 2062 1550 2791 465779 5625 5118 460154 267431 1131 20261 1021
is_linear=0
shrinkage=1


Tree=1
num_leaves=16
num_cat=0
split_feature=15 58 32 70 19 9 1 41 11 21 29 45 58 23 1
split_gain=4.91273e-05 0.000549151 4.0773e-05 5.26103e-05 3.6712e-05 2.87851e-05 3.41928e-05 2.58145e-05 1.9709e-05 1.50685e-05 1.51155e-05 1.53429e-05 1.62711e-05 1.74644e-05 3.49095e-05
threshold=6850.0000000000009 0.0018011344743437132 36766.000000000007 -0.009788534040968409 450.00000000000006 1850.0000000000002 350.00000000000006 1.0000000180025095e-35 23.500000000000004 450.00000000000006 42447.000000000007 0.20437500000000003 0.0023087237392062092 1.5000000000000002 450.00000000000006
decision_type=2 2 2 2 2 2 2 2 2 2 2 2 2 2 2
left_child=2 7 9 4 -4 8 -7 -2 -5 10 11 12 -1 14 -14
right_child=1 -3 3 5 -6 6 -8 -9 -10 -11 -12 -13 13 -15 -16
leaf_value=2.6119001898546834e-07 -2.5040859206133928e-05 0.00010846633408673153 4.5754520147743178e-05 2.1664069480613247e-05 8.7530303048311008e-06 -2.8390940874810521e-05 2.9056076655148515e-06 -4.9025003831184843e-07 4.3811300101550609e-06 -6.5751289150521981e-07 4.6306796949838379e-06 1.9503172428144889e-06 -6.4332947838809254e-07 -1.9471450575134585e-06 -3.3840243828917527e-05
leaf_weight=126068 528 502 563 894 512 521 1058 2268 2519 281061 8393 43398 801 21790 524
leaf_count=126068 528 502 563 894 512 521 1058 2268 2519 281061 8393 43398 801 21790 524
internal_value=0 1.21639e-05 -8.21892e-08 8.06454e-06 2.81315e-05 3.74323e-06 -7.42087e-06 -5.12642e-06 8.90822e-06 -1.84726e-07 4.76465e-07 2.95417e-07 -1.86001e-07 -2.62496e-06 -1.37718e-05
internal_weight=0 3298 488102 6067 1075 4992 1579 2796 3413 482035 200974 192581 149183 23115 1325
internal_count=491400 3298 488102 6067 1075 4992 1579 2796 3413 482035 200974 192581 149183 23115 1325
is_linear=0
shrinkage=0.1


Tree=2
num_leaves=16
num_cat=0
split_feature=15 17 32 44 45 13 73 58 49 58 63 23 71 42 56
split_gain=3.99391e-05 0.000524275 3.33583e-05 4.38899e-05 5.95948e-05 4.68329e-05 3.97232e-05 3.06969e-05 1.45808e-05 2.76719e-05 6.78735e-05 1.58395e-05 7.83417e-05 1.3724e-05 2.2108e-05
threshold=6450.0000000000009 300.50000000000006 36766.000000000007 -0.49999499999999991 -0.069964999999999986 950.00000000000011 1.5000000000000002 0.0014713744108726392 3.4713061938029817e-05 0.0016215879094760857 -0.0031376517518420517 2.5000000000000004 0.0081003786435659437 11245.500000000002 -0.0037741114985451736
decision_type=2 2 2 2 2 2 2 2 2 2 2 2 2 2 2
left_child=2 7 8 -4 5 -5 -6 -2 9 13 -11 12 -12 14 -1
right_child=1 -3 3 4 6 -7 -8 -9 -10 10 11 -13 -14 -15 -16
leaf_value=-1.5357889947775509e-05 -3.6613425598459638e-07 0.00010447266957877825 3.1412062172718271e-05 6.1428866466428651e-06 2.808097520404284e-05 -3.4829058231732527e-05 4.6276307758083082e-06 -2.672882502011181e-05 3.9423245143924704e-07 -3.4998837595298539e-05 -6.5112324497977618e-07 -2.1645464340206183e-06 -4.4246205668827194e-05 6.2981770201353065e-07 -8.6429803671086065e-07
leaf_weight=1061 2626 510 671 512 921 613 3345 531 234364 676 1763 24376 538 88429 130464
leaf_count=1061 2626 510 671 512 921 613 3345 531 234364 676 1763 24376 538 88429 130464
internal_value=0 1.03972e-05 -7.81711e-08 7.29371e-06 4.29177e-06 -1.61823e-05 9.69105e-06 -4.80028e-06 -1.70949e-07 -7.06551e-07 -3.70616e-06 -2.9132e-06 -1.08441e-05 -3.33526e-07 -9.81217e-07
internal_weight=0 3667 487733 6062 5391 1125 4266 3157 481671 247307 27353 26677 2301 219954 131525
internal_count=491400 3667 487733 6062 5391 1125 4266 3157 481671 247307 27353 26677 2301 219954 131525
is_linear=0
shrinkage=0.1


Tree=3
num_leaves=16
num_cat=0
split_feature=15 52 32 70 31 25 19 57 57 17 21 33 45 52 7
split_gain=3.25793e-05 0.000499153 2.67163e-05 4.34806e-05 2.99355e-05 3.33193e-05 2.97928e-05 2.20341e-05 2.07739e-05 2.25342e-05 1.29018e-05 1.28484e-05 2.02035e-05 1.54237e-05 2.69273e-05
threshold=6850.0000000000009 -0.00035993341239964888 36766.000000000007 -0.009788534040968409 10888.500000000002 0.15500000000000003 450.00000000000006 0.0014021469947194112 0.00011430530985490074 25.500000000000004 450.00000000000006 490.50000000000006 0.31824500000000006 6.395088598132316e-05 2250.0000000000005
decision_type=2 2 2 2 2 2 2 2 2 2 2 2 2 2 2
left_child=2 -2 10 6 -5 8 -4 -3 -6 -10 11 13 -13 14 -1
right_child=1 7 3 4 5 -7 -8 -9 9 -11 -12 12 -14 -15 -16
leaf_value=-1.2853677873550709e-06 0.00010118392953755704 -2.5145407738792683e-06 4.0646193549657316e-05 -1.4268477035791404e-05 -6.9176193165633072e-06 2.8644127075789536e-05 7.3134698425292304e-06 -2.5648638955433389e-05 2.5092118433176365e-05 2.3337886042699335e-06 -5.8740772566865728e-07 7.0026881843957363e-07 4.9428313246815236e-06 8.4845296532029329e-07 -1.4752896603720503e-05
leaf_weight=42782 507 2289 563 869 1401 568 512 502 605 1549 281061 97024 12693 46937 1538
leaf_count=42782 507 2289 563 869 1401 568 512 502 605 1549 281061 97024 12693 46937 1538
internal_value=0 9.90566e-06 -6.69304e-08 6.52762e-06 2.59911e-06 6.15427e-06 2.47705e-05 -6.67553e-06 2.56095e-06 8.72598e-06 -1.49931e-07 4.61878e-07 1.19108e-06 -4.14836e-07 -1.75272e-06
internal_weight=0 3298 488102 6067 4992 4123 1075 2791 3555 2154 482035 200974 109717 91257 44320
internal_count=491400 3298 488102 6067 4992 4123 1075 2791 3555 2154 482035 200974 109717 91257 44320
is_linear=0
shrinkage=0.1


Tree=4
num_leaves=16
num_cat=0
split_feature=15 23 19 35 54 25 45 49 11 15 41 50 66 68 48
split_gain=2.65235e-05 0.000495145 2.63419e-05 1.90194e-05 2.40403e-05 4.28258e-05 2.23509e-05 1.79545e-05 2.81532e-05 1.46775e-05 1.3399e-05 1.80109e-05 1.33816e-05 3.53598e-05 1.3268e-05
threshold=6450.0000000000009 360.50000000000006 650.00000000000011 64485.000000000007 -0.0033368652985540366 0.12500000000000003 -0.13099499999999997 -0.00013315471554536937 1.5000000000000002 9950.0000000000018 56135.000000000007 -0.0013502784771308727 -0.0078533128313857375 -0.0065070451364354623 0.0014169652334636853
decision_type=2 2 2 2 2 2 2 2 2 2 2 2 2 2 2
left_child=3 2 9 14 5 6 -5 8 -6 -2 11 -8 -9 -14 -1
right_child=1 -3 -4 4 7 -7 10 12 -10 -11 -12 -13 13 -15 -16
leaf_value=-2.1865553968653264e-07 -8.3118481907435258e-06 9.6516460293701939e-05 -1.149526760352939e-07 1.5538730229013961e-05 -1.8217947155448139e-05 3.6248254397001893e-05 1.1532355616193103e-05 -8.0811452539153997e-06 -3.6376290403854484e-07 -3.1492196851306492e-05 -1.2225218229476828e-05 -1.1251175469210881e-05 2.2912586771443456e-05 2.6249080954013936e-06 -7.1550922485085223e-06
leaf_weight=440239 573 544 2028 1355 936 511 1104 1059 15649 522 697 506 894 22008 2775
leaf_count=440239 573 544 2028 1355 936 511 1104 1059 15649 522 697 506 894 22008 2775
internal_value=0 8.47292e-06 -6.86351e-06 -6.37033e-08 1.90178e-06 9.12904e-06 5.34479e-06 1.15795e-06 -1.37139e-06 -1.93622e-05 -6.42545e-07 4.37182e-06 2.90868e-06 3.41686e-06 -2.62105e-07
internal_weight=0 3667 3123 487733 44719 4173 3662 40546 16585 1095 2307 1610 23961 22902 443014
internal_count=491400 3667 3123 487733 44719 4173 3662 40546 16585 1095 2307 1610 23961 22902 443014
is_linear=0
shrinkage=0.1


Tree=5
num_leaves=16
num_cat=0
split_feature=32 72 7 3 44 44 19 35 51 3 66 25 7 7 35
split_gain=2.02033e-05 4.23921e-05 3.14768e-05 3.41766e-05 2.83693e-05 2.58428e-05 1.67952e-05 5.34401e-05 0.000519659 3.74891e-05 2.93998e-05 2.77587e-05 7.66486e-05 2.27687e-05 9.66404e-05
threshold=36766.000000000007 -0.0068847736607434143 150.00000000000003 750.00000000000011 0.17162500000000003 -0.13665499999999997 650.00000000000011 1.0000000180025095e-35 -0.00033091306102211998 7950.0000000000009 0.0018588605387460657 0.31500000000000006 950.00000000000011 2250.0000000000005 3654.5000000000005
decision_type=2 2 2 2 2 2 2 2 2 2 2 2 2 2 2
left_child=6 4 -3 -4 5 -2 9 8 -8 13 -11 -9 -13 -1 -15
right_child=1 2 3 -5 -6 -7 7 11 -10 10 -12 12 -14 14 -16
leaf_value=-4.4247550024233217e-07 2.577487367915211e-05 5.9941399844272656e-06 1.8170911444131155e-06 -3.0947415701167439e-05 3.8745908640584977e-05 -3.9808102102087653e-06 0.00010526518673100196 2.1938512441530044e-07 -4.8744134811752979e-07 -7.0654014242065297e-06 -3.5698516073171051e-05 -2.0435476530028405e-06 4.4444573916536647e-05 -4.6713658426525661e-05 -4.2832623356231957e-07
leaf_weight=240605 572 3133 726 567 516 596 521 233607 4297 1268 500 1064 532 559 2337
leaf_count=240605 572 3133 726 567 516 596 521 233607 4297 1268 500 1064 532 559 2337
internal_value=0 5.71444e-06 5.76517e-07 -1.25506e-05 1.92183e-05 1.05913e-05 -7.19471e-08 5.22741e-07 1.09482e-05 -6.5391e-07 -1.5163e-05 3.0918e-07 1.34525e-05 -5.48563e-07 -9.36255e-06
internal_weight=0 6110 4426 1293 1684 1168 485290 240021 4818 245269 1768 235203 1596 243501 2896
internal_count=491400 6110 4426 1293 1684 1168 485290 240021 4818 245269 1768 235203 1596 243501 2896
is_linear=0
shrinkage=0.1


Tree=6
num_leaves=16
num_cat=0
split_feature=15 55 41 35 44 49 66 67 25 63 37 44 25 34 5
split_gain=2.35555e-05 0.000515697 2.12312e-05 1.4804e-05 2.78359e-05 3.94314e-05 1.88072e-05 2.10014e-05 1.73045e-05 1.81217e-05 1.69973e-05 1.3508e-05 1.73044e-05 1.93355e-05 1.88011e-05
threshold=6850.0000000000009 0.0013862814375870116 1.0000000180025095e-35 59241.500000000007 -0.26764499999999997 -0.0018506463102184732 -0.0078533128313857375 -0.0083970055738369336 0.10500000000000002 -0.00371495625250795 22855.500000000004 1.5000250000000002 0.085000000000000006 865.50000000000011 70.500000000000014
decision_type=2 2 2 2 2 2 2 2 2 2 2 2 2 2 2
left_child=3 2 -2 -1 5 8 -6 -8 9 -5 -7 12 -9 -14 -15
right_child=1 -3 -4 4 6 10 7 11 -10 -11 -12 -13 13 14 -16
leaf_value=-2.4750244105617287e-07 -2.6763154484325679e-05 9.8286782408777239e-05 -4.6571208477567568e-06 2.5922806644540412e-05 -6.7188295622331384e-06 -1.3433556790816325e-05 2.0911142622169697e-05 1.1994428344733032e-06 3.4859401332038755e-05 3.2030833088193984e-06 4.7727149661218164e-06 1.5574531817375437e-05 5.0966191380298149e-06 -1.5709354052690406e-06 -2.3926079862274675e-05
leaf_weight=435896 540 535 2223 651 3259 573 532 38087 530 762 4880 619 781 664 868
leaf_count=435896 540 535 2223 651 3259 573 532 38087 530 762 4880 619 781 664 868
internal_value=0 8.42285e-06 -8.97752e-06 -5.69113e-08 1.53444e-06 7.21814e-06 5.96327e-07 1.17008e-06 1.94503e-05 1.36706e-05 2.8596e-06 9.14048e-07 6.89423e-07 -7.70881e-06 -1.42369e-05
internal_weight=0 3298 2763 488102 52206 7396 44810 41551 1943 1413 5453 41019 40400 2313 1532
internal_count=491400 3298 2763 488102 52206 7396 44810 41551 1943 1413 5453 41019 40400 2313 1532
is_linear=0
shrinkage=0.1


Tree=7
num_leaves=16
num_cat=0
split_feature=32 70 41 17 44 45 25 72 34 19 35 21 3 17 25
split_gain=1.5233e-05 3.5708e-05 2.52392e-05 2.25747e-05 1.6085e-05 2.65993e-05 3.19944e-05 1.7145e-05 1.64002e-05 1.3545e-05 4.32139e-05 0.000505936 3.3004e-05 2.67806e-05 2.23253e-05
threshold=36766.000000000007 -0.009788534040968409 27593.500000000004 90.500000000000014 -0.37425499999999995 0.038410000000000007 0.085000000000000006 0.0055735917913997133 2309.5000000000005 650.00000000000011 1.0000000180025095e-35 2050.0000000000005 7950.0000000000009 25.500000000000004 0.31500000000000006
decision_type=2 2 2 2 2 2 2 2 2 2 2 2 2 2 2
left_child=9 3 -3 -2 -4 6 -6 8 -7 12 11 -11 -1 -14 -12
right_child=1 2 4 -5 5 7 -8 -9 -10 10 14 -13 13 -15 -16
leaf_value=-4.8625606698828552e-07 6.7865745988551932e-06 -1.9486484829782288e-05 1.8906428527077258e-05 3.5705164132892991e-05 1.1006015606722293e-06 1.1805215802624666e-05 -2.9159729391678928e-05 1.8868083262188203e-05 -1.0400541984468656e-05 -1.2785342369592434e-06 1.9900917117917988e-07 0.00010423564574198029 -3.3770783203342624e-05 -6.4593903944480669e-06 1.2066561523602047e-05
leaf_weight=243501 532 518 611 548 1129 696 506 933 637 4310 233607 508 501 1267 1596
leaf_count=243501 532 518 611 548 1129 696 506 933 637 4310 233607 508 501 1267 1596
internal_value=0 4.96198e-06 1.41964e-06 2.14601e-05 3.81977e-06 1.4568e-06 -8.26437e-06 8.47096e-06 1.19376e-06 -6.24733e-08 4.71581e-07 9.84666e-06 -5.85101e-07 -1.41986e-05 2.79538e-07
internal_weight=0 6110 5030 1080 4512 3901 1635 2266 1333 485290 240021 4818 245269 1768 235203
internal_count=491400 6110 5030 1080 4512 3901 1635 2266 1333 485290 240021 4818 245269 1768 235203
is_linear=0
shrinkage=0.1


Tree=8
num_leaves=16
num_cat=0
split_feature=15 15 38 41 21 71 52 70 45 34 57 23 29 25 28
split_gain=2.43602e-05 0.000225323 0.000331568 2.12393e-05 1.31504e-05 1.94129e-05 6.72667e-05 3.19471e-05 6.77138e-05 2.3212e-05 4.3479e-05 2.1089e-05 1.84516e-05 3.19849e-05 1.52539e-05
threshold=8350.0000000000018 6850.0000000000009 109.89865000000002 1.0000000180025095e-35 450.00000000000006 -0.012193138136372848 0.00099977378261084681 -0.009788534040968409 0.014985000000000002 1420.5000000000002 -0.0015472052317812566 40.500000000000007 42447.000000000007 0.15500000000000003 7739.0000000000009
decision_type=2 2 2 2 2 2 2 2 2 2 2 2 2 2 2
left_child=1 4 -3 -2 12 6 9 8 -7 10 -6 -11 -1 14 -14
right_child=3 2 -4 -5 5 7 -8 -9 -10 11 -12 -13 13 -15 -16
leaf_value=3.3572653238750579e-07 -2.8042226126524362e-05 -7.203002159244996e-06 0.00010515716881735228 -5.0325513068039267e-06 3.2531354361428666e-05 1.1553340258684125e-06 3.5427363870612533e-05 -5.0950720712548459e-07 -4.4783463537295199e-05 -2.2440821300312111e-05 -7.1463190732248675e-06 8.7982440948904808e-07 4.5070316986788095e-06 2.3904641660901554e-05 -7.4447993507706812e-06
leaf_weight=193393 523 552 501 1722 520 871 669 279053 508 589 589 1135 8765 794 1216
leaf_count=193393 523 552 501 1722 520 871 669 279053 508 589 589 1135 8765 794 1216
internal_value=0 4.76989e-08 4.62561e-05 -1.03929e-05 -5.19882e-08 -4.92136e-07 6.90719e-06 -5.84538e-07 -1.57677e-05 1.72284e-07 1.14582e-05 -7.08761e-06 5.60121e-07 4.58761e-06 3.05092e-06
internal_weight=0 489155 1053 2245 488102 283934 3502 280432 1379 2833 1109 1724 204168 10775 9981
internal_count=491400 489155 1053 2245 488102 283934 3502 280432 1379 2833 1109 1724 204168 10775 9981
is_linear=0
shrinkage=0.1


Tree=9
num_leaves=16
num_cat=0
split_feature=15 15 58 62 11 23 63 12 33 56 42 44 73 68 59
split_gain=2.47993e-05 0.000348261 2.32733e-05 1.14545e-05 5.71007e-05 1.93046e-05 1.7899e-05 6.7415e-05 1.36273e-05 2.17474e-05 1.47884e-05 1.93177e-05 2.58679e-05 2.18671e-05 1.66783e-05
threshold=7250.0000000000009 6450.0000000000009 0.0014713744108726392 -0.0055802248340577889 1.5000000000000002 295.50000000000006 -0.0062310115449671346 152.12500000000003 4593.5000000000009 -0.0027689206929968897 21792.500000000004 -0.21543999999999999 3.5000000000000004 -0.0088279608287685756 -0.0043301575353988367
decision_type=2 2 2 2 2 2 2 2 2 2 2 2 2 2 2
left_child=1 3 -2 4 -1 8 7 -5 9 -6 14 12 -12 -13 -10
right_child=2 -3 -4 6 5 -7 -8 -9 10 -11 11 13 -14 -15 -16
leaf_value=3.2388360249767655e-05 -4.9793556202935017e-06 6.8420132306674797e-05 -2.812214527654474e-05 -4.0671770103791782e-05 -2.5891455425153254e-05 1.5129120029242978e-05 -6.7022014339104705e-08 -1.993473144145836e-07 2.4615777166266191e-05 2.5871609977912159e-06 2.0259725148536037e-05 -1.5925597747631162e-05 -9.0111321437039558e-06 2.1344273669677718e-06 1.6639949071506532e-06
leaf_weight=639 2392 744 531 518 512 875 477339 2003 513 563 753 1284 504 1403 827
leaf_count=639 2392 744 531 518 512 875 477339 2003 513 563 753 1284 504 1403 827
internal_value=0 5.49534e-08 -9.18354e-06 -4.93325e-08 3.73408e-06 1.20296e-06 -1.11406e-07 -8.51538e-06 -7.13279e-07 -1.09766e-05 1.37474e-06 -1.7089e-06 8.52344e-06 -6.49567e-06 1.04508e-05
internal_weight=0 488477 2923 487733 7873 7234 479860 2521 6359 1075 5284 3944 1257 2687 1340
internal_count=491400 488477 2923 487733 7873 7234 479860 2521 6359 1075 5284 3944 1257 2687 1340
is_linear=0
shrinkage=0.1


Tree=10
num_leaves=16
num_cat=0
split_feature=21 9 35 49 63 27 48 58 67 9 19 37 52 69 21
split_gain=1.40984e-05 0.000594039 2.00302e-05 1.17793e-05 2.32159e-05 4.51754e-05 2.03309e-05 1.52844e-05 5.87653e-05 2.03651e-05 5.18354e-05 1.73157e-05 1.35256e-05 1.26536e-05 1.24274e-05
threshold=6950.0000000000009 650.00000000000011 98.500000000000014 3.4713061938029817e-05 -0.0062310115449671346 151.98626500000003 0.0014169652334636853 0.0016215879094760857 -0.0061462830432474904 2750.0000000000005 250.00000000000003 62743.000000000007 -0.0028118357895767217 0.0031009916445776668 450.00000000000006
decision_type=2 2 2 2 2 2 2 2 2 2 2 2 2 2 2
left_child=3 -2 -3 6 5 -5 7 -1 -9 11 -11 -10 -6 -13 -14
right_child=1 2 -4 4 12 -7 -8 8 9 10 -12 13 14 -15 -16
leaf_value=-2.3249589297067702e-07 0.00010892931745693777 -2.09449506582909e-05 -1.1740274412049233e-06 3.4917434595063724e-05 -1.4288478461573884e-05 2.6942402553640264e-06 -1.9954209058702769e-05 -3.5000617226845105e-05 -1.7812284069346173e-06 -3.6766344337765969e-05 -3.2788127857621234e-06 2.2076715943582644e-05 1.2063877123414268e-06 2.2901883386991553e-06 -2.6949422683112582e-07
leaf_weight=219293 508 549 7692 565 631 1892 539 553 22771 579 2292 520 100938 854 131224
leaf_count=219293 508 549 7692 565 631 1892 539 553 22771 579 2292 520 100938 854 131224
internal_value=0 3.97836e-06 -2.49113e-06 -7.21157e-08 4.345e-07 1.01041e-05 -5.53849e-07 -5.1149e-07 -2.7307e-06 -2.07016e-06 -1.00323e-05 -1.12341e-06 3.32442e-07 9.77854e-06 3.72181e-07
internal_weight=0 8749 8241 482651 235250 2457 247401 246862 27569 27016 2871 24145 232793 1374 232162
internal_count=491400 8749 8241 482651 235250 2457 247401 246862 27569 27016 2871 24145 232793 1374 232162
is_linear=0
shrinkage=0.1


Tree=11
num_leaves=16
num_cat=0
split_feature=15 15 19 1 45 49 19 25 71 22 70 35 21 34 25
split_gain=2.13837e-05 0.000282224 2.1137e-05 2.03986e-05 1.1761e-05 1.43847e-05 1.2106e-05 4.21954e-05 1.61086e-05 4.53406e-05 2.58455e-05 1.52675e-05 1.49047e-05 1.75457e-05 1.16274e-05
threshold=7250.0000000000009 6450.0000000000009 650.00000000000011 350.00000000000006 0.15049500000000002 -0.001374704297588236 850.00000000000011 0.32500000000000007 -0.012193138136372848 152.19200000000004 -0.009788534040968409 154006.00000000003 3050.0000000000005 5484.5000000000009 0.75500000000000012
decision_type=2 2 2 2 2 2 2 2 2 2 2 2 2 2 2
left_child=1 4 3 -2 6 -6 14 8 9 -8 -10 -12 13 -13 -1
right_child=2 -3 -4 -5 5 -7 7 -9 10 -11 11 12 -14 -15 -16
leaf_value=-7.5423448088807259e-07 -6.6847052302397555e-06 6.1594106767687106e-05 -1.786618091718587e-06 -3.3641241232530586e-05 1.4490260470668168e-05 8.0587055071571731e-07 3.3432270572740131e-05 2.3128604869378989e-05 -1.9402190353031513e-05 -1.7221811088312833e-06 1.0084089900137957e-07 2.7740182792570467e-05 -5.7853657884098696e-06 5.3173555035206527e-06 -1.3310982352826662e-05
leaf_weight=213231 602 744 1795 526 774 101712 552 808 675 1094 166170 572 510 895 740
leaf_count=213231 602 744 1795 526 774 101712 552 808 675 1094 166170 572 510 895 740
internal_value=0 5.1029e-08 -8.5277e-06 -1.92549e-05 -4.28504e-08 9.09218e-07 -2.96126e-07 3.30429e-07 2.22368e-07 1.00672e-05 1.26382e-07 2.04777e-07 8.94076e-06 1.40603e-05 -7.97661e-07
internal_weight=0 488477 2923 1128 487733 102486 385247 171276 170468 1646 168822 168147 1977 1467 213971
internal_count=491400 488477 2923 1128 487733 102486 385247 171276 170468 1646 168822 168147 1977 1467 213971
is_linear=0
shrinkage=0.1


Tree=12
num_leaves=16
num_cat=0
split_feature=15 15 58 45 70 11 39 42 66 62 54 42 11 66 59
split_gain=1.73208e-05 0.000228601 1.86866e-05 1.05074e-05 1.25617e-05 1.95256e-05 8.97723e-06 1.98009e-05 4.33355e-05 1.74609e-05 1.20359e-05 1.12831e-05 2.98784e-05 0.000111675 2.11571e-05
threshold=7250.0000000000009 6450.0000000000009 0.0014713744108726392 0.5000150000000001 0.0021428388428370586 95.500000000000014 64.500000000000014 2472.5000000000005 0.0015825085091304427 -0.0024326886364113838 -0.00084700108685109566 50.500000000000007 1.5000000000000002 0.001124268031013065 0.0033920956114550376
decision_type=2 2 2 2 2 2 2 2 2 2 2 2 2 2 2
left_child=1 3 -2 6 -5 -6 7 9 -9 10 -1 12 13 -8 -13
right_child=2 -3 -4 4 5 -7 11 8 -10 -11 -12 14 -14 -15 -16
leaf_value=-1.832690060462467e-05 -3.907745075743041e-06 5.5434684405574001e-05 -2.4644998610352927e-05 8.4027174869563029e-07 2.7600351766140325e-05 3.6700394745453459e-06 -9.140542303252048e-07 -5.943622721407733e-07 -3.6391051823738962e-05 -5.6544632696815605e-07 -2.6891852281666218e-06 1.1584558073856802e-07 1.0847463261524717e-06 5.3555691035822888e-05 -3.5391055585143376e-06
leaf_weight=932 2392 744 531 2597 537 934 1384 1045 500 91883 1043 327336 42382 517 16643
leaf_count=932 2392 744 531 2597 537 934 1384 1045 500 91883 1043 327336 42382 517 16643
internal_value=0 4.59261e-08 -7.67493e-06 -3.85653e-08 5.02247e-06 1.2406e-05 -8.11326e-08 -9.50253e-07 -1.21791e-05 -7.65416e-07 -1.00686e-05 1.32426e-07 1.63487e-06 1.38997e-05 -6.09947e-08
internal_weight=0 488477 2923 487733 4068 1471 483665 95403 1545 93858 1975 388262 44283 1901 343979
internal_count=491400 488477 2923 487733 4068 1471 483665 95403 1545 93858 1975 388262 44283 1901 343979
is_linear=0
shrinkage=0.1


Tree=13
num_leaves=16
num_cat=0
split_feature=15 58 41 15 32 55 28 28 58 72 17 48 44 45 70
split_gain=1.55171e-05 0.0004894 1.50684e-05 1.22892e-05 1.06315e-05 2.81352e-05 9.5457e-05 2.71777e-05 8.62194e-05 1.64913e-05 2.64897e-05 1.61083e-05 1.52844e-05 2.24126e-05 2.21934e-05
threshold=6850.0000000000009 0.0018011344743437132 1.0000000180025095e-35 7750.0000000000009 17130.500000000004 0.0027965245200544113 2371.0000000000005 1947.0000000000002 -0.0010527854958557457 0.0050909957337733633 25.500000000000004 0.0014169652334636853 -0.26764499999999997 -0.16488499999999998 -0.0026406015571515114
decision_type=2 2 2 2 2 2 2 2 2 2 2 2 2 2 2
left_child=4 2 -2 -4 -1 7 -7 8 -6 11 -11 -8 13 -9 -15
right_child=1 -3 3 -5 5 6 9 12 -10 10 -12 -13 -14 14 -16
leaf_value=-1.667264719030948e-07 -2.4701296926950403e-05 9.7748695082398526e-05 -1.9508109052941824e-05 -1.9494448716701201e-06 5.0031451625394467e-05 -4.54445454638105e-05 -1.7493212280659668e-06 2.8829636947318521e-06 2.8819242638148024e-07 2.1564820511335849e-05 -9.2009627116467317e-07 -2.034929052885977e-05 1.2540100571159831e-06 3.3053886414744147e-05 5.1780691621704605e-06
leaf_weight=457580 528 502 516 1752 505 519 1879 2389 1124 706 2032 619 19603 605 541
leaf_count=457580 528 502 516 1752 505 519 1879 2389 1124 706 2032 619 19603 605 541
internal_value=0 6.83625e-06 -9.48637e-06 -5.94427e-06 -4.61911e-08 1.76085e-06 -4.53758e-06 3.22439e-06 1.57089e-05 -4.82822e-07 4.87769e-06 -6.35836e-06 2.34544e-06 8.39783e-06 1.98944e-05
internal_weight=0 3298 2796 2268 488102 30522 5755 24767 1629 5236 2738 2498 23138 3535 1146
internal_count=491400 3298 2796 2268 488102 30522 5755 24767 1629 5236 2738 2498 23138 3535 1146
is_linear=0
shrinkage=0.1


Tree=14
num_leaves=16
num_cat=0
split_feature=15 15 58 21 48 60 9 49 52 22 63 11 61 66 59
split_gain=1.76378e-05 0.000187064 3.35083e-05 9.6438e-06 1.35185e-05 3.71581e-05 3.76257e-05 2.67354e-05 0.000100584 1.22855e-05 1.34684e-05 1.71467e-05 4.0454e-05 1.84318e-05 2.36403e-05
threshold=7250.0000000000009 6450.0000000000009 0.0014713744108726392 450.00000000000006 -0.0013996245481258105 -0.0026964578202839924 650.00000000000011 -0.0018506463102184732 -0.0014459324560119333 152.19200000000004 0.0040340354211273475 1.5000000000000002 0.00489916273119373 -0.0013921529036855505 0.00099524424627639462
decision_type=2 2 2 2 2 2 2 2 2 2 2 2 2 2 2
left_child=1 3 -2 9 5 6 -5 8 -6 -1 -11 12 -12 14 -13
right_child=2 -3 -4 4 7 -7 -8 -9 -10 10 11 13 -14 -15 -16
leaf_value=1.9864267504675579e-06 -2.700220995947071e-06 5.0150947075747754e-05 -3.0469365475836114e-05 3.8423497419815076e-05 2.2647444480497534e-06 -3.314877712083134e-06 4.2455938821267857e-06 -3.9835068642447078e-07 -4.8188365145253579e-05 4.8062653212160185e-07 -1.7171797733858956e-07 -2.7202123823001377e-06 -3.2678548009897953e-05 -6.2320015965740044e-07 -2.9565245648655038e-05
leaf_weight=43425 2392 744 531 564 1378 1760 751 278580 554 136046 1064 913 598 21588 512
leaf_count=43425 2392 744 531 564 1378 1760 751 278580 554 136046 1064 913 598 21588 512
internal_value=0 4.63444e-08 -7.74484e-06 -3.00864e-08 -4.07363e-07 6.18703e-06 1.89044e-05 -4.79652e-07 -1.22027e-05 4.94003e-07 9.07674e-08 -2.05873e-06 -1.18679e-05 -1.35031e-06 -1.23656e-05
internal_weight=0 488477 2923 487733 283587 3075 1315 280512 1932 204146 160721 24675 1662 23013 1425
internal_count=491400 488477 2923 487733 283587 3075 1315 280512 1932 204146 160721 24675 1662 23013 1425
is_linear=0
shrinkage=0.1


Tree=15
num_leaves=16
num_cat=0
split_feature=15 15 58 45 32 58 29 49 31 25 25 40 54 54 11
split_gain=1.42866e-05 0.000151522 2.71417e-05 9.03815e-06 1.43219e-05 1.5386e-05 1.17072e-05 3.9651e-05 5.12238e-05 1.6131e-05 1.47302e-05 2.98028e-05 1.28126e-05 1.04788e-05 7.8545e-05
threshold=7250.0000000000009 6450.0000000000009 0.0014713744108726392 0.15049500000000002 36766.000000000007 0.0023087237392062092 16554.500000000004 -0.0018506463102184732 40.500000000000007 0.24500000000000002 0.15500000000000003 47527.000000000007 -0.0033368652985540366 0.0026201264850264088 2.5000000000000004
decision_type=2 2 2 2 2 2 2 2 2 2 2 2 2 2 2
left_child=1 3 -2 6 -5 -6 7 8 -1 10 13 -12 -9 -8 -15
right_child=2 -3 -4 4 5 -7 9 12 -10 -11 11 -13 -14 14 -16
leaf_value=-3.0377081538278942e-06 -2.4301982339725436e-06 4.5135853623080079e-05 -2.7422429811781214e-05 6.7375353115049997e-07 2.1044481311881895e-05 -8.7181508335218956e-07 7.5583164935711868e-07 -1.1808082567926367e-05 -4.1824729697678107e-05 -1.5169157704804094e-05 -5.6130780896637589e-06 2.7728746210105696e-05 -4.9493893656748668e-07 -3.9662754049934791e-05 -2.2157094100841577e-07
leaf_weight=949 2392 744 531 101190 717 579 116479 1005 531 650 500 578 257145 545 6865
leaf_count=949 2392 744 531 101190 717 579 116479 1005 531 650 500 578 257145 545 6865
internal_value=0 4.17099e-08 -6.97035e-06 -2.70778e-08 8.07537e-07 1.12532e-05 -2.49108e-07 -6.32554e-07 -1.69539e-05 5.43413e-07 6.2514e-07 1.22641e-05 -5.38982e-07 5.23866e-07 -3.12244e-06
internal_weight=0 488477 2923 487733 102486 1296 385247 259630 1480 125617 124967 1078 258150 123889 7410
internal_count=491400 488477 2923 487733 102486 1296 385247 259630 1480 125617 124967 1078 258150 123889 7410
is_linear=0
shrinkage=0.1


Tree=16
num_leaves=16
num_cat=0
split_feature=15 54 58 15 15 49 62 20 48 56 32 51 28 49 48
split_gain=1.34869e-05 0.000439739 2.35237e-05 1.87122e-05 1.246e-05 8.58567e-06 1.98576e-05 3.99824e-05 1.44347e-05 1.11805e-05 2.54621e-05 2.28735e-05 8.24154e-05 2.03286e-05 1.7902e-05
threshold=6850.0000000000009 -0.00042069255658039312 0.0014713744108726392 7750.0000000000009 6150.0000000000009 5.3079965004587677e-05 -0.0055802248340577889 152.27500000000003 0.0014169652334636853 -0.0022627834643135776 81.500000000000014 -0.0025576869692640054 1875.0000000000002 -0.0018506463102184732 -0.00085324232081912521
decision_type=2 2 2 2 2 2 2 2 2 2 2 2 2 2 2
left_child=4 -2 3 -3 5 8 7 -7 9 10 -1 12 -11 14 -12
right_child=1 2 -4 -5 -6 6 -8 -9 -10 11 13 -13 -14 -15 -16
leaf_value=-1.109539548833165e-05 9.1453105393710029e-05 -2.1881092606510174e-05 -2.8233636624886606e-05 3.3311158550411244e-08 -1.3062260678286694e-05 3.3007321687475544e-05 3.2499836330804296e-07 2.2498340857036573e-06 -1.6634761403403143e-05 -4.598627767092952e-05 1.3499944559177379e-05 -4.8137234292634382e-07 9.3405567586044997e-07 1.1807777129551572e-06 -2.1177676437597787e-06
leaf_weight=1371 513 501 531 1753 734 556 228940 1762 548 508 2846 235511 1423 12914 989
leaf_count=1371 513 501 531 1753 734 556 228940 1762 548 508 2846 235511 1423 12914 989
internal_value=0 6.37336e-06 -9.29842e-06 -4.83764e-06 -4.30634e-08 -2.34559e-08 4.1824e-07 9.62739e-06 -4.22291e-07 -3.87527e-07 2.0068e-06 -5.70246e-07 -1.14096e-05 3.07928e-06 9.47233e-06
internal_weight=0 3298 2785 2254 488102 487368 231258 2318 256110 255562 18120 237442 1931 16749 3835
internal_count=491400 3298 2785 2254 488102 487368 231258 2318 256110 255562 18120 237442 1931 16749 3835
is_linear=0
shrinkage=0.1


Tree=17
num_leaves=16
num_cat=0
split_feature=15 15 58 52 21 71 9 69 34 22 0 31 36 62 62
split_gain=1.4816e-05 0.000129221 1.64674e-05 1.45968e-05 8.16646e-06 3.57866e-05 0.000101697 1.44984e-05 1.27003e-05 1.16549e-05 9.80816e-05 1.77519e-05 1.36062e-05 3.14758e-05 1.52994e-05
threshold=7250.0000000000009 6450.0000000000009 0.0014713744108726392 -0.00019035926368571318 750.00000000000011 -0.012193138136372848 850.00000000000011 -0.0093712517073232787 2135.5000000000005 156.02005000000005 156.03500000000003 21345.500000000004 1004.5000000000001 -0.0024326886364113838 -0.0055802248340577889
decision_type=2 2 2 2 2 2 2 2 2 2 2 2 2 2 2
left_child=1 4 3 -2 9 6 -6 -7 -8 11 -11 12 14 -14 -1
right_child=2 -3 -4 -5 5 7 8 -9 -10 10 -12 -13 13 -15 -16
leaf_value=1.6049007873166784e-05 -1.7560565078716713e-05 4.1686206688648795e-05 -2.3028896919849789e-05 7.9732969959622377e-07 4.1359000093859418e-05 -1.3065613134736157e-05 7.9353508869002065e-06 -5.6536614214539619e-07 -1.1292513122181084e-05 -4.2705806906191812e-05 4.9569914000870001e-08 1.0180221519414569e-05 -2.8049043324836193e-05 1.5394024929674473e-06 1.1830750955506721e-06
leaf_weight=699 568 744 531 1824 775 932 572 208892 860 538 198410 2228 526 1136 72165
leaf_count=699 568 744 531 1824 775 932 572 208892 860 538 198410 2228 526 1136 72165
internal_value=0 4.24757e-08 -7.09833e-06 -3.5619e-06 -2.10486e-08 -4.8765e-07 1.21797e-05 -6.2089e-07 -3.61211e-06 3.37795e-07 -6.60502e-08 1.38457e-06 1.12162e-06 -7.82493e-06 1.32569e-06
internal_weight=0 488477 2923 2392 487733 212031 2207 209824 1432 275702 198948 76754 74526 1662 72864
internal_count=491400 488477 2923 2392 487733 212031 2207 209824 1432 275702 198948 76754 74526 1662 72864
is_linear=0
shrinkage=0.1


Tree=18
num_leaves=16
num_cat=0
split_feature=3 58 15 49 39 35 11 45 63 23 30 38 10 49 11
split_gain=1.24023e-05 0.000467424 4.82432e-05 2.69832e-05 7.51188e-06 1.36195e-05 5.18474e-05 1.01905e-05 1.43096e-05 7.08953e-05 0.000120791 2.08601e-05 2.43787e-05 1.24006e-05 7.22578e-05
threshold=6950.0000000000009 0.0032564968951055433 6450.0000000000009 0.00090602197146139052 64.500000000000014 2045.5000000000002 4.5000000000000009 0.31824500000000006 0.0048742036763017591 2.5000000000000004 10714.500000000002 172.17786000000004 174.71005000000005 0.00073026389366714916 1.5000000000000002
decision_type=2 2 2 2 2 2 2 2 2 2 2 2 2 2 2
left_child=2 3 4 -2 5 -1 -7 8 13 10 -10 -11 -13 -6 -15
right_child=1 -3 -4 -5 7 6 -8 -9 9 11 -12 12 -14 14 -16
leaf_value=-5.8827335667058207e-07 -7.9114935843307359e-07 9.2030659404296084e-05 -2.356742961888112e-05 -2.3728614725934514e-05 -2.3763873169253418e-08 -3.5989400921877285e-05 -1.8054592841675173e-06 1.9609204011564202e-06 1.913329215947901e-07 9.1979486218860455e-07 -6.0590008692141036e-05 -2.4356707037027807e-05 -3.8004137153585321e-06 2.1146007166677906e-05 8.9952196644842971e-07
leaf_weight=91927 7596 561 872 550 297500 523 2926 29395 802 15642 552 647 5327 1857 34723
leaf_count=91927 7596 561 872 550 297500 523 2926 29395 802 15642 552 647 5327 1857 34723
internal_value=0 3.74054e-06 -6.74733e-08 -2.33984e-06 -2.49431e-08 -8.19739e-07 -6.98905e-06 1.71215e-07 2.38736e-08 -2.39044e-06 -2.45881e-05 -1.00001e-06 -6.02671e-06 1.89872e-07 1.92734e-06
internal_weight=0 8707 482693 8146 481821 95376 3449 386445 357050 22970 1354 21616 5974 334080 36580
internal_count=491400 8707 482693 8146 481821 95376 3449 386445 357050 22970 1354 21616 5974 334080 36580
is_linear=0
shrinkage=0.1


Tree=19
num_leaves=16
num_cat=0
split_feature=11 21 59 9 23 27 68 38 32 51 71 50 60 25 30
split_gain=1.15324e-05 0.000260121 1.08615e-05 2.5748e-05 4.4734e-05 4.44384e-05 2.03843e-05 3.35629e-05 1.39008e-05 2.37639e-05 0.000111325 3.26354e-05 1.56545e-05 1.40296e-05 1.9755e-05
threshold=300.50000000000006 6950.0000000000009 0.0033920956114550376 2050.0000000000005 3.5000000000000004 95.26906000000001 -0.0011299798408849757 169.65630500000003 17130.500000000004 0.00099758328643784222 -0.012193138136372848 0.0014585907905292352 -0.00061974629752281618 0.13500000000000004 34970.500000000007
decision_type=2 2 2 2 2 2 2 2 2 2 2 2 2 2 2
left_child=2 -2 8 6 -5 -6 7 -4 -1 11 -11 13 -12 14 -10
right_child=1 -3 3 4 5 -7 -8 -9 9 10 12 -13 -14 -15 -16
leaf_value=-1.2596509125064215e-07 4.0657141086752241e-07 5.4083581883177761e-05 -2.7270397516880383e-06 -3.5431580936415401e-05 -3.3059968162785229e-05 -2.08984898995144e-06 8.2272211210632882e-08 -2.5036512666924076e-05 2.0501773259271128e-06 5.1754361776344687e-05 -6.9075378695934249e-06 -2.3376562104031846e-05 6.3059390696658291e-06 1.3327626416460701e-05 -8.338071114903751e-06
leaf_weight=381556 41285 923 3234 532 512 4872 35257 852 12732 526 1127 555 4386 913 2138
leaf_count=381556 41285 923 3234 532 512 4872 35257 852 12732 526 1127 555 4386 913 2138
internal_value=0 1.58037e-06 -1.48499e-07 -1.61753e-06 -7.76843e-06 -5.035e-06 -6.92618e-07 -7.37894e-06 1.61e-08 2.43849e-06 7.79862e-06 4.57228e-07 3.60476e-06 1.29533e-06 5.56561e-07
internal_weight=0 42208 449192 45259 5916 5384 39343 4086 403933 22377 6039 16338 5513 15783 14870
internal_count=491400 42208 449192 45259 5916 5384 39343 4086 403933 22377 6039 16338 5513 15783 14870
is_linear=0
shrinkage=0.1


Tree=20
num_leaves=16
num_cat=0
split_feature=15 15 58 52 45 66 55 21 64 63 17 31 25 32 28
split_gain=1.46465e-05 0.000112024 2.16391e-05 1.14602e-05 7.2404e-06 1.09953e-05 1.3348e-05 6.49112e-06 1.09424e-05 8.22443e-05 5.21009e-05 9.29507e-06 2.1227e-05 1.59517e-05 0.000103113
threshold=7250.0000000000009 6450.0000000000009 0.0014713744108726392 -0.00025694464291353686 0.5000150000000001 0.0051623307261576832 -0.00035000109375676875 750.00000000000011 -0.0067488604343460814 -0.0062310115449671346 25.500000000000004 26148.000000000004 0.115 27032.500000000004 2161.0000000000005
decision_type=2 2 2 2 2 2 2 2 2 2 2 2 2 2 2
left_child=1 4 3 -2 7 6 -6 11 10 -10 -9 13 -13 -1 -15
right_child=2 -3 -4 -5 5 -7 -8 8 9 -11 -12 12 -14 14 -16
leaf_value=2.9872008277021907e-07 -1.6383736084289111e-05 3.8816012324444873e-05 -2.5319184786982119e-05 5.7705011850279214e-07 1.3827366150920776e-05 1.5481049129438131e-05 -1.5119919682454786e-06 -3.339477892006173e-05 3.5093451196330668e-05 -5.058295722870761e-07 1.5939587314430974e-06 2.2506532200933117e-06 2.2867675624032048e-05 -4.7652310966149271e-05 -7.2899343351884657e-07
leaf_weight=261991 505 744 531 1887 723 711 2634 574 651 207928 1646 4828 557 517 4973
leaf_count=261991 505 744 531 1887 723 711 2634 574 651 207928 1646 4828 557 517 4973
internal_value=0 4.22321e-08 -7.05761e-06 -3.00372e-06 -1.69144e-08 4.18427e-06 1.79166e-06 -5.22497e-08 -4.6905e-07 -3.9472e-07 -7.45268e-06 2.69744e-07 4.38318e-06 1.86931e-07 -5.14782e-06
internal_weight=0 488477 2923 2392 487733 4068 3357 483665 210799 208579 2220 272866 5385 267481 5490
internal_count=491400 488477 2923 2392 487733 4068 3357 483665 210799 208579 2220 272866 5385 267481 5490
is_linear=0
shrinkage=0.1


Tree=21
num_leaves=16
num_cat=0
split_feature=15 15 19 19 40 19 48 45 69 29 23 12 70 23 48
split_gain=1.18637e-05 9.07394e-05 1.86238e-05 1.85855e-05 6.59573e-06 6.58417e-06 9.04879e-06 5.53639e-05 1.6752e-05 3.93099e-05 2.49066e-05 6.26191e-05 1.23232e-05 1.49229e-05 2.80218e-05
threshold=7250.0000000000009 6450.0000000000009 650.00000000000011 250.00000000000003 13521.500000000002 2450.0000000000005 0.00058668057368416193 -0.46183499999999994 -0.0093712517073232787 28849.500000000004 1.5000000000000002 157.00500000000002 0.0043631633395477829 49.500000000000007 0.0014169652334636853
decision_type=2 2 2 2 2 2 2 2 2 2 2 2 2 2 2
left_child=1 5 3 -2 -4 6 -1 -8 9 -9 11 -10 -12 14 -14
right_child=2 -3 4 -5 -6 -7 7 8 10 -11 12 -13 13 -15 -16
leaf_value=-3.0948133093302839e-07 -4.8020930027574185e-06 3.4934404413766602e-05 -3.8954008521293023e-06 -3.0601786552217069e-05 9.4676887518009903e-06 8.613573317973148e-07 3.0157981772634499e-05 2.8805025699132536e-05 -4.1052433639751487e-05 -4.0707323259666832e-06 -1.7848730620421051e-07 -6.3575212520615807e-07 5.2008228197001144e-06 1.3959059065345308e-06 2.9988273330356763e-05
leaf_weight=380531 620 744 1275 508 520 72883 656 683 500 778 21561 1643 2205 5718 575
leaf_count=380531 620 744 1275 508 520 72883 656 683 500 778 21561 1643 2205 5718 575
internal_value=0 3.80088e-08 -6.35185e-06 -1.64211e-05 -2.41994e-08 -1.5223e-08 -1.69225e-07 1.38594e-06 8.25254e-07 1.12983e-05 3.50094e-07 -1.00657e-05 1.09267e-06 4.31782e-06 1.03277e-05
internal_weight=0 488477 2923 1128 1795 487733 414850 34319 33663 1461 32202 2143 30059 8498 2780
internal_count=491400 488477 2923 1128 1795 487733 414850 34319 33663 1461 32202 2143 30059 8498 2780
is_linear=0
shrinkage=0.1


Tree=22
num_leaves=16
num_cat=0
split_feature=21 58 33 34 21 25 25 29 34 25 70 21 30 30 61
split_gain=8.37947e-06 0.000475556 1.99352e-05 7.87075e-06 7.30745e-06 1.29768e-05 9.51271e-06 9.39438e-06 1.88339e-05 1.45854e-05 1.15163e-05 1.0954e-05 1.76138e-05 1.06194e-05 4.5776e-05
threshold=6950.0000000000009 0.0043745762506817174 25.500000000000004 7863.5000000000009 450.00000000000006 0.95500000000000007 0.27500000000000008 42447.000000000007 5902.5000000000009 0.15500000000000003 0.0015241836129313848 150.00000000000003 21327.500000000004 13482.500000000002 0.00489916273119373
decision_type=2 2 2 2 2 2 2 2 2 2 2 2 2 2 2
left_child=4 2 -2 -4 5 7 -6 13 9 -9 11 -10 -13 -1 -15
right_child=1 -3 3 -5 6 -7 -8 8 10 -11 -12 12 -14 14 -16
leaf_value=3.809693122728382e-07 -2.0505059816109579e-05 9.7664060468921176e-05 -2.23989499809134e-06 9.8766874763331835e-06 -3.1287501835890095e-07 1.6314077232973452e-05 -4.8698151307372431e-06 4.6594907411480938e-06 4.0290490647177562e-06 2.0391273875395919e-05 4.8697854381301333e-06 -3.7474930950283038e-06 -2.5908595148836619e-05 -8.0513482959460755e-07 -2.3417739300038326e-05
leaf_weight=182030 583 501 7085 580 273518 511 4659 6829 605 645 1193 982 565 10132 982
leaf_count=182030 583 501 7085 580 273518 511 4659 6829 605 645 1193 982 565 10132 982
internal_value=0 3.0671e-06 -2.67891e-06 -1.32305e-06 -5.55972e-08 3.98248e-07 -3.89196e-07 3.58373e-07 3.22589e-06 6.01713e-06 -3.01081e-06 -7.37956e-06 -1.18412e-05 1.97749e-07 -2.80312e-06
internal_weight=0 8749 8248 7665 482651 204474 278177 203963 10819 7474 3345 2152 1547 193144 11114
internal_count=491400 8749 8248 7665 482651 204474 278177 203963 10819 7474 3345 2152 1547 193144 11114
is_linear=0
shrinkage=0.1


Tree=23
num_leaves=16
num_cat=0
split_feature=15 15 58 52 33 42 64 68 25 25 31 25 29 23 52
split_gain=1.16102e-05 7.25217e-05 2.75066e-05 9.02179e-06 6.4123e-06 2.3213e-05 5.94235e-05 0.000122002 1.8931e-05 1.825e-05 4.06049e-05 1.27353e-05 2.76387e-05 1.35012e-05 2.0513e-05
threshold=7250.0000000000009 6450.0000000000009 0.0014713744108726392 -0.00025694464291353686 490.50000000000006 1000.5000000000001 0.0071331483346099853 0.00015882166318370586 0.60500000000000009 0.36500000000000005 81.500000000000014 0.15500000000000003 89737.000000000015 86.500000000000014 -0.001705794942440275
decision_type=2 2 2 2 2 2 2 2 2 2 2 2 2 2 2
left_child=1 4 3 -2 5 -1 -7 -8 9 11 -11 -6 13 14 -13
right_child=2 -3 -4 -5 8 6 7 -9 -10 10 -12 12 -14 -15 -16
leaf_value=-2.4367550161503937e-07 -1.3584546300485769e-05 3.1234856140399256e-05 -2.6872708583198027e-05 1.4640286557238686e-06 1.1982346268546404e-07 -1.8925835039968219e-06 -6.3766458114269121e-05 -3.1058131827673921e-06 1.945572138718173e-05 -4.93737397230969e-07 -3.3565530180055153e-05 2.2006824897912187e-05 2.5269446675391758e-05 -7.1445293964234549e-07 3.6647433642129441e-06
leaf_weight=132983 505 744 531 1887 329032 7502 504 969 511 1330 515 679 544 7188 5976
leaf_count=132983 505 744 531 1887 329032 7502 504 969 511 1330 515 679 544 7188 5976
internal_value=0 3.76005e-08 -6.28361e-06 -1.71303e-06 -9.98856e-09 -5.75879e-07 -5.49816e-06 -2.38614e-05 2.22338e-07 1.93872e-07 -9.72516e-06 2.47162e-07 3.1594e-06 2.29052e-06 5.53616e-06
internal_weight=0 488477 2923 2392 487733 141958 8975 1473 345775 345264 1845 343419 14387 13843 6655
internal_count=491400 488477 2923 2392 487733 141958 8975 1473 345775 345264 1845 343419 14387 13843 6655
is_linear=0
shrinkage=0.1


Tree=24
num_leaves=16
num_cat=0
split_feature=15 39 15 31 15 22 0 71 53 69 13 34 49 45 45
split_gain=9.41307e-06 0.000461562 2.92997e-05 2.62631e-05 2.337e-05 6.1328e-06 6.79076e-05 2.79198e-05 9.22094e-05 4.43961e-05 2.02212e-05 1.73001e-05 1.04124e-05 1.63652e-05 9.63595e-06
threshold=6850.0000000000009 1.0000000180025095e-35 7750.0000000000009 1.0000000180025095e-35 6150.0000000000009 156.02005000000005 156.03500000000003 -0.012193138136372848 0.00083695191878507835 -0.0093712517073232787 850.00000000000011 3084.5000000000005 -0.001374704297588236 0.014985000000000002 -0.37496999999999997
decision_type=2 2 2 2 2 2 2 2 2 2 2 2 2 2 2
left_child=4 -2 -3 -4 5 7 -7 8 10 -9 -1 -12 13 -11 -14
right_child=1 2 3 -5 -6 6 -8 9 -10 12 11 -13 14 -15 -16
leaf_value=1.4546279790983301e-05 8.8492439816462566e-05 -3.0870296905050053e-05 -2.2124445887348772e-05 1.6353427636204288e-06 -1.7866109813784305e-05 -3.0803335297665341e-05 -2.2341394468186229e-07 -2.2154855738344055e-05 4.7524564412284502e-05 2.8712081471062901e-06 6.1103143525542689e-06 -1.883683627629028e-05 -2.1061946269153813e-06 2.1562650037760084e-05 5.0545057569052279e-07
leaf_weight=636 555 608 685 1450 734 728 290892 877 540 3158 500 626 15380 550 173481
leaf_count=636 555 608 685 1450 734 728 290892 877 540 3158 500 626 15380 550 173481
internal_value=0 5.32449e-06 -1.15031e-05 -5.98782e-06 -3.59764e-08 -9.12337e-09 -2.99754e-07 4.2385e-07 1.13718e-05 2.93569e-07 2.92129e-07 -7.75906e-06 3.95804e-07 5.64367e-06 2.9277e-07
internal_weight=0 3298 2743 2135 488102 487368 291620 195748 2302 193446 1762 1126 192569 3708 188861
internal_count=491400 3298 2743 2135 488102 487368 291620 195748 2302 193446 1762 1126 192569 3708 188861
is_linear=0
shrinkage=0.1


Tree=25
num_leaves=16
num_cat=0
split_feature=15 15 39 49 63 11 55 50 11 57 57 52 64 7 9
split_gain=1.23182e-05 6.621e-05 2.6212e-05 5.73885e-06 1.44183e-05 3.72767e-05 1.30996e-05 1.20827e-05 5.89075e-05 0.00010794 1.27953e-05 1.15404e-05 1.08059e-05 9.63562e-05 1.51409e-05
threshold=7250.0000000000009 6450.0000000000009 25.500000000000004 3.4713061938029817e-05 -0.0062310115449671346 12.500000000000002 -0.0015754215456179608 0.00072282776637844226 1.5000000000000002 0.00036459819663448029 -0.0020300321309366094 -0.0028118357895767217 0.0038329070124394353 2250.0000000000005 2850.0000000000005
decision_type=2 2 2 2 2 2 2 2 2 2 2 2 2 2 2
left_child=1 3 -2 7 5 -5 -7 12 9 -9 -10 -6 -1 14 -14
right_child=2 -3 -4 4 11 6 -8 8 10 -11 -12 -13 13 -15 -16
leaf_value=5.8108914093865611e-08 -2.2975995827778836e-05 2.9847511138531671e-05 -1.0387078328346118e-06 3.173536437456138e-05 -1.3229757240867314e-05 9.5748270700846638e-06 -6.832244315252511e-06 2.16199854101438e-06 -1.665875500417092e-05 -5.7744263697450406e-05 -7.524346122211554e-07 3.0140781437746574e-07 -1.7325527156361366e-07 -3.8756200125171649e-05 -9.762952905208305e-06
leaf_weight=212357 724 744 2199 520 632 1001 947 687 523 535 15308 234789 17919 702 1813
leaf_count=212357 724 744 2199 520 632 1001 947 687 523 535 15308 234789 17919 702 1813
internal_value=0 3.873e-08 -6.47237e-06 -6.741e-09 3.44794e-07 7.9484e-06 1.5987e-06 -3.41455e-07 -2.91085e-06 -2.40654e-05 -1.27792e-06 2.65083e-07 -1.53235e-07 -2.3496e-06 -1.05437e-06
internal_weight=0 488477 2923 487733 237889 2468 1948 249844 17053 1222 15831 235421 232791 20434 19732
internal_count=491400 488477 2923 487733 237889 2468 1948 249844 17053 1222 15831 235421 232791 20434 19732
is_linear=0
shrinkage=0.1


Tree=26
num_leaves=16
num_cat=0
split_feature=11 21 67 21 39 67 64 11 62 11 44 33 17 64 32
split_gain=9.16151e-06 0.000167714 0.000347339 1.04747e-05 2.9876e-05 1.51077e-05 1.21906e-05 5.20693e-05 2.30001e-05 0.000111209 1.70985e-05 1.5035e-05 1.10157e-05 1.03307e-05 4.10066e-05
threshold=299.50000000000006 6950.0000000000009 0.00034707459503346977 5750.0000000000009 25.500000000000004 0.00028064562038954138 -0.0067488604343460814 1.5000000000000002 -0.0055802248340577889 7.5000000000000009 -2.1553349999999996 51280.000000000007 18.500000000000004 -0.0049821745359657768 27032.500000000004
decision_type=2 2 2 2 2 2 2 2 2 2 2 2 2 2 2
left_child=3 -2 -3 6 5 -5 7 -1 9 -8 -9 12 -12 14 -10
right_child=1 2 -4 4 -6 -7 8 10 13 -11 11 -13 -14 -15 -16
leaf_value=-3.116178501738904e-05 4.1660189584926186e-07 0.00010057471801529594 -1.1965188082743549e-05 -8.0368049580124576e-06 -1.4710323714658069e-06 -3.1543538557388917e-05 5.1015635999823809e-05 -1.7883994380118314e-05 -1.6630135205377953e-06 -4.1201977221444023e-07 -6.2100564450912665e-06 -8.3641564058255145e-06 5.7358989411159799e-06 1.8008821126012359e-09 -3.1593558332044444e-05
leaf_weight=649 50154 508 596 599 10663 503 515 579 5302 2291 994 1552 3455 412539 501
leaf_count=649 50154 508 596 599 10663 503 515 579 5302 2291 994 1552 3455 412539 501
internal_value=0 1.26527e-06 3.98195e-05 -1.4735e-07 -3.09104e-06 -1.87663e-05 -6.65042e-08 -4.13823e-06 3.38688e-09 9.02677e-06 -1.47284e-06 1.10576e-07 3.06692e-06 -5.71368e-08 -4.24706e-06
internal_weight=0 51258 1104 440142 11765 1102 428377 7229 421148 2806 6580 6001 4449 418342 5803
internal_count=491400 51258 1104 440142 11765 1102 428377 7229 421148 2806 6580 6001 4449 418342 5803
is_linear=0
shrinkage=0.1


Tree=27
num_leaves=16
num_cat=0
split_feature=15 15 58 17 51 21 48 45 48 5 56 49 50 50 11
split_gain=9.88371e-06 5.44096e-05 2.36581e-05 7.19578e-06 5.7641e-06 5.76111e-06 1.20964e-05 3.86542e-05 1.01046e-05 3.31596e-05 2.76774e-05 2.30427e-05 9.74647e-05 1.81051e-05 1.08361e-05
threshold=7250.0000000000009 6450.0000000000009 0.0014713744108726392 75.500000000000014 -1.0000000180025095e-35 450.00000000000006 0.0014169652334636853 0.0071450000000000012 -0.0013996245481258105 6.5000000000000009 -0.0037741114985451736 -0.0018506463102184732 -0.0016637045626394784 -0.0022330923263996767 70.500000000000014
decision_type=2 2 2 2 2 2 2 2 2 2 2 2 2 2 2
left_child=1 5 3 -2 -5 -1 8 -8 9 -7 -11 12 -10 -12 -15
right_child=2 -3 -4 4 -6 6 7 -9 11 10 13 -13 -14 14 -16
leaf_value=3.9854644487493278e-07 5.2340909952995312e-06 2.7056878588477812e-05 -2.4892145170603936e-05 -1.4530965854077093e-05 -1.3280546985253028e-06 2.8592740154424465e-05 -3.1779135379771936e-05 -1.2227974523856524e-06 2.5567537132177268e-06 1.8301974245888031e-05 -1.9782762256898675e-05 -2.2103888186216071e-07 -4.8177813340981421e-05 -9.9493069458201531e-06 8.7337230438975353e-06
leaf_weight=204146 944 744 531 511 937 516 509 2218 1393 668 597 275872 520 517 777
leaf_count=204146 944 744 531 511 937 516 509 2218 1393 668 597 275872 520 517 777
internal_value=0 3.46925e-08 -5.79763e-06 -1.55883e-06 -5.98737e-06 -6.52786e-09 -2.98129e-07 -6.9262e-06 -2.33774e-07 5.46718e-06 8.04111e-07 -2.96882e-07 -1.12341e-05 -5.37705e-06 1.26917e-06
internal_weight=0 488477 2923 2392 1448 487733 283587 2727 280860 3075 2559 277785 1913 1891 1294
internal_count=491400 488477 2923 2392 1448 487733 283587 2727 280860 3075 2559 277785 1913 1891 1294
is_linear=0
shrinkage=0.1


Tree=28
num_leaves=16
num_cat=0
split_feature=15 55 15 15 37 32 37 66 45 13 70 5 50 70 58
split_gain=9.22926e-06 0.000453269 2.66191e-05 2.55452e-05 1.51769e-05 5.51624e-06 3.02636e-05 2.34626e-05 1.50239e-05 1.91611e-05 2.27964e-05 1.33271e-05 9.95074e-06 8.09381e-06 7.53902e-05
threshold=6850.0000000000009 0.0013862814375870116 7750.0000000000009 6150.0000000000009 25.500000000000004 36766.000000000007 71895.500000000015 0.0082269248592976591 -0.13099499999999997 950.00000000000011 0.0025239777889954911 99.500000000000014 0.00072282776637844226 -0.009788534040968409 0.0018011344743437132
decision_type=2 2 2 2 2 2 2 2 2 2 2 2 2 2 2
left_child=3 2 -2 5 -4 13 -7 8 -8 11 -11 -10 -13 14 -1
right_child=1 -3 4 -5 -6 6 7 -9 9 10 -12 12 -14 -15 -16
leaf_value=1.8937330890300874e-07 -2.9817180810920252e-05 8.9521527455719278e-05 -2.1193876628240107e-05 -1.867706305347383e-05 -1.3339022474403879e-06 2.5960446321156644e-05 1.4655541408340897e-05 -1.491998104730849e-05 1.680753110923615e-05 -1.3907301533800898e-05 1.0551388832514973e-05 1.0360834308102424e-05 -8.9870617246931114e-06 3.494527815262257e-09 -3.3972833501123589e-05
leaf_weight=5995 593 535 500 734 1670 524 963 809 867 1289 541 502 565 474589 724
leaf_count=5995 593 535 500 734 1670 524 963 809 867 1289 541 502 565 474589 724
internal_value=0 5.27225e-06 -1.10409e-05 -3.56234e-08 -5.90993e-06 -7.54853e-09 2.9907e-06 8.16544e-07 3.50976e-06 6.58174e-07 -6.67662e-06 7.59854e-06 1.15697e-07 -4.52986e-08 -3.49175e-06
internal_weight=0 3298 2763 488102 2170 487368 6060 5536 4727 3764 1830 1934 1067 481308 6719
internal_count=491400 3298 2763 488102 2170 487368 6060 5536 4727 3764 1830 1934 1067 481308 6719
is_linear=0
shrinkage=0.1


Tree=29
num_leaves=16
num_cat=0
split_feature=15 15 9 55 15 55 45 68 32 3 48 11 21 48 11
split_gain=1.11638e-05 9.38957e-05 0.00030906 2.27686e-05 2.06915e-05 8.05254e-06 5.38598e-06 8.81501e-06 1.30831e-05 1.02396e-05 5.83371e-06 0.000104989 1.73361e-05 1.05947e-05 5.87087e-05
threshold=8350.0000000000018 6850.0000000000009 5450.0000000000009 0.00096367252107276713 6150.0000000000009 -0.00019385950044098485 0.5000150000000001 0.0010462079671819116 81.500000000000014 350.00000000000006 0.0014169652334636853 2.5000000000000004 1850.0000000000002 0.00058668057368416193 1.5000000000000002
decision_type=2 2 2 2 2 2 2 2 2 2 2 2 2 2 2
left_child=1 4 -3 5 6 -2 10 -8 -9 -10 13 -12 -13 -1 -15
right_child=3 2 -4 -5 -6 -7 7 8 9 -11 11 12 -14 14 -16
leaf_value=-1.2189327187528229e-07 -1.1850084939645429e-05 8.4919244930611998e-05 -2.344689937961227e-05 -2.5776962038670219e-05 -1.6809339706128724e-05 2.8963332317518193e-06 -8.3141124204677709e-07 -2.1509912530042603e-06 2.4469296437541193e-05 6.0940106759175098e-06 -4.3384590008073197e-05 3.0060058105289511e-06 -1.6394227815736506e-05 1.9057059770274746e-05 6.910854377853097e-07
leaf_weight=446510 534 518 535 503 734 1208 2125 724 578 638 585 4938 508 1852 28910
leaf_count=446510 534 518 535 503 734 1208 2125 724 578 638 585 4938 508 1852 28910
internal_value=0 3.22903e-08 2.98614e-05 -7.03563e-06 -3.20611e-08 -1.6241e-06 -6.79372e-09 3.618e-06 8.49171e-06 1.48283e-05 -3.72814e-08 -3.12794e-06 1.19636e-06 1.77339e-09 1.79679e-06
internal_weight=0 489155 1053 2245 488102 1742 487368 4065 1940 1216 483303 6031 5446 477272 30762
internal_count=491400 489155 1053 2245 488102 1742 487368 4065 1940 1216 483303 6031 5446 477272 30762
is_linear=0
shrinkage=0.1


Tree=30
num_leaves=16
num_cat=0
split_feature=15 15 58 17 19 21 71 53 34 63 5 71 7 45 71
split_gain=1.11699e-05 4.78777e-05 2.49207e-05 6.5388e-06 5.41559e-06 6.99779e-06 2.69428e-05 9.13681e-05 2.06049e-05 1.48644e-05 3.88467e-05 1.10704e-05 2.43308e-05 6.94859e-05 1.42619e-05
threshold=7250.0000000000009 6450.0000000000009 0.0014713744108726392 70.500000000000014 2450.0000000000005 750.00000000000011 -0.012193138136372848 0.00046948356807507979 4526.5000000000009 -0.0045966926700844448 5.5000000000000009 -1.0000000180025095e-35 2250.0000000000005 -0.22221499999999997 0.0081003786435659437
decision_type=2 2 2 2 2 2 2 2 2 2 2 2 2 2 2
left_child=1 4 3 -2 5 11 7 8 -7 10 -8 12 -1 -14 -13
right_child=2 -3 -4 -5 -6 6 9 -9 -10 -11 -12 14 13 -15 -16
leaf_value=-4.3333190431177187e-07 4.7714647214003918e-06 2.5385194271865493e-05 -2.57607379190715e-05 -5.9645652588318469e-06 7.9320866982838666e-07 6.7293502824189859e-06 -3.2885214833822472e-05 4.6574143231158486e-05 -1.7791409230208734e-05 -6.6108738305319397e-07 -2.9099373239396702e-06 1.4697216240624883e-06 -4.2900074086170283e-05 4.8914657388776741e-06 -5.6776655810265024e-07
leaf_weight=103976 925 744 531 1467 72883 994 506 528 523 154801 2970 95691 510 754 53597
leaf_count=103976 925 744 531 1467 72883 994 506 528 523 154801 2970 95691 510 754 53597
internal_value=0 3.68807e-08 -6.16331e-06 -1.81288e-06 -1.78627e-09 -1.41455e-07 -6.5895e-07 1.07458e-05 -1.72441e-06 -8.06304e-07 -7.27343e-06 1.84504e-07 -6.00979e-07 -1.43915e-05 7.38228e-07
internal_weight=0 488477 2923 2392 487733 414850 160322 2045 1517 158277 3476 254528 105240 1264 149288
internal_count=491400 488477 2923 2392 487733 414850 160322 2045 1517 158277 3476 254528 105240 1264 149288
is_linear=0
shrinkage=0.1


Tree=31
num_leaves=16
num_cat=0
split_feature=15 15 55 55 22 0 32 57 51 70 68 10 19 64 19
split_gain=9.0476e-06 3.87809e-05 2.28435e-05 8.24313e-06 5.33756e-06 5.3988e-05 2.47106e-05 4.16257e-05 2.05901e-05 6.88966e-05 1.62278e-05 3.37268e-05 1.14643e-05 1.51567e-05 1.04338e-05
threshold=7250.0000000000009 6450.0000000000009 0.0011485065628112914 -0.00039645955392264559 156.02005000000005 156.03500000000003 36766.000000000007 -0.00082495286015488156 -0.0025576869692640054 -0.0071370913293837259 -0.0065070451364354623 153.38005000000001 250.00000000000003 -0.0025815808769859556 650.00000000000011
decision_type=2 2 2 2 2 2 2 2 2 2 2 2 2 2 2
left_child=1 4 3 -2 6 -6 8 -8 9 -1 11 12 -10 -14 -11
right_child=2 -3 -4 -5 5 -7 7 -9 10 14 -12 -13 13 -15 -16
leaf_value=-3.9851910750738289e-05 -1.2640756118806111e-05 2.2846674599799939e-05 -2.3909607648172164e-05 1.7696072386329572e-06 -2.7452286646081157e-05 -2.0468643623918387e-07 3.224183556029539e-05 6.8172110369448207e-07 -8.8115619453804999e-06 -6.3989960842545722e-06 2.6976614103630806e-07 2.8760013591815847e-05 1.3279069492574594e-06 2.0182595890919928e-05 1.1329668196390408e-05
leaf_weight=551 504 744 550 1869 729 290990 652 1164 668 684 188798 598 1683 571 645
leaf_count=551 504 744 550 1869 729 290990 652 1164 668 684 188798 598 1683 571 645
internal_value=0 3.31926e-08 -5.54698e-06 -1.291e-06 -1.60764e-09 -2.72778e-07 4.01963e-07 1.20128e-05 2.93387e-07 -1.01211e-05 3.95193e-07 7.12258e-06 2.69439e-06 6.10432e-06 2.20521e-06
internal_weight=0 488477 2923 2373 487733 291719 196014 1816 194198 1880 192318 3520 2922 2254 1329
internal_count=491400 488477 2923 2373 487733 291719 196014 1816 194198 1880 192318 3520 2922 2254 1329
is_linear=0
shrinkage=0.1


Tree=32
num_leaves=16
num_cat=0
split_feature=3 9 49 3 3 45 71 48 23 68 7 58 53 9 13
split_gain=8.55943e-06 0.00060893 3.14818e-05 2.56952e-05 8.82276e-06 8.67934e-06 8.65434e-06 5.82028e-06 3.95068e-05 1.39114e-05 1.08796e-05 1.40764e-05 2.28138e-05 1.15832e-05 1.00521e-05
threshold=6950.0000000000009 750.00000000000011 0.0010301700152315354 6550.0000000000009 7350.0000000000009 0.030395000000000002 0.0081003786435659437 0.0014169652334636853 2.5000000000000004 0.0091442873879583626 250.00000000000003 -0.0018295952550656522 0.0014987476806505031 1650.0000000000002 950.00000000000011
decision_type=2 2 2 2 2 2 2 2 2 2 2 2 2 2 2
left_child=3 -2 4 7 -3 -5 -6 -1 -9 10 11 -10 14 -14 -13
right_child=1 2 -4 5 6 -7 -8 8 9 -11 -12 12 13 -15 -16
leaf_value=1.9863410640864928e-08 0.00010890825977298846 -1.0812578888827413e-05 -2.6086898475361324e-05 -7.4050251019880518e-06 5.3269927689744127e-07 -2.4843574629630899e-05 -1.287881241296418e-05 -2.8220261036495582e-05 -1.3873453948084112e-05 1.0167405754327774e-05 -1.3623498783095514e-05 5.1191210247572795e-06 5.1984278429850898e-07 -1.5865306439479811e-05 2.2971084460944394e-05
leaf_weight=475228 512 951 574 665 6148 500 522 567 672 1000 778 797 1324 640 522
leaf_count=475228 512 951 574 665 6148 500 522 567 672 1000 778 797 1324 640 522
internal_value=0 3.10746e-06 -3.50267e-06 -5.60536e-08 -1.80166e-06 -1.48894e-05 -5.16897e-07 -2.01661e-08 -3.03971e-06 -5.49331e-07 -2.81359e-06 -6.8714e-07 2.01198e-06 -4.81951e-06 1.21841e-05
internal_weight=0 8707 8195 482693 7621 1165 6670 481528 6300 5733 4733 3955 3283 1964 1319
internal_count=491400 8707 8195 482693 7621 1165 6670 481528 6300 5733 4733 3955 3283 1964 1319
is_linear=0
shrinkage=0.1


Tree=33
num_leaves=16
num_cat=0
split_feature=15 15 58 9 25 9 60 53 44 23 62 11 23 63 52
split_gain=8.5828e-06 3.43602e-05 1.8059e-05 5.9062e-06 4.92326e-06 4.90468e-06 1.27135e-05 9.47798e-06 9.476e-06 8.7485e-05 1.18497e-05 6.25908e-05 1.80463e-05 1.67388e-05 6.0195e-05
threshold=7250.0000000000009 6450.0000000000009 0.0014713744108726392 3250.0000000000005 1.1150000000000002 250.00000000000003 -0.0045404869617176038 0.0006500130866433641 -4.499344999999999 2.5000000000000004 -0.0055802248340577889 2.5000000000000004 295.50000000000006 -0.0062310115449671346 0.00013697222904118791
decision_type=2 2 2 2 2 2 2 2 2 2 2 2 2 2 2
left_child=1 4 3 -2 5 6 -1 -8 9 -7 11 -10 -13 14 -12
right_child=2 -3 -4 -5 -6 8 7 -9 10 -11 13 12 -14 -15 -16
leaf_value=-9.8172988051247703e-06 -9.4560197143876191e-06 2.1506212207348516e-05 -2.2085308566033533e-05 1.4839775641541806e-06 9.8292821942104043e-06 3.3130665320919718e-05 -1.2308874305645062e-06 1.0146458519272184e-06 3.4135746055373442e-05 -3.0321833278881539e-07 1.2320691715063426e-06 -1.191301237158532e-06 1.6177041353644224e-05 4.9094496448486517e-08 -3.899175873292344e-05
leaf_weight=1498 696 744 531 1696 509 888 59886 27395 636 6596 1421 4771 684 382945 504
leaf_count=1498 696 744 531 1696 509 888 59886 27395 636 6596 1421 4771 684 382945 504
internal_value=0 3.23288e-08 -5.40262e-06 -1.69923e-06 -4.2802e-10 -1.06971e-08 -6.82853e-07 -5.26079e-07 1.39069e-07 3.66382e-06 7.15958e-08 4.44783e-06 9.86507e-07 2.33693e-09 -9.29926e-06
internal_weight=0 488477 2923 2392 487733 487224 88779 87281 398445 7484 390961 6091 5455 384870 1925
internal_count=491400 488477 2923 2392 487733 487224 88779 87281 398445 7484 390961 6091 5455 384870 1925
is_linear=0
shrinkage=0.1


Tree=34
num_leaves=16
num_cat=0
split_feature=17 15 15 15 55 25 36 28 25 23 5 53 73 3 40
split_gain=7.80379e-06 0.000336621 5.44803e-05 0.000124532 1.99694e-05 1.60722e-05 8.48199e-06 1.03137e-05 7.26775e-06 5.55851e-05 9.09044e-05 1.73796e-05 1.51882e-05 9.23224e-06 2.0581e-05
threshold=363.50000000000006 6150.0000000000009 6450.0000000000009 7250.0000000000009 0.0010515893124463107 0.36500000000000005 1331.5000000000002 5947.0000000000009 0.31500000000000006 2.5000000000000004 4.5000000000000009 -0.0013764598140284521 3.5000000000000004 250.00000000000003 775.50000000000011
decision_type=2 2 2 2 2 2 2 2 2 2 2 2 2 2 2
left_child=2 5 8 -4 -5 6 -2 -8 -1 10 -10 12 -11 14 -13
right_child=1 -3 3 4 -6 -7 7 -9 9 11 -12 13 -14 -15 -16
leaf_value=-9.930318234008182e-08 3.0867445525873695e-07 8.1250836150362527e-05 -5.1796637060199607e-05 1.4927215047437186e-06 -2.0499902904982895e-05 -1.60776237384722e-05 1.8478915601482861e-05 -5.5359273154869776e-07 -5.1164237185255836e-06 -6.8103919914301793e-07 4.7763616307440002e-05 2.0393083671780904e-06 -1.9176891897045365e-05 -2.3729231897286545e-06 2.0522450062922481e-05
leaf_weight=431990 41951 520 661 2004 520 590 575 564 636 993 665 4946 803 3296 686
leaf_count=431990 41951 520 661 2004 520 590 575 564 636 993 665 4946 803 3296 686
internal_value=0 1.26758e-06 -1.25284e-07 -1.31573e-05 -3.03825e-06 3.15397e-07 5.39855e-07 9.05457e-06 -3.18027e-08 2.39311e-06 2.1913e-05 2.50232e-08 -8.95062e-06 1.83061e-06 4.29063e-06
internal_weight=0 44200 447200 3185 2524 43680 43090 1139 444015 12025 1301 10724 1796 8928 5632
internal_count=491400 44200 447200 3185 2524 43680 43090 1139 444015 12025 1301 10724 1796 8928 5632
is_linear=0
shrinkage=0.1


Tree=35
num_leaves=16
num_cat=0
split_feature=15 15 31 71 2 56 45 55 68 27 45 58 69 23 14
split_gain=9.58422e-06 3.94754e-05 1.75387e-05 1.96318e-05 5.00661e-06 1.45609e-05 1.30469e-05 1.03669e-05 2.20248e-05 5.2704e-06 5.54417e-06 5.23971e-06 2.76102e-05 1.27821e-05 5.69215e-05
threshold=7250.0000000000009 6450.0000000000009 1.0000000180025095e-35 0.00021300388792500072 107.40500000000002 -0.0022627834643135776 -0.023454999999999997 0.0027965245200544113 -0.00076387894267815326 99.116375000000019 -0.08613999999999998 0.0023087237392062092 -0.0093712517073232787 1.5000000000000002 147.02500000000003
decision_type=2 2 2 2 2 2 2 2 2 2 2 2 2 2 2
left_child=1 4 3 -2 5 6 -1 -7 -9 -10 -11 -6 -13 14 -14
right_child=2 -3 -4 -5 11 7 -8 8 9 10 -12 12 13 -15 -16
leaf_value=3.738727045537528e-06 -2.9797619690904029e-05 2.3051011904958959e-05 9.1659296395023187e-07 -4.1905565183320693e-06 3.5475387712625792e-08 1.089558493054743e-07 2.3538841146581187e-05 2.3895121249789791e-05 -2.7714695829058042e-07 -3.6056057501039777e-07 1.2391927363371252e-05 -2.1991369604871811e-05 -3.5995222805885954e-05 -3.7901321857129723e-07 -1.0221067952227408e-06
leaf_weight=912 510 744 1688 725 390536 33623 524 555 2405 561 869 619 555 53692 2882
leaf_count=912 510 744 1688 725 390536 33623 524 555 2405 561 869 619 555 53692 2882
internal_value=0 3.41628e-08 -5.70911e-06 -1.47651e-05 -9.47693e-10 1.07909e-06 1.09638e-05 7.05679e-07 5.27598e-06 2.58143e-06 7.38903e-06 -9.59911e-08 -9.85068e-07 -7.57462e-07 -6.6695e-06
internal_weight=0 488477 2923 1235 487733 39449 1436 38013 4390 3835 1430 448284 57748 57129 3437
internal_count=491400 488477 2923 1235 487733 39449 1436 38013 4390 3835 1430 448284 57748 57129 3437
is_linear=0
shrinkage=0.1


Tree=36
num_leaves=16
num_cat=0
split_feature=15 15 40 53 45 49 19 25 29 49 45 58 69 2 7
split_gain=7.76322e-06 3.19751e-05 1.60541e-05 6.78523e-06 4.95441e-06 1.04979e-05 7.77513e-06 3.66236e-05 1.34146e-05 1.66411e-05 3.81843e-05 1.31371e-05 1.29259e-05 3.38445e-05 1.23075e-05
threshold=7250.0000000000009 6450.0000000000009 1.0000000180025095e-35 -0.00027668172409472941 0.15049500000000002 -0.001374704297588236 850.00000000000011 0.32500000000000007 89737.000000000015 -0.0018506463102184732 -0.11207499999999999 -0.0030611481739196695 -0.0093712517073232787 157.12500000000003 2250.0000000000005
decision_type=2 2 2 2 2 2 2 2 2 2 2 2 2 2 2
left_child=1 4 -2 -4 6 -6 14 8 9 10 -8 -10 13 -11 -1
right_child=2 -3 3 -5 5 -7 7 -9 11 12 -12 -13 -14 -15 -16
leaf_value=-4.7326623441417428e-07 -2.1032439012899355e-05 2.0745904898391138e-05 -1.1868338671052903e-05 1.0918393249924666e-06 1.2219106316450956e-05 5.287929627804028e-07 4.7352281787698034e-06 2.1576565012593967e-05 2.0630643344842471e-05 2.9934985494759327e-05 -3.0394373352719157e-05 3.6273069882015298e-06 1.3333071636625879e-07 -4.0998605428678993e-06 -6.6922603113872872e-06
leaf_weight=210740 522 744 514 1887 774 101712 674 808 572 514 572 2210 165249 677 3231
leaf_count=210740 522 744 514 1887 774 101712 674 808 572 514 572 2210 165249 677 3231
internal_value=0 3.07465e-08 -5.1382e-06 -1.68264e-06 -8.52912e-10 6.17081e-07 -1.6524e-07 3.36887e-07 2.36213e-07 1.21952e-07 -1.13917e-05 7.12332e-06 2.08146e-07 1.05886e-05 -5.67174e-07
internal_weight=0 488477 2923 2401 487733 102486 385247 171276 170468 167686 1246 2782 166440 1191 213971
internal_count=491400 488477 2923 2401 487733 102486 385247 171276 170468 167686 1246 2782 166440 1191 213971
is_linear=0
shrinkage=0.1


Tree=37
num_leaves=16
num_cat=0
split_feature=11 21 32 21 52 64 11 65 71 44 41 51 53 34 56
split_gain=7.28213e-06 0.000174151 8.85097e-06 7.89565e-06 2.0449e-05 9.31686e-06 4.68164e-05 2.32202e-05 6.86547e-05 1.77231e-05 1.8154e-05 1.08144e-05 1.24449e-05 8.39489e-06 1.13158e-05
threshold=300.50000000000006 6950.0000000000009 36766.000000000007 5350.0000000000009 0.003033862709778568 -0.0067488604343460814 1.5000000000000002 -0.0072758599276714344 -0.012193138136372848 -0.65678999999999987 56135.000000000007 -0.0011413075304654849 1.0000000180025095e-35 5112.5000000000009 -0.0037741114985451736
decision_type=2 2 2 2 2 2 2 2 2 2 2 2 2 2 2
left_child=3 2 -2 5 -5 6 -1 8 -7 -8 11 13 -13 14 -11
right_child=1 -3 -4 4 -6 7 9 -9 -10 10 -12 12 -14 -15 -16
leaf_value=-2.921656140403245e-05 1.0661763834866345e-07 4.4215484123721413e-05 1.1652397750704378e-05 -1.6537071556167877e-06 -2.0854806714404412e-05 3.8292681655058495e-05 -1.3185322278344434e-05 -3.2114323716975187e-08 -1.5724673230423888e-06 1.9960584446154835e-05 -1.1665586086365797e-05 -6.9044651293356433e-06 7.6498721660400175e-06 -2.3926036086367262e-06 3.9540142227321794e-06
leaf_weight=649 40610 923 675 13731 578 624 1026 425498 1404 871 932 1458 984 541 896
leaf_count=649 40610 923 675 13731 578 624 1026 425498 1404 871 932 1458 984 541 896
internal_value=0 1.25583e-06 2.95388e-07 -1.18003e-07 -2.42932e-06 -4.19535e-08 -3.57037e-06 1.87645e-08 1.06937e-05 -1.08909e-06 1.09513e-06 3.59891e-06 -1.03982e-06 8.50696e-06 1.18441e-05
internal_weight=0 42208 41285 449192 14309 434883 7357 427526 2028 6708 5682 4750 2442 2308 1767
internal_count=491400 42208 41285 449192 14309 434883 7357 427526 2028 6708 5682 4750 2442 2308 1767
is_linear=0
shrinkage=0.1


Tree=38
num_leaves=16
num_cat=0
split_feature=21 21 59 15 15 11 56 30 48 64 49 62 20 48 54
split_gain=7.46637e-06 0.00020485 0.000307052 5.47344e-05 0.00010966 2.1954e-05 1.14098e-05 6.98669e-06 5.78924e-06 5.5552e-06 4.45703e-06 1.16942e-05 2.80833e-05 1.10539e-05 9.93068e-06
threshold=7350.0000000000009 6950.0000000000009 5.7226244002284161e-05 6450.0000000000009 7250.0000000000009 300.50000000000006 0.0014620457734132455 10714.500000000002 -0.00023209899589982094 0.00080710936468542116 3.4713061938029817e-05 -0.0055802248340577889 152.27500000000003 0.0014169652334636853 -0.0033368652985540366
decision_type=2 2 2 2 2 2 2 2 2 2 2 2 2 2 2
left_child=1 3 -3 10 -5 6 7 8 -2 -6 13 12 -12 -1 -13
right_child=5 2 -4 4 9 -7 -8 -9 -10 -11 11 14 -14 -15 -16
leaf_value=-2.4252743462842639e-07 -9.9131880825139914e-06 -8.3112103073579209e-06 0.00010051764397676867 -5.2832478111816514e-05 -7.1243637173562946e-06 -1.8429918404413354e-05 -1.1782660310870797e-05 8.9277935508652281e-06 2.4068688106274331e-07 5.400055049784295e-06 2.7134451274336738e-05 -1.1372413338453761e-05 1.286583555892603e-06 -1.4686190036279825e-05 3.0152855815976395e-07
leaf_weight=246230 641 535 503 588 796 832 892 818 4528 638 550 731 1783 531 230804
leaf_count=246230 641 535 503 588 796 832 892 818 4528 638 550 731 1783 531 230804
internal_value=0 4.92164e-08 4.44257e-05 -4.62207e-08 -1.64645e-05 -3.0872e-06 -1.23153e-06 3.40473e-07 -1.01848e-06 -1.55213e-06 2.28509e-08 3.35654e-07 7.38017e-06 -2.73608e-07 2.64672e-07
internal_weight=0 483689 1038 482651 2022 7711 6879 5987 5169 1434 480629 233868 2333 246761 231535
internal_count=491400 483689 1038 482651 2022 7711 6879 5987 5169 1434 480629 233868 2333 246761 231535
is_linear=0
shrinkage=0.1


Tree=39
num_leaves=16
num_cat=0
split_feature=15 58 15 15 71 21 71 11 48 69 10 46 50 51 36
split_gain=9.21566e-06 0.000448877 3.57094e-05 1.96422e-05 1.21466e-05 4.68306e-06 2.03465e-05 0.00010169 1.68201e-05 9.43504e-06 8.45041e-06 1.59156e-05 0.000143794 8.86413e-06 1.98817e-05
threshold=6850.0000000000009 0.0018011344743437132 7750.0000000000009 6150.0000000000009 -0.00013736839182726388 750.00000000000011 -0.012193138136372848 20.500000000000004 -0.00057507833856001989 -0.0093712517073232787 152.29230000000004 153.28078000000002 0.0014585907905292352 -0.0025576869692640054 427.50000000000006
decision_type=2 2 2 2 2 2 2 2 2 2 2 2 2 2 2
left_child=3 2 -2 5 -4 10 7 -7 -9 -8 -1 12 -12 14 -13
right_child=1 -3 4 -5 -6 6 9 8 -10 -11 11 13 -14 -15 -16
leaf_value=1.3141941410837875e-06 -3.1757450206434261e-05 9.2335655126698417e-05 -1.4867581394231771e-05 -1.6381943976501514e-05 9.1128582591357818e-07 4.2959350100755108e-05 -1.0509829003880027e-05 -1.9538598230004937e-05 2.6399518554151229e-06 -4.2045765643707944e-07 8.9653810579619907e-07 -7.2942043273902252e-06 -5.4713556870355976e-05 -2.8764087355983993e-09 8.4033963627162138e-06
leaf_weight=59659 610 502 735 734 1451 635 931 503 1068 208570 3691 1069 532 207420 3290
leaf_count=59659 610 502 735 734 1451 635 931 503 1068 208570 3691 1069 532 207420 3290
internal_value=0 5.26836e-06 -1.03639e-05 -3.55972e-08 -4.39405e-06 -1.09788e-08 -3.64696e-07 9.18891e-06 -4.46114e-06 -4.65294e-07 2.60675e-07 -3.03027e-08 -6.10904e-06 9.0911e-08 4.55372e-06
internal_weight=0 3298 2796 488102 2186 487368 211707 2206 1571 209501 275661 216002 4223 211779 4359
internal_count=491400 3298 2796 488102 2186 487368 211707 2206 1571 209501 275661 216002 4223 211779 4359
is_linear=0
shrinkage=0.1


Tree=40
num_leaves=16
num_cat=0
split_feature=36 3 3 3 44 25 17 9 60 62 73 34 9 51 38
split_gain=7.0233e-06 0.000319566 1.02903e-05 1.69661e-05 1.39127e-05 1.30028e-05 6.37833e-06 5.13676e-06 1.52466e-05 1.2548e-05 5.1957e-05 6.58533e-05 1.75786e-05 2.38355e-05 1.27581e-05
threshold=1.5000000000000002 6150.0000000000009 6550.0000000000009 7350.0000000000009 0.030855000000000004 0.12500000000000003 300.50000000000006 250.00000000000003 -0.0045404869617176038 -0.0055802248340577889 1.5000000000000002 1550.5000000000002 1650.0000000000002 -0.00089973650578345488 173.84334500000003
decision_type=2 2 2 2 2 2 2 2 2 2 2 2 2 2 2
left_child=1 -1 7 4 -4 6 -5 8 -2 10 11 -9 14 -14 -12
right_child=2 -3 3 5 -6 -7 -8 9 -10 -11 12 -13 13 -15 -16
leaf_value=1.9012153321425562e-07 -1.0793448013502405e-05 7.9792126848587946e-05 -4.0908129901327722e-06 1.261686251725318e-06 -2.0369449772471184e-05 -1.5618764446373632e-05 -8.4116444996688162e-06 4.8301606643624417e-05 -5.8604624231526207e-07 4.2002578553344734e-08 -1.0027883970371732e-05 4.5581620975746008e-06 1.9636008809937771e-05 -7.8831449529848151e-06 2.2561879350501232e-06
leaf_weight=33654 1493 512 1199 5940 934 567 770 552 73641 366487 1824 914 830 507 1576
leaf_count=33654 1493 512 1199 5940 934 567 770 552 73641 366487 1824 914 830 507 1576
internal_value=0 1.38301e-06 -1.03343e-07 -3.37602e-06 -1.12189e-05 -1.07715e-06 1.51632e-07 -3.45751e-08 -7.88879e-07 1.17492e-07 4.57757e-06 2.10291e-05 -5.13822e-07 9.20055e-06 -4.33386e-06
internal_weight=0 34166 457234 9410 2133 7277 6710 447824 75134 372690 6203 1466 4737 1337 3400
internal_count=491400 34166 457234 9410 2133 7277 6710 447824 75134 372690 6203 1466 4737 1337 3400
is_linear=0
shrinkage=0.1


Tree=41
num_leaves=16
num_cat=0
split_feature=15 15 58 15 35 28 21 25 48 33 28 63 66 48 12
split_gain=1.08792e-05 0.000134025 2.60675e-05 1.64367e-05 4.6466e-06 6.60062e-06 4.21196e-06 1.18298e-05 8.29146e-06 2.76609e-05 9.59779e-06 8.01107e-06 1.50359e-05 2.66691e-05 1.31175e-05
threshold=7750.0000000000009 6850.0000000000009 0.0013415236045595249 6150.0000000000009 447.50000000000006 571.00000000000011 450.00000000000006 0.95500000000000007 0.0014169652334636853 18527.500000000004 5509.0000000000009 0.0040340354211273475 -0.0013921529036855505 2.6788832915070063e-05 107.33500000000002
decision_type=2 2 2 2 2 2 2 2 2 2 2 2 2 2 2
left_child=1 3 4 6 -2 -6 7 11 -8 -10 -11 -1 13 -13 -14
right_child=2 -3 -4 -5 5 -7 8 -9 9 10 -12 12 14 -15 -16
leaf_value=5.8788198098403129e-07 6.9870328636996751e-06 4.3980170534869919e-05 -2.6238475155243478e-05 -1.4981181430249736e-05 -1.2234805318292177e-05 1.0719967578616337e-06 -2.0175441577762902e-07 1.556685739626819e-05 -2.6766679383272744e-05 4.1768687892208638e-06 -9.4203456779745561e-06 -2.897758371989093e-06 6.7455524666674734e-06 -2.9062682645873745e-05 -1.0975043488110717e-06
leaf_weight=168734 502 693 530 734 607 966 280527 509 509 1386 830 1609 2293 514 30457
leaf_count=168734 502 693 530 734 607 966 280527 509 509 1386 830 1609 2293 514 30457
internal_value=0 3.43495e-08 -6.44525e-06 -2.80441e-08 -1.38963e-06 -4.06292e-06 -5.52394e-09 3.40783e-07 -2.55079e-07 -5.74458e-06 -9.15951e-07 3.0272e-07 -1.07705e-06 -9.23255e-06 -5.48371e-07
internal_weight=0 488795 2605 488102 2075 1573 487368 204116 283252 2725 2216 203607 34873 2123 32750
internal_count=491400 488795 2605 488102 2075 1573 487368 204116 283252 2725 2216 203607 34873 2123 32750
is_linear=0
shrinkage=0.1


Tree=42
num_leaves=16
num_cat=0
split_feature=21 21 57 50 32 3 28 3 42 9 3 48 72 71 0
split_gain=7.92454e-06 0.000161231 0.000338015 2.24651e-05 8.10138e-06 7.86654e-06 2.49554e-05 8.25706e-06 8.05822e-06 7.70439e-06 5.18024e-06 9.16572e-06 4.83895e-06 1.76035e-05 7.1564e-05
threshold=7350.0000000000009 6950.0000000000009 1.0000000180025095e-35 0.0014585907905292352 15436.500000000002 6550.0000000000009 571.00000000000011 8650.0000000000018 34053.500000000007 5250.0000000000009 7350.0000000000009 1.0000000180025095e-35 -0.014133271301453918 -0.012193138136372848 152.21500000000003
decision_type=2 2 2 2 2 2 2 2 2 2 2 2 2 2 2
left_child=1 5 -3 4 -2 12 7 -7 10 -10 11 -8 -1 14 -14
right_child=3 2 -4 -5 -6 6 8 -9 9 -11 -12 -13 13 -15 -16
leaf_value=-2.4443839865241969e-06 -2.5748331100453945e-06 9.7595411642993878e-05 -1.6555678143572252e-05 -2.194955731158624e-05 1.0389224648511468e-05 -2.4202017192300443e-05 2.4866624479382779e-07 -8.8031084394239106e-06 1.5260054462778372e-05 -1.8022609264515141e-07 -2.7254496859661544e-07 -1.6406975576982779e-05 4.0693575866669005e-05 1.3340070407063517e-08 -5.570619459270792e-07
leaf_weight=7858 6602 509 529 589 520 587 696 856 569 748 3353 629 539 464902 1914
leaf_count=7858 6602 509 529 589 520 587 696 856 569 748 3353 629 539 464902 1914
internal_value=0 5.0704e-08 3.94201e-05 -3.18051e-06 -1.62829e-06 -3.39648e-08 -3.26091e-06 -1.50673e-05 -4.19115e-07 6.49063e-06 -2.36442e-06 -7.65805e-06 1.65431e-08 5.79205e-08 8.50698e-06
internal_weight=0 483689 1038 7711 7122 482651 7438 1443 5995 1317 4678 1325 475213 467355 2453
internal_count=491400 483689 1038 7711 7122 482651 7438 1443 5995 1317 4678 1325 475213 467355 2453
is_linear=0
shrinkage=0.1


Tree=43
num_leaves=16
num_cat=0
split_feature=15 15 40 19 17 53 62 28 51 52 11 65 49 5 9
split_gain=9.38244e-06 4.14582e-05 1.97231e-05 5.93102e-06 5.82093e-06 4.32381e-06 2.71371e-05 6.5429e-05 2.10539e-05 1.06808e-05 5.43966e-05 8.39537e-05 1.59855e-05 1.786e-05 1.84052e-05
threshold=7250.0000000000009 6450.0000000000009 1.0000000180025095e-35 1850.0000000000002 85.500000000000014 -0.00017548153782931394 -0.0055802248340577889 1947.0000000000002 -0.0019008115640757326 0.00055626277967513193 3.5000000000000004 -1.0000000180025095e-35 -0.0018506463102184732 2.5000000000000004 250.00000000000003
decision_type=2 2 2 2 2 2 2 2 2 2 2 2 2 2 2
left_child=1 5 -2 4 -4 9 7 -7 -8 12 11 -11 13 -1 -15
right_child=2 -3 3 -5 -6 6 8 -9 -10 10 -12 -13 -14 14 -16
leaf_value=-1.2963826275880348e-05 -2.326578822011892e-05 2.3621614751411024e-05 1.1471643902954258e-06 3.1165008218940679e-06 -1.2950256519718786e-05 4.1769841158636769e-05 -1.5883235791275807e-05 -1.899239266008866e-06 2.0086783325077096e-07 -5.4349242270723473e-05 -9.4151766695225247e-07 3.3131427782292389e-06 -4.1213461414518884e-07 -4.7895965770495019e-06 9.1108806465127317e-06
leaf_weight=526 522 744 518 1209 674 533 816 963 307460 507 7656 503 162908 1197 4664
leaf_count=526 522 744 518 1209 674 533 816 963 307460 507 7656 503 162908 1197 4664
internal_value=0 3.38012e-08 -5.64869e-06 -1.81857e-06 -6.82403e-06 -2.18019e-09 2.23495e-07 1.36593e-05 1.58294e-07 -3.95007e-07 -3.81916e-06 -2.56322e-05 -2.19729e-07 4.68781e-06 6.27197e-06
internal_weight=0 488477 2923 2401 1192 487733 309772 1496 308276 177961 8666 1010 169295 6387 5861
internal_count=491400 488477 2923 2401 1192 487733 309772 1496 308276 177961 8666 1010 169295 6387 5861
is_linear=0
shrinkage=0.1


Tree=44
num_leaves=16
num_cat=0
split_feature=15 15 58 17 64 11 11 32 56 39 1 63 21 52 67
split_gain=7.59978e-06 3.35811e-05 2.33629e-05 8.12816e-06 4.50052e-06 3.8229e-05 1.26707e-05 1.39828e-05 2.66843e-05 1.84191e-05 1.43578e-05 1.15553e-05 7.64499e-05 3.3479e-05 1.06404e-05
threshold=7250.0000000000009 6450.0000000000009 0.0014713744108726392 172.50000000000003 -0.0067488604343460814 1.5000000000000002 70.500000000000014 27032.500000000004 -0.0037741114985451736 37605.500000000007 750.00000000000011 -0.0062310115449671346 950.00000000000011 -0.00032108741627895338 -0.0061462830432474904
decision_type=2 2 2 2 2 2 2 2 2 2 2 2 2 2 2
left_child=1 4 3 -2 5 -1 -7 9 -9 10 -8 12 13 14 -6
right_child=2 -3 -4 -5 11 6 7 8 -10 -11 -12 -13 -14 -15 -16
leaf_value=-2.5578206061698878e-05 2.4527067796151746e-06 2.1259449090638389e-05 -2.4058849876571146e-05 -1.109354076258524e-05 1.6647018407247147e-05 -5.2462130914600761e-06 -1.2057429436698216e-06 2.5835597263001967e-05 -3.5983109329309733e-06 -1.6038000773589469e-05 1.577352373447759e-05 4.1084645087078696e-09 4.0952001627868085e-05 -2.3732262993332135e-05 -2.5297290192412587e-06
leaf_weight=651 1805 744 531 587 548 3061 1861 662 576 608 680 477423 516 534 613
leaf_count=651 1805 744 531 587 548 3061 1861 662 576 608 680 477423 516 534 613
internal_value=0 3.04211e-08 -5.08383e-06 -8.7156e-07 -1.96215e-09 -2.33961e-06 -3.08421e-07 3.13689e-06 1.2141e-05 -4.02984e-07 3.3381e-06 3.75109e-08 7.25013e-06 -3.00955e-06 6.52183e-06
internal_weight=0 488477 2923 2392 487733 8099 7448 4387 1238 3149 2541 479634 2211 1695 1161
internal_count=491400 488477 2923 2392 487733 8099 7448 4387 1238 3149 2541 479634 2211 1695 1161
is_linear=0
shrinkage=0.1


Tree=45
num_leaves=16
num_cat=0
split_feature=3 9 15 49 58 3 53 25 23 24 53 25 52 35 9
split_gain=6.92615e-06 0.000514805 6.60385e-05 2.70221e-05 9.34768e-06 6.56009e-06 4.37697e-06 4.15397e-06 4.93242e-05 0.000110324 1.41863e-05 7.98899e-06 9.51836e-06 7.90191e-06 7.50073e-06
threshold=6950.0000000000009 750.00000000000011 6450.0000000000009 0.0010301700152315354 0.0020183936631880122 7350.0000000000009 -0.00078995798518793892 0.31500000000000006 2.5000000000000004 0.13500000000000004 -0.0015825791505469919 0.27500000000000008 -0.00088470293341830198 2681.5000000000005 250.00000000000003
decision_type=2 2 2 2 2 2 2 2 2 2 2 2 2 2 2
left_child=2 -2 7 4 5 -3 -7 11 9 -9 13 -1 14 -10 -13
right_child=1 3 -4 -5 -6 6 -8 8 10 -11 -12 12 -14 -15 -16
leaf_value=-5.245203398415195e-09 0.00010007600359358549 -8.7138881214806896e-06 -2.7545044370051136e-05 -2.4206048854827906e-05 -1.4675454729646588e-05 -7.4581901938032137e-06 1.2990768754037506e-06 5.683107632828996e-05 -2.9491083833237507e-06 -2.299668094338174e-06 1.1270111586900047e-06 -2.1256242088032981e-05 -1.8367810327049781e-06 -1.6683367336842584e-05 -4.1129597162199747e-06
leaf_weight=463745 512 905 872 574 518 636 5562 505 996 841 9751 505 4239 723 516
leaf_count=463745 512 905 872 574 518 636 5562 505 996 841 9751 505 4239 723 516
internal_value=0 2.79531e-06 -5.04228e-08 -3.28251e-06 -1.70659e-06 -7.60807e-07 4.00461e-07 -6.63045e-10 1.77558e-06 1.98853e-05 -3.49599e-07 -4.92004e-08 -3.92449e-06 -8.72565e-06 -1.25923e-05
internal_weight=0 8707 482693 8195 7621 7103 6198 481821 12816 1346 11470 469005 5260 1719 1021
internal_count=491400 8707 482693 8195 7621 7103 6198 481821 12816 1346 11470 469005 5260 1719 1021
is_linear=0
shrinkage=0.1


Tree=46
num_leaves=16
num_cat=0
split_feature=17 21 25 21 52 33 48 50 57 69 7 21 11 3 69
split_gain=6.35269e-06 0.000227881 1.38932e-05 1.33055e-05 2.0755e-05 6.98891e-06 1.51818e-05 8.06022e-06 1.253e-05 6.67064e-06 7.62742e-06 6.0782e-06 7.53395e-06 5.99098e-06 5.98742e-06
threshold=363.50000000000006 6950.0000000000009 0.36500000000000005 5750.0000000000009 0.003033862709778568 368.50000000000006 0.00029238096961947685 0.0017731891334438201 0.00011430530985490074 0.009553093229274336 150.00000000000003 7950.0000000000009 299.50000000000006 6550.0000000000009 -0.00148571088981142
decision_type=2 2 2 2 2 2 2 2 2 2 2 2 2 2 2
left_child=3 2 5 -1 11 6 -2 13 -9 10 -10 -5 14 -7 -13
right_child=1 -3 -4 4 -6 7 -8 8 9 -11 -12 12 -14 -15 -16
leaf_value=-2.2341582949873231e-08 -7.6116942833227162e-07 5.0835208680153104e-05 -1.505625222850827e-05 -4.7340435520635693e-06 -2.274173048307311e-05 8.2245388760516129e-07 -1.4312497246805334e-05 2.0472224362913298e-05 1.3828684994853512e-05 -6.6518532624733295e-06 -2.2564836580292063e-06 9.5096637731794079e-06 -1.0218828196652642e-05 -8.4348239326380023e-06 -2.5883717711564264e-07
leaf_weight=435169 9236 904 596 5920 530 29596 908 517 679 527 521 738 654 716 4189
leaf_count=435169 9236 904 596 5920 530 29596 908 517 679 527 521 738 654 716 4189
internal_value=0 1.14367e-06 1.06135e-07 -1.13037e-07 -3.39356e-06 3.1777e-07 -1.97416e-06 1.0319e-06 6.81491e-06 2.72642e-06 6.84504e-06 -2.50194e-06 -1.3425e-07 6.03788e-07 1.20436e-06
internal_weight=0 44200 43296 447200 12031 42700 10144 32556 2244 1727 1200 11501 5581 30312 4927
internal_count=491400 44200 43296 447200 12031 42700 10144 32556 2244 1727 1200 11501 5581 30312 4927
is_linear=0
shrinkage=0.1


Tree=47
num_leaves=16
num_cat=0
split_feature=71 71 11 48 13 28 25 17 37 32 33 19 21 39 25
split_gain=6.6512e-06 4.45066e-05 0.000541167 1.76602e-05 2.50983e-05 8.44778e-05 3.08144e-05 1.66083e-05 1.56281e-05 1.78943e-05 3.47541e-05 1.50549e-05 1.35858e-05 3.24128e-05 1.54746e-05
threshold=1.0000000180025095e-35 0.00011602140327504619 300.50000000000006 -0.0013996245481258105 350.00000000000006 1485.0000000000002 0.16500000000000004 25.500000000000004 116965.00000000001 36766.000000000007 44239.500000000007 350.00000000000006 6250.0000000000009 99.500000000000014 0.03500000000000001
decision_type=2 2 2 2 2 2 2 2 2 2 2 2 2 2 2
left_child=3 2 -2 4 5 -1 7 -6 9 12 -11 -10 14 -14 -5
right_child=1 -3 -4 8 6 -7 -8 -9 11 10 -12 -13 13 -15 -16
leaf_value=-1.0664853311665156e-05 -1.4903931432728373e-07 1.2713258830809499e-07 0.00010533848383138835 3.8434368329736979e-07 -1.614752932511133e-05 4.5662165943424777e-05 2.3718510840549338e-05 1.8314263806186211e-06 -1.9375196612265846e-05 3.050723334330232e-05 -3.6367040943825642e-06 -2.8084794650672729e-06 -2.9789242112406149e-05 -2.8738905344851465e-06 -1.3804056527404145e-06
leaf_weight=502 5902 272328 530 110017 693 567 523 1987 838 541 664 1588 511 3596 90613
leaf_count=502 5902 272328 530 110017 693 567 523 1987 838 541 664 1588 511 3596 90613
internal_value=0 3.21321e-07 8.54319e-06 -4.21236e-07 5.94342e-06 1.92111e-05 1.51533e-06 -2.81761e-06 -5.51725e-07 -4.57729e-07 1.16926e-05 -8.53103e-06 -5.29241e-07 -6.22274e-06 -4.12692e-07
internal_weight=0 278760 6432 212640 4272 1069 3203 2680 208368 205942 1205 2426 204737 4107 200630
internal_count=491400 278760 6432 212640 4272 1069 3203 2680 208368 205942 1205 2426 204737 4107 200630
is_linear=0
shrinkage=0.1


Tree=48
num_leaves=16
num_cat=0
split_feature=15 50 15 66 15 17 21 25 31 71 48 42 61 53 63
split_gain=7.76824e-06 0.00042977 5.54245e-05 1.43671e-05 1.32994e-05 4.33567e-06 3.99365e-06 9.53095e-06 7.08248e-06 1.46182e-05 1.75769e-05 1.00368e-05 8.07197e-06 6.80263e-05 4.23385e-05
threshold=6850.0000000000009 -0.00023763932752535186 7750.0000000000009 0.0018588605387460657 6150.0000000000009 99.500000000000014 450.00000000000006 0.95500000000000007 36149.500000000007 0.0055968657020771815 0.00058668057368416193 76542.500000000015 -0.0027816284904966788 0.00083695191878507835 -0.0062310115449671346
decision_type=2 2 2 2 2 2 2 2 2 2 2 2 2 2 2
left_child=4 -2 -3 5 6 -4 7 -1 12 10 11 -10 13 -8 -14
right_child=1 2 3 -5 -6 -7 8 -9 9 -11 -12 -13 14 -15 -16
leaf_value=2.9062227409745282e-07 8.9534062614822412e-05 -3.7825273723677308e-05 7.5293368715007384e-06 -1.662103986252648e-05 -1.348326948905308e-05 -2.9296326605968683e-06 5.0846549995240414e-07 1.3991594790299892e-05 2.2552580657914596e-06 7.6870908090426511e-06 -2.485438200400252e-05 -1.1988038746927278e-05 -2.2862572110740536e-05 3.3924158345569135e-05 -2.421541791137516e-07
leaf_weight=203607 507 588 701 590 734 912 10701 509 1087 717 521 908 830 646 267842
leaf_count=203607 507 588 701 590 734 912 10701 509 1087 717 521 908 830 646 267842
internal_value=0 4.83697e-06 -1.05487e-05 -3.26835e-06 -3.26824e-08 1.61577e-06 -1.24251e-08 3.24788e-07 -2.55426e-07 -4.90911e-06 -8.49873e-06 -4.22741e-06 -2.01697e-07 2.41087e-06 -3.12035e-07
internal_weight=0 3298 2791 2203 488102 1613 487368 204116 283252 3233 2516 1995 280019 11347 268672
internal_count=491400 3298 2791 2203 488102 1613 487368 204116 283252 3233 2516 1995 280019 11347 268672
is_linear=0
shrinkage=0.1


Tree=49
num_leaves=16
num_cat=0
split_feature=15 15 27 7 15 15 48 45 53 11 69 29 72 23 53
split_gain=7.98457e-06 3.7303e-05 0.000440451 2.04558e-05 1.90916e-05 1.07725e-05 3.92343e-06 3.61162e-05 1.57489e-05 3.88684e-05 2.53128e-05 4.19355e-05 1.47968e-05 1.92363e-05 1.39245e-05
threshold=9950.0000000000018 6850.0000000000009 107.36399000000002 350.00000000000006 8350.0000000000018 6150.0000000000009 0.00058668057368416193 -0.46183499999999994 0.0024429604309377244 2.5000000000000004 -0.0093712517073232787 35458.000000000007 0.00057939080910096596 40.500000000000007 -0.0013764598140284521
decision_type=2 2 2 2 2 2 2 2 2 2 2 2 2 2 2
left_child=1 5 -3 -2 -4 6 -1 -8 10 -10 11 -9 -11 -14 -12
right_child=3 2 4 -5 -6 -7 7 8 9 12 14 -13 13 -15 -16
leaf_value=-9.3404058441815369e-08 2.4318967833366463e-06 9.376940864325128e-05 -2.762727399038821e-05 -2.0869139556793926e-05 -2.3950974657191095e-06 -1.2134914812999866e-05 2.3438133355070894e-05 3.0920069778277173e-05 -3.0019860832995928e-05 -8.5808825964591599e-06 -6.2611430941425657e-06 -5.6966775045687451e-06 1.1206443417402437e-05 -2.7875400757167265e-06 1.6144057571860599e-06
leaf_weight=449611 916 501 734 640 507 734 702 734 519 2090 2456 545 1427 3152 26132
leaf_count=449611 916 501 734 640 507 734 702 734 519 2090 2456 545 1427 3152 26132
internal_value=0 2.27187e-08 1.46302e-05 -7.15208e-06 -1.73189e-05 -2.94142e-08 -1.11827e-08 9.67911e-07 5.42217e-07 -3.66014e-06 1.55359e-06 1.53172e-05 -1.60875e-06 1.57355e-06 9.37816e-07
internal_weight=0 489844 1742 1556 1241 488102 487368 37757 37055 7188 29867 1279 6669 4579 28588
internal_count=491400 489844 1742 1556 1241 488102 487368 37757 37055 7188 29867 1279 6669 4579 28588
is_linear=0
shrinkage=0.1


Tree=50
num_leaves=16
num_cat=0
split_feature=29 21 21 61 23 31 66 32 52 45 25 53 23 40 25
split_gain=6.48468e-06 0.000216568 8.91912e-06 8.46607e-06 2.4269e-05 0.000149219 1.83204e-05 9.39053e-06 1.61933e-05 5.49723e-05 2.14369e-05 2.10996e-05 1.31721e-05 1.26363e-05 1.90059e-05
threshold=1.0000000180025095e-35 6950.0000000000009 6250.0000000000009 0.0036591675572688058 2.5000000000000004 7320.5000000000009 -0.0039327347308946705 17130.500000000004 0.0012253159019025575 -0.12141499999999998 0.095000000000000015 0.0017188377728716289 86.500000000000014 65109.000000000007 0.15500000000000003
decision_type=2 2 2 2 2 2 2 2 2 2 2 2 2 2 2
left_child=1 -1 3 7 5 -5 -6 -2 11 -10 12 13 -11 -9 -15
right_child=2 -3 -4 4 6 -7 -8 8 9 10 -12 -13 -14 14 -16
leaf_value=3.0939940737461369e-07 -7.7245024853303885e-08 5.3942447290211217e-05 -3.084727213429983e-06 3.6675952309512821e-06 -1.67035990859661e-05 -5.4909268288172669e-05 -4.8529034400027132e-07 2.2680248904563996e-06 3.6792419949446978e-05 1.1536093544878243e-05 -1.3762193611910334e-05 -1.8820094791325657e-05 1.0701342302293253e-06 -8.4543881290797968e-06 1.2717867742152249e-05
leaf_weight=70615 354141 761 10105 1662 714 589 28423 14782 543 2158 640 550 2716 2490 511
leaf_count=70615 354141 761 10105 1662 714 589 28423 14782 543 2158 640 550 2716 2490 511
internal_value=0 8.81227e-07 -1.4975e-07 -7.73989e-08 -1.65559e-06 -1.16597e-05 -8.82719e-07 5.3466e-08 1.95138e-06 6.43418e-06 3.44461e-06 4.70316e-07 5.70402e-06 1.06694e-06 -4.84925e-06
internal_weight=0 71376 420024 409919 31388 2251 29137 378531 24390 6057 5514 18333 4874 17783 3001
internal_count=491400 71376 420024 409919 31388 2251 29137 378531 24390 6057 5514 18333 4874 17783 3001
is_linear=0
shrinkage=0.1


Tree=51
num_leaves=16
num_cat=0
split_feature=3 3 49 29 3 3 25 21 11 41 21 9 44 72 71
split_gain=8.22378e-06 8.46846e-05 0.000511317 2.37684e-05 1.30134e-05 1.2662e-05 1.20563e-05 4.85499e-06 1.14892e-05 1.01844e-05 6.81958e-06 4.78555e-06 4.78166e-06 4.04706e-06 1.40543e-05
threshold=7950.0000000000009 6950.0000000000009 -0.00022753775723066691 1.0000000180025095e-35 6550.0000000000009 7350.0000000000009 0.10500000000000002 6950.0000000000009 300.50000000000006 56135.000000000007 7350.0000000000009 1150.0000000000002 -1.0000000180025095e-35 -0.014133271301453918 -0.012193138136372848
decision_type=2 2 2 2 2 2 2 2 2 2 2 2 2 2 2
left_child=1 4 -3 -2 7 -4 -5 13 9 10 -9 -12 -6 -1 -15
right_child=3 2 5 6 12 -7 -8 8 -10 -11 11 -13 -14 14 -16
leaf_value=-2.2283338152119152e-06 -2.216161834771906e-05 0.00010602681098984923 -1.6980572213446863e-05 -1.8061077830222254e-07 -3.8564000153454334e-06 8.1701786402302095e-07 -1.6062310824609709e-05 -1.20597568967082e-05 -1.5696203045081349e-05 1.1798848247760121e-05 -1.0506594384807897e-05 -1.4558107546232447e-07 -1.6686031584885866e-05 7.6094864173027286e-06 2.0245900519788918e-08
leaf_weight=7858 619 521 796 5444 553 803 524 679 620 533 502 3981 612 2453 464902
leaf_count=7858 619 521 796 5444 553 803 524 679 620 533 502 3981 612 2453 464902
internal_value=0 4.76842e-08 1.99903e-05 -3.50963e-06 -3.99044e-08 -8.04282e-06 -1.57505e-06 -1.43649e-08 -2.76885e-06 -1.36149e-06 -2.72035e-06 -1.30579e-06 -1.05961e-05 2.22388e-08 6.00794e-08
internal_weight=0 484813 2120 6587 482693 1599 5968 481528 6315 5695 5162 4483 1165 475213 467355
internal_count=491400 484813 2120 6587 482693 1599 5968 481528 6315 5695 5162 4483 1165 475213 467355
is_linear=0
shrinkage=0.1


Tree=52
num_leaves=16
num_cat=0
split_feature=15 15 29 50 45 32 13 31 58 28 40 69 25 39 40
split_gain=1.02867e-05 4.36707e-05 1.91232e-05 1.0433e-05 3.78871e-06 9.33708e-06 1.40362e-05 7.10739e-06 2.44988e-05 1.60625e-05 1.63607e-05 1.12464e-05 9.88308e-06 8.66045e-06 7.89003e-06
threshold=7250.0000000000009 6450.0000000000009 1.0000000180025095e-35 -0.00013099776118896675 0.15049500000000002 36766.000000000007 750.00000000000011 400.50000000000006 0.0043745762506817174 32.500000000000007 3578.5000000000005 0.0026085549489920372 0.085000000000000006 32541.500000000004 1992.5000000000002
decision_type=2 2 2 2 2 2 2 2 2 2 2 2 2 2 2
left_child=1 4 -2 -4 -1 7 -7 9 11 -6 14 12 -9 -13 -11
right_child=2 -3 3 -5 5 6 -8 8 -10 10 -12 13 -14 -15 -16
leaf_value=-1.4528961760308326e-07 -2.2312756288931802e-05 2.4244441464292989e-05 -1.4242924073488054e-05 1.6776520335013734e-06 3.6441324249812046e-07 2.0146841254178901e-05 -7.1967221631786603e-07 -9.7951092897698998e-07 -1.7078285487793445e-05 4.3251764929984345e-06 1.8226311423398572e-05 1.5828032298368707e-06 -1.1601175890106971e-05 1.0917371163232511e-05 -6.358003665131335e-06
leaf_weight=385247 572 744 532 1819 59036 602 694 22805 899 8699 817 6084 911 1188 751
leaf_count=385247 572 744 532 1819 59036 602 694 22805 899 8699 817 6084 911 1188 751
internal_value=0 3.53926e-08 -5.91464e-06 -1.92496e-06 -1.53646e-09 5.38835e-07 8.97295e-06 4.30814e-07 -8.04722e-07 9.99297e-07 4.64992e-06 -3.32606e-07 -1.38752e-06 3.10776e-06 3.47617e-06
internal_weight=0 488477 2923 2351 487733 102486 1296 101190 31887 69303 10267 30988 23716 7272 9450
internal_count=491400 488477 2923 2351 487733 102486 1296 101190 31887 69303 10267 30988 23716 7272 9450
is_linear=0
shrinkage=0.1


Tree=53
num_leaves=16
num_cat=0
split_feature=15 15 9 12 51 39 7 11 62 53 44 11 30 33 22
split_gain=8.33222e-06 3.62182e-05 0.000333765 1.63068e-05 8.08142e-06 3.84718e-06 2.06257e-05 0.000114714 1.06905e-05 1.00474e-05 6.8222e-06 0.000133362 1.62266e-05 1.40027e-05 6.91548e-06
threshold=7250.0000000000009 6150.0000000000009 5050.0000000000009 107.33500000000002 -9.4553706505295918e-05 25.500000000000004 2650.0000000000005 3.5000000000000004 -0.0024326886364113838 -0.00096728023826625476 -4.499344999999999 1.5000000000000002 2467.5000000000005 600.50000000000011 157.06645
decision_type=2 2 2 2 2 2 2 2 2 2 2 2 2 2 2
left_child=1 5 -3 -2 -5 6 8 -8 9 -1 11 -7 13 -13 -12
right_child=3 2 -4 4 -6 10 7 -9 -10 -11 14 12 -14 -15 -16
leaf_value=-1.8202094984512161e-05 -1.9659790744369204e-05 7.8627931419759996e-05 -3.1625530231370911e-05 -1.1420052766586919e-05 2.0874626951648252e-06 5.1447788119164559e-05 -4.8913936412005727e-05 1.3518976281323294e-06 -1.7187434005713699e-07 -1.9849199977459636e-06 5.4173848465922328e-07 -6.1268554854614838e-07 1.5570860537332295e-05 -1.6896923546806798e-05 -2.9977151265706354e-07
leaf_weight=635 624 500 609 599 1700 530 574 2172 77311 959 171209 5512 563 584 227319
leaf_count=635 624 500 609 599 1700 530 574 2172 77311 959 171209 5512 563 584 227319
internal_value=0 3.18534e-08 1.8083e-05 -5.32317e-06 -1.43189e-06 -9.22175e-09 -6.35509e-07 -9.15524e-06 -3.39011e-07 -8.44534e-06 1.16819e-07 3.16995e-06 -6.72553e-07 -2.17272e-06 6.17441e-08
internal_weight=0 488477 1109 2923 2299 487368 81651 2746 78905 1594 405717 7189 6659 6096 398528
internal_count=491400 488477 1109 2923 2299 487368 81651 2746 78905 1594 405717 7189 6659 6096 398528
is_linear=0
shrinkage=0.1


Tree=54
num_leaves=16
num_cat=0
split_feature=15 15 41 53 45 57 67 41 30 71 48 38 62 25 42
split_gain=6.7491e-06 3.00396e-05 1.63085e-05 4.17665e-06 3.53225e-06 1.20503e-05 1.17439e-05 5.55582e-06 4.60481e-06 4.21393e-06 2.34349e-05 7.41796e-05 1.19071e-05 1.49127e-05 1.76799e-05
threshold=7250.0000000000009 6450.0000000000009 1.0000000180025095e-35 -0.00013845621388614002 0.5000150000000001 -0.00044139593768321989 0.0066327265867401905 19196.500000000004 150.50000000000003 0.0081003786435659437 0.0014169652334636853 145.88601000000003 -0.0021461144228137603 0.075000000000000025 754.50000000000011
decision_type=2 2 2 2 2 2 2 2 2 2 2 2 2 2 2
left_child=1 4 -2 -4 9 -6 7 8 -7 -1 12 -12 13 -11 -15
right_child=2 -3 3 -5 5 6 -8 -9 -10 10 11 -13 -14 14 -16
leaf_value=1.0092380443296938e-07 -1.8662865409826722e-05 2.0107092624980835e-05 -8.6161630976163707e-06 1.5799707607000345e-06 1.397570602466944e-05 -3.6965079295736907e-06 1.2567552773969268e-05 -1.092933510823948e-05 6.2411175679369406e-06 6.9775631597552165e-07 -4.4427985397953834e-05 3.1529051726713478e-06 -1.5891762031030948e-07 -4.1413097503565912e-06 -2.251418677879101e-05
leaf_weight=407546 657 744 522 1744 795 1297 626 622 728 1950 501 947 70520 1342 859
leaf_count=407546 657 744 522 1744 795 1297 626 622 728 1950 501 947 70520 1342 859
internal_value=0 2.8668e-08 -4.79086e-06 -7.6883e-07 -1.9601e-09 2.93242e-06 2.50047e-07 -2.66297e-06 -1.2387e-07 -2.66405e-08 -7.09628e-07 -1.33098e-05 -4.65289e-07 -5.67013e-06 -1.13118e-05
internal_weight=0 488477 2923 2266 487733 4068 3273 2647 2025 483665 76119 1448 74671 4151 2201
internal_count=491400 488477 2923 2266 487733 4068 3273 2647 2025 483665 76119 1448 74671 4151 2201
is_linear=0
shrinkage=0.1


Tree=55
num_leaves=16
num_cat=0
split_feature=15 55 15 20 15 17 5 65 48 44 54 62 42 11 30
split_gain=6.50971e-06 0.000430046 4.64386e-05 1.71093e-05 1.54288e-05 6.70268e-06 3.86911e-06 4.51825e-06 4.07782e-06 3.82566e-05 5.67618e-05 1.58298e-05 6.82679e-05 2.06393e-05 6.39451e-05
