tree
version=v3
num_class=1
num_tree_per_iteration=1
label_index=0
max_feature_idx=74
objective=regression
feature_names=OpenBidPrice OpenBidSize OpenAskPrice OpenAskSize FirstTradePrice FirstTradeSize HighBidPrice HighBidSize HighAskPrice HighAskSize HighTradePrice HighTradeSize LowBidPrice LowBidSize LowAskPrice LowAskSize LowTradePrice LowTradeSize CloseBidPrice CloseBidSize CloseAskPrice CloseAskSize LastTradePrice LastTradeSize MinSpread MaxSpread CancelSize VolumeWeightPrice NBBOQuoteCount TradeAtBid TradeAtBidMid TradeAtMid TradeAtMidAsk TradeAtAsk TradeAtCrossOrLocked Volume TotalTrades FinraVolume FinraVolumeWeightPrice UptickVolume DowntickVolume RepeatUptickVolume RepeatDowntickVolume UnknownTickVolume TradeToMidVolWeight TradeToMidVolWeightRelative TimeWeightBid TimeWeightAsk ret1min ret2min ret3min ret4min ret5min ret6min ret7min ret8min ret9min ret10min ret11min ret12min ret13min ret14min ret20min ret25min ret30min ret35min ret40min ret45min ret50min ret55min ret60min ret90min ret120min quarter stock_id
feature_infos=[0:180.56] [0:539800] [0:180.58000000000001] [0:1196000] [89.590000000000003:180.57499999999999] [1:8480631] [89.430000000000007:180.61000000000001] [1:203700] [89.620000000000005:645] [1:1327400] [89.620000000000005:180.62] [1:8480631] [87.5:180.5] [1:604900] [89.510000000000005:180.50999999999999] [1:308800] [89.5:180.5] [1:7500000] [89.430000000000007:180.56] [1:539800] [89.510000000000005:180.56999999999999] [1:1196000] [89.525000000000006:180.56999999999999] [1:970898] [0:1.6100000000000001] [0:542.29999999999995] [0:1500000] [0:180.56809999999999] [0:43718] [0:8607483] [0:8407689] [0:4814916] [0:3712260] [0:10282762] [0:2612278] [0:10285716] [1:18581] [0:4056845] [0:180.56855999999999] [0:10264485] [0:8596835] [0:5761551] [0:8007939] none [-223.23992000000001:208.45434] [-189.14060000000001:208.45434] [89.430000000000007:180.547] [89.598460000000003:180.56122999999999] [-0.10669817846437624:0.064380165289256164] [-0.20861863182360696:inf] [-0.20911544980852526:inf] [-0.20866834170854265:inf] [-0.26076733383036066:inf] [-0.26123337918386058:inf] [-0.27900976896541729:inf] [-0.27894706325737806:inf] [-0.27936489540476328:inf] [-0.27928136771950163:inf] [-0.27938577430102851:inf] [-0.27928136771950163:inf] [-0.27940665198748416:inf] [-0.27936489540476328:inf] [-0.27917693087958273:inf] [-0.27928136771950163:inf] [-0.27915603987943427:inf] [-0.27923959661527764:inf] [-0.27890525339209093:inf] [-0.27865429234338746:inf] [-0.27848688790902765:inf] [-0.27974053052241399:inf] [-0.27880070751297592:inf] [-0.944124218051832:inf] [-0.27887568820631703:inf] [1:4] none
tree_sizes=1736 1741 1748 1720 1758 1747 1721 1748 1727 1731 1762 1727 1727 1733 1746 1756 1742 1737 1729 1741 1729 1723 1738 1740 1736 1738 1727 1731 1740 1728 1728 1709 1744 1743 1729 1725 1724 1724 1725 1741 1714 1736 1737 1727 1715 1720 1720 1752 1730 1735 1731 1720 1717 1724 1719 1712 1720 1733 1701 1734 1727 1727 1737 1727 1712 1726 1707 1735 1717 1714 1726 1732 1735 1751 1702 1706 1722 1718 1733 1709 1713 1717 1725 1735 1741 1733 1737 1721 1742 1709 1720 1725 1719 1736 1740 1724 1727 1706 1716 1719 1733 1724 1728 1714 1702 1744 1759 1727 1710 1710 1745 1737 1746 1701 1735 1732 1734 1720 1758 1725 1718 1742 1709 1739 1724 1746 1745 1726 1722 1720 1743 1733 1724 1716 1737 1737 1717 1696 1717 1739 1725 1707 1731 1726 1724 1744 1712 1733 1754 1726 1703 1709 1702 1719 1725 1724 1712 1731 1736 1725 1721 1732 1724 1713 1748 1736 1714 1716 1741 1716 1728 1697 1723 1707 1745 1728 1730 1737 1718 1758 1739 1711 1724 1710 1690 1720 1719 1748 1720 1734 1720 1726 1739 1728 1726 1721 1744 1746 1741 1738 1737 1723 1718 1733 1725 1706 1706 1739 1719 1708 1710 1712 1714 1718 1725 1726 1718 1726 1718 1740 1714 1720 1717 1732 1729 1727 1734 1733 1744 1733 1756 1703 1706 1721 1711 1716 1720 1727 1747 1738 1735 1718 1720 1712 1722 1717 1723 1738 1728 1742 1736 1708 1738 1727 1735 1720 1731 1735 1715 1744 1731 1700 1732 1732 1718 1720 1704 1723 1728 1734 1736 1726 1720 1737 1709 1736 1719 1747 1739 1738 1717 1727 1727 1714 1730 1699 1714 1731 1744 1723 1743 1714 1729 1706 1709 1728 1704 1733 1732 1745 1735 1704 1756 1730 1725 1738 1746 1727 1730 1727 1724 1713 1722 1718 1717 1735 1724 1729 1734 1723 1716 1709 1724 1725 1724 1723 1729 1725 1722 1715 1724 1723 1706 1733 1719 1745 1747 1739 1733 1714 1713 1715 1733 1729 1723 1714 1699 1731 1727 1726

Tree=0
num_leaves=16
num_cat=0
split_feature=15 50 50 60 25 45 67 21 35 45 25 33 5 13 54
split_gain=3.66699e-05 0.000535818 3.00632e-05 4.42379e-05 3.80487e-05 3.27315e-05 2.17627e-05 2.11609e-05 2.6404e-05 2.39707e-05 1.83501e-05 1.81377e-05 1.62948e-05 1.97217e-05 2.46571e-05
threshold=6950.0000000000009 -0.0003320919422130641 -0.002210265737444594 0.0025073857551587424 0.16500000000000004 -0.12898499999999999 -0.0061731156464388528 750.00000000000011 208704.50000000003 -0.31895999999999997 0.12500000000000003 38.500000000000007 142.50000000000003 2150.0000000000005 -0.0033400749057174157
decision_type=2 2 2 2 2 2 2 2 2 2 2 2 2 2 2
left_child=2 -2 3 4 5 12 -7 8 9 -4 -10 -3 13 14 -1
right_child=1 11 7 -5 -6 6 -8 -9 10 -11 -12 -13 -14 -15 -16
leaf_value=4.0593903843004187e-05 0.00010494352151569452 -1.9057616753648543e-05 -3.0017858599833496e-06 -2.0699609144167829e-05 2.6923458109334988e-05 -1.3081884825185562e-05 3.9279105702060773e-06 -1.8754813242930267e-06 4.7345739307028049e-06 -1.6645152092746785e-07 2.4588137969022186e-05 -1.2748324991192083e-06 -1.5039305940989094e-06 5.861517332304983e-06 1.2149499480489965e-05
leaf_weight=549 505 693 36079 613 867 1197 2024 268930 1842 171812 623 3328 662 991 685
leaf_count=549 505 693 36079 613 867 1197 2024 268930 1842 171812 623 3328 662 991 685
internal_value=-1.10566e-06 7.85393e-06 -1.18895e-06 5.0562e-06 7.31976e-06 4.53711e-06 -2.39333e-06 -1.28782e-06 -5.3652e-07 -6.58517e-07 9.75233e-06 -4.33961e-06 1.22694e-05 1.63673e-05 2.48043e-05
internal_weight=0 4526 486874 7588 6975 6108 3221 479286 210356 207891 2465 4021 2887 2225 1234
internal_count=491400 4526 486874 7588 6975 6108 3221 479286 210356 207891 2465 4021 2887 2225 1234
is_linear=0
shrinkage=1


Tree=1
num_leaves=16
num_cat=0
split_feature=15 58 50 60 11 1 19 7 64 21 21 59 5 28 70
split_gain=2.97026e-05 0.000504597 2.43512e-05 3.60839e-05 3.37005e-05 2.1216e-05 1.94534e-05 1.74707e-05 0.000152397 1.60544e-05 1.49663e-05 1.63389e-05 1.44818e-05 1.87197e-05 1.3514e-05
threshold=6950.0000000000009 0.0032479103907387956 -0.002210265737444594 0.0029216967133645082 300.50000000000006 425.00000000000006 1350.0000000000002 2250.0000000000005 0.0071540351804159083 2450.0000000000005 1950.0000000000002 -0.0043278863833426376 150.50000000000003 4623.0000000000009 -0.0072307147049267542
decision_type=2 2 2 2 2 2 2 2 2 2 2 2 2 2 2
left_child=2 5 3 4 12 -2 7 9 -9 -4 11 -8 -1 -14 -11
right_child=1 -3 6 -5 -6 -7 10 8 -10 14 -12 -13 13 -15 -16
leaf_value=7.3686299287824113e-06 -1.7676670350565874e-05 9.849521084508515e-05 -2.3866294946471335e-07 -1.8978552396992118e-05 2.6042704026342713e-05 -2.9324420537717737e-07 1.3493316157240329e-05 -1.5611718962913151e-06 -5.7373901283786326e-05 -1.3346219202503563e-05 -4.5921928239026508e-07 1.1775423722493925e-06 -1.9076380760192739e-05 5.5711095011605817e-06 -2.0583312580443324e-06
leaf_weight=4902 910 543 225367 556 859 3073 1087 6998 526 1088 82498 119575 525 746 42147
leaf_count=4902 910 543 225367 556 859 3073 1087 6998 526 1088 82498 119575 525 746 42147
internal_value=0 8.06363e-06 -7.49597e-08 5.54567e-06 7.48473e-06 -4.26485e-06 -1.63945e-07 -7.10414e-07 -5.46302e-06 -5.77285e-07 5.78791e-07 1.28849e-06 4.90231e-06 -4.6098e-06 -2.34239e-06
internal_weight=0 4526 486874 7588 7032 3983 479286 276126 7524 268602 203160 120662 6173 1271 43235
internal_count=491400 4526 486874 7588 7032 3983 479286 276126 7524 268602 203160 120662 6173 1271 43235
is_linear=0
shrinkage=0.1


Tree=2
num_leaves=16
num_cat=0
split_feature=15 55 57 32 25 44 44 7 11 21 24 63 25 72 72
split_gain=2.40591e-05 0.000528826 2.32581e-05 2.06276e-05 6.66562e-05 3.39565e-05 1.72214e-05 2.12368e-05 0.000111817 2.11329e-05 5.39637e-05 1.52403e-05 4.61369e-05 1.66046e-05 2.17578e-05
threshold=6950.0000000000009 0.002792918605604489 0.0017333008140213437 17690.500000000004 0.15500000000000003 -0.19124499999999997 -0.89396999999999982 2650.0000000000005 20.500000000000004 2450.0000000000005 0.065000000000000016 -0.0024691874710009993 0.075000000000000025 -0.010353203667836651 -0.0030319947864259618
decision_type=2 2 2 2 2 2 2 2 2 2 2 2 2 2 2
left_child=3 2 -2 6 5 -5 7 11 -9 -8 -11 12 -1 -14 -15
right_child=1 -3 -4 4 -6 -7 9 8 -10 10 -12 -13 13 14 -16
leaf_value=1.7389142294026292e-05 -2.0997451955921558e-06 0.00010233924896761948 -2.4826132714463763e-05 9.3451983989766224e-06 2.9249253168319991e-05 2.9307768038088502e-07 4.0446227372604874e-07 -5.2437032683055345e-05 4.2331101552002945e-07 -1.0979165298617675e-06 -3.2478354649293612e-05 -1.0409747801749143e-06 -2.8677019324369623e-05 2.8969891174317812e-06 -1.6895989232669334e-05
leaf_weight=600 3491 518 517 4819 892 29586 296271 514 1807 100770 551 48150 552 893 1469
leaf_count=600 3491 518 517 4819 892 29586 296271 514 1807 100770 551 48150 552 893 1469
internal_value=0 7.25727e-06 -5.03127e-06 -6.74639e-08 2.2607e-06 1.56098e-06 -2.49442e-07 -1.92535e-06 -1.12829e-05 -2.18872e-08 -1.26857e-06 -1.50496e-06 -7.86267e-06 -1.30621e-05 -9.41287e-06
internal_weight=0 4526 4008 486874 35297 34405 451577 53985 2321 397592 101321 51664 3514 2914 2362
internal_count=491400 4526 4008 486874 35297 34405 451577 53985 2321 397592 101321 51664 3514 2914 2362
is_linear=0
shrinkage=0.1


Tree=3
num_leaves=16
num_cat=0
split_feature=15 15 57 29 25 44 67 19 52 32 44 50 4 32 7
split_gain=1.94879e-05 0.000507807 2.33285e-05 1.914e-05 4.26603e-05 3.14647e-05 2.00465e-05 1.64723e-05 2.52846e-05 1.74448e-05 1.62859e-05 2.44831e-05 2.78953e-05 1.26147e-05 1.24842e-05
threshold=6950.0000000000009 7450.0000000000009 0.0025690905060370421 127901.00000000001 0.13500000000000004 -0.13392499999999999 0.00028494088055219807 1450.0000000000002 -0.0028143611024016297 17690.500000000004 0.23743500000000003 -0.0013553962939973905 114.26200000000001 36653.500000000007 2450.0000000000005
decision_type=2 2 2 2 2 2 2 2 2 2 2 2 2 2 2
left_child=3 -2 -3 7 5 6 -5 10 9 -9 -1 12 -12 14 -13
right_child=1 2 -4 4 -6 -7 -8 8 -10 -11 11 13 -14 -15 -16
leaf_value=-1.0586743392855586e-06 9.8212241845146015e-05 -2.7128421062047276e-06 -2.5223184832092904e-05 5.2569435582636181e-06 3.2340078854010763e-05 -4.1915207421557318e-06 2.3668587618433314e-05 4.5678070994222698e-06 4.7917684388467505e-07 2.6568101813836249e-05 3.1509454918642225e-05 4.3531927074276881e-07 -3.6925708490959392e-07 1.3600727711157066e-05 -1.3208205494069575e-05
leaf_weight=213139 533 3462 531 2236 535 3100 804 883 191359 609 546 71713 552 721 677
leaf_count=213139 533 3462 531 2236 535 3100 804 883 191359 609 546 71713 552 721 677
internal_value=0 6.53154e-06 -5.70633e-06 -6.07175e-08 5.25727e-06 2.89745e-06 1.01263e-05 -1.3464e-07 5.80283e-07 1.35478e-05 -6.14454e-07 6.6141e-07 1.5483e-05 4.38815e-07 3.07723e-07
internal_weight=0 4526 3993 486874 6675 6140 3040 480199 192851 1492 287348 74209 1098 73111 72390
internal_count=491400 4526 3993 486874 6675 6140 3040 480199 192851 1492 287348 74209 1098 73111 72390
is_linear=0
shrinkage=0.1


Tree=4
num_leaves=16
num_cat=0
split_feature=19 15 56 15 46 48 45 56 21 30 48 26 53 64 38
split_gain=1.74632e-05 7.18499e-05 0.000498891 3.95735e-05 9.72332e-05 2.13169e-05 3.72955e-05 3.10815e-05 1.63635e-05 2.44768e-05 1.56943e-05 1.44048e-05 1.34582e-05 2.50577e-05 0.000112413
threshold=550.00000000000011 6950.0000000000009 -0.00033515131425204675 3550.0000000000005 104.51908000000002 -0.00086727851401047207 0.10178500000000001 0.0029640835047622942 650.00000000000011 34366.500000000007 0.00021108897385679895 3.5000000000000004 -0.00024880013673816975 0.0071540351804159083 142.96368000000004
decision_type=2 2 2 2 2 2 2 2 2 2 2 2 2 2 2
left_child=3 5 -3 10 -5 6 7 -2 9 -7 11 12 13 -1 -15
right_child=1 2 -4 4 -6 8 -8 -9 -10 -11 -12 -13 -14 14 -16
leaf_value=-1.6594598261781902e-06 4.5104891455539563e-06 0.00010706857243785635 -2.0370383780183537e-06 -4.7385395161051418e-05 -4.2016275502601703e-06 1.0542831848710622e-06 3.0371403589466573e-05 -1.9351635880108613e-05 -3.6652132956256337e-07 1.6829318983454099e-05 1.338136707457718e-06 1.4888645810704443e-05 -4.1503837446884943e-07 -4.1959953946060472e-06 -5.3085928899906359e-05
leaf_weight=39146 10433 500 2590 606 3735 93921 532 576 206765 994 34661 565 91022 4833 521
leaf_count=39146 10433 500 2590 606 3735 93921 532 576 206765 994 34661 565 91022 4833 521
internal_value=0 4.43523e-07 1.56176e-05 -8.01257e-07 -1.023e-05 2.93827e-07 4.51165e-06 3.262e-06 1.32471e-07 1.21949e-06 -5.61545e-07 -1.04539e-06 -1.11182e-06 -2.53704e-06 -8.9535e-06
internal_weight=0 316311 3090 175089 4341 313221 11541 11009 301680 94915 170748 136087 135522 44500 5354
internal_count=491400 316311 3090 175089 4341 313221 11541 11009 301680 94915 170748 136087 135522 44500 5354
is_linear=0
shrinkage=0.1


Tree=5
num_leaves=16
num_cat=0
split_feature=19 35 49 55 72 48 7 35 44 67 25 3 3 17 69
split_gain=1.41452e-05 5.24111e-05 0.000517527 2.61958e-05 1.81935e-05 1.58556e-05 1.93537e-05 0.000103196 1.50778e-05 2.14595e-05 1.49129e-05 2.66104e-05 1.48325e-05 3.07667e-05 1.47746e-05
threshold=550.00000000000011 1.0000000180025095e-35 -0.00028192176686531173 -0.0035606464028082314 -0.014144861150649555 0.00017838753911270103 2250.0000000000005 3211.5000000000005 0.47245000000000009 -0.0050321474422544967 0.15500000000000003 432.00000000000006 6250.0000000000009 30.500000000000004 -0.0093875310927845051
decision_type=2 2 2 2 2 2 2 2 2 2 2 2 2 2 2
left_child=5 2 -2 4 -3 6 12 -8 10 -10 -7 -12 -1 -14 -6
right_child=1 3 -4 -5 14 8 7 -9 9 -11 11 -13 13 -15 -16
leaf_value=-8.9877045073659355e-07 0.00010400450692769775 2.2373476025203001e-05 5.9610691678127121e-07 1.1167820196377963e-07 -9.8921090095966793e-06 -9.0370163793711028e-07 -5.0301335731804138e-05 -1.2681348802850684e-06 2.3853224702179434e-05 3.0895623597896469e-06 8.2506001014952052e-07 2.742960713322462e-05 -2.9420130341093807e-05 -2.6386887070057891e-06 7.9398269594739021e-06
leaf_weight=130286 530 736 5573 306063 555 25078 507 2798 520 11633 1318 526 557 1866 2854
leaf_count=130286 530 736 5573 306063 555 25078 507 2798 520 11633 1318 526 557 1866 2854
internal_value=0 3.99171e-07 9.57635e-06 2.1862e-07 8.11508e-06 -7.21131e-07 -1.23119e-06 -8.79002e-06 1.0543e-06 3.97799e-06 -2.65494e-07 8.41399e-06 -1.04294e-06 -8.79521e-06 5.03671e-06
internal_weight=0 316311 6103 310208 4145 175089 136014 3305 39075 12153 26922 1844 132709 2423 3409
internal_count=491400 316311 6103 310208 4145 175089 136014 3305 39075 12153 26922 1844 132709 2423 3409
is_linear=0
shrinkage=0.1


Tree=6
num_leaves=16
num_cat=0
split_feature=15 15 59 49 21 40 25 44 63 25 1 48 8 17 63
split_gain=1.4639e-05 0.000201751 0.000328126 2.46341e-05 1.49247e-05 2.76261e-05 5.40972e-05 1.44408e-05 1.46193e-05 3.90918e-05 1.67905e-05 1.35784e-05 1.23442e-05 1.17547e-05 1.1613e-05
threshold=8050.0000000000009 6950.0000000000009 0.00027793569583123295 0.0010321437358280507 750.00000000000011 57004.500000000007 0.12500000000000003 -0.89396999999999982 -0.0024691874710009993 0.115 102.00000000000001 0.00087001572946721073 112.95500000000001 55.500000000000007 -0.006290164111193485
decision_type=2 2 2 2 2 2 2 2 2 2 2 2 2 2 2
left_child=1 4 -3 -2 5 7 11 8 9 12 -11 13 -1 -7 -6
right_child=3 2 -4 -5 14 6 -8 -9 -10 10 -12 -13 -14 -15 -16
leaf_value=-3.3613430415001485e-06 -3.0057432303716905e-06 -8.7919408826616508e-06 0.00010241623167966321 -2.6963430594103748e-05 -6.2724090920423294e-06 -9.0531327308990456e-06 3.3973612979722673e-05 7.9473600715227869e-07 -7.8254868578541577e-07 -2.9189885310136057e-05 -9.4567974944676658e-06 1.2136225089330889e-05 1.8632217849281695e-05 3.8718630278980124e-06 -4.6583558379774729e-07
leaf_weight=518 2959 564 501 502 3489 922 673 167262 38224 695 1136 1454 503 2971 269027
leaf_count=518 2959 564 501 502 3489 922 673 167262 38224 695 1136 1454 503 2971 269027
internal_value=0 4.59681e-08 4.35229e-05 -6.48068e-06 -4.91343e-08 5.75134e-07 7.25359e-06 3.82158e-07 -1.29787e-06 -8.20444e-06 -1.6947e-05 3.89048e-06 7.47388e-06 8.10767e-07 -5.40177e-07
internal_weight=0 487939 1065 3461 486874 214358 6020 208338 41076 2852 1831 5347 1021 3893 272516
internal_count=491400 487939 1065 3461 486874 214358 6020 208338 41076 2852 1831 5347 1021 3893 272516
is_linear=0
shrinkage=0.1


Tree=7
num_leaves=16
num_cat=0
split_feature=51 24 32 44 72 29 49 60 3 59 19 63 21 35 49
split_gain=1.32508e-05 3.79573e-05 1.8512e-05 4.71491e-05 2.41222e-05 1.36778e-05 0.000220031 0.000404861 2.55088e-05 1.88036e-05 1.33129e-05 1.20911e-05 1.58803e-05 1.08045e-05 1.15258e-05
threshold=-0.0015534978423963339 0.065000000000000016 36653.500000000007 -0.20919499999999996 -0.0042342481901902476 1.0000000180025095e-35 -0.00054359672401055315 -0.00045080500903676985 6250.0000000000009 0.00027793569583123295 1450.0000000000002 -0.006290164111193485 750.00000000000011 500.50000000000006 -0.00041063908106558905
decision_type=2 2 2 2 2 2 2 2 2 2 2 2 2 2 2
left_child=1 2 -1 -4 -5 6 7 -2 13 -10 -7 12 -12 14 -8
right_child=5 -3 3 4 -6 10 8 -9 9 -11 11 -13 -14 -15 -16
leaf_value=2.2291887153991939e-06 0.00011228156662208193 -2.0274137844312698e-05 3.8030495778435754e-05 -1.0045735133500058e-05 1.7712739209202654e-05 -8.3897488539093629e-07 1.3631679216776937e-05 -9.6328901701155914e-08 -2.8681129286269425e-06 -2.8757894475179752e-05 2.334223449863549e-05 2.4596804940955143e-07 -5.7629649483146944e-07 3.1908530938595227e-06 -2.6433264817086556e-07
leaf_weight=20302 503 718 525 699 567 224623 605 884 625 509 525 182194 589 13034 44498
leaf_count=20302 503 718 525 699 567 224623 605 884 625 509 525 182194 589 13034 44498
internal_value=0 2.35357e-06 3.08895e-06 1.28348e-05 2.38638e-06 -1.14572e-07 1.2865e-06 4.06579e-05 3.65172e-07 -1.44888e-05 -3.22907e-07 3.09474e-07 1.06959e-05 6.54909e-07 -7.79351e-08
internal_weight=0 22811 22093 1791 1266 468589 60658 1387 59271 1134 407931 183308 1114 58137 45103
internal_count=491400 22811 22093 1791 1266 468589 60658 1387 59271 1134 407931 183308 1114 58137 45103
is_linear=0
shrinkage=0.1


Tree=8
num_leaves=16
num_cat=0
split_feature=15 15 49 42 25 37 21 25 38 52 45 49 19 52 51
split_gain=1.22239e-05 0.00037198 1.93862e-05 1.24604e-05 2.62166e-05 5.35642e-05 4.84173e-05 3.74859e-05 2.28842e-05 1.93378e-05 1.14313e-05 1.44148e-05 1.27411e-05 1.5246e-05 9.13006e-06
threshold=7450.0000000000009 6950.0000000000009 0.0012041245567723238 25621.500000000004 0.075000000000000025 25654.500000000004 650.00000000000011 0.14500000000000005 144.01283000000004 -5.7707588358046895e-05 -0.18727499999999997 -0.0013769045657566201 1550.0000000000002 -0.0028143611024016297 -0.00017893088830250867
decision_type=2 2 2 2 2 2 2 2 2 2 2 2 2 2 2
left_child=1 3 14 -1 10 -6 7 8 -7 -8 11 -5 -12 -14 -2
right_child=2 -3 -4 4 5 6 9 -9 -10 -11 12 -13 13 -15 -16
leaf_value=-3.0625845355401618e-07 -1.3035949679241251e-05 8.3539739389175213e-05 -2.361784892572651e-05 9.0319066959136844e-06 -1.644896134019754e-05 3.2189513645623023e-05 1.1859792194147706e-05 4.7289032987311485e-05 4.3820366960912736e-06 -1.58009079509349e-05 -1.0969413104847607e-06 1.6024381529416616e-06 1.3197129078286067e-05 1.0896727454515741e-06 -2.5725406848944866e-07
leaf_weight=385145 700 533 515 3186 644 502 508 547 721 503 41174 14483 1069 38392 2778
leaf_count=385145 700 533 515 3186 644 502 508 547 721 503 41174 14483 1069 38392 2778
internal_value=0 4.5143e-08 -5.5104e-06 -4.62618e-08 9.38083e-07 9.53853e-06 1.55565e-05 2.55286e-05 1.57961e-05 -1.90216e-06 6.38435e-07 2.94209e-06 1.33651e-07 1.41766e-06 -2.82916e-06
internal_weight=0 487407 3993 486874 101729 3425 2781 1770 1223 1011 98304 17669 80635 39461 3478
internal_count=491400 487407 3993 486874 101729 3425 2781 1770 1223 1011 98304 17669 80635 39461 3478
is_linear=0
shrinkage=0.1


Tree=9
num_leaves=16
num_cat=0
split_feature=11 15 15 52 53 29 44 72 52 34 37 44 23 53 30
split_gain=1.56764e-05 0.000354261 2.57802e-05 1.85221e-05 1.82217e-05 1.10745e-05 2.07504e-05 2.36006e-05 2.04933e-05 3.19398e-05 1.36457e-05 9.67205e-06 3.92883e-05 3.64725e-05 9.75704e-06
threshold=357.50000000000006 6950.0000000000009 6050.0000000000009 0.001591272652314957 -0.0030754173240233325 40437.000000000007 -0.25631999999999994 -0.010353203667836651 -0.0028143611024016297 1.0000000180025095e-35 23526.500000000004 0.34036000000000005 90.500000000000014 0.0010105875203416661 17894.000000000004
decision_type=2 2 2 2 2 2 2 2 2 2 2 2 2 2 2
left_child=2 4 5 -4 -2 8 7 -7 9 -1 -9 14 -13 -14 -8
right_child=1 -3 3 -5 -6 6 11 10 -10 -11 -12 12 13 -15 -16
leaf_value=-2.4302136479356796e-05 1.474815884149691e-05 7.214634659386122e-05 -5.0664811463789995e-06 -2.3621306428534104e-05 4.2450194868359614e-07 2.1240074006922488e-05 1.1273697738370231e-06 -9.0765501121329578e-06 -2.6231116516631832e-07 1.0325480484491404e-06 5.4050608631738935e-06 3.0552057138008444e-05 1.6302622213860233e-05 -2.0616281598085735e-05 -1.8268238901405667e-06
leaf_weight=906 904 703 4346 614 50617 887 34670 723 371326 1104 6504 523 515 557 16501
leaf_count=906 904 703 4346 614 50617 887 34670 723 371326 1104 6504 523 515 557 16501
internal_value=0 1.63791e-06 -1.9477e-07 -7.36339e-06 6.75828e-07 -1.12884e-07 1.13773e-06 5.84571e-06 -3.16821e-07 -1.0387e-05 3.9563e-06 4.13766e-07 8.08232e-06 -2.88005e-06 1.74737e-07
internal_weight=0 52224 439176 4960 51521 434216 60880 8114 373336 2010 7227 52766 1595 1072 51171
internal_count=491400 52224 439176 4960 51521 434216 60880 8114 373336 2010 7227 52766 1595 1072 51171
is_linear=0
shrinkage=0.1


Tree=10
num_leaves=16
num_cat=0
split_feature=11 21 54 60 21 27 60 45 35 11 55 64 67 55 31
split_gain=1.26979e-05 0.00015105 0.000412494 2.75069e-05 1.21629e-05 3.77944e-05 5.03755e-05 1.59284e-05 1.90329e-05 4.1598e-05 7.90012e-05 1.63896e-05 4.19852e-05 1.43242e-05 1.05094e-05
threshold=357.50000000000006 7050.0000000000009 -6.2851576065392476e-05 -0.0045218288839359846 2450.0000000000005 1.0000000180025095e-35 0.00029041064946333522 -0.31895999999999997 800.50000000000011 3.5000000000000004 -8.8339223304145773e-05 0.0054300220692922183 -0.00087328785468554482 -0.0035606464028082314 2698.5000000000005
decision_type=2 2 2 2 2 2 2 2 2 2 2 2 2 2 2
left_child=4 3 -3 -2 7 6 -6 8 -1 10 -10 14 -13 -7 -11
right_child=1 2 -4 -5 5 13 -8 -9 9 11 -12 12 -14 -15 -16
leaf_value=1.968327148099699e-07 1.800908438735089e-05 0.00010578291886622804 -3.9723753702139526e-06 2.2323055830295008e-07 -9.3021335604851526e-07 1.2993552297556482e-05 -4.301080751602058e-05 3.8439596780066913e-07 9.8199974425869318e-07 -2.6136390393657828e-06 -5.1672072839681751e-05 -3.5576547068787867e-05 -4.2088978962958547e-06 -1.0167139715871002e-06 4.7508500174349073e-06
leaf_weight=24214 885 511 1038 49790 660 735 500 291537 641 12781 513 515 2489 102307 2284
leaf_count=24214 885 511 1038 49790 660 735 500 291537 641 12781 513 515 2489 102307 2284
internal_value=0 1.47412e-06 3.22348e-05 5.33847e-07 -1.75293e-07 -1.11885e-06 -1.90684e-05 1.18223e-07 -1.66826e-06 -4.01759e-06 -2.24249e-05 -2.84199e-06 -9.58651e-06 -9.16779e-07 -1.49711e-06
internal_weight=0 52224 1549 50675 439176 104202 1160 334974 43437 19223 1154 18069 3004 103042 15065
internal_count=491400 52224 1549 50675 439176 104202 1160 334974 43437 19223 1154 18069 3004 103042 15065
is_linear=0
shrinkage=0.1


Tree=11
num_leaves=16
num_cat=0
split_feature=15 15 41 21 32 25 61 63 44 49 52 49 41 42 3
split_gain=1.27141e-05 0.000300925 1.70848e-05 1.12806e-05 2.4687e-05 4.38427e-05 1.272e-05 1.16276e-05 3.29179e-05 3.57711e-05 1.7506e-05 1.32622e-05 1.17987e-05 1.90543e-05 1.14467e-05
threshold=7450.0000000000009 6950.0000000000009 1.0000000180025095e-35 750.00000000000011 36653.500000000007 0.12500000000000003 0.00021565332027007059 -0.006290164111193485 -0.09966499999999999 -0.001128420669823049 -0.0028143611024016297 -0.0018602038330050028 38791.000000000007 105665.50000000001 1050.0000000000002
decision_type=2 2 2 2 2 2 2 2 2 2 2 2 2 2 2
left_child=1 3 -2 4 -1 6 -6 8 10 -10 -5 12 14 -14 -9
right_child=2 -3 -4 7 5 -7 -8 11 9 -11 -12 -13 13 -15 -16
leaf_value=3.7547655618036643e-07 -1.7780870557869224e-05 7.5143982575923263e-05 -2.1014705574999103e-06 1.9285392137210723e-05 -3.2680347686429499e-06 3.317334763560682e-05 1.0923185894015313e-05 2.0764630749862923e-05 -3.5841661450812069e-05 -6.2098209790410305e-06 -3.318501795063372e-06 -4.5958235814679496e-07 -1.1567544742706821e-05 1.3905083100626789e-05 3.3388731831002685e-06
leaf_weight=211207 896 533 3097 554 1331 618 1202 790 563 1474 898 266312 696 508 721
leaf_count=211207 896 533 3097 554 1331 618 1202 790 563 1474 898 266312 696 508 721
internal_value=0 4.60393e-08 -5.61981e-06 -3.61733e-08 5.06556e-07 9.29262e-06 3.46621e-06 -4.63078e-07 -6.19892e-06 -1.43997e-05 5.30585e-06 -3.8869e-07 6.56507e-06 -8.19958e-07 1.24496e-05
internal_weight=0 487407 3993 486874 214358 3151 2533 272516 3489 2037 1452 269027 2715 1204 1511
internal_count=491400 487407 3993 486874 214358 3151 2533 272516 3489 2037 1452 269027 2715 1204 1511
is_linear=0
shrinkage=0.1


Tree=12
num_leaves=16
num_cat=0
split_feature=19 27 15 15 47 55 33 41 7 64 15 61 11 72 34
split_gain=1.04294e-05 4.40649e-05 0.000518737 3.11803e-05 7.94025e-05 1.55042e-05 1.6912e-05 1.64516e-05 1.38253e-05 8.96102e-05 1.27085e-05 1.159e-05 1.18774e-05 1.70996e-05 9.81474e-06
threshold=550.00000000000011 1.0000000180025095e-35 2850.0000000000005 3550.0000000000005 104.53902000000001 -0.0035606464028082314 125966.50000000001 55829.000000000007 2250.0000000000005 0.0034269279022810521 6050.0000000000009 -0.0034581719775585991 90.500000000000014 -0.0030319947864259618 18258.000000000004
decision_type=2 2 2 2 2 2 2 2 2 2 2 2 2 2 2
left_child=3 2 -2 8 -5 6 7 11 14 -10 -7 12 -3 -14 -1
right_child=1 5 -4 4 -6 10 -8 -9 9 -11 -12 -13 13 -15 -16
leaf_value=-2.1052513887621298e-07 4.8400064558904424e-08 4.1445303998536118e-07 0.00010635245092271361 -4.2694166599133945e-05 -3.5618168048002173e-06 1.6838514706552431e-07 2.3043397387475458e-05 -7.4639098088750069e-06 -8.068735381260889e-08 -4.4978863868309699e-05 -5.5579261055929746e-06 -1.5478897098959845e-06 2.8106721896609715e-05 4.2306396811553391e-06 -9.5169751078060189e-06
leaf_weight=165990 5603 561 500 602 3739 302137 524 952 3098 519 3926 880 707 521 1141
leaf_count=165990 5603 561 500 602 3739 302137 524 952 3098 519 3926 880 707 521 1141
internal_value=0 3.42756e-07 8.75756e-06 -6.19213e-07 -8.9886e-06 1.77204e-07 6.25213e-06 3.82224e-06 -4.06435e-07 -6.52309e-06 9.49313e-08 7.84788e-06 1.24696e-05 1.79769e-05 -2.7406e-07
internal_weight=0 316311 6103 175089 4341 310208 4145 3621 170748 3617 306063 2669 1789 1228 167131
internal_count=491400 316311 6103 175089 4341 310208 4145 3621 170748 3617 306063 2669 1789 1228 167131
is_linear=0
shrinkage=0.1


Tree=13
num_leaves=16
num_cat=0
split_feature=15 15 27 21 32 2 28 17 65 3 30 55 49 33 42
split_gain=9.16645e-06 0.000246653 1.58956e-05 9.48918e-06 1.96513e-05 3.99209e-05 1.90467e-05 1.11645e-05 1.03984e-05 2.53763e-05 1.80415e-05 1.31333e-05 1.13045e-05 1.00105e-05 1.20288e-05
threshold=7450.0000000000009 6950.0000000000009 97.428400000000025 750.00000000000011 36653.500000000007 109.12500000000001 3345.0000000000005 100.50000000000001 -0.0073529411764706168 2450.0000000000005 19851.500000000004 -0.0035606464028082314 -0.001128420669823049 667.50000000000011 960.50000000000011
decision_type=2 2 2 2 2 2 2 2 2 2 2 2 2 2 2
left_child=1 3 -2 4 13 -6 -7 -8 9 10 -5 -12 -10 14 -1
right_child=2 -3 -4 8 5 6 7 -9 12 -11 11 -13 -14 -15 -16
leaf_value=-5.2646403523673977e-08 -1.9376771281244217e-05 6.8028682517848817e-05 -2.0460787518634941e-06 4.3326977181087129e-06 3.3561506984805353e-05 1.919608057723341e-05 3.1049920632313239e-06 -1.3758955822097805e-05 2.8493125174310771e-06 -2.4187784136384487e-05 -1.90799812907758e-07 -2.0799487870971719e-05 -4.8573832286582687e-07 9.7221524343269017e-07 -3.9200697032197143e-06
leaf_weight=86850 628 533 3365 1831 522 585 1514 530 10580 618 575 669 258243 115494 8863
leaf_count=86850 628 533 3365 1831 522 585 1514 530 10580 618 575 669 258243 115494 8863
internal_value=0 3.90919e-08 -4.77177e-06 -3.53389e-08 4.62435e-07 8.30134e-06 3.28582e-06 -1.26775e-06 -4.26882e-07 -5.69712e-06 -1.98094e-06 -1.12738e-05 -3.54482e-07 3.45486e-07 -4.10769e-07
internal_weight=0 487407 3993 486874 214358 3151 2629 2044 272516 3693 3075 1244 268823 211207 95713
internal_count=491400 487407 3993 486874 214358 3151 2629 2044 272516 3693 3075 1244 268823 211207 95713
is_linear=0
shrinkage=0.1


Tree=14
num_leaves=16
num_cat=0
split_feature=11 15 50 15 15 56 19 7 64 48 26 21 41 60 72
split_gain=1.01062e-05 0.000275727 2.40816e-05 2.21583e-05 1.51847e-05 2.22704e-05 9.23435e-06 9.71136e-06 7.87138e-05 6.57146e-05 9.81677e-06 8.61213e-06 1.67416e-05 4.28946e-05 1.6541e-05
threshold=357.50000000000006 6950.0000000000009 -0.002210265737444594 6050.0000000000009 10650.000000000002 0.001345572915330995 2750.0000000000005 2250.0000000000005 0.0071540351804159083 0.00029574721197300763 236.50000000000003 1050.0000000000002 104973.00000000001 -0.00078953743292375911 0.0052103735007227323
decision_type=2 2 2 2 2 2 2 2 2 2 2 2 2 2 2
left_child=3 2 -2 6 5 -5 7 10 9 -9 11 12 -1 -14 -15
right_child=1 -3 -4 4 -6 -7 -8 8 -10 -11 -12 -13 13 14 -16
leaf_value=1.6194212831189285e-07 1.6643956872280192e-05 6.3519218041009116e-05 1.7740712886300146e-07 -7.0130556716171665e-06 1.2268244336098526e-06 -2.8998959045130389e-05 8.1846320204398209e-07 3.9145053865905846e-07 -3.3701588976581131e-05 -3.4852324693085818e-05 -1.1320113880212204e-05 -7.7706194848092844e-07 2.9132363046414225e-05 -1.3532002668569584e-05 9.3331753404310192e-06
leaf_weight=187509 904 703 50617 2812 1597 551 90467 12725 783 552 793 139411 708 606 662
leaf_count=187509 904 703 50617 2812 1597 551 90467 12725 783 552 793 139411 708 606 662
internal_value=0 1.3151e-06 4.66333e-07 -1.56384e-07 -6.8024e-06 -1.06153e-05 -8.0467e-08 -3.17045e-07 -2.89087e-06 -1.07383e-06 -2.07281e-07 -1.80487e-07 2.58435e-07 9.41492e-06 -1.5945e-06
internal_weight=0 52224 51521 439176 4960 3363 434216 343749 14060 13277 329689 328896 189485 1976 1268
internal_count=491400 52224 51521 439176 4960 3363 434216 343749 14060 13277 329689 328896 189485 1976 1268
is_linear=0
shrinkage=0.1


Tree=15
num_leaves=16
num_cat=0
split_feature=15 15 41 11 19 52 19 64 54 50 15 66 52 48 23
split_gain=9.67084e-06 0.000201749 1.53897e-05 1.38115e-05 7.5659e-06 1.76051e-05 1.14701e-05 1.30048e-05 8.39489e-06 1.14775e-05 1.07885e-05 4.08518e-05 9.55364e-06 9.59322e-06 1.96146e-05
threshold=7450.0000000000009 6950.0000000000009 1.0000000180025095e-35 299.50000000000006 1350.0000000000002 -0.0028143611024016297 1850.0000000000002 -0.002984145037052965 0.00016313879059726147 -0.002210265737444594 3550.0000000000005 -0.0013145132790221557 -0.00061586697466436957 0.0014129020305198028 30.500000000000004
decision_type=2 2 2 2 2 2 2 2 2 2 2 2 2 2 2
left_child=1 4 -2 -4 8 6 -6 -8 10 -10 -1 -12 -11 -14 -15
right_child=2 -3 3 -5 5 -7 7 -9 9 12 11 -13 13 14 -16
leaf_value=-7.6837625273857341e-07 -1.6443325986464126e-05 6.1530143277646233e-05 1.6708205905143469e-06 -1.5356698441501314e-05 2.0006081786374702e-05 3.4096960211509632e-07 -3.3925520531050291e-06 1.6591876113852433e-05 1.4386320836933719e-05 -4.1770193721268359e-06 -3.2959770236629998e-05 -9.8924044494883694e-07 4.5709098524980685e-07 1.0447964024055621e-05 -9.2287649631469972e-06
leaf_weight=146316 896 533 2509 588 701 203164 847 529 569 4906 500 1992 124252 638 2460
leaf_count=146316 896 533 2509 588 701 203164 847 529 569 4906 500 1992 124252 638 2460
internal_value=0 4.0153e-08 -4.90129e-06 -1.56204e-06 -2.71625e-08 4.34614e-07 9.59455e-06 4.29041e-06 -3.63684e-07 2.14198e-07 -8.79497e-07 -7.40387e-06 1.53226e-07 3.20043e-07 -5.17655e-06
internal_weight=0 487407 3993 3097 486874 205241 2077 1376 281633 132825 148808 2492 132256 127350 3098
internal_count=491400 487407 3993 3097 486874 205241 2077 1376 281633 132825 148808 2492 132256 127350 3098
is_linear=0
shrinkage=0.1


Tree=16
num_leaves=16
num_cat=0
split_feature=29 15 15 15 11 1 68 33 48 51 61 54 42 48 37
split_gain=8.92914e-06 0.000177494 1.87422e-05 3.3978e-05 1.12645e-05 9.47077e-06 1.69735e-05 8.9957e-06 1.72408e-05 1.05951e-05 3.18307e-05 5.30488e-05 8.15736e-06 1.57839e-05 3.09554e-05
threshold=1.0000000180025095e-35 6950.0000000000009 6950.0000000000009 8050.0000000000009 299.50000000000006 203.50000000000003 -0.0045064695498859266 1085.5000000000002 0.00019331153531565451 -0.00023928075733831153 0.00030377824232163958 0.00018731561124085697 25621.500000000004 -0.0014063703754264021 350.50000000000006
decision_type=2 2 2 2 2 2 2 2 2 2 2 2 2 2 2
left_child=1 5 12 -4 -5 6 -1 9 -9 10 -7 -12 13 14 -2
right_child=2 -3 3 4 -6 7 -8 8 -10 -11 11 -13 -14 -15 -16
leaf_value=-1.8134705453393933e-05 1.8204866703948801e-06 4.7429039634905549e-05 -2.4412339619457282e-05 1.0997423616338458e-06 -1.5154765717628239e-05 -1.6873454758822839e-06 -5.508133034443328e-07 2.4774940278918609e-06 1.7979670746053448e-05 3.8078647274575457e-07 4.6601903662891491e-07 4.3318125423096579e-05 6.8255592248569581e-07 -2.9626104528389989e-07 -2.7272470272187219e-05
leaf_weight=561 857 817 879 2307 523 1795 25579 3150 929 27042 650 520 101707 323446 638
leaf_count=561 857 817 879 2307 523 1795 25579 3150 929 27042 650 520 101707 323446 638
internal_value=0 1.13184e-06 -1.60543e-07 -7.23842e-06 -1.90418e-06 5.03789e-07 -9.28188e-07 1.60195e-06 6.00814e-06 1.00299e-06 6.67776e-06 1.95114e-05 -9.90123e-08 -3.43644e-07 -1.05951e-05
internal_weight=0 61043 430357 3709 2830 60226 26140 34086 4079 30007 2965 1170 426648 324941 1495
internal_count=491400 61043 430357 3709 2830 60226 26140 34086 4079 30007 2965 1170 426648 324941 1495
is_linear=0
shrinkage=0.1


Tree=17
num_leaves=16
num_cat=0
split_feature=15 15 57 29 57 49 55 42 70 24 49 44 9 17 25
split_gain=9.89214e-06 7.97395e-05 0.000343067 2.02689e-05 9.35752e-06 7.10704e-06 2.34086e-05 3.58676e-05 1.79305e-05 5.83983e-05 2.42039e-05 3.04472e-05 2.51059e-05 2.34221e-05 1.81567e-05
threshold=8050.0000000000009 6950.0000000000009 0.00011644251795905892 1.0000000180025095e-35 -0.00040026557577699235 3.5821134839131303e-05 -0.0035606464028082314 40228.000000000007 -0.0072307147049267542 0.03500000000000001 -0.0018602038330050028 0.093345000000000025 205.00000000000003 87.500000000000014 0.045000000000000005
decision_type=2 2 2 2 2 2 2 2 2 2 2 2 2 2 2
left_child=1 5 -3 -2 -5 8 7 -7 9 -1 11 12 -10 -14 -15
right_child=3 2 -4 4 -6 6 -8 -9 10 -11 -12 -13 13 14 -16
leaf_value=-2.6938844226069099e-06 -2.1533969890845797e-05 8.73635445256712e-05 -2.6323781862483758e-05 -1.36234891063982e-05 1.062576446039521e-06 -1.4576463508163312e-06 2.9227016718471717e-07 3.0168967228804241e-05 -1.3486968948128292e-05 -3.6084022142061028e-05 -3.7424868212083591e-07 2.8987798169445677e-05 -4.2464343356222425e-06 6.9720439920203744e-06 2.4796114246798939e-05
leaf_weight=9317 631 503 562 535 2295 781 235727 663 708 555 234476 538 1292 2020 797
leaf_count=9317 631 503 562 535 2295 781 235727 663 708 555 234476 538 1292 2020 797
internal_value=0 3.77873e-08 2.73708e-05 -5.32733e-06 -1.71376e-06 -2.20016e-08 3.70027e-07 1.30634e-05 -3.94355e-07 -4.57106e-06 -2.22432e-07 6.42508e-06 3.9051e-06 6.90183e-06 1.20149e-05
internal_weight=0 487939 1065 3461 2830 486874 237171 1444 249703 9872 239831 5355 4817 4109 2817
internal_count=491400 487939 1065 3461 2830 486874 237171 1444 249703 9872 239831 5355 4817 4109 2817
is_linear=0
shrinkage=0.1


Tree=18
num_leaves=16
num_cat=0
split_feature=15 15 29 11 21 32 2 53 1 25 58 11 1 24 63
split_gain=9.26164e-06 0.000155487 1.67615e-05 1.01881e-05 7.07921e-06 1.67725e-05 2.96308e-05 1.31868e-05 1.62964e-05 9.27013e-06 3.85053e-05 1.02001e-05 1.3077e-05 9.78707e-06 1.31296e-05
threshold=7450.0000000000009 6950.0000000000009 1.0000000180025095e-35 299.50000000000006 650.00000000000011 36653.500000000007 110.89500000000002 -0.00061026158164789724 350.00000000000006 0.30500000000000005 -0.0025180916299412655 3.5000000000000004 3150.0000000000005 0.095000000000000015 0.0018542726016602675
decision_type=2 2 2 2 2 2 2 2 2 2 2 2 2 2 2
left_child=1 4 -2 -4 5 9 -7 -8 -9 11 -11 12 13 -1 -15
right_child=2 -3 3 -5 -6 6 7 8 -10 10 -12 -13 -14 14 -16
leaf_value=-5.6590320437465912e-07 -1.8448608091427144e-05 5.4020941603446541e-05 9.1795810768258458e-07 -1.3564689438053177e-05 -3.3686244754700921e-07 2.8051085501601458e-05 1.1942185866465297e-05 -1.7348170717967304e-05 5.1500486064606726e-06 -2.8551765101611933e-05 -5.5690580201369408e-07 6.2742526450125406e-07 -1.4970753780533157e-05 -8.0090797689867068e-07 -2.2063501482392557e-05
leaf_weight=11244 734 533 2665 594 287856 587 951 519 848 567 3681 178680 762 661 518
leaf_count=11244 734 533 2665 594 287856 587 951 519 848 567 3681 178680 762 661 518
internal_value=0 3.92943e-08 -4.79648e-06 -1.72171e-06 -1.98015e-08 4.3879e-07 7.9816e-06 2.89929e-06 -3.3917e-06 3.27059e-07 -4.29351e-06 4.29361e-07 -2.25476e-06 -1.47479e-06 -1.01427e-05
internal_weight=0 487407 3993 3259 486874 199018 2905 2318 1367 196113 4248 191865 13185 12423 1179
internal_count=491400 487407 3993 3259 486874 199018 2905 2318 1367 196113 4248 191865 13185 12423 1179
is_linear=0
shrinkage=0.1


Tree=19
num_leaves=16
num_cat=0
split_feature=11 21 8 60 21 35 25 70 48 44 31 35 1 68 25
split_gain=8.37152e-06 0.000117782 0.000406599 1.93616e-05 8.87469e-06 3.86421e-05 1.3441e-05 1.68476e-05 1.33283e-05 1.05834e-05 2.46656e-05 2.67912e-05 4.15542e-05 9.07169e-05 2.10427e-05
threshold=357.50000000000006 7050.0000000000009 126.40500000000002 -0.0045218288839359846 3150.0000000000005 1.0000000180025095e-35 0.14500000000000005 -0.0072307147049267542 -9.2980473718584631e-05 -0.89396999999999982 8731.5000000000018 800.50000000000011 2650.0000000000005 -0.00019474141815939425 0.35500000000000004
decision_type=2 2 2 2 2 2 2 2 2 2 2 2 2 2 2
left_child=4 3 -3 -2 9 -6 7 8 -7 10 11 -1 14 -14 -13
right_child=1 2 -4 -5 5 6 -8 -9 -10 -11 -12 12 13 -15 -16
leaf_value=3.6588933832678455e-07 1.502795934172e-05 -7.9558087435729849e-06 0.00010064040020148226 1.0603466648238087e-07 -2.2658646546479907e-05 -2.3451739948579432e-05 1.4179368247427285e-05 -8.4151230675656249e-07 -1.6786995147617874e-06 2.5888940065525437e-07 2.0371844812577352e-05 -2.6104445498736151e-06 -5.4095996444722669e-05 -3.281719639206232e-07 -2.2869534773845843e-05
leaf_weight=27864 885 1031 518 49790 827 595 585 68050 533 321729 517 16637 521 789 529
leaf_count=27864 885 1031 518 49790 827 595 585 68050 533 321729 517 16637 521 789 529
internal_value=0 1.19693e-06 2.83598e-05 3.66635e-07 -1.42331e-07 -1.16953e-06 -9.1479e-07 -1.04243e-06 -1.31636e-05 5.43936e-08 -1.34971e-06 -1.59205e-06 -4.54486e-06 -2.17122e-05 -3.23476e-06
internal_weight=0 52224 1549 50675 439176 70590 69763 69178 1128 368586 46857 46340 18476 1310 17166
internal_count=491400 52224 1549 50675 439176 70590 69763 69178 1128 368586 46857 46340 18476 1310 17166
is_linear=0
shrinkage=0.1


Tree=20
num_leaves=16
num_cat=0
split_feature=52 15 35 21 15 3 49 63 11 48 5 67 23 44 39
split_gain=8.10178e-06 2.77786e-05 1.67239e-05 0.00052613 2.6225e-05 5.20343e-05 1.55542e-05 1.37663e-05 4.65419e-05 1.14399e-05 2.15319e-05 1.88622e-05 1.31735e-05 1.7033e-05 1.70469e-05
threshold=0.001591272652314957 6950.0000000000009 1.0000000180025095e-35 4250.0000000000009 6950.0000000000009 7550.0000000000009 -0.00045034696370199739 -0.00031950157804860874 3.5000000000000004 -0.0014063703754264021 172.50000000000003 -0.004273321770217108 96.500000000000014 -0.16040999999999997 54630.500000000007
decision_type=2 2 2 2 2 2 2 2 2 2 2 2 2 2 2
left_child=2 7 3 6 9 -6 -1 8 -2 10 12 -12 -4 14 -14
right_child=1 -3 4 -5 5 -7 -8 -9 -10 -11 11 -13 13 -15 -16
leaf_value=-1.6989178554975235e-05 -2.9407428680783408e-05 -2.1872060977169301e-05 6.6095662093859105e-07 0.0001042239454909577 -2.8264426988392546e-05 -1.2517421304375835e-06 1.3020696268520025e-07 -1.4356506630395764e-07 -2.3759427241487415e-06 6.794708564698605e-08 -2.1318032728382072e-05 2.9665626558774798e-06 1.141814815834216e-05 7.9135872749951635e-07 3.2336843861757141e-05
leaf_weight=561 676 634 1690 500 967 2716 9835 52347 11026 406168 532 802 1455 959 532
leaf_count=561 676 634 1690 500 967 2716 9835 52347 11026 406168 532 802 1455 959 532
internal_value=0 -1.04291e-06 1.58088e-07 4.02548e-06 5.6748e-08 -8.34413e-06 -7.93608e-07 -8.36731e-07 -3.93749e-06 1.31821e-07 4.47748e-06 -6.71815e-06 7.69899e-06 1.17364e-05 1.70189e-05
internal_weight=0 64683 426717 10896 415821 3683 10396 64049 11702 412138 5970 1334 4636 2946 1987
internal_count=491400 64683 426717 10896 415821 3683 10396 64049 11702 412138 5970 1334 4636 2946 1987
is_linear=0
shrinkage=0.1


Tree=21
num_leaves=16
num_cat=0
split_feature=25 15 15 3 37 25 32 66 41 29 24 67 48 44 34
split_gain=7.3588e-06 0.000347176 3.56985e-05 4.0639e-05 2.59477e-05 5.1648e-05 4.00713e-05 2.08297e-05 1.79524e-05 1.75712e-05 1.23653e-05 4.43032e-05 1.37021e-05 2.2895e-05 1.19782e-05
threshold=0.075000000000000025 6950.0000000000009 6950.0000000000009 7550.0000000000009 82874.500000000015 0.16500000000000004 28573.000000000004 0.0018769920189148916 76888.500000000015 1.0000000180025095e-35 0.065000000000000016 -0.00018722018638533952 -0.0014063703754264021 -0.11035499999999999 6001.5000000000009
decision_type=2 2 2 2 2 2 2 2 2 2 2 2 2 2 2
left_child=2 4 10 -4 6 7 -2 8 -6 -5 12 -12 13 14 -1
right_child=1 -3 3 9 5 -7 -8 -9 -10 -11 11 -13 -14 -15 -16
leaf_value=1.4595279428258484e-05 1.7903923075156347e-07 7.3257862078876458e-05 -2.9080789455241209e-05 -2.0436051686440317e-05 6.2271763454191393e-06 3.7073472164987497e-05 -2.6686467048720409e-05 1.8467930237480359e-05 -1.941070021841697e-05 -7.0063796596648385e-07 -3.359069260349283e-05 1.3078599351822186e-06 -1.0975794332966574e-07 -6.6060995829967161e-06 2.3208287568464654e-06
leaf_weight=1990 81493 657 848 552 579 565 559 518 517 2469 502 1321 396341 1165 1324
leaf_count=1990 81493 657 848 552 579 565 559 518 517 2469 502 1321 396341 1165 1324
internal_value=0 8.46836e-07 -1.76837e-07 -9.73665e-06 2.82032e-07 1.10524e-05 -3.98882e-09 1.94336e-06 -5.8666e-06 -4.30671e-06 -8.49764e-08 -8.30216e-06 -4.76032e-08 5.4524e-06 9.69143e-06
internal_weight=0 84888 406512 3869 84231 2179 82052 1614 1096 3021 402643 1823 400820 4479 3314
internal_count=491400 84888 406512 3869 84231 2179 82052 1614 1096 3021 402643 1823 400820 4479 3314
is_linear=0
shrinkage=0.1


Tree=22
num_leaves=16
num_cat=0
split_feature=19 35 61 49 50 70 39 7 12 21 17 41 50 19 32
split_gain=7.44993e-06 3.44466e-05 0.000485529 1.22616e-05 2.37484e-05 2.06761e-05 4.62104e-05 2.3381e-05 0.000111553 1.23642e-05 1.83119e-05 1.08427e-05 1.40472e-05 1.10122e-05 1.07464e-05
threshold=550.00000000000011 1.0000000180025095e-35 -0.00052836314641169213 1.0000000180025095e-35 -0.0013553962939973905 -0.0072307147049267542 297.50000000000006 2250.0000000000005 143.43500000000003 6250.0000000000009 40.500000000000007 41882.500000000007 -0.002210265737444594 218.00000000000003 2102.5000000000005
decision_type=2 2 2 2 2 2 2 2 2 2 2 2 2 2 2
left_child=3 2 -2 5 -5 6 -1 11 -9 -6 -11 12 14 -13 -7
right_child=1 -3 -4 4 9 7 -8 8 -10 10 -12 13 -14 -15 -16
leaf_value=-3.5189217510255607e-05 9.8536823449074952e-05 1.4331515904306353e-07 -1.0312988084012326e-06 1.8365973209410163e-05 3.336122764173626e-07 1.9452627853908434e-05 -4.0647546885554329e-06 1.9945862978166976e-07 -5.2739248704908797e-05 -2.4138173117419697e-05 -1.9849885830936969e-06 -3.9090198697522285e-07 -6.8448164978269931e-07 -1.209259930863438e-05 1.7747208959300003e-06
leaf_weight=555 537 310208 5566 722 85909 606 3395 1937 501 504 1437 1560 75508 1660 795
leaf_count=555 537 310208 5566 722 85909 606 3395 1937 501 504 1437 1560 75508 1660 795
internal_value=0 2.89688e-07 7.72965e-06 -5.23343e-07 3.03736e-07 -1.37007e-06 -8.43794e-06 -1.03194e-06 -1.06793e-05 1.5529e-07 -7.73728e-06 -7.38411e-07 -5.00392e-07 -6.42345e-06 9.42127e-06
internal_weight=0 316311 6103 175089 88572 86517 3950 82567 2438 87850 1941 80129 76909 3220 1401
internal_count=491400 316311 6103 175089 88572 86517 3950 82567 2438 87850 1941 80129 76909 3220 1401
is_linear=0
shrinkage=0.1


Tree=23
num_leaves=16
num_cat=0
split_feature=15 15 41 11 19 72 50 21 31 25 51 48 55 23 13
split_gain=8.49812e-06 0.000147982 1.57932e-05 1.02337e-05 6.42874e-06 7.12022e-06 7.15595e-06 6.7497e-06 1.13507e-05 3.41956e-05 2.81087e-05 7.2441e-06 2.0041e-05 8.35484e-06 7.69179e-06
threshold=7450.0000000000009 6950.0000000000009 1.0000000180025095e-35 299.50000000000006 2750.0000000000005 -0.014144861150649555 -0.002210265737444594 650.00000000000011 37921.500000000007 0.065000000000000016 8.471345688454425e-05 0.0014129020305198028 0.0037372203595571478 90.500000000000014 100.50000000000001
decision_type=2 2 2 2 2 2 2 2 2 2 2 2 2 2 2
left_child=1 4 -2 -4 7 -6 -7 8 -1 10 -10 14 13 -13 -9
right_child=2 -3 3 -5 5 6 -8 11 9 -11 -12 12 -14 -15 -16
leaf_value=1.7805798977797449e-07 -1.6286874167040617e-05 5.2700319334403328e-05 1.5710384946458649e-06 -1.3086078108405555e-05 9.7436713715993614e-06 -1.0076587139314394e-05 6.832141344971031e-07 -3.2040342243895185e-06 -1.5808538234082024e-05 3.0340829577985707e-05 1.4352776577892352e-05 -1.0139508088156748e-05 -2.098798204162037e-05 3.915156913438797e-06 -3.8087173941661305e-07
leaf_weight=171218 896 533 2509 588 862 622 98590 10137 614 501 622 630 653 1287 201138
leaf_count=171218 896 533 2509 588 862 622 98590 10137 614 501 622 630 653 1287 201138
internal_value=0 3.76398e-08 -4.59452e-06 -1.21178e-06 -2.00121e-08 6.94381e-07 6.15757e-07 -2.04842e-07 2.59654e-07 8.30267e-06 -6.30271e-07 -5.8052e-07 -5.85768e-06 -7.03747e-07 -5.16327e-07
internal_weight=0 487407 3993 3097 486874 100074 99212 386800 172955 1737 1236 213845 2570 1917 211275
internal_count=491400 487407 3993 3097 486874 100074 99212 386800 172955 1737 1236 213845 2570 1917 211275
is_linear=0
shrinkage=0.1


Tree=24
num_leaves=16
num_cat=0
split_feature=29 21 61 15 3 21 37 56 39 7 68 62 38 33 12
split_gain=7.48353e-06 0.000164762 0.00039985 2.07048e-05 4.73358e-05 9.50277e-06 1.54826e-05 1.46218e-05 9.23794e-06 2.55851e-05 0.000123353 1.2379e-05 1.14079e-05 7.92301e-06 8.92157e-06
threshold=1.0000000180025095e-35 7050.0000000000009 0.00021565332027007059 6950.0000000000009 7550.0000000000009 2650.0000000000005 75.500000000000014 0.00021024083089504766 20.500000000000004 2650.0000000000005 -0.00038217233511284027 -0.0024938223301025904 174.37976500000002 667.50000000000011 104.50500000000001
decision_type=2 2 2 2 2 2 2 2 2 2 2 2 2 2 2
left_child=1 5 -3 8 -5 13 -7 -8 9 11 -11 -2 -13 -1 -15
right_child=3 2 -4 4 -6 6 7 -9 -10 10 -12 12 -14 14 -16
leaf_value=1.1475803051782697e-07 -1.352507629264978e-05 0.00010467838935473993 -2.0924917505710349e-05 -2.6295347762783744e-05 -7.6471353182740478e-07 -2.6845813251966097e-07 -2.7297657018102755e-05 -3.2678291887577873e-06 6.4845178408406431e-08 -5.5021409846399461e-05 1.9328981068726615e-06 -4.7457629830933418e-07 -1.5640658056151694e-05 1.0328757602075665e-05 1.9629047751817825e-06
leaf_weight=46711 767 500 514 991 2718 2254 501 512 387862 510 1495 35511 503 1498 8553
leaf_count=46711 767 500 514 991 2718 2254 501 512 387862 510 1495 35511 503 1498 8553
internal_value=0 1.03617e-06 4.10097e-05 -1.46974e-07 -7.58619e-06 3.60947e-07 -4.88349e-06 -1.51523e-05 -8.23018e-08 -1.55378e-06 -1.25542e-05 -9.54125e-07 -6.86398e-07 6.62797e-07 3.20975e-06
internal_weight=0 61043 1014 430357 3709 60029 3267 1013 426648 38786 2005 36781 36014 56762 10051
internal_count=491400 61043 1014 430357 3709 60029 3267 1013 426648 38786 2005 36781 36014 56762 10051
is_linear=0
shrinkage=0.1


Tree=25
num_leaves=16
num_cat=0
split_feature=15 15 29 53 21 24 50 9 59 73 71 1 62 37 44
split_gain=7.62478e-06 0.000130155 2.03892e-05 8.75925e-06 5.79947e-06 2.51648e-05 1.41145e-05 8.05111e-06 1.02142e-05 2.51419e-05 3.54709e-05 2.31371e-05 1.90027e-05 2.33626e-05 1.59302e-05
threshold=7450.0000000000009 6950.0000000000009 1.0000000180025095e-35 -0.00031960056308399926 2450.0000000000005 0.065000000000000016 -0.002210265737444594 101.00000000000001 -0.0043278863833426376 1.5000000000000002 -0.012231224754821133 550.00000000000011 -0.0033634843611782812 24557.500000000004 -0.19124499999999997
decision_type=2 2 2 2 2 2 2 2 2 2 2 2 2 2 2
left_child=1 4 -2 -4 7 6 -6 -1 9 10 -9 -12 13 -11 -15
right_child=2 -3 3 -5 5 -7 -8 8 -10 12 11 -13 -14 14 -16
leaf_value=-1.1475997213742674e-06 -1.9409251502430837e-05 4.9424567478263361e-05 -1.2067895166785178e-05 1.4590042127210715e-06 1.2021817350655459e-05 -1.8061206958460578e-05 -6.2214923549648077e-07 3.3658532888297266e-05 2.5689521946077263e-07 -2.2253636523203319e-05 1.9220593803506097e-05 -4.5132961445626823e-06 1.5042103855436996e-05 1.3347946812637982e-05 -4.2530942855740074e-06
leaf_weight=41260 734 533 583 2676 890 824 110245 596 327436 558 700 994 655 689 2027
leaf_count=41260 734 533 583 2676 890 824 110245 596 327436 558 700 994 655 689 2027
internal_value=0 3.56533e-08 -4.35204e-06 -9.60812e-07 -1.84147e-08 -6.49987e-07 -5.20893e-07 1.70189e-07 3.33147e-07 4.34788e-06 1.26763e-05 5.2941e-06 -5.06296e-07 -3.61693e-06 2.11971e-07
internal_weight=0 487407 3993 3259 486874 111959 111135 374915 333655 6219 2290 1694 3929 3274 2716
internal_count=491400 487407 3993 3259 486874 111959 111135 374915 333655 6219 2290 1694 3929 3274 2716
is_linear=0
shrinkage=0.1


Tree=26
num_leaves=16
num_cat=0
split_feature=60 48 35 21 68 21 30 28 30 56 13 48 17 45 61
split_gain=6.89248e-06 3.391e-05 1.74374e-05 0.000455088 1.45786e-05 1.40137e-05 2.45263e-05 1.2182e-05 9.33593e-06 9.1437e-06 8.546e-06 8.2523e-06 2.39868e-05 1.59869e-05 2.8589e-05
threshold=0.0029216967133645082 -0.0014063703754264021 10.500000000000002 4850.0000000000009 -0.0013216539682425752 6250.0000000000009 1.0000000180025095e-35 12.500000000000002 9835.5000000000018 -0.0017003566573536297 2150.0000000000005 -0.0014063703754264021 300.50000000000006 -0.065184999999999979 -0.002411277431488001
decision_type=2 2 2 2 2 2 2 2 2 2 2 2 2 2 2
left_child=2 -2 3 7 8 9 -7 -1 -3 -6 -10 12 13 -4 -15
right_child=1 4 11 -5 5 6 -8 -9 10 -11 -12 -13 -14 14 -16
leaf_value=-1.7568208306164418e-07 -2.0794056853823198e-05 -3.2738394870565823e-06 3.4840792902041657e-06 9.3867209771634173e-05 -1.3026810467625859e-05 -2.6734472517336163e-05 2.1975787839752044e-06 1.3743706639225868e-05 -1.9250027432989278e-05 1.3658014730669157e-07 -2.875492313871365e-06 -4.3291665020703527e-08 -1.206717365415683e-05 3.4457985911112616e-05 1.0685641059362386e-06
leaf_weight=16286 853 3913 3927 537 533 539 642 654 826 53063 519 407261 821 505 521
leaf_count=16286 853 3913 3927 537 533 539 642 654 826 53063 519 407261 821 505 521
internal_value=0 -9.95857e-07 1.40846e-07 3.23476e-06 -7.14557e-07 -2.31757e-07 -1.10068e-05 3.61702e-07 -5.74428e-06 5.67323e-09 -1.29315e-05 9.93094e-09 3.76391e-06 6.38804e-06 1.75029e-05
internal_weight=0 60888 430512 17477 60035 54777 1181 16940 5258 53596 1345 413035 5774 4953 1026
internal_count=491400 60888 430512 17477 60035 54777 1181 16940 5258 53596 1345 413035 5774 4953 1026
is_linear=0
shrinkage=0.1


Tree=27
num_leaves=16
num_cat=0
split_feature=15 15 35 11 54 33 42 64 18 69 24 12 44 48 73
split_gain=7.36063e-06 0.000104808 2.51659e-05 1.0981e-05 5.78069e-06 9.52163e-06 1.80804e-05 5.3233e-05 0.000123873 1.63665e-05 3.75975e-05 1.11805e-05 9.23356e-06 3.2693e-05 9.54258e-06
threshold=7450.0000000000009 6950.0000000000009 68.500000000000014 299.50000000000006 0.00016313879059726147 885.50000000000011 960.50000000000011 0.0044991755050337598 127.51500000000001 -0.0056236566975829119 0.045000000000000005 104.50500000000001 1.6049750000000003 -0.00047060310696289681 1.5000000000000002
decision_type=2 2 2 2 2 2 2 2 2 2 2 2 2 2 2
left_child=1 4 -2 -4 5 6 9 11 -9 10 -1 -8 -7 -14 -15
right_child=2 -3 3 -5 -6 12 7 8 -10 -11 -12 -13 13 14 -16
leaf_value=5.1192233452045613e-06 -2.4524885099565025e-05 4.4354678771159778e-05 1.7234243555293679e-06 -1.2153722183383152e-05 3.6144458586714796e-07 -7.3759124056394612e-08 -1.1970390866539334e-05 -5.7295718920956896e-07 -6.2839881155830551e-05 -4.8977508350554483e-07 -3.2236231527393084e-05 -7.4807160320639619e-07 2.7799633138007326e-05 8.5413501224944684e-06 -2.4224522764992156e-06
leaf_weight=558 532 533 2741 720 222930 190909 1026 861 508 58881 521 6589 534 1196 2361
leaf_count=558 532 533 2741 720 222930 190909 1026 861 508 58881 521 6589 534 1196 2361
internal_value=0 3.50303e-08 -4.27599e-06 -1.16347e-06 -1.34881e-08 -3.3016e-07 -1.34027e-06 -5.52389e-06 -2.36786e-05 -7.13426e-07 -1.2918e-05 -2.2601e-06 2.69732e-08 4.72771e-06 1.264e-06
internal_weight=0 487407 3993 3461 486874 263944 68944 8984 1369 59960 1079 7615 195000 4091 3557
internal_count=491400 487407 3993 3461 486874 263944 68944 8984 1369 59960 1079 7615 195000 4091 3557
is_linear=0
shrinkage=0.1


Tree=28
num_leaves=16
num_cat=0
split_feature=29 49 55 15 15 15 62 1 51 56 15 35 3 39 29
split_gain=6.29448e-06 0.000154685 0.000456644 4.42027e-05 2.22157e-05 5.93269e-05 8.3722e-06 6.99623e-06 1.34498e-05 3.57513e-05 1.06642e-05 9.66727e-06 8.10469e-06 6.74147e-06 2.07678e-05
threshold=1.0000000180025095e-35 -0.00054359672401055315 0.0011629257271728035 6950.0000000000009 6950.0000000000009 8050.0000000000009 -0.00054961412537124488 350.00000000000006 -0.00023928075733831153 0.00017811139450663041 3650.0000000000005 1219.5000000000002 101.00000000000001 20.500000000000004 2736.5000000000005
decision_type=2 2 2 2 2 2 2 2 2 2 2 2 2 2 2
left_child=1 2 -1 7 13 -6 -7 10 9 -9 -3 -10 -13 14 -2
right_child=4 3 -4 -5 5 6 -8 8 11 -11 -12 12 -14 -15 -16
leaf_value=-5.6524261756876604e-06 -8.4735000418095275e-07 -2.9981574490389185e-07 0.0001106518183236741 -2.3220765422579446e-05 -3.0533887381825397e-05 -1.1779637142005954e-05 1.9003492550579427e-06 -5.3290173722575563e-07 2.6147269661374182e-07 2.4754991005564625e-05 -1.3254519896826843e-05 1.8027273233948818e-05 3.964234441669256e-06 5.7899112159020269e-08 -1.2538891853304662e-05
leaf_weight=1035 37202 30409 501 799 879 557 2273 1521 22566 884 649 505 2174 387862 1584
leaf_count=1035 37202 30409 501 799 879 557 2273 1521 22566 884 649 505 2174 387862 1584
internal_value=0 9.50296e-07 3.22827e-05 1.4154e-07 -1.34793e-07 -7.84067e-06 -7.92143e-07 4.59494e-07 1.61647e-06 8.76211e-06 -5.70522e-07 9.35726e-07 6.61516e-06 -6.78026e-08 -1.32483e-06
internal_weight=0 61043 1536 59507 430357 3709 2830 58708 27650 2405 31058 25245 2679 426648 38786
internal_count=491400 61043 1536 59507 430357 3709 2830 58708 27650 2405 31058 25245 2679 426648 38786
is_linear=0
shrinkage=0.1


Tree=29
num_leaves=16
num_cat=0
split_feature=11 15 15 15 23 50 72 36 0 19 26 66 60 3 49
split_gain=6.671e-06 0.000245812 2.52038e-05 4.71087e-05 1.69988e-05 1.61488e-05 7.12268e-06 8.94269e-06 6.05704e-06 5.99728e-06 1.3029e-05 8.87979e-06 3.11393e-05 1.66433e-05 2.35282e-05
threshold=357.50000000000006 6950.0000000000009 6950.0000000000009 8050.0000000000009 20.500000000000004 -0.002210265737444594 -0.0024254956915766841 1233.5000000000002 175.91500000000002 1450.0000000000002 301.00000000000006 -0.0079056328239577849 0.0011407029104967272 101.00000000000001 -0.001128420669823049
decision_type=2 2 2 2 2 2 2 2 2 2 2 2 2 2 2
left_child=2 5 9 -4 -5 -2 7 -7 -8 10 11 12 13 -1 -15
right_child=1 -3 3 4 -6 6 8 -9 -10 -11 -12 -13 -14 14 -16
leaf_value=1.087313222190763e-05 1.3514801981422094e-05 5.9801335068973332e-05 -2.7803663679161007e-05 -1.6970939625342901e-05 1.9812871933478239e-06 -1.555022647397955e-06 4.926462541912986e-07 -1.3854642160272372e-05 1.1194640976453285e-05 3.9137574804280834e-07 -1.5997296093961222e-05 -2.478500438190665e-07 -2.5837784656284751e-05 -1.5072751808274996e-05 1.5469877975004333e-06
leaf_weight=864 904 703 929 596 2298 9819 39633 629 536 177455 532 252235 601 1346 2320
leaf_count=864 904 703 929 596 2298 9819 39633 629 536 177455 532 252235 601 1346 2320
internal_value=0 1.06847e-06 -1.27056e-07 -8.21117e-06 -1.9218e-06 2.67064e-07 3.04648e-08 -2.2955e-06 6.3545e-07 -5.60659e-08 -3.63943e-07 -3.31627e-07 -4.45002e-06 -1.61248e-06 -4.55508e-06
internal_weight=0 52224 439176 3823 2894 51521 50617 10448 40169 435353 257898 257366 5131 4530 3666
internal_count=491400 52224 439176 3823 2894 51521 50617 10448 40169 435353 257898 257366 5131 4530 3666
is_linear=0
shrinkage=0.1


Tree=30
num_leaves=16
num_cat=0
split_feature=15 15 65 28 57 21 62 3 52 48 32 25 17 69 72
split_gain=6.67106e-06 5.73755e-05 0.000324611 1.40313e-05 8.07836e-06 5.32801e-06 9.3841e-06 1.69964e-05 1.89801e-05 9.39827e-06 7.63868e-06 2.97249e-05 1.2049e-05 1.00322e-05 1.16722e-05
threshold=8050.0000000000009 6950.0000000000009 0.00031669371808462637 2.5000000000000004 -0.00035003838516239888 750.00000000000011 -0.0056227049175814328 2450.0000000000005 0.00014159793284762581 -0.0014063703754264021 36653.500000000007 0.12500000000000003 65.500000000000014 0.0042216981027329856 -0.0019111120626257303
decision_type=2 2 2 2 2 2 2 2 2 2 2 2 2 2 2
left_child=1 5 -3 -2 -5 10 7 8 9 -7 -1 12 -12 14 -14
right_child=3 2 -4 4 -6 6 -8 -9 -10 -11 11 -13 13 -15 -16
leaf_value=2.8039383655678454e-07 -1.9086804081030844e-05 -3.0006203314110611e-05 8.0485160307791712e-05 -1.2216026575665313e-05 9.9603764351215968e-07 1.3161111766329178e-05 -2.4592065519768411e-07 -2.1502972174874249e-05 -1.9889791909768022e-05 -1.9833982362614514e-06 -1.0150853201403562e-05 2.4904053951451604e-05 8.0950973012174182e-06 1.6697905935093906e-05 -1.1467983870217143e-05
leaf_weight=211207 546 552 513 577 2338 520 268993 555 515 1933 754 618 750 515 514
leaf_count=211207 546 552 513 577 2338 520 268993 555 515 1933 754 618 750 515 514
internal_value=0 3.10312e-08 2.32164e-05 -4.37484e-06 -1.61918e-06 -1.96851e-08 -3.13077e-07 -5.44068e-06 -2.43712e-06 1.22702e-06 3.53308e-07 5.24061e-06 4.43134e-07 4.93322e-06 1.39857e-07
internal_weight=0 487939 1065 3461 2915 486874 272516 3523 2968 2453 214358 3151 2533 1779 1264
internal_count=491400 487939 1065 3461 2915 486874 272516 3523 2968 2453 214358 3151 2533 1779 1264
is_linear=0
shrinkage=0.1


Tree=31
num_leaves=16
num_cat=0
split_feature=25 21 15 15 40 31 35 25 28 25 33 33 55 40 51
split_gain=6.15119e-06 0.000393226 3.23794e-05 4.85772e-05 1.43962e-05 1.39277e-05 4.43538e-05 3.76577e-05 4.89002e-05 3.65755e-05 2.40948e-05 3.34496e-05 2.34833e-05 2.53932e-05 1.19511e-05
threshold=0.075000000000000025 7050.0000000000009 6950.0000000000009 8050.0000000000009 1.0000000180025095e-35 8731.5000000000018 104239.50000000001 0.15500000000000003 5829.0000000000009 0.16500000000000004 18694.500000000004 29823.500000000004 -0.0035606464028082314 1013.5000000000001 -0.0002724671909710707
decision_type=2 2 2 2 2 2 2 2 2 2 2 2 2 2 2
left_child=2 5 -1 -4 -5 6 10 8 14 -8 12 -12 13 -2 -7
right_child=1 -3 3 4 -6 7 9 -9 -10 -11 11 -13 -14 -15 -16
leaf_value=-7.4191391266205006e-08 2.4959412366807085e-06 7.0073145198257949e-05 -2.919968953947622e-05 -1.7409415747233114e-05 4.2307743716516393e-07 2.0612322345224919e-05 -3.040201204308009e-06 2.9582809387103556e-05 -2.5830227559708874e-05 -3.9530068192928161e-05 2.9153033811389574e-05 -4.3272824216358089e-06 1.4580645654457502e-07 -2.7616260799911152e-05 2.2270833700427382e-06
leaf_weight=402643 501 811 929 559 2381 621 590 588 512 514 667 540 78088 635 821
leaf_count=402643 501 811 929 559 2381 621 590 588 512 514 667 540 78088 635 821
internal_value=0 7.7424e-07 -1.61677e-07 -9.26623e-06 -2.96752e-06 1.05788e-07 -1.21469e-07 7.39508e-06 7.18327e-07 -2.00291e-05 1.51785e-07 1.41743e-05 -6.18515e-08 -1.43361e-05 1.01447e-05
internal_weight=0 84888 406512 3869 2940 84077 81535 2542 1954 1104 80431 1207 79224 1136 1442
internal_count=491400 84888 406512 3869 2940 84077 81535 2542 1954 1104 80431 1207 79224 1136 1442
is_linear=0
shrinkage=0.1


Tree=32
num_leaves=16
num_cat=0
split_feature=52 54 3 9 3 3 13 65 7 42 49 21 24 51 52
split_gain=6.82993e-06 1.34801e-05 1.28031e-05 0.000518107 1.27949e-05 1.20857e-05 2.46771e-05 1.13769e-05 4.84183e-05 9.93405e-06 8.95673e-06 8.73561e-06 4.27793e-05 1.04961e-05 9.58019e-06
threshold=0.001591272652314957 -0.0015093516270538452 7050.0000000000009 1050.0000000000002 7550.0000000000009 6650.0000000000009 926.00000000000011 -0.00087357970016405096 1150.0000000000002 9564.5000000000018 -0.001128420669823049 2850.0000000000005 0.055000000000000007 -0.0025292747498716346 7.6528661775876486e-05
decision_type=2 2 2 2 2 2 2 2 2 2 2 2 2 2 2
left_child=2 -2 11 -4 9 7 -7 8 -3 -5 -9 14 13 -13 -1
right_child=1 5 3 4 -6 6 -8 10 -10 -11 -12 12 -14 -15 -16
leaf_value=-1.6854790362029448e-07 -1.4250305424436968e-05 -2.0023927235237176e-06 9.8534728653708499e-05 -2.1141311537940058e-05 1.7881946899986248e-07 -2.7585546649429967e-05 5.061671924754503e-07 1.1662729837660841e-05 -3.2511784080512107e-05 -4.1679097714638601e-06 -2.1030003802411479e-07 1.2638837454469283e-05 -2.7463761553260525e-05 -7.825854403197156e-07 9.2005191821093413e-07
leaf_weight=197501 754 7866 546 500 9827 507 816 643 557 1111 53540 587 601 79180 136864
leaf_count=197501 754 7866 546 500 9827 507 816 643 557 1111 53540 587 601 79180 136864
internal_value=0 -9.57559e-07 1.4515e-07 3.36749e-06 -1.17538e-06 -8.0078e-07 -1.02591e-05 -6.00904e-07 -4.01993e-06 -9.43588e-06 -6.94005e-08 5.20377e-08 -8.84081e-07 -6.83818e-07 2.77043e-07
internal_weight=0 64683 426717 11984 11438 63929 1323 62606 8423 1611 54183 414733 80368 79767 334365
internal_count=491400 64683 426717 11984 11438 63929 1323 62606 8423 1611 54183 414733 80368 79767 334365
is_linear=0
shrinkage=0.1


Tree=33
num_leaves=16
num_cat=0
split_feature=15 15 38 1 11 19 24 54 55 60 16 25 38 56 26
split_gain=7.26538e-06 5.79493e-05 0.000318158 1.37298e-05 9.31975e-06 5.01637e-06 4.92833e-06 4.86841e-06 6.44519e-06 1.25555e-05 2.29267e-05 1.18607e-05 5.4299e-05 9.69787e-06 9.09631e-06
threshold=8050.0000000000009 6950.0000000000009 111.41641000000001 425.00000000000006 299.50000000000006 2750.0000000000005 0.065000000000000016 0.00016313879059726147 -0.00076765521607163867 0.0021954414062314025 101.61500000000002 0.19500000000000003 1.0000000180025095e-35 -0.0010899126947558899 1.0000000180025095e-35
decision_type=2 2 2 2 2 2 2 2 2 2 2 2 2 2 2
left_child=1 5 -3 -2 -5 7 -7 8 9 11 -11 14 -13 -12 -1
right_child=3 2 -4 4 -6 6 -8 -9 -10 10 13 12 -14 -15 -16
leaf_value=1.769521213547793e-07 -1.5190200424209857e-05 -2.8375190691202153e-05 8.1107202667611515e-05 2.1468733836303732e-06 -1.3049041062261376e-05 5.5206795684521139e-07 8.7652960319241666e-06 1.9952140997978906e-07 -9.1427499149851478e-07 -2.5571686004638657e-05 -9.5664739637105009e-06 -5.611155575447917e-06 2.6008502702101638e-05 3.8629886123496661e-06 1.3293725578030267e-05
leaf_weight=65568 900 562 503 2059 502 99338 736 179440 136336 508 953 1290 938 1234 533
leaf_count=65568 900 562 503 2059 502 99338 736 179440 136336 508 953 1290 938 1234 533
internal_value=0 3.23839e-08 2.33334e-05 -4.56556e-06 -8.31787e-07 -1.85853e-08 6.12473e-07 -1.81854e-07 -5.1188e-07 2.60549e-07 -6.43426e-06 5.24602e-07 7.70089e-06 -1.98899e-06 2.82718e-07
internal_weight=0 487939 1065 3461 2561 486874 100074 386800 207360 71024 2695 68329 2228 2187 66101
internal_count=491400 487939 1065 3461 2561 486874 100074 386800 207360 71024 2695 68329 2228 2187 66101
is_linear=0
shrinkage=0.1


Tree=34
num_leaves=16
num_cat=0
split_feature=15 15 67 12 11 49 55 31 50 66 11 44 49 44 9
split_gain=5.88496e-06 4.69389e-05 0.000302692 1.37076e-05 9.14005e-06 4.59395e-06 2.99487e-05 3.27781e-05 2.53607e-05 1.41598e-05 2.50762e-05 3.46986e-05 1.30282e-05 2.18927e-05 2.04843e-05
threshold=8050.0000000000009 6950.0000000000009 0.00028494088055219807 105.70500000000001 299.50000000000006 -6.492452530781899e-05 -0.0035606464028082314 16801.500000000004 -0.00020937926615954836 -0.0079056328239577849 49.500000000000007 -0.12179999999999998 -0.0018602038330050028 0.13362500000000002 409.00000000000006
decision_type=2 2 2 2 2 2 2 2 2 2 2 2 2 2 2
left_child=1 5 -3 -2 -5 9 7 8 -7 10 11 -1 13 14 -11
right_child=3 2 -4 4 -6 6 -8 -9 -10 12 -12 -13 -14 -15 -16
leaf_value=-2.5241911741897535e-06 -1.6431393008809225e-05 7.6301500553421344e-05 -3.0394245202288684e-05 2.039517168167437e-06 -1.2242121511330524e-05 1.856498380853698e-05 1.5823958345093878e-07 3.4336754253932408e-05 -1.1910679855472631e-05 -8.9855594186657755e-06 -1.6984093212522565e-06 -3.7039094028930749e-05 -4.0336135073834253e-07 2.4089314025437949e-05 5.862527647682104e-06
leaf_weight=631 716 513 552 2181 564 569 290816 525 525 1202 3750 541 183707 515 4093
leaf_count=631 716 513 552 2181 564 569 290816 525 525 1202 3750 541 183707 515 4093
internal_value=0 2.91455e-08 2.1e-05 -4.109e-06 -8.94852e-07 -1.67267e-08 2.33747e-07 1.37969e-05 3.94001e-06 -3.93437e-07 -5.68873e-06 -1.84564e-05 -2.55912e-07 4.40631e-06 2.49191e-06
internal_weight=0 487939 1065 3461 2745 486874 292435 1619 1094 194439 4922 1172 189517 5810 5295
internal_count=491400 487939 1065 3461 2745 486874 292435 1619 1094 194439 4922 1172 189517 5810 5295
is_linear=0
shrinkage=0.1


Tree=35
num_leaves=16
num_cat=0
split_feature=17 15 15 15 48 49 5 17 52 28 48 72 44 50 45
split_gain=5.65541e-06 0.000175647 3.05687e-05 5.05328e-05 1.51794e-05 1.88083e-05 1.38711e-05 1.19349e-05 6.90027e-05 7.34734e-06 1.6086e-05 1.0327e-05 1.0048e-05 7.09912e-06 5.9046e-06
threshold=240.50000000000003 6950.0000000000009 6950.0000000000009 8050.0000000000009 0.0014129020305198028 0.001948205124304714 20.500000000000004 200.50000000000003 0.0013972848942572782 6177.0000000000009 -0.0014063703754264021 -0.014144861150649555 0.11905500000000001 -0.0011627906976743871 0.49730500000000005
decision_type=2 2 2 2 2 2 2 2 2 2 2 2 2 2 2
left_child=2 4 7 -4 9 -6 -5 -1 -9 10 -2 -12 -11 -13 -15
right_child=1 -3 3 6 5 -7 -8 8 -10 12 11 13 -14 14 -16
leaf_value=-2.1985229916260862e-08 -1.4207988310648775e-05 4.4001497010488877e-05 -3.0391028277425239e-05 -1.5740281615871937e-05 1.1078021939723722e-06 -2.546018537353067e-05 1.2235246822434667e-06 9.1589695001219192e-07 -3.8815631264095759e-05 5.9837332247188009e-06 1.146494911191815e-05 -4.5196923127973453e-06 -5.5357146930740231e-06 1.1457151122098926e-07 3.4979645660639436e-06
leaf_weight=406123 771 929 865 625 558 510 2107 2350 537 4414 821 3068 914 61175 5633
leaf_count=406123 771 929 865 625 558 510 2107 2350 537 4414 821 3068 914 61175 5633
internal_value=0 7.76316e-07 -1.48248e-07 -9.32665e-06 2.60594e-07 -1.15792e-05 -2.65729e-06 -6.75298e-08 -6.47442e-06 4.25249e-07 1.58181e-07 3.14854e-07 4.00761e-06 1.83848e-07 3.99847e-07
internal_weight=0 78793 412607 3597 77864 1068 2732 409010 2887 76796 71468 70697 5328 69876 66808
internal_count=491400 78793 412607 3597 77864 1068 2732 409010 2887 76796 71468 70697 5328 69876 66808
is_linear=0
shrinkage=0.1


Tree=36
num_leaves=16
num_cat=0
split_feature=15 15 27 27 11 9 19 72 50 44 49 54 36 32 49
split_gain=6.79459e-06 4.49017e-05 0.000327013 1.47468e-05 9.25364e-06 4.83255e-06 4.08877e-06 5.48266e-06 6.96132e-06 4.30748e-06 2.96515e-05 1.14673e-05 1.87829e-05 6.70352e-06 5.92743e-06
threshold=8050.0000000000009 6950.0000000000009 113.52447000000002 97.428400000000025 299.50000000000006 3250.0000000000005 2750.0000000000005 -0.014144861150649555 -0.002210265737444594 0.23743500000000003 -0.0018602038330050028 -0.0033400749057174157 1869.5000000000002 36653.500000000007 -0.001128420669823049
decision_type=2 2 2 2 2 2 2 2 2 2 2 2 2 2 2
left_child=1 6 -3 -2 5 -5 9 -8 -9 -1 -11 -12 13 14 -13
right_child=3 2 -4 4 -6 -7 7 8 -10 10 11 12 -14 -15 -16
leaf_value=-3.3711774480372914e-07 -1.9630123122178062e-05 7.9335455352602208e-05 -3.1683908624562988e-05 -5.9249944980663203e-06 -1.28991949405798e-05 4.0917768404246864e-06 8.4969662389179947e-06 -1.0058743178461143e-05 5.5372423155087604e-07 2.4653953455743336e-05 1.4905661775438645e-05 -9.9879025237961911e-06 -1.7265713665089974e-05 1.0865973694802912e-05 3.5393654595365599e-07
leaf_weight=302499 538 501 564 678 582 1663 862 622 98590 504 536 558 609 603 81491
leaf_count=302499 538 501 564 678 582 1663 862 622 98590 504 536 558 609 603 81491
internal_value=0 3.13172e-08 2.05421e-05 -4.41516e-06 -1.61473e-06 1.19072e-06 -1.35486e-08 5.56184e-07 4.8719e-07 -1.60951e-07 4.7119e-07 3.25742e-07 2.31882e-07 3.60809e-07 2.83604e-07
internal_weight=0 487939 1065 3461 2923 2341 486874 100074 99212 386800 84301 83797 83261 82652 82049
internal_count=491400 487939 1065 3461 2923 2341 486874 100074 99212 386800 84301 83797 83261 82652 82049
is_linear=0
shrinkage=0.1


Tree=37
num_leaves=16
num_cat=0
split_feature=60 65 35 49 28 21 48 21 52 23 35 49 32 1 39
split_gain=5.42692e-06 3.61544e-05 1.57694e-05 0.000427831 1.10024e-05 8.46077e-06 7.84333e-06 1.59899e-05 1.17467e-05 1.30364e-05 2.62371e-05 2.05909e-05 2.7414e-05 3.66166e-05 9.34649e-06
threshold=0.0029216967133645082 -0.00541377086108935 10.500000000000002 -0.00054359672401055315 12.500000000000002 4650.0000000000009 0.000253662802334298 6250.0000000000009 0.0013972848942572782 75.500000000000014 146211.50000000003 0.001948205124304714 1152.5000000000002 807.50000000000011 54630.500000000007
decision_type=2 2 2 2 2 2 2 2 2 2 2 2 2 2 2
left_child=2 -2 3 -1 5 -5 7 14 -8 10 -10 -11 -13 -14 -3
right_child=1 6 -4 4 -6 -7 8 -9 9 11 -12 12 13 -15 -16
leaf_value=8.5975897452714983e-05 -2.3864101249851189e-05 -7.7565172927777234e-07 4.8187111359852786e-10 4.4882273645735384e-08 1.316711194942818e-05 -1.249661047817952e-05 5.137837819481303e-06 -1.4962122118898164e-05 2.0863977370254836e-07 8.1743765826747598e-07 2.4835115552625874e-05 6.6514544522437135e-06 -3.4447005520202626e-05 -2.922688642621076e-06 -1.0022072347477544e-05
leaf_weight=601 677 44088 413035 15697 622 557 5334 836 2395 3845 528 590 745 729 1121
leaf_count=601 677 44088 413035 15697 622 557 5334 836 2395 3845 528 590 745 729 1121
internal_value=0 -8.83662e-07 1.24978e-07 3.06719e-06 1.14592e-07 -3.84896e-07 -6.25275e-07 -1.25833e-06 1.43242e-06 -8.05437e-07 4.65708e-06 -3.50757e-06 -1.15646e-05 -1.88559e-05 -1.00493e-06
internal_weight=0 60888 430512 17477 16876 16254 60211 46045 14166 8832 2923 5909 2064 1474 45209
internal_count=491400 60888 430512 17477 16876 16254 60211 46045 14166 8832 2923 5909 2064 1474 45209
is_linear=0
shrinkage=0.1


Tree=38
num_leaves=16
num_cat=0
split_feature=15 15 11 0 62 21 48 23 60 56 1 49 54 59 48
split_gain=5.53129e-06 8.76646e-05 1.37276e-05 1.04894e-05 5.80126e-06 4.07898e-06 8.45283e-06 1.51695e-05 1.9726e-05 1.62832e-05 1.76197e-05 2.06372e-05 1.00894e-05 9.03285e-06 8.42623e-06
threshold=7450.0000000000009 6950.0000000000009 357.50000000000006 104.55500000000002 -0.00048030739673393658 420.00000000000006 0.00087001572946721073 50.500000000000007 0.0035239485107008144 0.0024455789039994351 750.00000000000011 0.001948205124304714 -0.00096276864915878491 -0.00049219725304339146 0.0014129020305198028
decision_type=2 2 2 2 2 2 2 2 2 2 2 2 2 2 2
left_child=1 5 3 -2 -5 6 -1 8 -8 12 11 -11 -9 -14 -7
right_child=2 -3 -4 4 -6 14 7 9 -10 10 -12 -13 13 -15 -16
leaf_value=2.470047801180945e-07 -1.2602520816739285e-05 4.0563563842459204e-05 -1.7016154750880253e-05 -8.0907360419391682e-06 3.8233053931750858e-06 -1.611875579779797e-07 5.0122512958918244e-06 -5.4221873066006699e-06 2.7156272809282481e-05 -9.3427657361644383e-07 5.7696967000643223e-06 -2.9137357361189769e-05 1.838337675186542e-05 4.533038841981099e-06 -5.0670992057769441e-06
leaf_weight=150176 643 533 649 502 2199 326169 1455 731 556 512 650 526 622 1938 3539
leaf_count=150176 643 533 649 502 2199 326169 1455 731 556 512 650 526 622 1938 3539
internal_value=0 3.03668e-08 -3.70674e-06 -1.12366e-06 1.609e-06 -1.40064e-08 4.05224e-07 3.80448e-06 1.11346e-05 8.43859e-07 -7.14117e-06 -1.5226e-05 4.93949e-06 7.89824e-06 -2.13846e-07
internal_weight=0 487407 3993 3344 2701 486874 157166 6990 2011 4979 1688 1038 3291 2560 329708
internal_count=491400 487407 3993 3344 2701 486874 157166 6990 2011 4979 1688 1038 3291 2560 329708
is_linear=0
shrinkage=0.1


Tree=39
num_leaves=16
num_cat=0
split_feature=11 15 15 15 23 50 40 21 29 51 59 66 62 64 48
split_gain=5.34323e-06 0.000211282 2.76652e-05 6.34935e-05 1.30573e-05 1.24432e-05 7.63982e-06 6.75173e-06 5.95734e-06 5.74284e-06 5.4273e-06 2.51052e-05 2.90922e-05 5.97141e-05 1.30296e-05
threshold=357.50000000000006 6950.0000000000009 6950.0000000000009 8050.0000000000009 20.500000000000004 -0.002210265737444594 76756.000000000015 7050.0000000000009 93408.000000000015 -9.2256821141389875e-05 0.0024064336169197236 -0.0013145132790221557 -0.00054961412537124488 -0.0012488813281644748 -0.0014063703754264021
decision_type=2 2 2 2 2 2 2 2 2 2 2 2 2 2 2
left_child=2 5 10 -4 -5 -2 7 8 -7 -6 -1 12 13 -12 -13
right_child=1 -3 3 4 9 6 -8 -9 -10 -11 11 14 -14 -15 -16
leaf_value=9.9090334321764222e-08 1.1842124642128439e-05 5.5407800752759659e-05 -3.1329320309597467e-05 -1.4471246425047574e-05 -6.9579213733590906e-06 1.9685946076104365e-07 -1.0243489574563056e-05 -7.602042422709624e-06 9.6847886676260239e-06 4.8861895477143319e-06 -5.9801894446688708e-06 -1.4954466936790607e-05 -2.1501330541894768e-06 -4.6861237562750739e-05 -1.4646196030807908e-07
leaf_weight=377352 904 703 929 596 533 48131 717 1098 671 1765 1172 601 3131 514 52583
leaf_count=377352 904 703 929 596 533 48131 717 1098 671 1765 1172 601 3131 514 52583
internal_value=0 9.56244e-07 -1.1371e-07 -8.58338e-06 -1.28172e-06 2.13257e-07 5.5695e-09 1.52836e-07 3.27313e-07 2.13906e-06 -3.93351e-08 -9.39925e-07 -7.85292e-06 -1.84433e-05 -3.13798e-07
internal_weight=0 52224 439176 3823 2894 51521 50617 49900 48802 2298 435353 58001 4817 1686 53184
internal_count=491400 52224 439176 3823 2894 51521 50617 49900 48802 2298 435353 58001 4817 1686 53184
is_linear=0
shrinkage=0.1


Tree=40
num_leaves=16
num_cat=0
split_feature=9 38 71 25 3 9 9 31 24 57 62 3 57 64 18
split_gain=4.82414e-06 1.83854e-05 4.12972e-05 1.20424e-05 0.00024166 1.75253e-05 1.58521e-05 3.11665e-05 1.08729e-05 3.4853e-05 1.02867e-05 3.92316e-05 2.67413e-05 2.02978e-05 2.34842e-05
threshold=101.00000000000001 172.99651500000002 -1.0000000180025095e-35 0.075000000000000025 7050.0000000000009 7950.0000000000009 3750.0000000000005 60.500000000000007 0.065000000000000016 1.0000000180025095e-35 -0.001959496707479413 101.00000000000001 -0.0017863320129921643 -0.006798825710967459 105.76500000000001
decision_type=2 2 2 2 2 2 2 2 2 2 2 2 2 2 2
left_child=1 -1 -3 8 5 6 10 -8 -2 -10 11 12 -5 -13 -15
right_child=3 2 -4 4 -6 -7 7 -9 9 -11 -12 13 -14 14 -16
leaf_value=-6.6275492940584749e-07 -8.0334506855786866e-08 -3.4969733155326986e-05 2.4174643364000384e-06 2.8516953101470356e-05 5.2565588294123725e-05 -1.4882201277133492e-05 2.345475227230054e-06 3.0384493175610389e-05 -2.8464406520990262e-05 3.3183052636830548e-06 9.38134945217301e-07 -2.0447788504935444e-05 -2.2363208777375242e-06 1.2200088277204384e-05 -8.107736572874866e-06
leaf_weight=40975 384740 506 710 567 909 720 1600 527 555 912 53494 971 564 706 2944
leaf_count=40975 384740 506 710 567 909 720 1600 527 555 912 53494 971 564 706 2944
internal_value=0 -1.02237e-06 -1.314e-05 9.60236e-08 1.37796e-06 6.28604e-07 8.1057e-07 9.29261e-06 -1.13098e-07 -8.70583e-06 5.06054e-07 -3.51232e-06 1.31811e-05 -7.59808e-06 -4.1797e-06
internal_weight=0 42191 1216 449209 63002 62093 61373 2127 386207 1467 59246 5752 1131 4621 3650
internal_count=491400 42191 1216 449209 63002 62093 61373 2127 386207 1467 59246 5752 1131 4621 3650
is_linear=0
shrinkage=0.1


Tree=41
num_leaves=16
num_cat=0
split_feature=15 15 20 11 1 49 55 31 50 69 60 5 48 59 9
split_gain=7.4089e-06 3.64941e-05 0.000315727 1.68127e-05 1.16504e-05 3.95811e-06 2.41263e-05 2.6999e-05 2.09353e-05 1.25558e-05 2.74942e-05 1.35629e-05 1.10466e-05 1.71974e-05 2.32201e-05
threshold=8050.0000000000009 6950.0000000000009 117.15500000000002 357.50000000000006 425.00000000000006 -6.492452530781899e-05 -0.0035606464028082314 16801.500000000004 -0.00040417162878453311 -0.0069217144401412791 0.0019628614176582242 142.50000000000003 -0.0014063703754264021 -0.0012484507206013127 510.00000000000006
decision_type=2 2 2 2 2 2 2 2 2 2 2 2 2 2 2
left_child=1 5 -3 4 -2 9 7 8 -7 10 11 -1 13 -11 -15
right_child=3 2 -4 -5 -6 6 -8 -9 -10 12 -12 -13 -14 14 -16
leaf_value=-4.4894401287906693e-07 -1.2370107256950776e-05 -3.4660671884621226e-05 7.4265176685562795e-05 -2.0356627564706449e-05 2.1867614165223303e-06 1.8066574575746976e-05 1.5697773465141935e-07 3.1039716454134103e-05 -9.6420733362236161e-06 1.0215891543775798e-05 -2.5999436057111561e-05 -9.8134422982009593e-06 -2.9777434653689113e-07 -1.9312740581008642e-05 4.9063449902323969e-06
leaf_weight=6720 738 545 520 567 2156 517 290816 525 577 2500 533 2009 180807 569 1301
leaf_count=6720 738 545 520 567 2156 517 290816 525 577 2500 533 2009 180807 569 1301
internal_value=0 3.27022e-08 1.85238e-05 -4.61043e-06 -1.52539e-06 -7.7456e-09 2.24749e-07 1.23983e-05 3.45242e-06 -3.57416e-07 -3.95053e-06 -2.60421e-06 -1.77699e-07 4.79037e-06 -2.46299e-06
internal_weight=0 487939 1065 3461 2894 486874 292435 1619 1094 194439 9262 8729 185177 4370 1870
internal_count=491400 487939 1065 3461 2894 486874 292435 1619 1094 194439 9262 8729 185177 4370 1870
is_linear=0
shrinkage=0.1


Tree=42
num_leaves=16
num_cat=0
split_feature=21 9 35 32 44 21 13 32 40 57 31 39 42 52 48
split_gain=5.18514e-06 0.0005345 2.61046e-05 9.9272e-06 5.28641e-06 4.9631e-06 2.35485e-05 4.63271e-05 6.56823e-06 1.17326e-05 1.0667e-05 6.07927e-06 1.79312e-05 4.30348e-05 1.02284e-05
threshold=7050.0000000000009 604.00000000000011 34.500000000000007 19389.500000000004 0.82369000000000014 3150.0000000000005 100.50000000000001 1.0000000180025095e-35 76756.000000000015 -0.0023917257422718659 9324.5000000000018 20.500000000000004 2211.5000000000005 0.00027402880624050058 0.00029574721197300763
decision_type=2 2 2 2 2 2 2 2 2 2 2 2 2 2 2
left_child=5 -2 -3 4 -4 11 7 -7 9 10 -8 12 14 -14 -1
right_child=1 2 3 -5 -6 6 8 -9 -10 -11 -12 -13 13 -15 -16
leaf_value=-3.4157840828784907e-07 9.7035578647036071e-05 -2.4398332188191321e-05 -1.6409449881603134e-06 7.9364453428230148e-06 -1.0327774834005394e-05 2.1540615670725775e-06 1.4334946248592105e-05 -3.7709089880131821e-05 -1.1447570723773987e-05 -7.3113025243768821e-07 -2.4868909301738698e-06 2.4291045420983166e-07 -1.1897813351673834e-06 -3.5221700355203424e-05 -9.3145492007385696e-06
leaf_weight=64267 566 512 10428 1052 751 686 992 507 554 61557 608 345745 1369 510 1296
leaf_count=64267 566 512 10428 1052 751 686 992 507 554 61557 608 345745 1369 510 1296
internal_value=0 1.94691e-06 -2.2766e-06 -1.35057e-06 -2.22452e-06 -5.41976e-08 -8.67138e-07 -1.47869e-05 -6.06487e-07 -5.11391e-07 7.94265e-06 7.35002e-08 -7.94991e-07 -1.04268e-05 -5.18949e-07
internal_weight=0 13309 12743 12231 11179 478091 64904 1193 63711 63157 1600 413187 67442 1879 65563
internal_count=491400 13309 12743 12231 11179 478091 64904 1193 63711 63157 1600 413187 67442 1879 65563
is_linear=0
shrinkage=0.1


Tree=43
num_leaves=16
num_cat=0
split_feature=15 15 11 71 1 48 71 7 40 42 34 32 25 56 49
split_gain=7.02805e-06 7.26923e-05 2.00382e-05 1.04402e-05 2.04197e-05 3.6704e-06 1.33503e-05 2.02948e-05 4.97719e-05 1.05306e-05 1.82631e-05 2.10936e-05 1.91215e-05 1.28974e-05 9.31481e-06
threshold=7450.0000000000009 6950.0000000000009 357.50000000000006 -0.00014748299982214605 1350.0000000000002 0.00013201509566651562 0.0020732689425460031 2450.0000000000005 775.50000000000011 47138.500000000007 7008.5000000000009 36653.500000000007 0.025000000000000005 0.00087306041761614505 -0.00041063908106558905
decision_type=2 2 2 2 2 2 2 2 2 2 2 2 2 2 2
left_child=1 5 3 4 -2 -1 7 14 -9 -8 11 13 -12 -11 -7
right_child=2 -3 -4 -5 -6 6 9 8 -10 10 12 -13 -14 -15 -16
leaf_value=-1.8398787309715998e-07 -2.3376892193245537e-05 3.6944148626954322e-05 -2.0258445529488185e-05 2.8652341890327602e-06 3.8634598684413965e-06 -4.2066709589233318e-06 1.2027949249986692e-06 6.5013040825795688e-06 -3.2835770220623968e-05 1.8268709700039705e-05 6.1445908809222016e-06 2.767094043715143e-05 -1.3215233182211617e-05 9.6954399941263934e-07 1.006980800477779e-07
leaf_weight=343016 522 533 649 2240 582 5351 51074 655 632 643 1493 634 775 1307 81294
leaf_count=343016 522 533 649 2240 582 5351 51074 655 632 643 1493 634 775 1307 81294
internal_value=0 3.42297e-08 -4.17826e-06 -1.05744e-06 -9.01649e-06 -6.17699e-09 4.17796e-07 -3.50471e-07 -1.28157e-05 1.62574e-06 6.07779e-06 1.18256e-05 -4.70869e-07 6.67383e-06 -1.65315e-07
internal_weight=0 487407 3993 3344 1104 486874 143858 87932 1287 55926 4852 2584 2268 1950 86645
internal_count=491400 487407 3993 3344 1104 486874 143858 87932 1287 55926 4852 2584 2268 1950 86645
is_linear=0
shrinkage=0.1


Tree=44
num_leaves=16
num_cat=0
split_feature=15 15 11 27 9 19 52 11 19 19 42 37 7 38 32
split_gain=5.69272e-06 5.88808e-05 1.6231e-05 9.65871e-06 6.65287e-06 3.65679e-06 1.04191e-05 1.01544e-05 1.23169e-05 8.50917e-06 6.0222e-06 1.78598e-05 7.17026e-05 0.000137057 1.7783e-05
threshold=7450.0000000000009 6950.0000000000009 357.50000000000006 97.428400000000025 1950.0000000000002 1350.0000000000002 -0.0028143611024016297 65.500000000000014 1850.0000000000002 2750.0000000000005 700.50000000000011 1019.5000000000001 2250.0000000000005 95.793555000000012 3022.5000000000005
decision_type=2 2 2 2 2 2 2 2 2 2 2 2 2 2 2
left_child=1 5 3 -2 -5 10 7 -7 -9 -10 -1 12 14 -14 -12
right_child=2 -3 -4 4 -6 6 -8 8 9 -11 11 -13 13 -15 -16
leaf_value=2.8423552098771841e-07 -1.3547891152466567e-05 3.3249749625573468e-05 -1.8232600879676078e-05 -8.8653862644910894e-06 3.6453882607953343e-06 -4.0760438732670998e-06 2.4343446457171309e-07 2.4400518167755174e-05 -4.0066779591143133e-06 1.436957582187661e-05 -1.5470266707855959e-06 -2.0819047408197406e-07 6.345837471291035e-06 -6.573560330843177e-05 -1.9870522918848431e-05
leaf_weight=123369 515 533 649 521 2308 565 203164 504 500 508 21540 135125 543 513 543
leaf_count=123369 515 533 649 521 2308 565 203164 504 500 508 21540 135125 543 513 543
internal_value=0 3.08068e-08 -3.76044e-06 -9.51697e-07 1.34135e-06 -5.55932e-09 3.15475e-07 7.36221e-06 1.16364e-05 5.25437e-06 -2.39514e-07 -6.47784e-07 -3.21488e-06 -2.8671e-05 -1.99758e-06
internal_weight=0 487407 3993 3344 2829 486874 205241 2077 1512 1008 281633 158264 23139 1056 22083
internal_count=491400 487407 3993 3344 2829 486874 205241 2077 1512 1008 281633 158264 23139 1056 22083
is_linear=0
shrinkage=0.1


Tree=45
num_leaves=16
num_cat=0
split_feature=11 15 15 15 73 44 39 50 70 41 13 65 41 25 41
split_gain=4.86859e-06 0.000195189 3.15595e-05 7.47208e-05 1.08597e-05 1.80233e-05 1.01565e-05 2.13214e-05 1.25419e-05 4.30114e-06 4.65972e-06 5.0252e-06 5.29155e-06 4.40388e-06 4.31118e-06
threshold=357.50000000000006 6950.0000000000009 6950.0000000000009 8050.0000000000009 2.5000000000000004 0.038715000000000006 74485.500000000015 -0.002210265737444594 -0.00088143970072379607 76888.500000000015 1350.0000000000002 -0.0037298841595040928 36221.500000000007 0.10500000000000002 41882.500000000007
decision_type=2 2 2 2 2 2 2 2 2 2 2 2 2 2 2
left_child=2 6 -1 -4 -5 -6 7 -2 -8 10 14 12 -12 -13 -9
right_child=1 -3 3 4 5 -7 8 9 -10 -11 11 13 -14 -15 -16
leaf_value=-2.9104692657793448e-08 1.7542333191670583e-05 5.3249583162293159e-05 -3.3829864831310492e-05 4.3643007767147562e-06 -2.2535460455189413e-05 1.4373602409744891e-06 -1.8605843648367361e-05 8.0148015775665727e-07 3.7520864816778225e-07 6.9251710441729419e-06 -2.318309592978924e-06 -3.0688215606135991e-07 -1.4447219048937164e-05 -8.9903306832184165e-06 8.6306841955680793e-06
leaf_weight=435353 718 703 929 1577 515 802 634 23534 772 929 1102 21973 534 600 725
leaf_count=435353 718 703 929 1577 515 802 634 23534 772 929 1102 21973 534 600 725
internal_value=0 9.12785e-07 -1.08542e-07 -9.15471e-06 -1.23376e-06 -7.93698e-06 1.98653e-07 4.33827e-07 -8.18381e-06 1.8515e-07 5.5962e-08 -9.25561e-07 -6.27726e-06 -5.37692e-07 1.03546e-06
internal_weight=0 52224 439176 3823 2894 1317 51521 50115 1406 49397 48468 24209 1636 22573 24259
internal_count=491400 52224 439176 3823 2894 1317 51521 50115 1406 49397 48468 24209 1636 22573 24259
is_linear=0
shrinkage=0.1


Tree=46
num_leaves=16
num_cat=0
split_feature=21 21 55 24 38 32 11 3 36 9 3 1 36 69 44
split_gain=5.02209e-06 0.000124105 0.000439094 1.52493e-05 1.75173e-05 9.67394e-06 6.45229e-06 4.74614e-06 2.32593e-05 1.63009e-05 4.70203e-06 4.58344e-06 4.43853e-06 1.0974e-05 1.40291e-05
threshold=7550.0000000000009 7050.0000000000009 0.00059432923214175492 0.015000000000000001 104.48227500000002 24343.500000000004 300.50000000000006 6250.0000000000009 117.50000000000001 5250.0000000000009 7550.0000000000009 350.00000000000006 1233.5000000000002 -0.0010922424785688165 -0.25631999999999994
decision_type=2 2 2 2 2 2 2 2 2 2 2 2 2 2 2
left_child=1 7 -3 5 -5 6 11 12 9 -9 -11 -2 -1 14 -14
right_child=3 2 -4 4 -6 -7 -8 8 -10 10 -12 -13 13 -15 -16
leaf_value=6.4026831166730829e-08 6.9312565453611633e-06 -4.3571064841793994e-06 0.00010558151370136597 -1.5282922156468846e-06 -2.4166711419692049e-05 1.1725914866016501e-05 -8.8497258030116465e-06 -2.531359752970793e-05 -1.3600987761124242e-07 -1.3175677781089628e-05 -1.4633818733882749e-06 -1.2916497198424091e-06 5.459847215332599e-06 9.509021808897855e-07 -5.9368235664987209e-06
leaf_weight=447837 743 1308 503 743 633 588 1059 614 11506 551 907 7732 1277 8393 7006
leaf_count=447837 743 1308 503 743 633 588 1059 614 11506 551 907 7732 1277 8393 7006
internal_value=0 4.94834e-08 2.6178e-05 -2.06533e-06 -1.19426e-05 -7.22598e-07 -1.49035e-06 -4.9491e-08 -1.89237e-06 -1.16456e-05 -5.88963e-06 -5.70751e-07 4.37737e-09 -1.59752e-06 -4.17979e-06
internal_weight=0 479902 1811 11498 1376 10122 9534 478091 13578 2072 1458 8475 464513 16676 8283
internal_count=491400 479902 1811 11498 1376 10122 9534 478091 13578 2072 1458 8475 464513 16676 8283
is_linear=0
shrinkage=0.1


Tree=47
num_leaves=16
num_cat=0
split_feature=29 21 70 3 25 25 25 49 49 35 0 66 70 21 9
split_gain=4.69949e-06 0.000158318 0.000380502 8.52929e-06 7.89955e-06 7.87249e-06 1.1129e-05 6.79273e-06 6.46457e-06 6.93277e-06 1.07936e-05 1.78293e-05 9.00302e-06 6.21415e-06 5.53433e-06
threshold=1.0000000180025095e-35 7050.0000000000009 0.0004108003178854292 6250.0000000000009 0.54500000000000015 0.40500000000000008 0.36500000000000005 -0.00054359672401055315 -0.00045034696370199739 500.50000000000006 104.55500000000002 -1.0000000180025095e-35 -0.0043413314760327162 4250.0000000000009 409.00000000000006
decision_type=2 2 2 2 2 2 2 2 2 2 2 2 2 2 2
left_child=1 3 -3 7 5 6 13 -1 -9 12 11 -11 -10 14 -2
right_child=4 2 -4 -5 -6 -7 -8 8 9 10 -12 -13 -14 -15 -16
leaf_value=-6.3785932974372121e-06 -7.7393799971406148e-07 0.00010211426348541864 -2.0412435617654836e-05 -1.2410784184564968e-05 -1.1901760383256593e-05 1.0027821278643329e-05 -1.4925983024226536e-05 1.1608842697011526e-05 -1.0977588141258821e-05 2.56126836450515e-05 1.2587119166734422e-06 3.1814626903090136e-06 -5.6174038779483727e-08 -1.2821278975578075e-06 2.0065130246414568e-07
leaf_weight=1497 71402 500 514 535 568 766 507 514 768 503 11106 1199 43907 40378 316736
leaf_count=1497 71402 500 514 535 568 766 507 514 768 503 11106 1199 43907 40378 316736
internal_value=0 8.21115e-07 4.00051e-05 1.59227e-07 -1.16469e-07 -1.00894e-07 -1.18978e-07 2.72262e-07 4.43932e-07 3.44098e-07 2.39514e-06 9.81067e-06 -2.43922e-07 -1.01459e-07 2.13655e-08
internal_weight=0 61043 1014 60029 430357 429789 429023 59494 57997 57483 12808 1702 44675 428516 388138
internal_count=491400 61043 1014 60029 430357 429789 429023 59494 57997 57483 12808 1702 44675 428516 388138
is_linear=0
shrinkage=0.1


Tree=48
num_leaves=16
num_cat=0
split_feature=15 15 27 11 17 61 9 21 44 48 50 71 40 25 32
split_gain=6.41558e-06 2.57385e-05 0.000314077 1.64052e-05 1.15772e-05 5.78451e-06 5.9044e-06 3.94098e-06 7.30392e-06 4.33442e-05 2.9451e-05 3.63057e-05 1.1744e-05 9.80309e-06 9.2073e-06
threshold=8050.0000000000009 6950.0000000000009 113.52447000000002 357.50000000000006 24.500000000000004 0.0013971526317084761 4050.0000000000005 420.00000000000006 -0.11035499999999999 -0.0014063703754264021 -0.002210265737444594 -0.0090113688674605102 57004.500000000007 0.27500000000000008 28573.000000000004
decision_type=2 2 2 2 2 2 2 2 2 2 2 2 2 2 2
left_child=1 7 -3 4 -2 6 -6 -1 10 -10 11 -9 -13 -12 -11
right_child=3 2 -4 -5 5 -7 -8 8 9 14 13 12 -14 -15 -16
leaf_value=4.0854081504728183e-07 -1.3768270725270414e-05 7.3178185783456757e-05 -3.5623289594766916e-05 -1.9844469915733819e-05 -8.8263277410243812e-06 1.1019332976195381e-05 3.3558639110143741e-06 3.1218803828445875e-05 -2.1491970446351901e-05 -3.2519662320801743e-07 3.0497682202110402e-07 8.929305347378413e-06 -7.6741126701613983e-06 -1.0836768627717418e-05 -4.4602126581594345e-06
leaf_weight=157166 588 501 564 567 605 539 1162 656 981 220024 99614 1526 591 796 5520
leaf_count=157166 588 501 564 567 605 539 1162 656 981 220024 99614 1526 591 796 5520
internal_value=0 3.04312e-08 1.55594e-05 -4.29025e-06 -1.24283e-06 1.951e-06 -8.15175e-07 -3.53723e-09 -1.99968e-07 -5.17625e-07 4.97409e-07 1.06636e-05 4.29415e-06 2.16651e-07 -4.26398e-07
internal_weight=0 487939 1065 3461 2894 2306 1767 486874 329708 226525 103183 2773 2117 100410 225544
internal_count=491400 487939 1065 3461 2894 2306 1767 486874 329708 226525 103183 2773 2117 100410 225544
is_linear=0
shrinkage=0.1


Tree=49
num_leaves=16
num_cat=0
split_feature=15 15 11 29 9 30 11 7 52 35 35 8 40 61 25
split_gain=5.51167e-06 4.99549e-05 2.05421e-05 1.01354e-05 6.12272e-06 3.58019e-06 1.49259e-05 0.000108301 1.80467e-05 1.16224e-05 1.75565e-05 1.16066e-05 7.26594e-06 8.34803e-06 2.00872e-05
threshold=7450.0000000000009 6950.0000000000009 357.50000000000006 1.0000000180025095e-35 1950.0000000000002 12.500000000000002 3.5000000000000004 1950.0000000000002 -0.0020934772919188323 12925.500000000002 20952.500000000004 174.55500000000004 1400.5000000000002 0.0048730556983740412 0.20500000000000004
decision_type=2 2 2 2 2 2 2 2 2 2 2 2 2 2 2
left_child=1 5 3 -2 -5 6 7 11 -8 -10 -11 -1 -7 14 -14
right_child=2 -3 -4 4 -6 12 8 -9 9 10 -12 -13 13 -15 -16
leaf_value=-5.1920797453698232e-07 -1.288175088645018e-05 3.0627952736590978e-05 -1.9981233795562355e-05 -8.0608947184503317e-06 4.1160429248737741e-06 1.3361663383132269e-06 -1.603554604964833e-05 -4.671400122289469e-05 3.3795543587905918e-08 -2.2493220410044006e-05 3.0540775540238112e-06 -1.5649461645365421e-05 3.6436433540412181e-09 -3.384620486395662e-06 1.0875036611723922e-05
leaf_weight=7648 555 533 649 504 2285 45530 712 567 112597 568 511 543 309305 7184 1709
leaf_count=7648 555 533 649 504 2285 45530 712 567 112597 568 511 543 309305 7184 1709
internal_value=0 3.03129e-08 -3.70016e-06 -5.40342e-07 1.91555e-06 -3.18352e-09 -4.69223e-07 -4.44798e-06 -1.64594e-07 -6.51874e-08 -1.03944e-05 -1.52223e-06 1.54602e-07 -1.44648e-08 6.33812e-08
internal_weight=0 487407 3993 3344 2789 486874 123146 8758 114388 113676 1079 8191 363728 318198 311014
internal_count=491400 487407 3993 3344 2789 486874 123146 8758 114388 113676 1079 8191 363728 318198 311014
is_linear=0
shrinkage=0.1


Tree=50
num_leaves=16
num_cat=0
split_feature=36 21 21 24 25 31 39 29 65 40 44 44 1 25 25
split_gain=4.77341e-06 0.000311959 6.06237e-06 5.0261e-05 1.51234e-05 6.46293e-06 6.30379e-06 1.90793e-05 4.09599e-05 8.50136e-06 2.29468e-05 7.47386e-06 1.63768e-05 5.84011e-06 7.28008e-06
threshold=1.5000000000000002 7050.0000000000009 3150.0000000000005 0.055000000000000007 0.14500000000000005 37921.500000000007 20.500000000000004 2736.5000000000005 -0.00024326033922894561 585.50000000000011 -2.3959249999999996 3.5000350000000005 102.00000000000001 0.54500000000000015 0.40500000000000008
decision_type=2 2 2 2 2 2 2 2 2 2 2 2 2 2 2
left_child=1 -1 6 4 5 -4 7 9 -9 11 -11 -2 -13 14 -8
right_child=2 -3 3 -5 -6 -7 13 8 -10 10 -12 12 -14 -15 -16
leaf_value=-7.2353361205150584e-08 1.0319433172476469e-07 7.5095936007724682e-05 -6.9365871472095927e-07 -3.0938564203951077e-05 1.6498083419801672e-05 -9.0864445889855867e-06 2.1581938858468325e-07 -3.4584560011139057e-05 1.000863804901677e-06 -2.0580038940774029e-05 -1.0158507563252382e-06 -1.662438638809599e-05 1.031366202273256e-06 -1.0141907809739573e-05 1.0338307961983754e-05
leaf_weight=34855 35159 561 74276 553 509 929 336322 526 840 776 2636 865 1338 543 712
leaf_count=34855 35159 561 74276 553 509 929 336322 526 840 776 2636 865 1338 543 712
internal_value=0 1.11833e-06 -8.68604e-08 -9.00455e-07 -6.81063e-07 -7.97334e-07 7.65519e-08 -1.07666e-06 -1.27019e-05 -6.87198e-07 -5.46538e-06 -2.50841e-07 -5.9011e-06 2.20509e-07 2.37204e-07
internal_weight=0 35416 455984 76267 75714 75205 379717 42140 1366 40774 3412 37362 2203 337577 337034
internal_count=491400 35416 455984 76267 75714 75205 379717 42140 1366 40774 3412 37362 2203 337577 337034
is_linear=0
shrinkage=0.1


Tree=51
num_leaves=16
num_cat=0
split_feature=21 21 56 36 32 11 1 56 25 17 24 33 39 52 70
split_gain=5.56075e-06 9.68447e-05 0.000438238 2.73706e-05 9.73158e-06 6.87641e-06 6.59282e-06 5.55612e-06 3.82294e-06 1.64569e-05 4.00699e-05 1.69829e-05 1.17647e-05 7.44386e-06 5.15869e-06
threshold=7550.0000000000009 7050.0000000000009 -0.00033515131425204675 1.5000000000000002 19389.500000000004 300.50000000000006 1750.0000000000002 0.00021024083089504766 0.30500000000000005 80.500000000000014 0.015000000000000001 500.50000000000006 1.0000000180025095e-35 -5.7707588358046895e-05 0.0021568387998907039
decision_type=2 2 2 2 2 2 2 2 2 2 2 2 2 2 2
left_child=1 8 -3 -2 5 -5 -4 -7 -1 11 -11 13 -12 -10 -14
right_child=3 2 6 4 -6 7 -8 -9 9 10 12 -13 14 -15 -16
leaf_value=-6.0711617445120046e-09 -2.4960609972901969e-05 0.00010256857217699513 -1.6342786037278995e-05 -1.1007555754433997e-06 8.3872280963549087e-06 -1.5906635895655752e-05 -1.7418381359297344e-06 -2.1838993694552261e-06 -1.1892754397411067e-05 -3.3234487101704255e-05 -1.2780363066033207e-05 1.8551738694743204e-05 -4.372905204927628e-06 2.0934786761459464e-06 8.5863085498575055e-06
leaf_weight=473016 504 502 501 8834 979 606 808 575 505 521 671 542 503 1544 789
leaf_count=473016 504 502 501 8834 979 606 808 575 505 521 671 542 503 1544 789
internal_value=0 5.20696e-08 2.31332e-05 -2.17327e-06 -1.12863e-06 -2.05884e-06 -7.33013e-06 -9.22537e-06 -3.53614e-08 -2.76537e-06 -8.58123e-06 2.81032e-06 -2.038e-06 -1.35359e-06 3.54104e-06
internal_weight=0 479902 1811 11498 10994 10015 1309 1181 478091 5075 2484 2591 1963 2049 1292
internal_count=491400 479902 1811 11498 10994 10015 1309 1181 478091 5075 2484 2591 1963 2049 1292
is_linear=0
shrinkage=0.1


Tree=52
num_leaves=16
num_cat=0
split_feature=15 15 11 27 35 49 15 59 73 37 63 28 49 44 30
split_gain=5.62447e-06 3.92743e-05 1.6172e-05 1.04345e-05 3.32559e-06 2.5397e-05 5.51564e-06 4.41515e-06 2.09191e-05 3.06663e-05 1.76849e-05 1.44134e-05 1.23211e-05 1.45229e-05 9.85354e-06
threshold=7450.0000000000009 6950.0000000000009 357.50000000000006 97.428400000000025 1.0000000180025095e-35 -0.00054359672401055315 2850.0000000000005 -0.0043278863833426376 1.5000000000000002 30625.500000000004 -0.0046183942400213054 2827.0000000000005 -0.00034199528642425697 -0.12179999999999998 16339.000000000002
decision_type=2 2 2 2 2 2 2 2 2 2 2 2 2 2 2
left_child=1 4 3 -2 5 -1 -7 8 9 -6 11 -10 13 -13 -12
right_child=2 -3 -4 -5 7 6 -8 -9 10 -11 14 12 -14 -15 -16
leaf_value=-2.3476001698424371e-05 -1.402649999363348e-05 2.7160825143178568e-05 -1.8183661815645792e-05 1.4491660531174712e-06 2.7588942654113243e-05 -2.3961172348769258e-07 -8.7642924429184916e-06 8.8240693510599888e-09 -1.6361744344700644e-05 3.3186871740527515e-06 1.5446784523347584e-06 3.7792164469114709e-06 9.4787918023226386e-06 -1.444698158883201e-05 1.8407274757536423e-05
leaf_weight=506 515 533 649 2829 692 14155 802 463713 903 2102 994 807 714 954 532
leaf_count=506 515 533 649 2829 692 14155 802 463713 903 2102 994 807 714 954 532
internal_value=0 3.06215e-08 -3.73783e-06 -9.34198e-07 9.21041e-10 -1.44212e-06 -6.96708e-07 4.8255e-08 2.4235e-06 9.32979e-06 -1.51128e-06 -5.54748e-06 -1.60191e-06 -6.0946e-06 7.42338e-06
internal_weight=0 487407 3993 3344 486874 15463 14957 471411 7698 2794 4904 3378 2475 1761 1526
internal_count=491400 487407 3993 3344 486874 15463 14957 471411 7698 2794 4904 3378 2475 1761 1526
is_linear=0
shrinkage=0.1


Tree=53
num_leaves=16
num_cat=0
split_feature=11 15 15 15 0 60 30 13 25 67 16 67 53 41 69
split_gain=4.83944e-06 0.00018823 3.56581e-05 8.24967e-05 1.04623e-05 1.01488e-05 5.76624e-06 4.08059e-06 5.58748e-06 5.87437e-06 4.52265e-06 7.70497e-06 2.19363e-05 4.46364e-06 4.70756e-06
threshold=357.50000000000006 6950.0000000000009 6950.0000000000009 8050.0000000000009 104.55500000000002 -0.0045218288839359846 34366.500000000007 1350.0000000000002 0.10500000000000002 -0.0061731156464388528 109.60080000000001 -0.0007625940950708453 0.0002681718741608386 41882.500000000007 -0.0047641661269613436
decision_type=2 2 2 2 2 2 2 2 2 2 2 2 2 2 2
left_child=2 5 -1 -4 -5 -2 7 10 9 -9 11 12 -7 14 -12
right_child=1 -3 3 4 -6 6 -8 8 -10 -11 13 -13 -14 -15 -16
leaf_value=-2.3778476324536203e-08 1.0752571495447138e-05 5.2305432447201842e-05 -3.5651177629042498e-05 -1.3689531391563163e-05 1.5409372754921496e-06 5.6113069032078552e-07 -9.917673950230435e-06 -9.5951464566282196e-06 -9.5226050745836613e-06 -2.4236266354562679e-07 -8.385008837694279e-06 1.3586802764610708e-06 2.6097828789063655e-05 7.4411298486492826e-06 2.934727257375365e-07
leaf_weight=435353 897 703 929 559 2335 930 577 691 707 23861 648 4202 527 840 17641
leaf_count=435353 897 703 929 559 2335 930 577 691 707 23861 648 4202 527 840 17641
internal_value=0 9.10048e-07 -1.08217e-07 -9.72386e-06 -1.40095e-06 2.08762e-07 2.19373e-08 1.36533e-07 -7.57977e-07 -5.05591e-07 1.04804e-06 3.53147e-06 9.79781e-06 3.13358e-07 -1.40157e-08
internal_weight=0 52224 439176 3823 2894 51521 50624 50047 25259 24552 24788 5659 1457 19129 18289
internal_count=491400 52224 439176 3823 2894 51521 50624 50047 25259 24552 24788 5659 1457 19129 18289
is_linear=0
shrinkage=0.1


Tree=54
num_leaves=16
num_cat=0
split_feature=15 15 38 11 55 9 42 48 60 9 44 63 3 25 48
split_gain=6.2488e-06 1.91329e-05 0.000306446 1.56164e-05 1.023e-05 8.25294e-06 3.20225e-06 1.05396e-05 2.92614e-05 1.20107e-05 1.04343e-05 8.84868e-06 1.12925e-05 1.74043e-05 9.68913e-06
threshold=8050.0000000000009 6950.0000000000009 111.41641000000001 357.50000000000006 0.0011629257271728035 3350.0000000000005 25621.500000000004 -0.0014063703754264021 0.00025146981414092556 303.50000000000006 -2.3959249999999996 -0.006290164111193485 101.00000000000001 0.10500000000000002 0.0014129020305198028
decision_type=2 2 2 2 2 2 2 2 2 2 2 2 2 2 2
left_child=1 6 -3 4 5 -2 7 8 9 -1 -8 12 -9 -14 -13
right_child=3 2 -4 -5 -6 -7 10 11 -10 -11 -12 14 13 -15 -16
leaf_value=-9.728717345854222e-06 -8.0150026365364803e-06 -3.7329079819121481e-05 7.0119248583350909e-05 -1.9409774056910101e-05 -1.289855459186471e-05 5.4491903645295036e-06 1.3793740910200286e-05 1.8986975816521558e-05 -2.7673097770711074e-05 1.1172233048287551e-05 4.2260138933147559e-07 -9.2338775926409009e-08 1.1563364302536972e-05 -1.0927721449966656e-05 -6.6508565735916915e-06
leaf_weight=532 626 562 503 567 599 1669 587 536 522 569 101142 379315 803 602 2266
leaf_count=532 626 562 503 567 599 1669 587 536 522 569 101142 379315 803 602 2266
internal_value=0 3.0033e-08 1.34188e-05 -4.23411e-06 -1.26086e-06 1.7766e-06 7.46045e-10 -1.31058e-07 -8.17254e-06 1.07295e-06 4.99756e-07 -9.70281e-08 6.63777e-06 1.92661e-06 -1.31286e-07
internal_weight=0 487939 1065 3461 2894 2295 486874 385145 1623 1101 101729 383522 1941 1405 381581
internal_count=491400 487939 1065 3461 2894 2295 486874 385145 1623 1101 101729 383522 1941 1405 381581
is_linear=0
shrinkage=0.1


Tree=55
num_leaves=16
num_cat=0
split_feature=15 15 9 29 11 15 9 21 48 31 23 23 51 35 68
split_gain=5.06152e-06 1.56349e-05 0.000401718 1.26634e-05 1.07788e-05 5.46262e-06 5.27581e-06 3.31681e-06 6.73752e-06 1.39426e-05 1.77745e-05 2.01727e-05 2.01221e-05 1.14277e-05 8.19589e-06
