tree
version=v3
num_class=1
num_tree_per_iteration=1
label_index=0
max_feature_idx=74
objective=regression
feature_names=OpenBidPrice OpenBidSize OpenAskPrice OpenAskSize FirstTradePrice FirstTradeSize HighBidPrice HighBidSize HighAskPrice HighAskSize HighTradePrice HighTradeSize LowBidPrice LowBidSize LowAskPrice LowAskSize LowTradePrice LowTradeSize CloseBidPrice CloseBidSize CloseAskPrice CloseAskSize LastTradePrice LastTradeSize MinSpread MaxSpread CancelSize VolumeWeightPrice NBBOQuoteCount TradeAtBid TradeAtBidMid TradeAtMid TradeAtMidAsk TradeAtAsk TradeAtCrossOrLocked Volume TotalTrades FinraVolume FinraVolumeWeightPrice UptickVolume DowntickVolume RepeatUptickVolume RepeatDowntickVolume UnknownTickVolume TradeToMidVolWeight TradeToMidVolWeightRelative TimeWeightBid TimeWeightAsk ret1min ret2min ret3min ret4min ret5min ret6min ret7min ret8min ret9min ret10min ret11min ret12min ret13min ret14min ret20min ret25min ret30min ret35min ret40min ret45min ret50min ret55min ret60min ret90min ret120min quarter stock_id
feature_infos=[0:177.13999999999999] [0:539800] [0:177.16] [0:819600] [89.504999999999995:177.13999999999999] [1:19140555] [89.430000000000007:177.19] [0:294600] [89.680000000000007:645] [1:1363200] [89.680000000000007:177.19999999999999] [1:9237652] [89.430000000000007:177.09999999999999] [0:687400] [89.469999999999999:177.12] [0:277600] [89.469999999999999:177.09999999999999] [1:7383984] [89.430000000000007:177.13999999999999] [1:316300] [89.590000000000003:177.21000000000001] [1:1196000] [89.579999999999998:177.13999999999999] [1:1083908] [0:1.45] [0:542.29999999999995] [0:2560000] [0:177.13666000000001] [0:46470] [0:13216234] [0:4103119] [0:3269412] [0:4081778] [0:19183492] [0:2533125] [0:19158860] [1:35954] [0:4056845] [0:177.12553] [0:19145849] [0:8959687] [0:7390376] [0:12285646] none [-231.44204999999999:208.45434] [-177.26857000000001:208.45434] [89.430000000000007:177.1216] [89.548000000000002:177.13307] [-0.10669817846437624:0.5414702100300044] [-0.35746294381247845:inf] [-0.35731525112056084:inf] [-0.35718717683557388:inf] [-0.35703942075623496:inf] [-0.35683478060843055:inf] [-0.35687176538240373:inf] [-0.35705662546708816:inf] [-0.35687176538240373:inf] [-0.35713053974823239:inf] [-0.35698269418731676:inf] [-0.35735218065850716:inf] [-0.35761056863871332:inf] [-0.35783187873220024:inf] [-0.35775812564603182:inf] [-0.35919326190339773:inf] [-0.35915654366261751:inf] [-0.35897288932194649:inf] [-0.3592666857633916:inf] [-0.35909924363969747:inf] [-0.35991292891103854:inf] [-0.35978229733600686:inf] [-0.35980291050762003:inf] [-0.944124218051832:inf] [-0.35884128529698156:inf] [1:4] none
tree_sizes=1743 1725 1729 1750 1727 1741 1747 1721 1748 1741 1761 1737 1728 1737 1732 1755 1712 1747 1772 1730 1739 1730 1744 1729 1756 1728 1746 1729 1746 1727 1747 1728 1747 1695 1733 1701 1726 1719 1719 1755 1730 1741 1712 1736 1708 1712 1707 1724 1732 1718 1708 1717 1719 1745 1725 1736 1732 1723 1724 1726 1724 1728 1716 1707 1745 1740 1727 1738 1712 1716 1723 1709 1748 1733 1716 1738 1723 1717 1727 1711 1732 1723 1721 1716 1718 1726 1711 1727 1725 1730 1744 1729 1711 1723 1730 1719 1721 1712 1725 1706 1713 1721 1703 1749 1743 1731 1729 1723 1739 1708 1741 1741 1722 1701 1719 1713 1744 1738 1718 1719 1732 1746 1733 1721 1715 1717 1713 1758 1734 1713 1728 1738 1724 1732 1736 1709 1715 1718 1739 1704 1731 1724 1707 1725 1713 1728 1723 1702 1739 1715 1741 1727 1726 1713 1733 1705 1734 1715 1721 1745 1707 1724 1725 1728 1720 1769 1738 1767 1745 1736 1744 1707 1727 1728 1726 1703 1726 1728 1719 1721 1708 1717 1726 1746 1742 1741 1730 1729 1737 1720 1727 1725 1727 1735 1734 1719 1706 1732 1711 1733 1717 1725 1719 1723 1710 1726 1705 1730 1723 1716 1750 1713 1729 1720 1741 1736 1747 1727 1708 1728 1725 1728 1729 1757 1730 1748 1743 1708 1718 1676 1724 1731 1717 1726 1724 1720 1716 1749 1746 1721 1702 1725 1698 1724 1764 1755 1737 1725 1723 1721 1707 1707 1724 1726 1718 1740 1742 1734 1738 1727 1735 1737 1715 1736 1710 1726 1720 1704 1737 1729 1723 1712 1724 1743 1733 1732 1717 1742 1724 1715 1718 1723 1745 1755 1722 1735 1738 1705 1725 1711 1714 1726 1702 1707 1742 1734 1701 1722 1716 1729 1715 1714 1738 1735 1720 1714 1697 1723 1729 1736 1716 1724 1716 1703 1716 1707 1721 1740 1732 1709 1746 1719 1711 1734 1722 1718 1728 1727 1758 1712 1739 1729 1741 1714 1714 1741 1753 1755 1719 1718 1721 1734 1723 1735 1741 1738 1748 1736 1720 1722

Tree=0
num_leaves=16
num_cat=0
split_feature=15 51 50 11 30 21 40 25 45 45 19 27 5 25 38
split_gain=3.55088e-05 0.000528667 2.7832e-05 3.3143e-05 3.59606e-05 2.59729e-05 2.40076e-05 2.49164e-05 2.2507e-05 2.17816e-05 2.17017e-05 1.97634e-05 1.89533e-05 1.77722e-05 1.69187e-05
threshold=6650.0000000000009 -0.00045336118200217651 -0.0021618738659701093 300.50000000000006 100.50000000000001 650.00000000000011 57409.500000000007 0.075000000000000025 -0.12869499999999998 -0.31679499999999999 1350.0000000000002 95.837445000000017 23.500000000000004 0.075000000000000025 159.38047000000003
decision_type=2 2 2 2 2 2 2 2 2 2 2 2 2 2 2
left_child=2 -2 3 4 -1 6 9 -8 12 14 -7 -3 -6 -14 -4
right_child=1 11 5 -5 8 10 7 -9 -10 -11 -12 -13 13 -15 -16
leaf_value=-2.2998914132591992e-05 0.00010178709158044533 -2.2016605465216867e-05 -2.2179962704887431e-06 2.2085633699476736e-05 2.8463656647921196e-05 -2.6585364462619139e-06 3.5399086122575311e-06 2.3324516644414661e-05 -1.3019666058736663e-06 1.1056929859598452e-07 -9.2591642829549791e-07 -1.2520005476094546e-06 1.1548141804712641e-05 -8.9320646275143422e-06 -1.3288816418073258e-05
leaf_weight=515 531 516 32828 979 501 137431 3366 785 3237 150126 152520 4104 1981 539 1441
leaf_count=515 531 516 32828 979 501 137431 3366 785 3237 150126 152520 4104 1981 539 1441
internal_value=-9.69246e-07 7.28988e-06 -1.05674e-06 4.88722e-06 2.40128e-06 -1.15303e-06 -2.39396e-07 7.2814e-06 4.49158e-06 -4.087e-07 -1.74714e-06 -3.57116e-06 1.06994e-05 7.16765e-06 -2.68352e-06
internal_weight=0 5151 486249 7752 6773 478497 188546 4151 6258 184395 289951 4620 3021 2520 34269
internal_count=491400 5151 486249 7752 6773 478497 188546 4151 6258 184395 289951 4620 3021 2520 34269
is_linear=0
shrinkage=1


Tree=1
num_leaves=16
num_cat=0
split_feature=15 58 21 24 29 22 71 45 7 8 49 45 70 53 1
split_gain=2.87621e-05 0.000512547 2.25935e-05 4.41223e-05 2.35092e-05 3.58422e-05 3.07429e-05 2.49484e-05 2.88392e-05 0.000124944 2.02244e-05 2.17458e-05 2.78733e-05 2.08223e-05 1.80955e-05
threshold=6650.0000000000009 0.0042697542252936324 2450.0000000000005 0.065000000000000016 127758.00000000001 101.48320000000002 0.0082169395558386888 -0.35752499999999993 2650.0000000000005 131.25500000000002 0.00065893606624745093 -0.12869499999999998 -0.0071429001488375046 -0.00304453330273402 403.00000000000006
decision_type=2 2 2 2 2 2 2 2 2 2 2 2 2 2 2
left_child=2 14 4 -4 7 -6 10 8 -1 -10 11 13 -13 -7 -2
right_child=1 -3 3 -5 5 6 -8 -9 9 -11 -12 12 -14 -15 -16
leaf_value=-1.4120660412589684e-06 -1.5540610129771352e-05 9.8762149584966498e-05 -1.1370203845620829e-06 -2.5799063194578356e-05 2.9371569552897006e-05 2.5592773444890594e-05 -1.6964985236987401e-05 5.1087604611925036e-07 -1.0524568104838361e-06 -5.626174699194456e-05 2.1274519923629049e-05 -2.3737082212774894e-05 5.2872275144713692e-06 3.1112466167779935e-06 -2.0655597302501174e-07
leaf_weight=40416 977 549 116053 730 627 621 613 321267 1979 517 803 537 862 1224 3625
leaf_count=40416 977 549 116053 730 627 621 613 321267 1979 517 803 537 862 1224 3625
internal_value=0 7.43321e-06 -7.87428e-08 -1.29118e-06 3.04492e-07 6.9249e-06 3.90471e-06 2.08379e-07 -2.05631e-06 -1.2488e-05 7.06585e-06 3.54872e-06 -5.85363e-06 1.06782e-05 -3.46196e-06
internal_weight=0 5151 486249 116783 369466 5287 4660 364179 42912 2496 4047 3244 1399 1845 4602
internal_count=491400 5151 486249 116783 369466 5287 4660 364179 42912 2496 4047 3244 1399 1845 4602
is_linear=0
shrinkage=0.1


Tree=2
num_leaves=16
num_cat=0
split_feature=15 38 50 50 44 66 5 71 44 21 32 44 19 19 45
split_gain=2.32973e-05 0.000489816 2.1363e-05 2.1299e-05 3.83228e-05 7.26355e-05 4.53206e-05 4.95707e-05 3.87222e-05 1.97535e-05 2.52299e-05 2.83377e-05 1.8415e-05 1.76794e-05 1.47515e-05
threshold=6650.0000000000009 140.98889000000003 0.0017544559220844527 -0.0021618738659701093 -0.13901499999999997 -0.0077433056525042501 170.50000000000003 -0.0088008582950823127 0.16130500000000003 650.00000000000011 36494.500000000007 0.26005500000000009 403.00000000000006 1950.0000000000002 0.064555000000000015
decision_type=2 2 2 2 2 2 2 2 2 2 2 2 2 2 2
left_child=3 2 -2 4 6 -6 7 -1 -7 10 12 14 -5 -11 -12
right_child=1 -3 -4 9 5 8 -8 -9 -10 13 11 -13 -14 -15 -16
leaf_value=3.9632131814259082e-05 -1.3113821147407989e-06 9.7553308208952696e-05 -2.2545463098004573e-05 -6.2802334297372137e-07 -2.6933301602844646e-05 -2.9762597050065067e-08 -7.0650647667578749e-06 1.042779690357113e-05 3.0269641478249799e-05 -1.3114020307449339e-06 1.1587810242042272e-05 3.068754334101635e-05 1.38006046733076e-06 2.8221419053247571e-07 -9.045406367284048e-06
leaf_weight=769 4083 532 536 79959 904 2197 980 2380 522 173838 1008 565 106486 116113 528
leaf_count=769 4083 532 536 79959 904 2197 980 2380 522 173838 1008 565 106486 116113 528
internal_value=0 6.68989e-06 -3.77544e-06 -7.08682e-08 5.12889e-06 -2.37713e-06 1.17151e-05 1.75596e-05 5.78719e-06 -1.55108e-07 6.41668e-07 1.15388e-05 5.18872e-07 -6.73227e-07 4.49514e-06
internal_weight=0 5151 4619 486249 7752 3623 4129 3149 2719 478497 188546 2101 186445 289951 1536
internal_count=491400 5151 4619 486249 7752 3623 4129 3149 2719 478497 188546 2101 186445 289951 1536
is_linear=0
shrinkage=0.1


Tree=3
num_leaves=16
num_cat=0
split_feature=19 15 62 15 8 52 7 35 21 56 56 48 25 44 72
split_gain=2.02998e-05 6.94958e-05 0.000527833 3.61666e-05 9.45449e-05 2.83163e-05 2.38373e-05 9.08011e-05 2.03732e-05 1.96597e-05 1.96514e-05 1.47099e-05 1.46995e-05 1.38901e-05 1.23544e-05
threshold=550.00000000000011 6650.0000000000009 -0.00069368096134353452 3550.0000000000005 104.55500000000002 -0.0027747898874705963 2250.0000000000005 3364.5000000000005 650.00000000000011 -0.0019127996208095908 -0.0016699195697210121 -0.0010214504596526839 0.17500000000000002 0.26005500000000009 -0.013992952309551497
decision_type=2 2 2 2 2 2 2 2 2 2 2 2 2 2 2
left_child=3 5 -3 6 -5 9 13 -8 10 14 11 -7 -10 -1 -2
right_child=1 2 -4 4 -6 8 7 -9 12 -11 -12 -13 -14 -15 -16
leaf_value=-1.0908189642525759e-06 2.4906368861827416e-05 0.00010864648664706846 -1.1895103844848675e-06 -4.6630037624534116e-05 -3.9831459058686382e-06 1.8766551231583287e-05 -4.4885997241852588e-05 -1.8043011560895375e-06 -2.9196079701346084e-07 -5.9560414080565078e-06 1.0024476980816791e-06 4.777598459209419e-06 -1.5061009382855086e-05 9.1883296724065471e-07 8.9257039270334928e-06
leaf_weight=110921 579 509 3116 603 3769 853 581 3097 217254 784 89539 6329 676 49849 2941
leaf_count=110921 579 509 3116 603 3769 853 581 3097 217254 784 89539 6329 676 49849 2941
internal_value=0 4.64966e-07 1.4233e-05 -8.88455e-07 -9.86514e-06 3.0849e-07 -6.49801e-07 -8.60976e-06 1.98291e-07 8.36472e-06 1.40614e-06 6.43905e-06 -3.37773e-07 -4.67698e-07 1.15543e-05
internal_weight=0 322580 3625 168820 4372 318955 164448 3678 314651 4304 96721 7182 217930 160770 3520
internal_count=491400 322580 3625 168820 4372 318955 164448 3678 314651 4304 96721 7182 217930 160770 3520
is_linear=0
shrinkage=0.1


Tree=4
num_leaves=16
num_cat=0
split_feature=19 15 5 15 8 48 45 56 25 40 67 53 21 36 25
split_gain=1.64428e-05 5.62916e-05 0.000510409 2.92949e-05 7.65814e-05 2.36609e-05 2.74604e-05 2.45685e-05 1.49144e-05 4.05564e-05 1.59063e-05 1.93359e-05 1.43411e-05 1.8272e-05 1.53769e-05
threshold=550.00000000000011 6650.0000000000009 350.50000000000006 3550.0000000000005 104.55500000000002 -0.00084835027257784679 0.12265500000000001 0.0029405350694982073 0.03500000000000001 41385.000000000007 -0.003634087744510905 -0.00304453330273402 750.00000000000011 1844.5000000000002 0.17500000000000002
decision_type=2 2 2 2 2 2 2 2 2 2 2 2 2 2 2
left_child=3 5 -3 -1 -5 6 7 8 10 -10 -2 -12 13 -7 -14
right_child=1 2 -4 4 -6 12 -8 -9 9 -11 11 -13 14 -15 -16
leaf_value=-5.8482064028632065e-07 -3.0426397780240981e-06 -2.4599497317122387e-06 0.00010502044289786531 -4.196703808720395e-05 -3.5848312822320546e-06 9.30825628734163e-07 2.7345551186093004e-05 -1.597072840154269e-05 1.2175810400572311e-06 3.098205072424745e-05 2.4562813927124903e-05 4.2079085582165777e-06 -3.380386109485244e-07 1.4440414636708154e-05 -1.7425687912956769e-05
leaf_weight=164448 2946 3110 515 603 3769 102826 509 607 1190 744 509 5614 202471 1011 528
leaf_count=164448 2946 3110 515 603 3769 102826 509 607 1190 744 509 5614 202471 1011 528
internal_value=0 4.1847e-07 1.28097e-05 -7.99609e-07 -8.87863e-06 2.77641e-07 4.61146e-06 3.61476e-06 4.69523e-06 1.26678e-05 2.99504e-06 5.9e-06 1.06469e-07 1.06236e-06 -3.82484e-07
internal_weight=0 322580 3625 168820 4372 318955 12119 11610 11003 1934 9069 6123 306836 103837 202999
internal_count=491400 322580 3625 168820 4372 318955 12119 11610 11003 1934 9069 6123 306836 103837 202999
is_linear=0
shrinkage=0.1


Tree=5
num_leaves=16
num_cat=0
split_feature=19 27 52 55 25 35 7 38 41 48 62 44 71 51 34
split_gain=1.33187e-05 4.75552e-05 0.000557461 2.58139e-05 1.79232e-05 3.23631e-05 1.74468e-05 0.000117704 1.69404e-05 1.43134e-05 1.77205e-05 3.83509e-05 2.5388e-05 1.81008e-05 1.62441e-05
threshold=550.00000000000011 1.0000000180025095e-35 -0.00036942969369935236 -0.0035256686132236754 0.03500000000000001 120699.50000000001 2250.0000000000005 143.27373000000003 51375.500000000007 1.0000000180025095e-35 -0.0055352093885168143 -0.13901499999999997 -0.0088008582950823127 -0.0024691495966299155 18849.500000000004
decision_type=2 2 2 2 2 2 2 2 2 2 2 2 2 2 2
left_child=6 2 -2 4 8 -6 9 -8 -3 10 11 13 -13 -1 -11
right_child=1 3 -4 -5 5 -7 7 -9 -10 14 -12 12 -14 -15 -16
leaf_value=1.5004776184567175e-05 0.00010953018348457392 1.0270454096981015e-05 1.80172642682797e-07 1.0028952324116364e-07 3.3973785460917639e-06 3.7283561254057907e-05 -3.2107815314764423e-07 -5.1134479548430664e-05 -4.7936992166956242e-06 8.924858931462973e-07 -1.0528148585660789e-06 -3.9242915112838569e-05 -7.9974172298203815e-06 -9.9378965510907833e-06 -1.6664524555654455e-05
leaf_weight=574 507 1797 5794 312067 624 514 3259 530 1277 55868 106426 535 506 590 532
leaf_count=574 507 1797 5794 312067 624 514 3259 530 1277 55868 106426 535 506 590 532
internal_value=0 3.76623e-07 8.97885e-06 2.05247e-07 7.98152e-06 1.87027e-05 -7.19648e-07 -7.42879e-06 4.01251e-06 -5.65611e-07 -1.23666e-06 -1.01099e-05 -2.40554e-05 2.36201e-06 7.26877e-07
internal_weight=0 322580 6301 316279 4212 1138 168820 3789 3074 165031 108631 2205 1041 1164 56400
internal_count=491400 322580 6301 316279 4212 1138 168820 3789 3074 165031 108631 2205 1041 1164 56400
is_linear=0
shrinkage=0.1


Tree=6
num_leaves=16
num_cat=0
split_feature=15 15 49 21 24 44 37 29 36 48 25 25 54 49 72
split_gain=1.90145e-05 0.00045454 1.73162e-05 1.41342e-05 3.41255e-05 1.76554e-05 3.26203e-05 3.15293e-05 4.54156e-05 1.88944e-05 2.38013e-05 1.56815e-05 2.43311e-05 1.50203e-05 2.53546e-05
threshold=7150.0000000000009 6650.0000000000009 0.0011942814358295586 2450.0000000000005 0.065000000000000016 -0.99994499999999986 68675.500000000015 2820.5000000000005 6.5000000000000009 -0.00084835027257784679 0.16500000000000004 0.14500000000000005 -0.0016946054411431375 -0.0018232290920828784 -0.010214187475417856
decision_type=2 2 2 2 2 2 2 2 2 2 2 2 2 2 2
left_child=1 3 -2 5 -5 6 7 -1 -9 10 13 -10 -13 14 -7
right_child=2 -3 -4 4 -6 9 -8 8 11 -11 -12 12 -14 -15 -16
leaf_value=-7.3287963278866774e-07 -4.091424109265868e-06 8.5559397359977034e-05 -2.2663840052226318e-05 -8.7258353425135322e-07 -2.2561592622380029e-05 -6.8953123276420029e-06 2.277854898380577e-05 -3.6382251641647703e-05 -2.8292696281305237e-06 3.5514467930931406e-07 2.2123386074311167e-05 -3.1049549579620365e-05 -5.6318748150844213e-06 1.1507080794216094e-06 1.3257594494591039e-05
leaf_weight=39841 3955 621 575 116053 730 806 545 521 4886 307803 696 560 1150 9889 2769
leaf_count=39841 3955 621 575 116053 730 806 545 521 4886 307803 696 560 1150 9889 2769
internal_value=0 6.00022e-08 -6.44885e-06 -4.91911e-08 -1.00816e-06 2.53925e-07 -1.54575e-06 -1.82806e-06 -7.95888e-06 5.19452e-07 4.09109e-06 -5.7138e-06 -1.39558e-05 3.15894e-06 8.71403e-06
internal_weight=0 486870 4530 486249 116783 369466 47503 46958 7117 321963 14160 6596 1710 13464 3575
internal_count=491400 486870 4530 486249 116783 369466 47503 46958 7117 321963 14160 6596 1710 13464 3575
is_linear=0
shrinkage=0.1


Tree=7
num_leaves=16
num_cat=0
split_feature=32 44 31 55 49 70 13 29 49 55 3 58 35 2 10
split_gain=1.11671e-05 3.68349e-05 3.73309e-05 1.61068e-05 4.09965e-05 1.82006e-05 1.55266e-05 1.26071e-05 0.000218153 0.000412439 2.38981e-05 1.7147e-05 1.25559e-05 1.38376e-05 1.73811e-05
threshold=17747.500000000004 -0.36306499999999992 11149.500000000002 -0.0035256686132236754 -0.00027620585278059767 -0.0071429001488375046 2550.0000000000005 1.0000000180025095e-35 -0.00053475935828878318 0.00075864792105551093 6250.0000000000009 0.0003090797906043497 633.50000000000011 104.53500000000001 98.632000000000019
decision_type=2 2 2 2 2 2 2 2 2 2 2 2 2 2 2
left_child=7 2 -2 4 5 6 -3 8 9 -1 12 -12 -10 14 -14
right_child=1 3 -4 -5 -6 -7 -8 -9 10 -11 11 -13 13 -15 -16
leaf_value=-8.7749545902927103e-07 -2.940467926203658e-06 1.8658805156051491e-06 3.0481703126699559e-05 3.2009556737093079e-07 2.615694517523728e-05 9.1482442769491386e-06 -2.0894170808968234e-05 -3.3758922712203526e-07 -1.4740595136168457e-07 0.00011259255654930177 -3.0468513873487979e-06 -2.7304853057080569e-05 4.6503008960496387e-06 2.2033123345523902e-06 2.7256825299962662e-05
leaf_weight=879 545 719 864 30547 880 1362 514 395959 46219 504 658 523 976 9729 522
leaf_count=879 545 719 864 30547 880 1362 514 395959 46219 504 658 523 976 9729 522
internal_value=0 1.71013e-06 1.7554e-05 1.05396e-06 7.50503e-06 1.17991e-06 -7.62209e-06 -1.32885e-07 1.2178e-06 4.04738e-05 2.91752e-07 -1.37894e-05 5.81238e-07 3.5809e-06 1.25279e-05
internal_weight=0 35431 1409 34022 3475 2595 1233 455969 60010 1383 58627 1181 57446 11227 1498
internal_count=491400 35431 1409 34022 3475 2595 1233 455969 60010 1383 58627 1181 57446 11227 1498
is_linear=0
shrinkage=0.1


Tree=8
num_leaves=16
num_cat=0
split_feature=15 15 27 23 51 19 52 25 29 25 16 53 42 33 7
split_gain=1.47775e-05 0.000116131 0.000414921 1.67387e-05 1.26584e-05 1.24282e-05 2.81165e-05 1.20719e-05 1.3889e-05 3.53659e-05 2.94742e-05 1.38168e-05 1.31804e-05 2.96702e-05 7.61594e-05
threshold=8350.0000000000018 6650.0000000000009 107.45837000000002 20.500000000000004 -0.00017738516529258727 1350.0000000000002 -0.0027747898874705963 0.54500000000000015 127758.00000000001 0.085000000000000006 114.96100000000001 0.00043433374385593032 592.50000000000011 700.50000000000011 2250.0000000000005
decision_type=2 2 2 2 2 2 2 2 2 2 2 2 2 2 2
left_child=1 5 -3 -2 -5 7 -7 8 12 10 -10 -12 -1 14 -14
right_child=3 2 -4 4 -6 6 -8 -9 9 -11 11 -13 13 -15 -16
leaf_value=2.5600060058132037e-07 -2.1351144325453789e-05 0.00010074102452959282 -5.9441506651192147e-06 -1.7512393494294295e-05 -5.2530816079403228e-08 1.1717019104721524e-05 4.0890408083916591e-07 -1.3238587363976802e-05 1.1078154027757691e-05 2.5546878454775287e-05 -2.241169767213221e-06 -2.1904843517940791e-05 -3.7118019585005654e-06 -6.9244020673254456e-07 -3.5950700440136427e-05
leaf_weight=116558 625 519 1225 508 2274 2222 210333 741 1541 715 1240 502 14417 137208 772
leaf_count=116558 625 519 1225 508 2274 2222 210333 741 1541 715 1240 502 14417 137208 772
internal_value=0 4.58208e-08 2.58045e-05 -6.56302e-06 -3.24074e-06 -4.65662e-08 5.27116e-07 -4.92097e-07 -4.57494e-07 5.39324e-06 1.00401e-06 -7.90774e-06 -5.44464e-07 -1.15669e-06 -5.35038e-06
internal_weight=0 487993 1744 3407 2782 486249 212555 273694 272953 3998 3283 1742 268955 152397 15189
internal_count=491400 487993 1744 3407 2782 486249 212555 273694 272953 3998 3283 1742 268955 152397 15189
is_linear=0
shrinkage=0.1


Tree=9
num_leaves=16
num_cat=0
split_feature=15 15 27 21 32 16 28 66 28 49 44 33 42 38 63
split_gain=1.50201e-05 0.000345783 1.65687e-05 1.1559e-05 1.79825e-05 6.98821e-05 1.61421e-05 1.23509e-05 2.43109e-05 1.84908e-05 1.48985e-05 1.20548e-05 1.41517e-05 1.94332e-05 1.88915e-05
threshold=7150.0000000000009 6650.0000000000009 95.837445000000017 750.00000000000011 36494.500000000007 108.16005000000001 3235.0000000000005 -0.0077433056525042501 2927.0000000000005 -0.0018232290920828784 -0.16531499999999996 700.50000000000011 592.50000000000011 161.01025500000003 -0.0023707121539939253
decision_type=2 2 2 2 2 2 2 2 2 2 2 2 2 2 2
left_child=1 3 -2 4 11 -6 -7 8 -5 10 -9 12 -1 14 -14
right_child=2 -3 -4 7 5 6 -8 9 -10 -11 -12 -13 13 -15 -16
leaf_value=7.6815517460853844e-08 -2.2711029074236972e-05 7.462589169182064e-05 -3.5774954735123046e-06 -2.5754526054866061e-05 4.2303256142583345e-05 1.7237967225767142e-05 -2.8068283930994001e-06 1.4356578453663942e-05 -2.8803332996369755e-06 -4.6976027840059232e-07 3.2267339320508604e-07 1.1203846383253931e-06 -1.7115838666629251e-05 -2.2453673695514926e-05 -1.6505904470809472e-06
leaf_weight=80705 510 621 4020 540 501 506 1950 1524 3329 272060 1502 110365 846 517 11904
leaf_count=80705 510 621 4020 540 501 506 1950 1524 3329 272060 1502 110365 846 517 11904
internal_value=0 5.33288e-08 -5.7316e-06 -4.19096e-08 5.23684e-07 8.26616e-06 1.32292e-06 -4.62207e-07 -6.07291e-06 -3.83294e-07 7.39064e-06 4.11641e-07 -4.2074e-07 -3.44744e-06 -2.67676e-06
internal_weight=0 486870 4530 486249 207294 2957 2456 278955 3869 275086 3026 204337 93972 13267 12750
internal_count=491400 486870 4530 486249 207294 2957 2456 278955 3869 275086 3026 204337 93972 13267 12750
is_linear=0
shrinkage=0.1


Tree=10
num_leaves=16
num_cat=0
split_feature=11 21 54 60 21 35 60 44 31 54 1 11 55 24 48
split_gain=1.32745e-05 0.000154066 0.000434272 2.41306e-05 1.25077e-05 3.97958e-05 4.64229e-05 1.33447e-05 2.55616e-05 3.04923e-05 2.30661e-05 0.00010342 1.08506e-05 1.00587e-05 9.66864e-06
threshold=352.50000000000006 7050.0000000000009 -8.6344601464727319e-05 -0.0044913908330682087 2550.0000000000005 1.0000000180025095e-35 0.00025133258965226451 -0.99994499999999986 6655.5000000000009 -0.0032722985543829903 2650.0000000000005 20.500000000000004 -0.0035256686132236754 0.065000000000000016 -0.0013695711771229966
decision_type=2 2 2 2 2 2 2 2 2 2 2 2 2 2 2
left_child=4 3 -3 -2 7 6 -6 8 9 -1 -11 -12 -7 -14 -9
right_child=1 2 -4 -5 5 12 -8 14 -10 10 11 -13 13 -15 -16
leaf_value=-2.5167114411791166e-05 1.6871694761003958e-05 0.00010884751762853622 -1.9522631573620918e-06 2.3517423983477239e-07 -1.5434010900407942e-06 1.1301914071962135e-05 -4.2481643941099616e-05 4.9954588240397195e-06 2.0725925270951043e-05 -9.5037007933697451e-07 -4.9744070828933989e-05 1.0130747745027241e-06 -9.4908245180615082e-07 -1.3903293972411405e-05 2.8320132615918294e-07
leaf_weight=552 887 505 1181 51050 618 719 502 4421 509 38971 534 1617 100598 603 288133
leaf_count=552 887 505 1181 51050 618 719 502 4421 509 38971 534 1617 100598 603 288133
internal_value=0 1.48506e-06 3.12351e-05 5.19299e-07 -1.81904e-07 -1.14531e-06 -1.98925e-05 1.14656e-07 -1.54813e-06 -1.82018e-06 -1.50679e-06 -1.15877e-05 -9.393e-07 -1.02627e-06 3.54412e-07
internal_weight=0 53623 1686 51937 437777 103040 1120 334737 42183 41674 41122 2151 101920 101201 292554
internal_count=491400 53623 1686 51937 437777 103040 1120 334737 42183 41674 41122 2151 101920 101201 292554
is_linear=0
shrinkage=0.1


Tree=11
num_leaves=16
num_cat=0
split_feature=15 15 12 19 52 19 63 44 50 34 32 63 25 3 54
split_gain=1.24284e-05 0.000280723 1.40799e-05 9.98375e-06 2.09701e-05 1.17165e-05 1.16305e-05 1.00223e-05 2.54601e-05 1.41862e-05 2.31384e-05 1.06653e-05 2.71115e-05 7.92531e-05 3.04038e-05
threshold=7150.0000000000009 6650.0000000000009 106.65500000000002 1350.0000000000002 -0.0027747898874705963 1850.0000000000002 -0.0030913741386277001 0.26005500000000009 -0.0016250365731340086 11164.000000000002 36494.500000000007 -0.0060754575944370606 0.065000000000000016 211.00000000000003 -0.0032722985543829903
decision_type=2 2 2 2 2 2 2 2 2 2 2 2 2 2 2
left_child=1 3 -2 7 5 -5 -7 11 -9 10 -10 12 14 -14 -1
right_child=2 -3 -4 4 -6 6 -8 8 9 -11 -12 -13 13 -15 -16
leaf_value=1.013187326396302e-05 -1.5852317563735223e-05 6.7240278118090542e-05 -2.2921340243149809e-06 2.0385757449423349e-05 3.7478718181026296e-07 -2.1592766903008205e-06 1.5987284743809343e-05 1.8282110646644735e-05 3.5897809753943281e-07 -1.4053286540351067e-05 1.9658474545729789e-05 -6.7785691405926974e-07 9.4845989598505735e-06 -4.425033428966817e-05 -8.5916394056886621e-06
leaf_weight=1418 976 621 3554 743 210333 896 583 805 67317 673 627 199518 514 589 2233
leaf_count=1418 976 621 3554 743 210333 896 583 805 67317 673 627 199518 514 589 2233
internal_value=0 4.85101e-08 -5.21371e-06 -3.73021e-08 4.76877e-07 1.01406e-05 4.99383e-06 -4.36622e-07 6.01401e-07 3.93974e-07 5.37077e-07 -7.89394e-07 -5.47045e-06 -1.92098e-05 -1.31968e-06
internal_weight=0 486870 4530 486249 212555 2222 1479 273694 69422 68617 67944 204272 4754 1103 3651
internal_count=491400 486870 4530 486249 212555 2222 1479 273694 69422 68617 67944 204272 4754 1103 3651
is_linear=0
shrinkage=0.1


Tree=12
num_leaves=16
num_cat=0
split_feature=3 9 15 35 42 25 44 48 13 67 19 3 36 39 28
split_gain=1.11661e-05 0.000552131 3.09812e-05 1.85733e-05 8.45433e-06 1.19564e-05 9.12471e-06 1.48053e-05 1.42895e-05 1.14249e-05 1.10348e-05 1.14028e-05 1.2834e-05 9.71881e-06 1.04095e-05
threshold=7050.0000000000009 850.00000000000011 6650.0000000000009 38.500000000000007 25968.500000000004 0.15500000000000003 -0.19584999999999997 -0.0013695711771229966 2150.0000000000005 -0.003634087744510905 1550.0000000000002 101.00000000000001 924.50000000000011 46073.500000000007 7735.0000000000009
decision_type=2 2 2 2 2 2 2 2 2 2 2 2 2 2 2
left_child=2 -2 4 -3 -1 6 7 8 -6 -10 13 12 -12 -8 -15
right_child=1 3 -4 -5 5 -7 10 -9 9 -11 11 -13 -14 14 -16
leaf_value=-2.5871756564230533e-07 0.00010420724909326576 -1.8609218321241935e-05 -1.7373213869640227e-05 -2.9301542991852311e-07 1.7828501743654646e-05 1.2891601261133686e-05 -1.0521360554509256e-07 1.5991429983015537e-06 -7.9833813407252323e-06 1.1752483618186146e-05 2.5657589263836948e-06 1.0755148352372701e-06 2.2095607321319385e-05 -1.2888022413629998e-06 -8.3137267477690757e-06
leaf_weight=378540 517 578 1034 13129 1184 809 30307 16301 565 610 857 37271 554 5843 3301
leaf_count=378540 517 578 1034 13129 1184 809 30307 16301 565 610 857 37271 554 5843 3301
internal_value=0 2.76097e-06 -8.23009e-08 -1.06538e-06 -4.47516e-08 7.85095e-07 6.83908e-07 2.67068e-06 1.00752e-05 2.26247e-06 2.09419e-07 1.40958e-06 1.02338e-05 -9.67347e-07 -3.82481e-06
internal_weight=0 14224 477176 13707 476142 97602 96793 18660 2359 1175 78133 38682 1411 39451 9144
internal_count=491400 14224 477176 13707 476142 97602 96793 18660 2359 1175 78133 38682 1411 39451 9144
is_linear=0
shrinkage=0.1


Tree=13
num_leaves=16
num_cat=0
split_feature=15 15 60 62 21 32 0 13 62 48 44 19 39 72 30
split_gain=1.05894e-05 0.000237401 1.43733e-05 1.04256e-05 9.2613e-06 1.52187e-05 4.79343e-05 1.02949e-05 5.9213e-05 1.69177e-05 1.88082e-05 1.74187e-05 9.73621e-06 1.39526e-05 9.49027e-06
threshold=7150.0000000000009 6650.0000000000009 0.0046161036149329213 -0.0008595174354335543 650.00000000000011 36494.500000000007 110.30500000000002 100.50000000000001 -0.0017364781975596209 -0.0013695711771229966 -0.13901499999999997 628.00000000000011 75496.500000000015 -0.0020986837613859439 19678.500000000004
decision_type=2 2 2 2 2 2 2 2 2 2 2 2 2 2 2
left_child=1 4 3 -2 5 -1 -7 8 -6 10 11 -9 -8 -14 -11
right_child=2 -3 -4 -5 7 6 12 9 -10 14 -12 -13 13 -15 -16
leaf_value=3.9912778739737288e-07 -1.5924491704087279e-05 6.1834858199536519e-05 -2.0679728636845097e-05 -8.3639491342465798e-07 -3.2641115216153236e-05 3.3074482673901636e-05 9.2293779126298186e-06 2.1985003637501918e-05 -1.515777788767396e-06 -2.2988534792318982e-07 -4.0069800642855649e-06 4.4381798634926128e-06 6.4814894690651736e-06 -1.4451004343641889e-05 -2.9582557454167859e-06
leaf_weight=189453 527 621 507 3496 653 593 848 977 9550 267056 1109 1344 602 676 13388
leaf_count=189453 527 621 507 3496 653 593 848 977 9550 267056 1109 1344 602 676 13388
internal_value=0 4.47776e-08 -4.81255e-06 -2.81289e-06 -3.4136e-08 5.05738e-07 7.93404e-06 -3.8693e-07 -3.50782e-06 -2.74759e-07 6.70569e-06 1.18243e-05 9.21679e-07 -4.59078e-06 -3.60134e-07
internal_weight=0 486870 4530 4023 486249 192172 2719 294077 10203 283874 3430 2321 2126 1278 280444
internal_count=491400 486870 4530 4023 486249 192172 2719 294077 10203 283874 3430 2321 2126 1278 280444
is_linear=0
shrinkage=0.1


Tree=14
num_leaves=16
num_cat=0
split_feature=11 15 15 50 52 15 15 19 7 64 48 37 47 44 50
split_gain=1.073e-05 0.000271323 2.80516e-05 2.42246e-05 1.33569e-05 1.56353e-05 1.80381e-05 9.12327e-06 9.22593e-06 0.00010145 6.38683e-05 9.11824e-06 4.61431e-05 1.64484e-05 2.24122e-05
threshold=352.50000000000006 6650.0000000000009 5950.0000000000009 -0.0021618738659701093 0.0022278414349163893 7150.0000000000009 6650.0000000000009 2750.0000000000005 2250.0000000000005 0.0070714010025495497 0.00029131904764767574 147142.50000000003 108.18025000000002 -0.13901499999999997 -0.001330912803627182
decision_type=2 2 2 2 2 2 2 2 2 2 2 2 2 2 2
left_child=2 3 7 -2 5 6 -4 8 11 10 -10 -1 -13 -14 -15
right_child=1 -3 4 -5 -6 -7 -8 -9 9 -11 -12 12 13 14 -16
leaf_value=-2.6718820640152041e-07 1.6323342998191792e-05 5.8917203431639351e-05 -6.4186291504726189e-06 1.673818532187023e-07 -2.2503371701271312e-05 -1.943100467874671e-06 -2.9685117765339077e-05 7.9230069130786258e-07 6.204151371554985e-07 -3.7171877460715212e-05 -3.4624452691277163e-05 2.3685087405176248e-05 1.0221407338096871e-05 -2.3114229288242811e-05 -1.7066987496240426e-07
leaf_weight=318766 945 806 995 51872 523 3401 501 94901 13196 810 535 959 889 564 1737
leaf_count=318766 945 806 995 51872 523 3401 501 94901 13196 810 535 959 889 564 1737
internal_value=0 1.33516e-06 -1.63543e-07 4.56444e-07 -7.31301e-06 -5.69068e-06 -1.42104e-05 -7.39175e-08 -3.1752e-07 -2.78154e-06 -7.52828e-07 -2.06564e-07 4.45118e-06 -1.33105e-06 -5.79438e-06
internal_weight=0 53623 437777 52817 5420 4897 1496 432357 337456 14541 13731 322915 4149 3190 2301
internal_count=491400 53623 437777 52817 5420 4897 1496 432357 337456 14541 13731 322915 4149 3190 2301
is_linear=0
shrinkage=0.1


Tree=15
num_leaves=16
num_cat=0
split_feature=15 15 60 51 21 24 51 44 31 29 52 49 36 71 48
split_gain=1.1175e-05 0.000205517 1.19146e-05 8.94509e-06 8.27943e-06 2.39093e-05 9.3967e-06 8.99947e-06 2.50997e-05 2.52957e-05 5.7117e-05 1.4943e-05 1.07572e-05 8.43328e-06 8.40936e-06
threshold=7150.0000000000009 6650.0000000000009 0.0046161036149329213 -0.00030491750576433491 2450.0000000000005 0.065000000000000016 -0.0024691495966299155 -0.99994499999999986 7449.5000000000009 2820.5000000000005 0.0029666882863719217 -0.0018232290920828784 24.500000000000004 0.0014604446264290252 -0.00084835027257784679
decision_type=2 2 2 2 2 2 2 2 2 2 2 2 2 2 2
left_child=1 4 3 -2 7 6 -6 8 9 12 11 -11 -1 -13 -9
right_child=2 -3 -4 -5 5 -7 -8 14 -10 10 -12 13 -14 -15 -16
leaf_value=-5.6616989180785187e-07 -1.4729100675730591e-05 5.7537095012344212e-05 -1.9390274140491526e-05 -1.207389413653432e-06 9.2254099182815736e-06 -1.8802372274590136e-05 -7.2990337259598757e-07 2.7769180866468721e-06 2.079049176007136e-05 -1.9187230440177795e-05 -3.4156549667966541e-05 1.2292340774650686e-06 1.1702173104732628e-05 -6.3842504682396166e-06 2.8452623671406765e-07
leaf_weight=39147 570 621 507 3453 956 730 115097 14160 519 580 690 3088 728 2751 307803
leaf_count=39147 570 621 507 3453 956 730 115097 14160 519 580 690 3088 728 2751 307803
internal_value=0 4.59991e-08 -4.94383e-06 -3.12322e-06 -2.74241e-08 -7.61377e-07 -6.47895e-07 2.04568e-07 -1.08032e-06 -1.32191e-06 -6.81725e-06 -3.87845e-06 -3.42186e-07 -2.3578e-06 3.94142e-07
internal_weight=0 486870 4530 4023 486249 116783 116053 369466 47503 46984 7109 6419 39875 5839 321963
internal_count=491400 486870 4530 4023 486249 116783 116053 369466 47503 46984 7109 6419 39875 5839 321963
is_linear=0
shrinkage=0.1


Tree=16
num_leaves=16
num_cat=0
split_feature=25 21 15 15 15 34 28 18 48 68 50 49 35 37 35
split_gain=9.82758e-06 0.000431442 2.96492e-05 2.55747e-05 3.06579e-05 1.82951e-05 4.52551e-05 3.93005e-05 2.09003e-05 2.02627e-05 1.88526e-05 1.3503e-05 1.32937e-05 2.33188e-05 2.10538e-05
threshold=0.075000000000000025 7050.0000000000009 6250.0000000000009 7150.0000000000009 6650.0000000000009 5274.5000000000009 1843.0000000000002 116.06500000000001 -0.0013695711771229966 -0.0024382690256854462 -0.0021618738659701093 0.0010234978056056223 40550.500000000007 14764.500000000002 23586.500000000004
decision_type=2 2 2 2 2 2 2 2 2 2 2 2 2 2 2
left_child=2 5 -1 4 -4 6 8 -8 9 -2 -10 -5 14 -14 -12
right_child=1 -3 3 11 -6 -7 7 -9 10 -11 12 -13 13 -15 -16
leaf_value=-9.8602866579958909e-08 -2.6884299691595029e-05 7.6310513806665217e-05 -4.5709615118397254e-06 -1.6664135493480462e-06 -3.7587027778422226e-05 -1.3746576775484917e-05 4.0312133996271005e-05 4.6896816703186538e-06 1.5953336818104923e-05 -1.8935803651671719e-06 2.140048275660642e-07 -1.8674788963008336e-05 -2.4688713349623622e-05 1.7069056300489155e-06 1.72047710202235e-05
leaf_weight=409371 554 754 562 3402 563 917 519 768 768 783 69793 541 584 784 737
leaf_count=409371 554 754 562 3402 563 917 519 768 768 783 69793 541 584 784 737
internal_value=0 1.03777e-06 -1.92713e-07 -7.79451e-06 -2.10937e-05 2.93013e-07 4.64009e-07 1.90549e-05 1.40691e-07 -1.22487e-05 3.68647e-07 -4.00005e-06 2.02175e-07 -9.5614e-06 3.91549e-07
internal_weight=0 76961 414439 5068 1125 76207 75290 1287 74003 1337 72666 3943 71898 1368 70530
internal_count=491400 76961 414439 5068 1125 76207 75290 1287 74003 1337 72666 3943 71898 1368 70530
is_linear=0
shrinkage=0.1


Tree=17
num_leaves=16
num_cat=0
split_feature=15 15 1 38 21 63 45 49 42 25 49 44 66 32 50
split_gain=9.68306e-06 0.000188656 1.22936e-05 1.21457e-05 7.52453e-06 1.25469e-05 2.29995e-05 3.91432e-05 9.47813e-06 1.13498e-05 9.41224e-06 1.24305e-05 1.09303e-05 9.33203e-06 8.70308e-06
threshold=7150.0000000000009 6650.0000000000009 403.00000000000006 94.68296500000001 750.00000000000011 -0.0060754575944370606 -1.0000000180025095e-35 -0.00044434237231588675 18946.500000000004 0.13500000000000004 -0.0011002879885512737 -0.15153499999999998 0.0014799898245967393 28512.500000000004 -0.0021618738659701093
decision_type=2 2 2 2 2 2 2 2 2 2 2 2 2 2 2
left_child=1 4 3 -2 8 6 -6 -8 14 -10 11 12 -7 -13 -1
right_child=2 -3 -4 -5 5 10 7 -9 9 -11 -12 13 -14 -15 -16
leaf_value=9.0935439457933598e-06 -2.4692658171365767e-06 5.5125195138612332e-05 -1.5987513710142062e-06 -2.3261713514873941e-05 1.8954065769945233e-08 3.5046202715968133e-06 -3.7421652097637254e-05 -3.4591169820192294e-06 1.5383217926637676e-06 1.2986059655766872e-05 -4.077695132800475e-07 6.3643074060508971e-07 1.4093056023076778e-05 -1.2790421250328009e-05 3.2981556313263788e-08
leaf_weight=1067 523 621 3400 607 2381 4229 536 925 40470 885 263932 5109 1267 576 164872
leaf_count=1067 523 621 3400 607 2381 4229 536 925 40470 885 263932 5109 1267 576 164872
internal_value=0 4.28185e-08 -4.602e-06 -1.36383e-05 -2.75285e-08 -3.66635e-07 -6.04179e-06 -1.5919e-05 4.28807e-07 1.7833e-06 -2.87381e-07 2.55444e-06 5.94559e-06 -7.23968e-07 9.12416e-08
internal_weight=0 486870 4530 1130 486249 278955 3842 1461 207294 41355 275113 11181 5496 5685 165939
internal_count=491400 486870 4530 1130 486249 278955 3842 1461 207294 41355 275113 11181 5496 5685 165939
is_linear=0
shrinkage=0.1


Tree=18
num_leaves=16
num_cat=0
split_feature=3 55 15 3 52 54 56 60 25 61 55 28 57 71 65
split_gain=9.79756e-06 0.000366989 4.80729e-05 1.88897e-05 1.63494e-05 7.63769e-06 9.59492e-06 4.00306e-05 1.71692e-05 1.06015e-05 1.00102e-05 9.61317e-06 9.18109e-06 1.37523e-05 1.11844e-05
threshold=7050.0000000000009 0.0037063786863631436 6650.0000000000009 3450.0000000000005 0.0022278414349163893 0.00016520816228859927 -0.0016699195697210121 0.0019441733751590642 0.20500000000000004 0.0013860760802190122 -0.0021168289348504339 12.500000000000002 0.0014042581054731775 -0.012095280696747477 -0.00047051141786413892
decision_type=2 2 2 2 2 2 2 2 2 2 2 2 2 2 2
left_child=2 4 5 -4 -2 6 7 8 9 11 -8 -1 13 -7 -14
right_child=1 -3 3 -5 -6 12 10 -9 -10 -11 -12 -13 14 -15 -16
leaf_value=1.5051094940349157e-05 -4.3047329251548397e-07 7.1152311724585461e-05 -8.4862800980417011e-06 -3.5529885375929071e-05 -1.7426164433001414e-05 1.0869076281304577e-05 -7.9161535648824578e-06 -1.99800447547073e-05 1.4688257469003117e-05 -1.0840624134186624e-05 -5.8232091101529748e-07 1.2972583090962455e-06 -3.5214234379197385e-06 7.7294279010092222e-07 1.135555447757663e-09
leaf_weight=516 12892 740 532 502 592 1362 1877 879 978 710 220421 33539 10542 143149 62169
leaf_count=516 12892 740 532 502 592 1362 1877 879 978 710 220421 33539 10542 143149 62169
internal_value=0 2.58625e-06 -7.70926e-08 -2.16158e-05 -1.17665e-06 -3.03188e-08 -3.97163e-07 1.10264e-06 1.62111e-06 1.25351e-06 -6.44245e-07 1.50566e-06 4.06945e-07 8.68098e-07 -5.09582e-07
internal_weight=0 14224 477176 1034 13484 476142 258920 36622 35743 34765 222298 34055 217222 144511 72711
internal_count=491400 14224 477176 1034 13484 476142 258920 36622 35743 34765 222298 34055 217222 144511 72711
is_linear=0
shrinkage=0.1


Tree=19
num_leaves=16
num_cat=0
split_feature=25 25 21 36 25 30 37 45 50 42 52 37 25 35 24
split_gain=9.56552e-06 9.16335e-06 0.000350228 1.55443e-05 3.36719e-05 2.84798e-05 2.40761e-05 1.25313e-05 2.65748e-05 1.38202e-05 1.28998e-05 1.25152e-05 2.35546e-05 1.30097e-05 1.11659e-05
threshold=0.54500000000000015 0.075000000000000025 7050.0000000000009 514.50000000000011 0.15500000000000003 4837.5000000000009 147142.50000000003 -0.090734999999999996 -0.0016250365731340086 9224.5000000000018 -0.00066965353418713114 1050.5000000000002 0.14500000000000005 13170.500000000002 0.065000000000000016
decision_type=2 2 2 2 2 2 2 2 2 2 2 2 2 2 2
left_child=1 14 3 5 6 7 -5 10 -9 11 -3 13 -13 -10 -1
right_child=-2 2 -4 4 -6 -7 -8 8 9 -11 -12 12 -14 -15 -16
leaf_value=-1.3361012979300046e-07 -1.1051087567280226e-05 -5.0559837542136612e-06 6.9207520269097176e-05 9.8958405141339121e-06 2.8866737282590846e-05 -1.7446769168018684e-05 -1.6272459423788048e-05 2.0415575779748685e-05 1.0445917477958867e-06 -1.5325871468256553e-05 -1.1438079391102135e-07 2.842918369910291e-06 2.2876038695439488e-05 -1.210786213382183e-05 -8.0775721478203686e-06
leaf_weight=412662 782 6796 746 1033 599 913 533 726 36233 505 23722 2867 738 768 1777
leaf_count=412662 782 6796 746 1033 599 913 533 726 36233 505 23722 2867 738 768 1777
internal_value=0 1.76144e-08 1.02563e-06 3.51342e-07 8.70224e-06 1.04581e-07 9.89261e-07 3.2605e-07 1.45004e-06 1.11511e-06 -1.21482e-06 1.31958e-06 6.94401e-06 7.71597e-07 -1.67672e-07
internal_weight=0 490618 76179 75433 2165 73268 1566 72355 41837 41111 30518 40606 3605 37001 414439
internal_count=491400 490618 76179 75433 2165 73268 1566 72355 41837 41111 30518 40606 3605 37001 414439
is_linear=0
shrinkage=0.1


Tree=20
num_leaves=16
num_cat=0
split_feature=15 15 59 62 21 24 45 11 73 9 68 59 44 28 40
split_gain=1.1104e-05 0.00016831 1.42801e-05 1.27822e-05 6.64987e-06 2.17105e-05 6.99537e-06 2.05407e-05 0.000102912 8.90127e-06 1.26856e-05 2.44855e-05 1.00005e-05 1.6036e-05 1.73081e-05
threshold=7150.0000000000009 6650.0000000000009 0.004465621912121188 -0.00054205311836275072 2450.0000000000005 0.065000000000000016 -0.35752499999999993 3.5000000000000004 1.5000000000000002 100.50000000000001 -0.00090327410358637106 0.003346732018212895 -0.116295 8609.0000000000018 77256.000000000015
decision_type=2 2 2 2 2 2 2 2 2 2 2 2 2 2 2
left_child=1 4 3 -2 6 -6 7 8 -1 10 11 -8 13 -11 -15
right_child=2 -3 -4 -5 5 -7 9 -9 -10 12 -12 -13 -14 14 -16
leaf_value=-4.9660083073760994e-05 -1.4678762709999588e-05 5.2073162166032814e-05 -2.0726224568885143e-05 -2.2705372605765108e-07 -5.7022573563153033e-07 -1.7869769443761894e-05 -2.9343449531117126e-06 -4.4757705982442539e-07 9.5423511860128468e-08 1.2440480313725623e-06 -1.7577487492540995e-07 -2.1719155109422224e-05 1.8305512758539784e-07 5.1788731771150204e-06 2.5459321865176789e-05
leaf_weight=515 753 621 508 3269 116053 730 5979 41017 2156 68963 22509 785 224849 2171 522
leaf_count=515 753 621 508 3269 116053 730 5979 41017 2156 68963 22509 785 224849 2171 522
internal_value=0 4.58526e-08 -4.92809e-06 -2.93271e-06 -2.05927e-08 -6.78364e-07 1.87319e-07 -1.0009e-06 -9.49802e-06 3.46664e-07 -1.31693e-06 -5.11443e-06 5.10906e-07 1.53967e-06 9.10995e-06
internal_weight=0 486870 4530 4022 486249 116783 369466 43688 2671 325778 29273 6764 296505 71656 2693
internal_count=491400 486870 4530 4022 486249 116783 369466 43688 2671 325778 29273 6764 296505 71656 2693
is_linear=0
shrinkage=0.1


Tree=21
num_leaves=16
num_cat=0
split_feature=15 15 57 9 19 52 11 49 25 7 52 3 44 56 47
split_gain=8.99422e-06 0.000136331 1.33804e-05 1.3007e-05 7.33141e-06 1.3711e-05 1.37657e-05 1.52687e-05 8.24175e-06 8.21275e-06 6.17298e-05 1.42365e-05 7.75419e-06 1.98806e-05 2.48778e-05
threshold=7150.0000000000009 6650.0000000000009 0.0030668496459419496 1250.0000000000002 1350.0000000000002 -0.0027747898874705963 171.50000000000003 -0.0018232290920828784 0.54500000000000015 2250.0000000000005 0.0011158738369179135 101.00000000000001 0.26005500000000009 -0.0022404045515136413 108.82058000000002
decision_type=2 2 2 2 2 2 2 2 2 2 2 2 2 2 2
left_child=1 4 3 -2 8 6 7 -6 9 12 11 -11 -1 14 -14
right_child=2 -3 -4 -5 5 -7 -8 -9 -10 10 -12 -13 13 -15 -16
leaf_value=-5.5597794176330626e-07 -1.7168715618767073e-05 4.6865869352471046e-05 -1.9208478474023717e-05 -2.2322341217021799e-07 1.5463831677901007e-05 3.3953356291174767e-07 2.2334535363673545e-05 -3.9136098302702801e-06 -1.0892746745897116e-05 -1.4786246011173806e-05 -2.9898637457583641e-05 8.6082080556388419e-07 3.0100045268601906e-05 4.3609851273864719e-07 2.265873525494166e-06
leaf_weight=196805 521 621 540 3469 678 210333 528 1016 741 639 797 6460 510 66875 867
leaf_count=196805 521 621 540 3469 678 210333 528 1016 741 639 797 6460 510 66875 867
internal_value=0 4.12674e-08 -4.43529e-06 -2.43591e-06 -1.85334e-08 4.22084e-07 8.23622e-06 3.84194e-06 -3.60724e-07 -3.32132e-07 -3.51022e-06 -5.47614e-07 -2.37457e-07 6.81e-07 1.25748e-05
internal_weight=0 486870 4530 3990 486249 212555 2222 1694 273694 272953 7896 7099 265057 68252 1377
internal_count=491400 486870 4530 3990 486249 212555 2222 1694 273694 272953 7896 7099 265057 68252 1377
is_linear=0
shrinkage=0.1


Tree=22
num_leaves=16
num_cat=0
split_feature=29 49 72 21 41 35 70 49 2 66 19 52 72 31 25
split_gain=7.90887e-06 0.00017464 0.000400518 1.4803e-05 1.34983e-05 7.32208e-06 1.49382e-05 1.13168e-05 1.04791e-05 1.60318e-05 6.7714e-06 1.35318e-05 1.06562e-05 1.30278e-05 9.45917e-06
threshold=1.0000000180025095e-35 -0.00053475935828878318 1.0000000180025095e-35 6650.0000000000009 18.500000000000004 500.50000000000006 -0.0049363009901932089 -0.00040624085735602161 104.53500000000001 -1.0000000180025095e-35 1350.0000000000002 -0.0027747898874705963 -0.0033048974925126147 14544.500000000002 0.31500000000000006
decision_type=2 2 2 2 2 2 2 2 2 2 2 2 2 2 2
left_child=1 2 -1 5 -5 6 -3 -8 9 -7 14 12 13 -12 -2
right_child=10 3 -4 4 -6 8 7 -9 -10 -11 11 -13 -14 -15 -16
leaf_value=0.00010771862520632568 -4.70490255191381e-07 -1.6932402191908483e-05 -4.2228314395992375e-06 -2.2700561352164777e-05 -7.4111085645064438e-07 2.4402924358353276e-05 1.3880006950436328e-05 -1.3429269346463073e-07 1.4349005141887047e-06 3.4861082979598911e-06 2.4234117162260381e-05 1.7777815444291868e-07 6.8461438117138658e-07 3.1313628247506961e-06 -7.5034721486617568e-06
leaf_weight=500 221957 524 886 531 592 523 584 43200 11485 1224 637 205238 1049 541 1929
leaf_count=500 221957 524 886 531 592 523 584 43200 11485 1224 637 205238 1049 541 1929
internal_value=0 1.07523e-06 3.61601e-05 2.463e-07 -1.11244e-05 4.68221e-07 -1.48237e-07 5.26329e-08 2.53246e-06 9.74798e-06 -1.49685e-07 2.61905e-07 8.01498e-06 1.45426e-05 -5.31086e-07
internal_weight=0 60049 1386 58663 1123 57540 44308 43784 13232 1747 431351 207465 2227 1178 223886
internal_count=491400 60049 1386 58663 1123 57540 44308 43784 13232 1747 431351 207465 2227 1178 223886
is_linear=0
shrinkage=0.1


Tree=23
num_leaves=16
num_cat=0
split_feature=3 9 15 3 57 21 52 31 2 36 1 25 64 59 38
split_gain=8.63864e-06 0.000446069 5.97389e-05 2.70745e-05 1.8138e-05 6.78756e-06 8.63249e-06 1.91583e-05 1.8029e-05 1.58858e-05 1.63677e-05 1.26693e-05 1.22799e-05 1.00896e-05 1.50668e-05
threshold=7050.0000000000009 850.00000000000011 6650.0000000000009 3450.0000000000005 0.0040426289105548472 650.00000000000011 1.0000000180025095e-35 21556.000000000004 111.00500000000001 1223.5000000000002 1150.0000000000002 0.30500000000000005 0.001504492478263564 0.00065746219592377486 170.26530000000002
decision_type=2 2 2 2 2 2 2 2 2 2 2 2 2 2 2
left_child=2 -2 5 -4 -3 6 11 9 -9 -8 -11 13 -10 -1 -15
right_child=1 4 3 -5 -6 -7 7 8 12 10 -12 -13 -14 14 -16
leaf_value=3.965041741354495e-07 9.3611893366807907e-05 -1.5489053930566669e-07 -8.3640093857285054e-06 -4.0740703343725918e-05 -1.647150816243033e-05 -3.2833013425484017e-07 9.9370086544537413e-07 2.3274634690057463e-05 -4.8783037732475585e-06 -1.850284815534181e-05 2.4901848850448157e-06 -1.1488205492351992e-05 1.1149938248402987e-05 -1.6895668114552358e-06 -1.679979171060873e-05
leaf_weight=67945 517 12988 532 502 719 285831 99158 695 813 851 659 999 1160 17345 686
leaf_count=67945 517 12988 532 502 719 285831 99158 695 813 851 659 999 1160 17345 686
internal_value=0 2.42847e-06 -7.23897e-08 -2.40827e-05 -1.01078e-06 -2.02484e-08 4.42464e-07 1.06035e-06 9.42419e-06 8.38683e-07 -9.34099e-06 -2.91652e-07 4.5453e-06 -1.61553e-07 -2.26444e-06
internal_weight=0 14224 477176 1034 13707 476142 190311 103336 2668 100668 1510 86975 1973 85976 18031
internal_count=491400 14224 477176 1034 13707 476142 190311 103336 2668 100668 1510 86975 1973 85976 18031
is_linear=0
shrinkage=0.1


Tree=24
num_leaves=16
num_cat=0
split_feature=15 15 12 27 19 72 54 52 64 7 61 25 37 66 65
split_gain=7.43761e-06 0.000127007 1.0559e-05 8.27285e-06 6.19982e-06 6.50669e-06 6.1754e-06 8.08684e-06 7.86126e-06 3.32523e-05 0.000110367 1.46473e-05 5.703e-05 1.36884e-05 1.09233e-05
threshold=7150.0000000000009 6650.0000000000009 106.65500000000002 140.60929500000003 2750.0000000000005 -0.013992952309551497 0.00016520816228859927 -0.00041115153584758696 0.0013906792499214229 2250.0000000000005 -0.00010187132770900219 0.20500000000000004 250.50000000000003 -0.0030108882977605274 -0.0024984653825442234
decision_type=2 2 2 2 2 2 2 2 2 2 2 2 2 2 2
left_child=1 4 -2 -4 6 -6 8 -8 11 13 -11 -1 14 -10 -13
right_child=2 -3 3 -5 5 -7 7 -9 9 10 -12 12 -14 -15 -16
leaf_value=-3.7795193265023573e-07 -1.3246139201701078e-05 4.523257376632133e-05 7.9653809182004989e-07 -1.1624960550092908e-05 9.0652087301440212e-06 5.8629746023016924e-07 -2.5474752348751505e-06 3.9075138184736393e-07 -1.3484680968893053e-05 -5.3388333682366695e-05 2.7760856230872952e-06 -1.3296838266817669e-05 3.6705126049669172e-05 -9.6822528463813803e-07 4.478780033995462e-06
leaf_weight=161500 976 621 2896 658 913 104143 9925 166660 894 527 1041 524 521 38585 1016
leaf_count=161500 976 621 2896 658 913 104143 9925 166660 894 527 1041 524 521 38585 1016
internal_value=0 3.75268e-08 -4.03326e-06 -1.50322e-06 -2.01928e-08 6.59984e-07 -2.07648e-07 2.25608e-07 -5.81566e-07 -1.81889e-06 -1.61006e-05 -2.71049e-07 8.1059e-06 -1.25166e-06 -1.56955e-06
internal_weight=0 486870 4530 3554 486249 105056 381193 176585 204608 41047 1568 163561 2061 39479 1540
internal_count=491400 486870 4530 3554 486249 105056 381193 176585 204608 41047 1568 163561 2061 39479 1540
is_linear=0
shrinkage=0.1


Tree=25
num_leaves=16
num_cat=0
split_feature=11 15 15 15 15 50 17 51 40 63 49 39 55 36 44
split_gain=7.99423e-06 0.000212539 2.73993e-05 3.00007e-05 5.45687e-05 1.62876e-05 1.22504e-05 6.75901e-06 6.66597e-06 6.44365e-06 3.90773e-05 3.89639e-05 2.42673e-05 1.94205e-05 2.20725e-05
threshold=352.50000000000006 6650.0000000000009 5950.0000000000009 7150.0000000000009 6650.0000000000009 -0.0021618738659701093 24.500000000000004 -0.00015514098460289724 77256.000000000015 -0.0060754575944370606 -0.00082592882336390827 17967.500000000004 -0.0035256686132236754 1223.5000000000002 -0.19584999999999997
decision_type=2 2 2 2 2 2 2 2 2 2 2 2 2 2 2
left_child=2 5 9 4 -4 -2 -5 -8 -7 10 11 -1 -12 -13 -15
right_child=1 -3 3 6 -6 8 7 -9 -10 -11 12 13 -14 14 -16
leaf_value=-3.4468832384592218e-05 1.3385174214524568e-05 5.2116404515148029e-05 -5.4819342831886096e-06 -1.3611574029542086e-05 -4.4232188895317593e-05 2.7314086675330408e-07 -8.8642386116012877e-06 2.9013419051907234e-06 -9.3506883242971287e-06 -2.7924772355520451e-09 1.7191236182837419e-05 4.7900394265641201e-06 -9.3620441649128584e-07 3.5892911869773851e-06 -2.1253750568613712e-05
leaf_weight=588 945 806 1075 769 549 51142 612 2415 730 425282 994 1021 2873 540 1059
leaf_count=588 945 806 1075 769 549 51142 612 2415 730 425282 994 1021 2873 540 1059
internal_value=0 1.15245e-06 -1.41163e-07 -7.20702e-06 -1.85816e-05 3.74727e-07 -2.34075e-06 5.22572e-07 1.37704e-07 -5.25856e-08 -3.04568e-06 -1.12053e-05 3.7234e-06 -5.9843e-06 -1.2864e-05
internal_weight=0 53623 437777 5420 1624 52817 3796 3027 51872 432357 7075 3208 3867 2620 1599
internal_count=491400 53623 437777 5420 1624 52817 3796 3027 51872 432357 7075 3208 3867 2620 1599
is_linear=0
shrinkage=0.1


Tree=26
num_leaves=16
num_cat=0
split_feature=60 66 27 21 48 21 37 38 32 44 9 44 30 64 9
split_gain=6.989e-06 2.96341e-05 2.3648e-05 0.000526797 8.29054e-06 1.93705e-05 1.33954e-05 1.40897e-05 8.20959e-06 1.81515e-05 1.05783e-05 1.72876e-05 8.83005e-06 1.62089e-05 9.90172e-06
threshold=0.0021766999956696069 -0.0077433056525042501 1.0000000180025095e-35 4250.0000000000009 6.3065619840152478e-05 8250.0000000000018 112759.50000000001 116.50001000000002 17747.500000000004 -0.49999499999999991 200.50000000000003 0.0092250000000000023 15021.500000000002 -0.0066507187769120337 604.00000000000011
decision_type=2 2 2 2 2 2 2 2 2 2 2 2 2 2 2
left_child=2 -2 3 -1 5 6 -3 -8 12 -10 11 -11 -4 -14 -15
right_child=1 4 8 -5 -6 -7 7 -9 9 10 -12 -13 13 14 -16
leaf_value=-9.0238633958934838e-08 -2.3135347197754218e-05 -1.0422268179794857e-06 1.8542160835016348e-08 0.00010327839195296304 6.2334412298532081e-07 -2.0443696924832776e-05 -2.1829663793450494e-05 3.1578599121600681e-07 1.7811568321347454e-05 -1.3824562825164295e-06 8.9654709454519833e-07 2.443628445941322e-05 -1.5138062621638767e-05 -1.0639055063320703e-05 -8.6509929276333493e-07
leaf_weight=10630 594 44130 362864 517 28663 536 642 520 685 532 24466 506 937 1119 14059
leaf_count=10630 594 44130 362864 517 28663 536 642 520 685 532 24466 506 937 1119 14059
internal_value=0 -8.88023e-07 1.6016e-07 4.70402e-06 -7.1062e-07 -1.54494e-06 -1.32129e-06 -1.19195e-05 3.51497e-08 1.74749e-06 1.31604e-06 1.12036e-05 -8.31804e-08 -2.37368e-06 -1.58569e-06
internal_weight=0 75085 416315 11147 74491 45828 45292 1162 405168 26189 25504 1038 378979 16115 15178
internal_count=491400 75085 416315 11147 74491 45828 45292 1162 405168 26189 25504 1038 378979 16115 15178
is_linear=0
shrinkage=0.1


Tree=27
num_leaves=16
num_cat=0
split_feature=15 15 27 11 27 49 55 31 50 69 60 5 48 29 41
split_gain=9.5527e-06 0.000118921 1.26859e-05 1.50596e-05 6.31661e-06 5.30077e-06 3.68304e-05 3.56125e-05 1.91833e-05 1.7387e-05 3.37821e-05 2.02325e-05 1.24311e-05 1.37903e-05 1.84365e-05
threshold=7150.0000000000009 6650.0000000000009 95.837445000000017 297.50000000000006 140.60929500000003 -6.5482064966038131e-05 -0.0035256686132236754 16232.500000000002 -0.00040291664740021988 -0.0068417832733150266 0.0019441733751590642 140.50000000000003 -0.0013695711771229966 127758.00000000001 39739.000000000007
decision_type=2 2 2 2 2 2 2 2 2 2 2 2 2 2 2
left_child=1 5 -2 4 -4 9 7 8 -7 10 11 -1 13 14 -11
right_child=2 -3 3 -5 -6 6 -8 -9 -10 12 -12 -13 -14 -15 -16
leaf_value=-4.9756333910809253e-07 -1.9428225299206508e-05 4.3775173520516369e-05 2.3631043186483094e-06 -1.507183548395908e-05 -9.3178788405826448e-06 1.902769285090595e-05 1.7186957493354948e-07 3.6179842761825794e-05 -7.7838628922284124e-06 6.1371948037350147e-06 -2.9355370712040945e-05 -1.1945778868764701e-05 -3.3847861891605455e-07 1.5967878011556772e-05 -1.0707106398427332e-05
leaf_weight=6590 510 621 2671 789 560 501 290786 543 571 2780 523 2016 180181 910 848
leaf_count=6590 510 621 2671 789 560 501 290786 543 571 2780 523 2016 180181 910 848
internal_value=0 4.25293e-08 -4.57091e-06 -2.68603e-06 3.38545e-07 -1.33227e-08 2.55509e-07 1.53151e-05 4.74654e-06 -4.1883e-07 -4.67899e-06 -3.17937e-06 -2.08289e-07 4.9609e-06 2.20005e-06
internal_weight=0 486870 4530 4020 3231 486249 292401 1615 1072 193848 9129 8606 184719 4538 3628
internal_count=491400 486870 4530 4020 3231 486249 292401 1615 1072 193848 9129 8606 184719 4538 3628
is_linear=0
shrinkage=0.1


Tree=28
num_leaves=16
num_cat=0
split_feature=15 15 36 9 21 24 51 19 71 49 54 19 26 70 62
split_gain=7.73769e-06 9.63258e-05 1.12016e-05 1.24237e-05 5.232e-06 2.15756e-05 6.25731e-06 5.56684e-06 6.33623e-06 1.80893e-05 6.1155e-05 1.30093e-05 1.00859e-05 1.02557e-05 9.8135e-06
threshold=7150.0000000000009 6650.0000000000009 1.5000000000000002 950.00000000000011 2550.0000000000005 0.065000000000000016 -0.0024691495966299155 2450.0000000000005 -0.012095280696747477 -0.0013467887548395117 -0.0032722985543829903 313.50000000000006 237.00000000000003 -0.0097273407567291508 -0.0055352093885168143
decision_type=2 2 2 2 2 2 2 2 2 2 2 2 2 2 2
left_child=1 4 -2 -4 7 6 -6 8 9 11 -11 -1 13 14 -10
right_child=2 -3 3 -5 5 -7 -8 -9 12 10 -12 -13 -14 -15 -16
leaf_value=-1.8725782445386485e-05 -1.802880891220241e-05 3.9397657514458315e-05 -1.7019248823796969e-05 -2.3032405036638118e-07 7.915371230670383e-06 -1.8388111649279443e-05 -5.7504380423855812e-07 8.923941284147536e-07 -1.5647260852121002e-05 3.4631662449594272e-05 1.5484654778524708e-06 1.0010002104704702e-06 -1.2866865082546281e-05 -2.4524620849234771e-08 -1.9160723048678743e-06
leaf_weight=554 513 621 504 3513 875 679 108821 82338 804 649 4018 843 618 284574 1476
leaf_count=554 513 621 504 3513 875 679 108821 82338 804 649 4018 843 618 284574 1476
internal_value=0 3.82763e-08 -4.11382e-06 -2.33678e-06 -1.19904e-08 -6.17318e-07 -5.07319e-07 1.65763e-07 -3.80596e-08 3.16086e-06 6.14906e-06 -6.82193e-06 -1.05538e-07 -7.80452e-08 -6.75812e-06
internal_weight=0 486870 4530 4017 486249 110375 109696 375874 293536 6064 4667 1397 287472 286854 2280
internal_count=491400 486870 4530 4017 486249 110375 109696 375874 293536 6064 4667 1397 287472 286854 2280
is_linear=0
shrinkage=0.1


Tree=29
num_leaves=16
num_cat=0
split_feature=3 9 15 3 27 21 34 19 32 0 72 64 65 49 44
split_gain=6.82638e-06 0.00036608 6.80182e-05 3.79372e-05 1.72374e-05 5.41953e-06 9.12544e-06 2.13441e-05 1.51726e-05 3.94679e-05 1.21233e-05 1.61448e-05 6.60559e-06 2.75653e-05 2.78095e-05
threshold=7050.0000000000009 850.00000000000011 6650.0000000000009 3450.0000000000005 93.591030000000018 650.00000000000011 18849.500000000004 850.00000000000011 36494.500000000007 110.30500000000002 -0.0020986837613859439 0.0019179945729579375 -0.0072103860094238628 -0.0011002879885512737 -0.084744999999999987
decision_type=2 2 2 2 2 2 2 2 2 2 2 2 2 2 2
left_child=2 -2 5 -4 -3 6 8 -8 -1 -10 -11 -12 13 14 -7
right_child=1 4 3 -5 -6 12 7 -9 9 10 11 -13 -14 -15 -16
leaf_value=3.6210266189169859e-07 8.4763112857602754e-05 -1.8484792496070806e-05 -7.0778151176024335e-06 -4.540307388352917e-05 -2.3943681997409147e-07 -4.9003698771483591e-06 -2.3057596570866095e-05 2.8601032738904204e-06 3.2913365166236477e-05 1.1379603073623667e-05 -1.7799203296192879e-05 6.6860726417129735e-06 -2.2559473965255009e-07 1.6857721555684751e-06 -3.3773083661106373e-05
leaf_weight=186666 517 539 532 502 13168 915 544 764 515 744 524 554 281673 2718 525
leaf_count=186666 517 539 532 502 13168 915 544 764 515 744 524 554 281673 2718 525
internal_value=0 2.15877e-06 -6.43501e-08 -2.56845e-05 -9.56898e-07 -8.71289e-09 4.04749e-07 -7.91912e-06 4.62354e-07 8.46988e-06 1.56077e-06 -5.21586e-06 -2.84003e-07 -4.24069e-06 -1.54269e-05
internal_weight=0 14224 477176 1034 13707 476142 190311 1308 189003 2337 1822 1078 285831 4158 1440
internal_count=491400 14224 477176 1034 13707 476142 190311 1308 189003 2337 1822 1078 285831 4158 1440
is_linear=0
shrinkage=0.1


Tree=30
num_leaves=16
num_cat=0
split_feature=21 25 15 15 15 52 62 51 17 64 19 42 37 41 5
split_gain=7.21794e-06 0.000384009 3.54561e-05 4.17068e-05 4.86749e-05 1.30047e-05 6.97471e-06 6.7033e-06 4.65832e-06 7.14207e-06 4.62542e-06 6.00256e-06 1.91801e-05 6.71495e-05 4.24049e-05
threshold=7050.0000000000009 0.085000000000000006 6250.0000000000009 7150.0000000000009 6650.0000000000009 0.0029666882863719217 -0.00040974828421458381 0.00027384042580635986 2503.0000000000005 0.0044771477211700281 2550.0000000000005 592.50000000000011 393.50000000000006 9086.5000000000018 3.5000000000000004
decision_type=2 2 2 2 2 2 2 2 2 2 2 2 2 2 2
left_child=2 5 8 4 -4 7 -5 -2 10 -10 11 -1 13 14 -13
right_child=1 -3 3 6 -6 -7 -8 -9 9 -11 -12 12 -14 -15 -16
leaf_value=3.4839110553409699e-07 -2.5227425558718009e-06 7.8547812951174347e-05 -5.6252998597713368e-06 -1.3108442062676716e-05 -4.8408544770162379e-05 -1.5550220287800613e-05 1.3275311585722357e-07 2.0829303440533347e-06 1.4514720912792717e-06 1.1731761137881919e-05 5.3596779309742286e-07 -2.7641778263760768e-05 -2.1590905849784248e-07 -3.615550959264559e-05 -1.6014905171923445e-06
leaf_weight=125891 7712 630 541 509 523 612 1821 5354 6591 753 109445 645 209238 606 20529
leaf_count=125891 7712 630 541 509 523 612 1821 5354 6591 753 109445 645 209238 606 20529
internal_value=0 2.2131e-06 -6.63709e-08 -1.02509e-05 -2.6655e-05 -1.30283e-06 -2.75985e-06 -6.35495e-07 6.59999e-09 2.50554e-06 -3.27525e-08 -2.07149e-07 -5.09885e-07 -3.33408e-06 -2.39473e-06
internal_weight=0 14308 477092 3394 1064 13678 2330 13066 473698 7344 466354 356909 231018 21780 21174
internal_count=491400 14308 477092 3394 1064 13678 2330 13066 473698 7344 466354 356909 231018 21780 21174
is_linear=0
shrinkage=0.1


Tree=31
num_leaves=16
num_cat=0
split_feature=15 15 9 50 11 48 71 31 48 23 13 45 27 70 24
split_gain=7.38813e-06 0.000113533 1.67675e-05 1.3256e-05 9.22889e-06 4.27017e-06 1.34587e-05 1.44874e-05 1.16212e-05 1.60798e-05 1.68542e-05 1.1168e-05 2.30052e-05 1.04367e-05 6.17586e-05
threshold=7150.0000000000009 6650.0000000000009 850.00000000000011 0.0014431551503059083 300.50000000000006 0.00013038659681197109 0.0020684710012004452 18479.500000000004 0.0013721530823450625 50.500000000000007 650.00000000000011 0.20699500000000001 108.81435500000002 -0.0071429001488375046 0.055000000000000007
decision_type=2 2 2 2 2 2 2 2 2 2 2 2 2 2 2
left_child=1 5 -2 4 -4 13 -7 8 -8 -10 -11 12 -9 14 -1
right_child=2 -3 3 -5 -6 6 7 11 9 10 -12 -13 -14 -15 -16
leaf_value=-1.5840325606884728e-06 -2.1234229173479791e-05 4.276793518354112e-05 2.5034635410016979e-06 -1.667155199215e-05 -1.1911058014636089e-05 -3.2986053492930096e-07 1.5130472607434447e-06 2.3887112508427295e-05 7.8864441253244876e-06 -2.3652040778756602e-05 -2.9458654321981706e-06 -3.6089804528020465e-06 5.0488019386543167e-06 -1.1154367140516451e-07 -3.7369074196291066e-05
leaf_weight=9889 503 621 2979 526 522 88052 49192 856 625 640 1019 779 2671 332019 507
leaf_count=9889 503 621 2979 526 522 88052 49192 856 625 640 1019 779 2671 332019 507
internal_value=0 3.74018e-08 -4.01983e-06 -1.86963e-06 3.54255e-07 -1.71704e-08 4.40064e-07 1.65539e-06 1.18929e-06 -5.78376e-06 -1.09338e-05 7.22743e-06 9.62084e-06 -2.09235e-07 -3.32922e-06
internal_weight=0 486870 4530 4027 3501 486249 143834 55782 51476 2284 1659 4306 3527 342415 10396
internal_count=491400 486870 4530 4027 3501 486249 143834 55782 51476 2284 1659 4306 3527 342415 10396
is_linear=0
shrinkage=0.1


Tree=32
num_leaves=16
num_cat=0
split_feature=60 56 27 3 3 61 68 49 28 50 3 9 3 45 49
split_gain=6.01331e-06 2.78203e-05 1.96958e-05 0.000484403 8.78206e-06 1.84363e-05 7.66462e-06 9.29947e-06 1.34639e-05 8.39357e-06 7.47324e-06 3.09161e-05 6.99032e-06 1.16317e-05 6.93472e-06
threshold=0.0021766999956696069 -0.0022404045515136413 1.0000000180025095e-35 4450.0000000000009 6650.0000000000009 0.0022686433521126319 -0.0012957671265954593 -0.0011002879885512737 1753.0000000000002 -0.00114042737693526 6250.0000000000009 950.00000000000011 7550.0000000000009 0.20699500000000001 -0.00040624085735602161
decision_type=2 2 2 2 2 2 2 2 2 2 2 2 2 2 2
left_child=2 -2 3 -1 6 -6 -3 8 -8 -10 -4 -12 13 -13 -9
right_child=1 4 10 -5 5 -7 7 14 9 -11 11 12 -14 -15 -16
leaf_value=-2.7388635067033342e-07 -2.1079274683004423e-05 -3.626636439879259e-06 1.2201089510829434e-07 9.9400316652456403e-05 -2.2942783265397327e-05 -7.8952212308375347e-07 -5.2445473898526117e-06 -3.909797630114382e-06 5.0186716347886581e-06 2.2372506776936152e-05 -2.5848539096425639e-05 -2.325433109305166e-06 2.7387985872411738e-07 -1.5801114012610239e-05 -2.7831454212358468e-08
leaf_weight=10636 672 6962 389007 511 543 1219 575 4991 564 551 529 4684 10206 742 59008
leaf_count=10636 672 6962 389007 511 543 1219 575 4991 564 551 529 4684 10206 742 59008
internal_value=0 -8.23709e-07 1.48561e-07 4.29537e-06 -6.40787e-07 -7.61655e-06 -4.71605e-07 -1.37221e-07 7.18471e-06 1.35944e-05 3.44738e-08 -2.07261e-06 -1.26801e-06 -4.16822e-06 -3.30569e-07
internal_weight=0 75085 416315 11147 74413 1762 72651 65689 1690 1115 405168 16161 15632 5426 63999
internal_count=491400 75085 416315 11147 74413 1762 72651 65689 1690 1115 405168 16161 15632 5426 63999
is_linear=0
shrinkage=0.1


Tree=33
num_leaves=16
num_cat=0
split_feature=11 15 15 15 3 60 1 13 25 9 30 39 6 59 66
split_gain=6.61072e-06 0.000184938 2.50934e-05 3.13098e-05 6.86602e-05 1.21207e-05 1.19507e-05 6.21093e-06 7.66634e-06 6.14784e-06 6.87325e-06 5.66393e-06 7.27875e-06 5.63802e-06 2.8921e-05
threshold=352.50000000000006 6650.0000000000009 5950.0000000000009 7150.0000000000009 6650.0000000000009 -0.0044913908330682087 403.00000000000006 1350.0000000000002 0.115 4850.0000000000009 70.500000000000014 39960.500000000007 116.105 0.0023785314669947382 -0.0014366884985611004
decision_type=2 2 2 2 2 2 2 2 2 2 2 2 2 2 2
left_child=2 5 13 4 -4 -2 -5 9 -9 11 -11 -7 -13 -1 -15
right_child=1 -3 3 6 -6 7 -8 8 -10 10 -12 12 -14 14 -16
leaf_value=9.8779569106293741e-08 1.1828146564463774e-05 4.8587787041334307e-05 -4.3789050674803917e-06 -1.1875298108951357e-05 -4.8428196104729614e-05 1.1569999882738632e-06 1.2430201387789304e-06 -6.7730157213938948e-07 -1.2008619466791933e-05 4.084013246775729e-07 1.2970008190643748e-05 -1.4973606287571694e-05 1.971342845629226e-06 -8.7850308546799863e-06 -3.2414582675927848e-07
leaf_weight=374187 900 806 1103 915 521 22352 2881 26194 611 833 913 506 508 4368 53802
leaf_count=374187 900 806 1103 915 521 22352 2881 26194 611 833 913 506 508 4368 53802
internal_value=0 1.04799e-06 -1.28368e-07 -6.89037e-06 -1.85105e-05 3.22523e-07 -1.91906e-06 1.23069e-07 -9.35591e-07 1.2531e-06 6.97698e-06 8.2539e-07 -6.48442e-06 -4.35998e-08 -9.59476e-07
internal_weight=0 53623 437777 5420 1624 52817 3796 51917 26805 25112 1746 23366 1014 432357 58170
internal_count=491400 53623 437777 5420 1624 52817 3796 51917 26805 25112 1746 23366 1014 432357 58170
is_linear=0
shrinkage=0.1


Tree=34
num_leaves=16
num_cat=0
split_feature=15 15 11 5 54 70 5 1 25 41 1 15 38 5 48
split_gain=8.68288e-06 0.000111776 1.62741e-05 1.24712e-05 4.90872e-06 7.82346e-06 2.08297e-05 4.95992e-05 9.0574e-06 4.81506e-05 7.91705e-06 3.24189e-05 9.57599e-06 7.33479e-06 1.36689e-05
threshold=7150.0000000000009 6650.0000000000009 297.50000000000006 20.500000000000004 0.00016520816228859927 0.0064550549165933733 3.5000000000000004 807.50000000000011 0.20500000000000004 1800.5000000000002 218.00000000000003 3550.0000000000005 172.51874000000001 300.50000000000006 0.00023224308143954267
decision_type=2 2 2 2 2 2 2 2 2 2 2 2 2 2 2
left_child=1 4 3 -2 5 8 7 -7 10 -10 11 12 13 -1 -15
right_child=2 -3 -4 -5 -6 6 -8 -9 9 -11 -12 -13 -14 14 -16
leaf_value=-3.8830136347059877e-07 -1.2243104945845713e-05 4.2439090281472983e-05 -1.6345362866165789e-05 1.8013651760884905e-06 3.3284834322437796e-07 5.796274212732203e-07 -1.2586978184231637e-06 -3.8517168880763443e-05 -3.0039703036758666e-06 3.044263138139876e-05 7.4544979535111887e-08 -2.3473045338190383e-05 -1.0960911143003448e-05 -2.5581375499526125e-06 -2.0306030457095757e-05
leaf_weight=31661 816 621 906 2808 222136 883 26831 513 1536 598 197222 661 963 2729 516
leaf_count=31661 816 621 906 2808 222136 883 26831 513 1536 598 197222 661 963 2729 516
internal_value=0 4.05468e-08 -4.35785e-06 -1.36097e-06 -1.36013e-08 -3.04988e-07 -1.87833e-06 -1.37876e-05 -1.16716e-07 6.3686e-06 -1.75922e-07 -1.52817e-06 -1.12377e-06 -8.52377e-07 -5.3803e-06
internal_weight=0 486870 4530 3624 486249 264113 28227 1396 235886 2134 233752 36530 35869 34906 3245
internal_count=491400 486870 4530 3624 486249 264113 28227 1396 235886 2134 233752 36530 35869 34906 3245
is_linear=0
shrinkage=0.1


Tree=35
num_leaves=16
num_cat=0
split_feature=15 15 27 9 5 21 70 9 62 49 5 28 13 44 72
split_gain=7.03314e-06 9.05384e-05 1.19746e-05 1.48535e-05 6.93647e-06 4.63793e-06 2.67147e-05 3.95094e-05 8.80491e-06 7.01086e-06 1.92513e-05 2.20296e-05 1.79377e-05 1.67588e-05 1.74425e-05
threshold=7150.0000000000009 6650.0000000000009 95.837445000000017 1250.0000000000002 350.50000000000006 3150.0000000000005 -0.0071429001488375046 3550.0000000000005 -0.0040529627504314316 -0.0018232290920828784 170.50000000000003 4849.0000000000009 402.00000000000006 -0.116295 -0.0018557610348275964
decision_type=2 2 2 2 2 2 2 2 2 2 2 2 2 2 2
left_child=1 5 -2 -4 -5 9 7 -7 -8 10 12 -12 -1 14 -14
right_child=2 -3 3 4 -6 6 8 -9 -10 -11 11 -13 13 -15 -16
leaf_value=1.8889670833666084e-05 -1.8356832701030333e-05 3.8195179022500677e-05 -1.7030052311068395e-05 2.2333957059806033e-06 -1.0483286022358209e-05 -1.8448859339361531e-06 9.734664677576637e-06 -3.6764997299668374e-05 -5.778061530122486e-07 6.9055788070077807e-08 -1.9327310898612874e-05 4.5101398635389549e-06 1.5613006561131498e-05 -4.562767244820547e-06 -1.9019002278017882e-07
leaf_weight=914 510 621 571 2947 502 904 837 505 76498 400598 720 840 1487 1629 1317
leaf_count=914 510 621 571 2947 502 904 837 505 76498 400598 720 840 1487 1629 1317
internal_value=0 3.64922e-08 -3.92206e-06 -2.09078e-06 3.8249e-07 -1.22412e-08 -7.14813e-07 -1.43606e-05 -4.66194e-07 1.2352e-07 3.28237e-06 -6.49176e-06 6.134e-06 3.50402e-06 8.19046e-06
internal_weight=0 486870 4530 4020 3449 486249 78744 1409 77335 407505 6907 1560 5347 4433 2804
internal_count=491400 486870 4530 4020 3449 486249 78744 1409 77335 407505 6907 1560 5347 4433 2804
is_linear=0
shrinkage=0.1


Tree=36
num_leaves=16
num_cat=0
split_feature=25 15 15 15 9 31 25 51 29 36 60 50 58 44 49
split_gain=6.57875e-06 0.000287379 3.13042e-05 0.000133228 2.87446e-05 2.2811e-05 5.46682e-05 4.53316e-05 4.00454e-05 1.98113e-05 1.98324e-05 1.32872e-05 9.46898e-06 9.32431e-06 9.04533e-06
threshold=0.075000000000000025 6650.0000000000009 6650.0000000000009 7150.0000000000009 10650.000000000002 7449.5000000000009 0.13500000000000004 -0.00037389972581175485 40821.500000000007 223.50000000000003 -0.0044913908330682087 -0.0021618738659701093 0.0014700335594562965 -4.3415299999999997 -0.00093961391272101558
decision_type=2 2 2 2 2 2 2 2 2 2 2 2 2 2 2
left_child=2 4 13 -4 5 8 7 -7 9 10 -2 -12 -5 -1 -13
right_child=1 -3 3 12 -6 6 -8 -9 -10 -11 11 14 -14 -15 -16
leaf_value=1.3341594704976989e-05 -1.3648404146969141e-05 6.7318284364287239e-05 -5.3952390296619596e-05 4.5256877674558004e-07 -2.2575141002352423e-05 2.0816329049705234e-05 3.8698120669022688e-05 -1.761906162747379e-05 -2.1942157299234864e-05 1.9583869918088609e-05 1.3472533884036219e-05 -4.5342516225730695e-06 -1.1946045400767407e-05 -8.3518662685924806e-08 6.0258840221399612e-07
leaf_weight=518 1007 645 563 3179 546 572 526 662 809 536 779 3612 764 409415 67267
leaf_count=518 1007 645 563 3179 546 572 526 662 809 536 779 3612 764 409415 67267
internal_value=0 8.49081e-07 -1.57674e-07 -8.44724e-06 2.87303e-07 4.5205e-07 1.17036e-05 1.97019e-07 1.84482e-07 4.2902e-07 2.87728e-07 4.83571e-07 -1.9498e-06 -6.65544e-08 3.40815e-07
internal_weight=0 76961 414439 4506 76316 75770 1760 1234 74010 73201 72665 71658 3943 409933 70879
internal_count=491400 76961 414439 4506 76316 75770 1760 1234 74010 73201 72665 71658 3943 409933 70879
is_linear=0
shrinkage=0.1


Tree=37
num_leaves=16
num_cat=0
split_feature=21 9 52 32 44 36 44 45 1 34 7 22 70 49 46
split_gain=5.72587e-06 0.000504938 1.58081e-05 9.40954e-06 6.49173e-06 5.40425e-06 1.06132e-05 1.58972e-05 1.20685e-05 1.69552e-05 1.38182e-05 1.16022e-05 1.95145e-05 2.38429e-05 1.32373e-05
threshold=7050.0000000000009 604.00000000000011 0.0029666882863719217 19397.500000000004 0.7800100000000002 1223.5000000000002 -0.2624149999999999 -0.25748499999999991 1450.0000000000002 1400.5000000000002 550.00000000000011 112.61005000000002 0.0077212400808028834 0.0014376181866047057 108.16009000000001
decision_type=2 2 2 2 2 2 2 2 2 2 2 2 2 2 2
left_child=5 -2 3 4 -3 -1 7 -7 9 -8 11 12 13 14 -11
right_child=1 2 -4 -5 -6 6 8 -9 -10 10 -12 -13 -14 -15 -16
leaf_value=7.0171393235115632e-09 9.5137539463390958e-05 -1.2585769296622842e-06 -1.6751428458076909e-05 8.0645798499252174e-06 -1.1168394617288091e-05 -1.0505779811040383e-06 -1.9549599687060967e-05 1.8744955637625289e-05 5.0939070373248105e-07 -7.2544500952431464e-07 -1.4878914317957253e-05 1.1344973253862477e-06 -2.4330764939164401e-05 1.4076897564033667e-05 -1.7801325377333192e-05
leaf_weight=459357 559 11330 674 1043 702 1244 739 602 6976 947 979 4242 534 600 872
leaf_count=459357 559 11330 674 1043 702 1244 739 602 6976 947 979 4242 534 600 872
internal_value=0 1.97113e-06 -1.81679e-06 -1.04692e-06 -1.83676e-06 -5.91142e-08 -1.77199e-06 5.40495e-06 -2.60582e-06 -5.04402e-06 -3.73259e-06 -2.21594e-06 -7.02887e-06 -3.20943e-06 -8.91135e-06
internal_weight=0 14308 13749 13075 12032 477092 17735 1846 15889 8913 8174 7195 2953 2419 1819
internal_count=491400 14308 13749 13075 12032 477092 17735 1846 15889 8913 8174 7195 2953 2419 1819
is_linear=0
shrinkage=0.1


Tree=38
num_leaves=16
num_cat=0
split_feature=15 15 9 41 11 42 17 20 36 36 54 23 32 60 22
split_gain=8.94369e-06 9.23918e-05 2.21829e-05 1.11967e-05 5.44067e-06 4.23451e-06 7.58089e-06 8.55629e-06 2.00152e-05 1.37713e-05 7.34319e-06 1.58676e-05 2.08544e-05 1.28806e-05 1.18853e-05
threshold=7150.0000000000009 6650.0000000000009 850.00000000000011 1.0000000180025095e-35 297.50000000000006 25968.500000000004 30.500000000000004 104.51500000000001 1095.5000000000002 1844.5000000000002 0.0034737502716799544 75.500000000000014 36494.500000000007 0.0046161036149329213 105.72750000000001
decision_type=2 2 2 2 2 2 2 2 2 2 2 2 2 2 2
left_child=1 5 -2 -4 -5 -1 7 8 -7 -9 -8 13 14 -12 -13
right_child=2 -3 3 4 -6 6 10 9 -10 -11 11 12 -14 -15 -16
leaf_value=-1.5990797176511351e-07 -2.4222877597765884e-05 3.8588426605274907e-05 -1.248250089143201e-05 2.5802304691390157e-06 -8.2492675107955147e-06 -1.4209681665684383e-06 1.1418897171460273e-06 -1.7321549578854763e-06 1.6984321452517123e-05 -1.5057359474251071e-05 -3.8327737429151028e-06 -1.4898496647371454e-05 -2.3572990561232849e-05 1.7027690754098405e-05 1.4747915322199669e-06
leaf_weight=384475 503 621 807 2658 562 2335 81895 11829 791 830 594 600 612 590 1698
leaf_count=384475 503 621 807 2658 562 2335 81895 11829 791 830 594 600 612 590 1698
internal_value=0 4.11513e-08 -4.42281e-06 -1.94964e-06 6.90113e-07 -8.07836e-09 5.65493e-07 -1.44888e-06 3.23629e-06 -2.60584e-06 9.35273e-07 -3.19783e-06 -7.16893e-06 6.56222e-06 -2.80022e-06
internal_weight=0 486870 4530 4027 3220 486249 101774 15785 3126 12659 85989 4094 2910 1184 2298
internal_count=491400 486870 4530 4027 3220 486249 101774 15785 3126 12659 85989 4094 2910 1184 2298
is_linear=0
shrinkage=0.1


Tree=39
num_leaves=16
num_cat=0
split_feature=15 15 9 35 11 54 64 65 27 63 57 71 48 66 35
split_gain=7.24439e-06 7.48373e-05 1.79681e-05 1.09624e-05 9.92315e-06 4.26877e-06 6.78878e-06 2.41478e-05 0.000102488 1.17595e-05 6.56665e-06 1.27172e-05 9.86477e-06 8.03836e-06 8.91791e-06
threshold=7150.0000000000009 6650.0000000000009 850.00000000000011 75.500000000000014 352.50000000000006 0.00016520816228859927 0.0030550235543467257 -0.00095164764820376824 142.81075000000001 -0.0015293391530115661 0.0014042581054731775 -0.012095280696747477 -0.00012592740319899984 0.00047109443230186626 120699.50000000001
decision_type=2 2 2 2 2 2 2 2 2 2 2 2 2 2 2
left_child=1 5 -2 -4 -5 6 -1 8 -8 -9 11 12 -7 14 -12
right_child=2 -3 3 4 -6 10 7 9 -10 -11 13 -13 -14 -15 -16
leaf_value=-1.0496108544826294e-07 -2.1800592566690379e-05 3.472957741349168e-05 -1.4859339371105966e-05 2.6064878380633213e-06 -1.2177026276611091e-05 2.1368368499334389e-05 -1.1200984901092343e-06 -1.3536320877384666e-05 -4.9934064459151409e-05 -4.178605885157154e-07 -1.5985658013799713e-06 6.1069661028339109e-07 3.8197417162094197e-06 2.0497285973918782e-07 -1.0488958823740682e-05
leaf_weight=236271 503 621 551 2939 537 506 2194 703 535 24410 19930 146628 873 53003 1196
leaf_count=236271 503 621 551 2939 537 506 2194 703 535 24410 19930 146628 873 53003 1196
internal_value=0 3.70362e-08 -3.98053e-06 -1.75468e-06 3.22614e-07 -7.2705e-09 -2.79e-07 -1.75592e-06 -1.06897e-05 -7.85092e-07 3.15808e-07 7.0059e-07 1.02589e-05 -4.52455e-07 -2.10187e-06
internal_weight=0 486870 4530 4027 3476 486249 264113 27842 2729 25113 222136 148007 1379 74129 21126
internal_count=491400 486870 4530 4027 3476 486249 264113 27842 2729 25113 222136 148007 1379 74129 21126
is_linear=0
shrinkage=0.1


Tree=40
num_leaves=16
num_cat=0
split_feature=3 27 3 9 42 45 25 45 30 70 42 38 35 25 72
split_gain=6.74943e-06 0.000344376 2.27599e-05 2.12561e-05 1.43747e-05 6.37241e-06 4.76944e-06 4.61658e-06 6.54475e-06 1.49127e-05 1.79749e-05 0.000125867 1.24229e-05 1.06152e-05 4.73318e-05
threshold=7050.0000000000009 93.591030000000018 6650.0000000000009 950.00000000000011 8688.5000000000018 0.023305000000000003 0.54500000000000015 0.40481500000000009 15.500000000000002 -0.0071429001488375046 1429.5000000000002 143.27373000000003 13170.500000000002 0.20500000000000004 -0.0070035285745762557
decision_type=2 2 2 2 2 2 2 2 2 2 2 2 2 2 2
left_child=2 -2 6 -3 -4 -6 7 8 9 -1 -11 12 -12 -10 -15
right_child=1 3 4 -5 5 -7 -8 -9 13 10 11 -13 -14 14 -16
leaf_value=-1.3707114701287006e-05 7.9221724705182061e-05 -2.0038522038751928e-05 -2.54048597146427e-05 -1.7795329089240072e-07 -2.4873791486704409e-07 -1.4162058847151101e-05 -7.8792252998204787e-06 9.7465273832492654e-07 2.9785354481893474e-08 -3.0577977453220314e-07 -5.3051982706108841e-07 -5.1396405625923035e-05 -1.6596379987320674e-05 3.3483201594546786e-05 1.0000343291053536e-06
leaf_weight=897 557 562 508 13105 836 543 771 43458 339757 79068 6316 552 521 516 3433
leaf_count=897 557 562 508 13105 836 543 771 43458 339757 79068 6316 552 521 516 3433
internal_value=0 2.14657e-06 -6.39864e-08 -9.94639e-07 -1.10247e-05 -5.7273e-06 -2.047e-08 -7.70103e-09 -1.06739e-07 -8.7965e-07 -7.46564e-07 -5.4633e-06 -1.75479e-06 8.96994e-08 5.24448e-06
internal_weight=0 14224 477176 13667 1887 1379 475289 474518 431060 87354 86457 7389 6837 343706 3949
internal_count=491400 14224 477176 13667 1887 1379 475289 474518 431060 87354 86457 7389 6837 343706 3949
is_linear=0
shrinkage=0.1


Tree=41
num_leaves=16
num_cat=0
split_feature=15 15 25 35 11 21 13 68 48 11 34 69 30 65 49
split_gain=7.47402e-06 6.59316e-05 1.60803e-05 1.13502e-05 6.58451e-06 4.52252e-06 7.94519e-06 4.93229e-05 8.60119e-06 1.15098e-05 1.45957e-05 9.81079e-06 8.44174e-06 2.06864e-05 1.36598e-05
threshold=7150.0000000000009 6650.0000000000009 0.075000000000000025 75.500000000000014 352.50000000000006 650.00000000000011 100.50000000000001 -0.0024382690256854462 -0.0013695711771229966 100.50000000000001 1400.5000000000002 -0.0016976369588576621 19678.500000000004 -0.0072103860094238628 -0.00044434237231588675
decision_type=2 2 2 2 2 2 2 2 2 2 2 2 2 2 2
left_child=1 5 3 -2 -5 -1 7 -7 9 10 -8 -12 -10 14 -14
right_child=2 -3 -4 4 -6 6 8 -9 12 -11 11 -13 13 -15 -16
leaf_value=3.732964366422977e-07 -1.5617535288032524e-05 3.2600588667627887e-05 -1.9484740435084317e-05 2.1890254509727177e-06 -9.9990575581683962e-06 -2.5952780060144091e-05 -1.3046936997210759e-05 -8.8679026412596647e-07 -8.999164512541175e-08 1.4933370711899116e-05 -6.341535957504494e-07 1.3381034596562683e-05 -2.4961233275364195e-05 -1.3962331664362079e-06 -4.1275976055016694e-06
leaf_weight=192172 513 621 587 2907 523 857 544 9346 267056 848 1162 876 649 12128 611
leaf_count=192172 513 621 587 2907 523 857 544 9346 267056 848 1162 876 649 12128 611
internal_value=0 3.76186e-08 -4.04312e-06 -1.74431e-06 3.30609e-07 -3.96837e-09 -2.50502e-07 -2.99221e-06 -1.51959e-07 4.82532e-06 1.50556e-06 5.39004e-06 -2.12834e-07 -2.66323e-06 -1.48586e-05
internal_weight=0 486870 4530 3943 3430 486249 294077 10203 283874 3430 2582 2038 280444 13388 1260
internal_count=491400 486870 4530 3943 3430 486249 294077 10203 283874 3430 2582 2038 280444 13388 1260
is_linear=0
shrinkage=0.1


Tree=42
num_leaves=16
num_cat=0
split_feature=25 21 34 34 48 37 34 33 45 8 30 45 59 21 25
split_gain=6.0752e-06 0.000222039 1.89157e-05 3.73529e-05 1.99655e-05 1.76932e-05 9.68946e-06 1.6833e-05 2.56401e-05 3.45677e-05 1.96861e-05 1.10276e-05 1.63941e-05 8.20196e-06 5.15738e-05
threshold=0.075000000000000025 7050.0000000000009 5274.5000000000009 2880.5000000000005 -0.0013695711771229966 393.50000000000006 1865.5000000000002 20230.500000000004 0.22801500000000002 118.06500000000001 4837.5000000000009 0.50000500000000014 0.00045199771770254587 3250.0000000000005 0.065000000000000016
decision_type=2 2 2 2 2 2 2 2 2 2 2 2 2 2 2
left_child=13 2 3 4 5 -2 7 10 9 -9 11 -6 -13 -1 -15
right_child=1 -3 -4 -5 6 -7 -8 8 -10 -11 -12 12 -14 14 -16
leaf_value=5.8269592428098234e-08 -1.2207449819185738e-06 5.4815547313511538e-05 -1.399404115516859e-05 2.4286944204348603e-05 2.7908469301972264e-07 -2.284829256463153e-05 -1.3039935110871655e-05 3.9314248419260819e-05 -3.1877571053604768e-06 2.8271994439898846e-06 -1.8686218814023219e-05 2.0214783585960396e-05 5.0264891255315883e-07 -8.5847631982821112e-07 -3.003011260992572e-05
leaf_weight=339041 830 754 917 652 68414 695 526 501 827 539 540 697 1069 74787 611
leaf_count=339041 830 754 917 652 68414 695 526 501 827 539 540 697 1069 74787 611
internal_value=0 8.15939e-07 2.81661e-07 4.55533e-07 2.47354e-07 -1.10772e-05 4.83564e-07 5.81561e-07 9.95395e-06 2.04041e-05 3.34131e-07 4.80484e-07 8.28258e-06 -1.51519e-07 -1.09487e-06
internal_weight=0 76961 76207 75290 74638 1525 73113 72587 1867 1040 70720 70180 1766 414439 75398
internal_count=491400 76961 76207 75290 74638 1525 73113 72587 1867 1040 70720 70180 1766 414439 75398
is_linear=0
shrinkage=0.1


Tree=43
num_leaves=16
num_cat=0
split_feature=15 15 25 27 11 40 19 72 25 42 52 37 7 27 48
split_gain=6.9502e-06 5.36386e-05 1.81508e-05 1.25454e-05 4.81008e-06 5.24613e-06 3.7523e-06 8.44088e-06 2.23429e-05 5.66767e-06 1.95529e-05 1.46854e-05 7.30297e-05 0.000122191 1.76741e-05
threshold=7150.0000000000009 6650.0000000000009 0.075000000000000025 96.607150000000019 300.50000000000006 151.50000000000003 1350.0000000000002 -0.013992952309551497 0.025000000000000005 592.50000000000011 -0.0020668363633583038 792.50000000000011 2250.0000000000005 118.71132500000002 0.00085035099608177245
decision_type=2 2 2 2 2 2 2 2 2 2 2 2 2 2 2
left_child=1 6 3 -2 5 -5 9 8 -8 10 -1 12 14 -14 -11
right_child=2 -3 -4 4 -6 -7 7 -9 -10 11 -12 -13 13 -15 -16
leaf_value=-1.5251670055878089e-05 -1.5896629732848375e-05 2.9407070118082078e-05 -2.0304496595505119e-05 1.0312239423761814e-05 -8.1604178551272539e-06 6.5067539177211792e-08 5.6601314644248345e-07 2.4395751218309792e-07 2.1886655485186139e-05 -1.2477014725148346e-06 3.8714047102014316e-07 -2.2898172557559217e-07 4.9386799837099429e-06 -6.4327867021747009e-05 -1.6999937985889594e-05
leaf_weight=805 522 621 587 641 515 2265 1934 209962 659 22105 116411 132618 518 501 736
leaf_count=805 522 621 587 641 515 2265 1934 209962 659 22105 116411 132618 518 501 736
internal_value=0 3.62764e-08 -3.89887e-06 -1.45654e-06 7.46831e-07 2.32537e-06 -1.23377e-09 3.13988e-07 5.98456e-06 -2.4604e-07 2.79738e-07 -6.39895e-07 -2.92382e-06 -2.91168e-05 -1.75528e-06
internal_weight=0 486870 4530 3943 3421 2906 486249 212555 2593 273694 117216 156478 23860 1019 22841
internal_count=491400 486870 4530 3943 3421 2906 486249 212555 2593 273694 117216 156478 23860 1019 22841
is_linear=0
shrinkage=0.1


Tree=44
num_leaves=16
num_cat=0
split_feature=11 15 15 15 15 50 27 9 40 17 64 13 36 10 7
split_gain=6.20387e-06 0.000172357 3.21532e-05 7.20689e-05 7.05244e-05 1.20351e-05 1.03711e-05 5.76654e-06 5.68326e-06 5.23831e-06 7.50626e-06 3.94148e-06 7.22994e-06 4.28165e-06 1.48029e-05
threshold=352.50000000000006 6650.0000000000009 6250.0000000000009 7150.0000000000009 6650.0000000000009 -0.0021618738659701093 97.40556500000001 1750.0000000000002 77256.000000000015 2503.0000000000005 0.0044771477211700281 1350.0000000000002 1000.5000000000001 99.862500000000011 550.00000000000011
decision_type=2 2 2 2 2 2 2 2 2 2 2 2 2 2 2
left_child=2 5 9 4 -4 -2 -5 -8 11 -1 -11 12 13 14 -7
right_child=1 -3 3 6 -6 8 7 -9 -10 10 -12 -13 -14 -15 -16
leaf_value=-7.5697239077979388e-08 1.1498657641587435e-05 4.6909443003405119e-05 -5.0989444319715844e-06 -1.4468203378849824e-05 -5.6116687361225625e-05 -2.5172209134200014e-07 -9.2358918432340717e-06 2.2716224091368821e-06 -8.6499930180813356e-06 1.7353639204099173e-06 1.3728657954791075e-05 -6.155248846353928e-07 1.1956969594233863e-05 4.21104488587049e-07 1.6576501763740144e-05
leaf_weight=426579 945 806 535 545 549 1741 518 2733 730 5744 574 26345 603 21706 747
leaf_count=426579 945 806 535 545 549 1741 518 2733 730 5744 574 26345 603 21706 747
internal_value=0 1.01523e-06 -1.24355e-07 -8.19611e-06 -3.09373e-05 3.14874e-07 -1.70206e-06 4.38066e-07 1.11128e-07 -3.33628e-08 2.82497e-06 2.36184e-07 1.14106e-06 8.71493e-07 4.8008e-06
internal_weight=0 53623 437777 4880 1084 52817 3796 3251 51872 432897 6318 51142 24797 24194 2488
internal_count=491400 53623 437777 4880 1084 52817 3796 3251 51872 432897 6318 51142 24797 24194 2488
is_linear=0
shrinkage=0.1


Tree=45
num_leaves=16
num_cat=0
split_feature=15 15 11 1 48 31 9 31 62 38 48 32 32 66 6
split_gain=7.7852e-06 5.91588e-05 1.57711e-05 9.51915e-06 3.62259e-06 1.2421e-05 2.22069e-05 1.22633e-05 1.15892e-05 2.83801e-05 1.59429e-05 1.41928e-05 1.339e-05 1.06228e-05 1.07063e-05
threshold=7150.0000000000009 6650.0000000000009 352.50000000000006 403.00000000000006 6.3065619840152478e-05 21556.000000000004 510.00000000000006 21556.000000000004 0.0027120540835483546 110.88024000000001 -0.0013695711771229966 36494.500000000007 28512.500000000004 0.001738130508552205 115.03500000000001
decision_type=2 2 2 2 2 2 2 2 2 2 2 2 2 2 2
left_child=1 4 3 -2 7 -6 -7 -1 10 -10 11 -9 -12 -8 -15
right_child=2 -3 -4 -5 5 6 13 8 9 -11 12 -13 -14 14 -16
leaf_value=-1.0390007233805659e-07 -1.0417665675685796e-05 3.08835293142344e-05 -1.7544714921428149e-05 1.2902636465360986e-06 1.7883250656770301e-07 2.1484970950456175e-05 -9.4055287992114007e-07 -5.1696275459572979e-07 -3.1235263824674972e-05 -1.9972347919910885e-06 -2.1714796435413653e-06 2.0762381586567657e-05 -1.4366250288763464e-05 1.340104785691483e-05 1.7081752183613905e-06
leaf_weight=296388 915 621 734 2881 173646 684 3827 821 505 969 4609 507 1119 1405 1769
leaf_count=296388 915 621 734 2881 173646 684 3827 821 505 969 4609 507 1119 1405 1769
internal_value=0 3.83937e-08 -4.12643e-06 -1.53185e-06 -9.99361e-10 3.52946e-07 4.28711e-06 -2.11486e-07 -3.94973e-06 -1.20143e-05 -2.26503e-06 7.607e-06 -4.5538e-06 2.60688e-06 6.88413e-06
internal_weight=0 486870 4530 3796 486249 181331 7685 304918 8530 1474 7056 1328 5728 7001 3174
internal_count=491400 486870 4530 3796 486249 181331 7685 304918 8530 1474 7056 1328 5728 7001 3174
is_linear=0
shrinkage=0.1


Tree=46
num_leaves=16
num_cat=0
split_feature=3 9 27 3 48 29 21 24 57 3 9 49 17 2 17
split_gain=5.75118e-06 0.000342946 2.8017e-05 2.27525e-05 1.52978e-05 6.22294e-06 4.55493e-06 2.73234e-05 7.33506e-06 8.23913e-06 5.9442e-06 5.18632e-06 1.87e-05 1.3547e-05 1.89067e-05
threshold=7050.0000000000009 850.00000000000011 93.591030000000018 6650.0000000000009 -4.685465241055508e-05 14673.500000000002 3150.0000000000005 0.055000000000000007 -0.0023621402322444025 650.00000000000011 2450.0000000000005 -0.0018232290920828784 600.50000000000011 96.635000000000005 80.500000000000014
decision_type=2 2 2 2 2 2 2 2 2 2 2 2 2 2 2
left_child=3 -2 -3 6 -5 -6 11 8 9 -8 -11 12 13 -1 -15
right_child=1 2 -4 4 5 -7 7 -9 -10 10 -12 -13 -14 14 -16
leaf_value=1.7642470273257939e-05 8.1933236844626908e-05 -2.3380423090286757e-05 -1.1944730387219651e-07 -6.2446105345733678e-07 -2.6558082156184364e-05 -1.1359843581733389e-05 1.6012650536689559e-05 -2.1709024941353661e-05 -7.3386684788845666e-07 -5.8697706899864071e-06 6.505649181317321e-06 7.0178380462082317e-08 -1.4796352943580976e-05 -5.2367393201104867e-06 6.9957587850921774e-06
leaf_weight=688 517 539 13168 809 529 549 530 616 71329 638 991 394356 552 1930 3659
leaf_count=688 517 539 13168 809 529 549 530 616 71329 638 991 394356 552 1930 3659
internal_value=0 1.98148e-06 -1.03414e-06 -5.90653e-08 -1.1018e-05 -1.8818e-05 -1.5556e-08 -7.35856e-07 -5.60052e-07 5.18244e-06 1.6588e-06 1.17493e-07 2.84976e-06 4.40156e-06 2.77162e-06
internal_weight=0 14224 13707 477176 1887 1078 475289 74104 73488 2159 1629 401185 6829 6277 5589
internal_count=491400 14224 13707 477176 1887 1078 475289 74104 73488 2159 1629 401185 6829 6277 5589
is_linear=0
shrinkage=0.1


Tree=47
num_leaves=16
num_cat=0
split_feature=28 3 66 49 3 9 29 3 25 49 25 25 31 13 48
split_gain=5.67773e-06 0.00017475 0.000409354 1.90488e-05 7.61257e-06 5.14004e-05 6.86484e-06 1.03283e-05 6.07045e-06 6.65994e-06 2.64013e-05 1.51869e-05 1.7767e-05 1.05328e-05 6.74733e-06
threshold=5.0000000000000009 7050.0000000000009 0.00015367889456896491 -0.00082592882336390827 6250.0000000000009 850.00000000000011 4410.5000000000009 7550.0000000000009 0.54500000000000015 -0.0018232290920828784 0.20500000000000004 0.12500000000000003 36779.000000000007 509.50000000000006 -0.00084835027257784679
decision_type=2 2 2 2 2 2 2 2 2 2 2 2 2 2 2
left_child=1 3 -3 -1 8 -6 7 -7 9 10 11 12 13 -2 -15
right_child=4 2 -4 -5 5 6 -8 -9 -10 -11 -12 -13 -14 14 -16
leaf_value=-1.7200729220639915e-05 1.6573363095898565e-05 0.00010715487514463456 -1.5061799463145397e-05 3.557723407043444e-07 -3.1662746553408587e-05 -1.8546891718486362e-05 -3.837255194149777e-07 -2.4665026173282131e-06 -9.4651571252039171e-06 -7.5805549827693083e-08 2.2898884280203064e-05 -1.4554729739362855e-05 -1.2322327956567888e-05 5.4641631175100325e-06 -2.8298027688715705e-06
leaf_weight=625 646 501 605 55220 572 531 14369 1612 682 409525 610 563 702 3228 1409
leaf_count=625 646 501 605 55220 572 531 14369 1612 682 409525 610 563 702 3228 1409
internal_value=0 9.38833e-07 4.03004e-05 1.59285e-07 -1.2307e-07 -2.19207e-06 -1.17116e-06 -6.45096e-06 -3.83795e-08 -2.29503e-08 3.00101e-06 1.14736e-06 2.62444e-06 4.61055e-06 2.94396e-06
internal_weight=0 56951 1106 55845 434449 17084 16512 2143 417365 416683 7158 6548 5985 5283 4637
internal_count=491400 56951 1106 55845 434449 17084 16512 2143 417365 416683 7158 6548 5985 5283 4637
is_linear=0
shrinkage=0.1


Tree=48
num_leaves=16
num_cat=0
split_feature=15 15 25 35 11 19 52 25 21 45 9 44 21 71 56
split_gain=9.53963e-06 5.39457e-05 1.51976e-05 9.76736e-06 8.26632e-06 3.63575e-06 1.20615e-05 9.43947e-06 6.28783e-06 1.57613e-05 5.88967e-06 1.07392e-05 5.01406e-06 1.4252e-05 2.48509e-05
threshold=7150.0000000000009 6650.0000000000009 0.075000000000000025 75.500000000000014 352.50000000000006 102.00000000000001 -0.0027747898874705963 0.075000000000000025 3550.0000000000005 0.27995500000000001 3750.0000000000005 0.40516500000000005 750.00000000000011 -0.012095280696747477 -0.0037247105836475387
decision_type=2 2 2 2 2 2 2 2 2 2 2 2 2 2 2
left_child=1 5 3 -2 -5 6 7 -1 10 -10 -8 -12 13 14 -7
right_child=2 -3 -4 4 -6 12 8 -9 9 -11 11 -13 -14 -15 -16
leaf_value=-2.8646435594668987e-06 -1.5202508838216414e-05 2.9497258117701409e-05 -1.9579604516720902e-05 1.6741218709585996e-06 -1.1982073031105885e-05 2.2713738365369721e-05 -4.9031593508931707e-07 -2.1046868819462898e-05 -1.6654917232115667e-06 -2.0496442643821297e-05 9.3907628555871425e-07 1.7513930911709575e-05 -1.6804345475418101e-07 4.0554853481065972e-07 2.1291902930441509e-06
leaf_weight=652 513 621 587 2907 523 777 52515 508 2603 536 1674 510 260163 163919 2392
leaf_count=652 513 621 587 2907 523 777 52515 508 2603 536 1674 510 260163 163919 2392
internal_value=0 4.25002e-08 -4.56779e-06 -2.33295e-06 -4.08149e-07 4.88283e-09 -7.3097e-07 -1.08272e-05 -5.28479e-07 -4.88097e-06 -2.78704e-07 4.80958e-06 1.06495e-07 5.33962e-07 7.17627e-06
internal_weight=0 486870 4530 3943 3430 486249 58998 1160 57838 3139 54699 2184 427251 167088 3169
internal_count=491400 486870 4530 3943 3430 486249 58998 1160 57838 3139 54699 2184 427251 167088 3169
is_linear=0
shrinkage=0.1


Tree=49
num_leaves=16
num_cat=0
split_feature=15 15 25 28 11 38 19 24 72 31 33 39 9 39 17
split_gain=7.7271e-06 4.3696e-05 1.23101e-05 8.0652e-06 4.07178e-06 3.69035e-06 3.61344e-06 5.10723e-06 5.20076e-06 5.3843e-06 5.20684e-06 4.92955e-06 6.11678e-06 4.05306e-06 1.32545e-05
threshold=7150.0000000000009 6650.0000000000009 0.075000000000000025 3.0000000000000004 297.50000000000006 98.546665000000019 2750.0000000000005 0.065000000000000016 -0.013992952309551497 36779.000000000007 66063.500000000015 35789.500000000007 1450.0000000000002 46073.500000000007 200.50000000000003
decision_type=2 2 2 2 2 2 2 2 2 2 2 2 2 2 2
left_child=1 6 3 -2 5 -5 13 8 -8 11 -11 -10 -13 -1 -15
right_child=2 -3 -4 4 -6 -7 7 -9 9 10 -12 12 -14 14 -16
leaf_value=-6.9445035354624828e-08 -1.2500478320388274e-05 2.6547534866693418e-05 -1.7621644733953501e-05 8.7656209147372539e-06 -7.5733560025096373e-06 -3.5863166496190912e-07 7.9908385989384001e-06 9.2860322342015366e-06 3.2349159892599438e-07 1.0618103383961372e-06 -1.2263020372572747e-05 1.200747809629402e-05 2.0949573985093384e-06 -3.3123274100078861e-07 -7.672188519283609e-06
leaf_weight=364733 627 621 587 558 602 2156 911 661 97372 531 655 731 4195 13450 3010
leaf_count=364733 627 621 587 558 602 2156 911 661 97372 531 655 731 4195 13450 3010
internal_value=0 3.82502e-08 -4.11101e-06 -2.09966e-06 -1.33038e-07 1.51732e-06 4.39453e-09 5.23665e-07 4.68184e-07 4.0196e-07 -6.29718e-06 4.79627e-07 3.56594e-06 -1.38715e-07 -1.67366e-06
internal_weight=0 486870 4530 3943 3316 2714 486249 105056 104395 103484 1186 102298 4926 381193 16460
internal_count=491400 486870 4530 3943 3316 2714 486249 105056 104395 103484 1186 102298 4926 381193 16460
is_linear=0
shrinkage=0.1


Tree=50
num_leaves=16
num_cat=0
split_feature=25 21 34 34 48 36 34 41 37 45 21 41 5 25 52
split_gain=5.72786e-06 0.000196865 1.53714e-05 3.02679e-05 1.66065e-05 1.62973e-05 3.69162e-05 2.00562e-05 1.49393e-05 1.06937e-05 1.15562e-05 8.84579e-06 2.30425e-05 2.37233e-05 1.29854e-05
threshold=0.075000000000000025 7050.0000000000009 5274.5000000000009 2880.5000000000005 -0.0013695711771229966 234.50000000000003 613.50000000000011 11816.500000000002 393.50000000000006 0.50000500000000014 216.50000000000003 1800.5000000000002 80.500000000000014 0.15500000000000003 -0.0008136063595498565
decision_type=2 2 2 2 2 2 2 2 2 2 2 2 2 2 2
left_child=-1 2 3 4 8 7 -7 9 -2 11 -11 14 13 -13 -6
right_child=1 -3 -4 -5 5 6 -8 -9 -10 10 -12 12 -14 -15 -16
leaf_value=-1.4712405652191116e-07 -1.0126151729386345e-06 5.1638714654805931e-05 -1.257974415765659e-05 2.1898477309061347e-05 -4.1937534425478726e-06 2.4480199344518448e-05 -8.1246006680737592e-06 -1.4078928390457325e-05 -2.0885832784462908e-05 -1.809148276509807e-07 1.5477539055079129e-05 6.2641588087358139e-06 -1.0664578514804536e-07 3.0852950878978504e-05 3.8846973573690075e-07
leaf_weight=414439 830 754 917 652 6971 842 591 962 695 915 972 1571 4954 523 54812
leaf_count=414439 830 754 917 652 6971 842 591 962 695 915 972 1571 4954 523 54812
internal_value=0 7.92271e-07 2.89191e-07 4.45929e-07 2.5853e-07 4.73955e-07 1.10333e-05 2.62857e-07 -1.00696e-05 4.57953e-07 7.88481e-06 2.54346e-07 3.61078e-06 1.24055e-05 -1.28544e-07
internal_weight=0 76961 76207 75290 74638 73113 1433 71680 1525 70718 1887 68831 7048 2094 61783
internal_count=491400 76961 76207 75290 74638 73113 1433 71680 1525 70718 1887 68831 7048 2094 61783
is_linear=0
shrinkage=0.1


Tree=51
num_leaves=16
num_cat=0
split_feature=21 21 59 25 52 3 9 3 44 36 17 11 25 9 30
split_gain=6.63283e-06 0.000127557 0.000458912 3.18122e-05 1.05709e-05 7.6877e-06 3.40824e-05 1.44504e-05 9.94321e-06 4.86344e-06 1.09722e-05 2.18e-05 1.72327e-05 8.0656e-06 8.90305e-06
threshold=7550.0000000000009 7050.0000000000009 0.00078662046073429981 0.075000000000000025 0.0029666882863719217 6650.0000000000009 850.00000000000011 7050.0000000000009 0.103815 1223.5000000000002 258.50000000000006 191.50000000000003 0.095000000000000015 850.00000000000011 17772.500000000004
decision_type=2 2 2 2 2 2 2 2 2 2 2 2 2 2 2
left_child=1 5 -3 4 -2 9 -7 8 -8 -1 12 -12 13 14 -11
right_child=3 2 -4 -5 -6 6 7 -9 -10 10 11 -13 -14 -15 -16
leaf_value=8.3004904115024947e-08 -4.0712412217672594e-07 -3.265586072784408e-06 0.00010710086665508868 -2.3379031610936058e-05 -1.4784347627367546e-05 -2.7708886122169764e-05 -4.9130611515691119e-06 -1.4995260378492242e-08 -2.1668546650843027e-05 3.951343919985314e-06 -2.4073442256244886e-06 -2.3641574589419179e-05 1.4609264260879979e-05 -2.5274940076265256e-07 -1.0468867173534473e-05
leaf_weight=447855 11144 1442 510 676 536 514 1154 10306 511 574 1977 640 712 11164 1685
leaf_count=447855 11144 1442 510 676 536 514 1154 10306 511 574 1977 640 712 11164 1685
internal_value=0 5.90042e-08 2.55699e-05 -2.2876e-06 -1.0669e-06 -4.53725e-08 -2.49413e-06 -1.41148e-06 -1.00554e-05 2.0431e-08 -1.65245e-06 -7.60028e-06 -5.51246e-07 -1.35541e-06 -6.80477e-06
internal_weight=0 479044 1952 12356 11680 477092 12485 11971 1665 464607 16752 2617 14135 13423 2259
internal_count=491400 479044 1952 12356 11680 477092 12485 11971 1665 464607 16752 2617 14135 13423 2259
is_linear=0
shrinkage=0.1


Tree=52
num_leaves=16
num_cat=0
split_feature=15 15 25 27 11 30 42 44 39 45 46 44 19 37 28
split_gain=6.59996e-06 3.82803e-05 1.17942e-05 7.69898e-06 5.0724e-06 3.91297e-06 3.45631e-06 6.57886e-06 7.30116e-06 1.53825e-05 2.59508e-05 1.18902e-05 1.28512e-05 1.8734e-05 1.76834e-05
threshold=7150.0000000000009 6650.0000000000009 0.075000000000000025 96.607150000000019 300.50000000000006 15.500000000000002 25968.500000000004 1.0000500000000001 46073.500000000007 0.20699500000000001 110.93000500000001 -0.49999499999999991 850.00000000000011 95245.500000000015 5881.0000000000009
decision_type=2 2 2 2 2 2 2 2 2 2 2 2 2 2 2
left_child=1 6 3 -2 5 -5 -1 8 -8 11 -11 -10 13 -13 -15
right_child=2 -3 -4 4 -6 -7 7 -9 9 10 -12 12 -14 14 -16
leaf_value=-1.3350842883275824e-07 -1.3142740908559452e-05 2.4847512061433228e-05 -1.7023894652022007e-05 7.3741579531360147e-06 -9.2514304970323279e-06 -7.8223258083732587e-07 8.344804847622899e-07 8.5847904931701821e-06 1.2807932565920057e-05 -2.6835076580453035e-05 -1.1613133139771733e-06 -1.4547185241215735e-05 1.5569805140126961e-06 5.7866406923036762e-06 -6.0876530330890693e-06
leaf_weight=384475 522 621 587 819 515 2087 83080 1002 650 616 1091 1405 8612 2026 3292
leaf_count=384475 522 621 587 819 515 2087 83080 1002 650 616 1091 1405 8612 2026 3292
internal_value=0 3.53505e-08 -3.79936e-06 -1.83061e-06 -1.04522e-07 1.51649e-06 3.66233e-09 5.21857e-07 4.41685e-07 -1.40285e-06 -1.04261e-05 -4.39271e-07 -1.00078e-06 -4.2772e-06 -1.5639e-06
internal_weight=0 486870 4530 3943 3421 2906 486249 101774 100772 17692 1707 15985 15335 6723 5318
internal_count=491400 486870 4530 3943 3421 2906 486249 101774 100772 17692 1707 15985 15335 6723 5318
is_linear=0
shrinkage=0.1


Tree=53
num_leaves=16
num_cat=0
split_feature=11 15 15 15 60 71 1 59 70 62 64 57 32 25 57
split_gain=5.55507e-06 0.000158796 3.24656e-05 0.000159006 9.16779e-06 8.76915e-06 1.74748e-05 4.67973e-06 2.15728e-05 3.51139e-05 5.40539e-05 9.1119e-06 7.73836e-06 1.73018e-05 1.58852e-05
threshold=352.50000000000006 6650.0000000000009 6650.0000000000009 7150.0000000000009 -0.0044913908330682087 -0.00015334366456681844 1050.0000000000002 0.0023785314669947382 -0.0014351162068205745 -0.00054205311836275072 -0.00099900099900102047 0.0014042581054731775 17747.500000000004 0.12500000000000003 -0.0039261379202784044
decision_type=2 2 2 2 2 2 2 2 2 2 2 2 2 2 2
left_child=2 4 7 -4 -2 6 -5 12 9 10 11 -9 14 -14 -1
right_child=1 -3 3 5 -6 -7 -8 8 -10 -11 -12 -13 13 -15 -16
leaf_value=-6.971129559101706e-06 1.0294865506390732e-05 4.5012508602188924e-05 -5.9021045097602847e-05 -2.2380190900444977e-05 1.1497209787183361e-07 1.946186933379907e-06 1.5547336622921161e-06 2.4425477981772072e-06 -2.0671779376617489e-07 -1.9751822769375963e-06 -4.620506982475196e-05 -1.583518167752602e-05 1.4387790142219353e-06 1.9712340331610011e-05 4.5176407711572356e-08
leaf_weight=3257 900 806 549 517 51917 2535 744 546 52160 4511 507 545 23151 530 348225
leaf_count=3257 900 806 549 517 51917 2535 744 546 52160 4511 507 545 23151 530 348225
internal_value=0 9.60679e-07 -1.17673e-07 -8.71871e-06 2.88437e-07 -1.44369e-06 -8.2584e-06 -3.14505e-08 -8.65211e-07 -6.48757e-06 -1.92256e-05 -6.68794e-06 9.80462e-08 1.84776e-06 -1.984e-08
internal_weight=0 53623 437777 4345 52817 3796 1261 433432 58269 6109 1598 1091 375163 23681 351482
internal_count=491400 53623 437777 4345 52817 3796 1261 433432 58269 6109 1598 1091 375163 23681 351482
is_linear=0
shrinkage=0.1


Tree=54
num_leaves=16
num_cat=0
split_feature=15 15 11 56 9 55 52 65 7 13 48 31 30 30 37
split_gain=7.41744e-06 4.54e-05 1.74408e-05 8.01846e-06 6.03275e-06 3.23183e-06 3.13459e-06 1.05187e-05 4.5565e-05 6.29712e-06 6.11925e-06 1.08088e-05 1.68022e-05 8.00859e-06 1.86566e-05
threshold=7150.0000000000009 6650.0000000000009 352.50000000000006 0.0016418215492693957 4050.0000000000005 6.1283145172286182e-05 0.0015781633242289985 -0.00084828973734712976 1350.0000000000002 2050.0000000000005 -0.0010214504596526839 21556.000000000004 33912.000000000007 1306.5000000000002 14764.500000000002
decision_type=2 2 2 2 2 2 2 2 2 2 2 2 2 2 2
left_child=1 6 3 4 5 -2 -1 8 9 -8 -9 13 -13 -12 -15
right_child=2 -3 -4 -5 -6 -7 7 10 -10 -11 11 12 -14 14 -16
leaf_value=1.0222369908739797e-07 -1.1136712312815921e-05 2.7058685206674678e-05 -1.8138507566965445e-05 -1.1612227179527592e-05 3.846794529381303e-06 -9.0311793235431483e-08 -3.7300416647601428e-06 -8.5924088406307973e-06 -3.2820035375492602e-05 2.4091753882877471e-06 4.4291772345306818e-07 1.2560696133981641e-06 1.8647557272247594e-05 -1.6142246628816998e-05 -1.3935874699686286e-06
leaf_weight=421788 510 621 734 629 2106 551 6186 842 511 2289 37475 2001 769 916 13472
leaf_count=421788 510 621 734 629 2106 551 6186 842 511 2289 37475 2001 769 916 13472
internal_value=0 3.74759e-08 -4.02779e-06 -1.29932e-06 7.48931e-07 -5.40008e-06 2.96648e-09 -6.46504e-07 -3.82044e-06 -2.07191e-06 -1.3238e-07 -1.99513e-09 6.08425e-06 -3.27061e-07 -2.33255e-06
internal_weight=0 486870 4530 3796 3167 1061 486249 64461 8986 8475 55475 54633 2770 51863 14388
internal_count=491400 486870 4530 3796 3167 1061 486249 64461 8986 8475 55475 54633 2770 51863 14388
is_linear=0
shrinkage=0.1


Tree=55
num_leaves=16
num_cat=0
split_feature=15 15 11 17 60 9 54 30 35 38 57 25 69 24 48
split_gain=6.00813e-06 3.67739e-05 1.4127e-05 8.91703e-06 5.78295e-06 4.10409e-06 3.1679e-06 5.96543e-06 1.84938e-05 4.58701e-05 9.87767e-05 1.70754e-05 1.5554e-05 4.33397e-05 1.19795e-05
