tree
version=v3
num_class=1
num_tree_per_iteration=1
label_index=0
max_feature_idx=74
objective=regression
feature_names=OpenBidPrice OpenBidSize OpenAskPrice OpenAskSize FirstTradePrice FirstTradeSize HighBidPrice HighBidSize HighAskPrice HighAskSize HighTradePrice HighTradeSize LowBidPrice LowBidSize LowAskPrice LowAskSize LowTradePrice LowTradeSize CloseBidPrice CloseBidSize CloseAskPrice CloseAskSize LastTradePrice LastTradeSize MinSpread MaxSpread CancelSize VolumeWeightPrice NBBOQuoteCount TradeAtBid TradeAtBidMid TradeAtMid TradeAtMidAsk TradeAtAsk TradeAtCrossOrLocked Volume TotalTrades FinraVolume FinraVolumeWeightPrice UptickVolume DowntickVolume RepeatUptickVolume RepeatDowntickVolume UnknownTickVolume TradeToMidVolWeight TradeToMidVolWeightRelative TimeWeightBid TimeWeightAsk ret1min ret2min ret3min ret4min ret5min ret6min ret7min ret8min ret9min ret10min ret11min ret12min ret13min ret14min ret20min ret25min ret30min ret35min ret40min ret45min ret50min ret55min ret60min ret90min ret120min quarter stock_id
feature_infos=[0:651.03999999999996] [0:303900] [0:651.15999999999997] [0:758500] [89.819999999999993:651.15599999999995] [1:19140555] [89.840000000000003:651.17999999999995] [0:177600] [89.849999999999994:666.84000000000003] [1:1363200] [89.849999999999994:651.20000000000005] [1:5000000] [85:650.96000000000004] [1:604900] [89.659999999999997:651] [0:529500] [89.650000000000006:650.96000000000004] [1:6259011] [89.810000000000002:650.98000000000002] [1:539800] [89.819999999999993:651.02999999999997] [1:758500] [89.810000000000002:651] [1:3221343] [0:5.9000000000000004] [0:231.59] [0:2050000] [0:651.07012999999995] [0:41714] [0:13216234] [0:4103119] [0:4715920] [0:2473459] [0:19183492] [0:836168] [0:19158860] [1:20654] [0:2194378] [0:651.10024999999996] [0:19145849] [0:12734977] [0:5012439] [0:12285646] none [-1928.9000000000001:3964.5] [-189.14060000000001:129.80703] [89.810000000000002:650.98000000000002] [89.819999999999993:651.02999999999997] [-0.85683969205508315:0.053008849557522053] [-0.33887881745921067:inf] [-0.85685964749248833:inf] [-0.85684412707755697:inf] [-0.85683747444079561:inf] [-0.85683525675780348:inf] [-0.85683747444079561:inf] [-0.85683969205508315:inf] [-0.85686851479015025:inf] [-0.85686851479015025:inf] [-0.85687959736740227:inf] [-0.8569283403254021:inf] [-0.85687959736740227:inf] [-0.85692391051938999:inf] [-0.85687073144290782:inf] [-0.85687959736740227:inf] [-0.85689067822855369:inf] [-0.41341245533435422:inf] [-0.85690840403790181:inf] [-0.41341245533435422:inf] [-0.85690397299724397:inf] [-0.85686851479015025:inf] [-0.85687294802700864:inf] [-0.944124218051832:inf] [-0.85691500069684245:inf] [1:4] none
tree_sizes=1739 1740 1743 1741 1729 1742 1737 1762 1747 1718 1741 1719 1760 1725 1747 1742 1754 1736 1761 1739 1720 1736 1735 1733 1737 1747 1763 1717 1745 1732 1712 1753 1713 1720 1728 1719 1716 1754 1712 1748 1744 1716 1751 1724 1745 1735 1751 1732 1728 1749 1729 1754 1722 1719 1699 1748 1728 1745 1714 1732 1715 1731 1717 1730 1741 1718 1755 1765 1742 1729 1713 1715 1701 1701 1706 1714 1716 1739 1725 1728 1717 1724 1707 1694 1719 1722 1717 1738 1703 1714 1729 1719 1702 1735 1735 1718 1744 1723 1721 1716 1719 1727 1720 1730 1746 1714 1753 1722 1723 1757 1751 1704 1709 1701 1770 1735 1725 1720 1714 1723 1718 1723 1727 1712 1708 1709 1734 1730 1760 1765 1724 1751 1731 1734 1721 1698 1702 1740 1732 1712 1720 1717 1713 1729 1732 1696 1707 1710 1714 1744 1776 1718 1743 1723 1741 1744 1710 1739 1695 1700 1714 1725 1710 1728 1734 1715 1713 1724 1702 1732 1748 1703 1714 1698 1721 1712 1745 1749 1711 1725 1729 1711 1720 1696 1746 1729 1740 1715 1756 1725 1741 1732 1723 1733 1731 1725 1740 1718 1700 1751 1713 1717 1734 1701 1734 1739 1726 1726 1710 1719 1760 1712 1736 1750 1694 1721 1742 1723 1714 1716 1708 1724 1733 1758 1743 1726 1726 1715 1709 1721 1737 1721 1723 1716 1728 1711 1726 1754 1712 1728 1722 1732 1728 1724 1705 1740 1717 1722 1726 1716 1727 1723 1710 1732 1708 1731 1703 1721 1719 1723 1718 1706 1758 1718 1721 1720 1707 1730 1719 1709 1722 1740 1731 1753 1741 1739 1709 1727 1731 1739 1729 1742 1694 1703 1728 1717 1725 1721 1699 1747 1708 1760 1741 1711 1720 1745 1721 1728 1693 1725 1703 1760 1750 1701 1725 1705 1763 1711 1737 1696 1709 1714 1725 1700 1721 1716 1707 1708 1739 1715 1718 1747 1729 1734 1706 1696 1746 1726 1718 1754 1737 1716 1714 1732 1730 1697 1744 1716 1717 1725 1711 1742 1708 1713 1712 1707 1729 1711 1746 1715

Tree=0
num_leaves=16
num_cat=0
split_feature=37 25 25 50 72 49 54 49 30 53 29 38 33 19 29
split_gain=3.50315e-05 0.000198596 2.51867e-05 2.20301e-05 6.21303e-05 8.24042e-05 2.5827e-05 1.87192e-05 2.32347e-05 1.78853e-05 2.09677e-05 1.57022e-05 2.00141e-05 1.44661e-05 1.36221e-05
threshold=142468.00000000003 0.10500000000000002 0.045000000000000005 -0.0018524591914753639 -0.016431720319689699 -0.0020470825389273246 0.00015015132730422656 0.00030393115961979694 37416.000000000007 -0.0034498707406890867 77310.000000000015 114.04917000000002 10967.500000000002 550.00000000000011 129319.00000000001
decision_type=2 2 2 2 2 2 2 2 2 2 2 2 2 2 2
left_child=3 2 7 4 5 -1 13 8 -2 10 11 -6 -13 -5 -9
right_child=1 -3 -4 6 9 -7 -8 14 -10 -11 -12 12 -14 -15 -16
leaf_value=-4.8905908501088087e-05 -3.2250538418873216e-06 6.1674373437738177e-05 1.2884691347518351e-05 -5.1466445416019597e-06 -8.7167198764308903e-06 4.1200303032199769e-06 -2.967218737728369e-06 -5.2389479848494423e-06 -2.3076023757753479e-05 4.9188956431788231e-08 2.3252239238940541e-05 2.269941953247515e-05 1.6035642077735766e-06 -3.5982713457747654e-06 1.1237446390085572e-05
leaf_weight=572 1614 544 982 133842 685 601 227598 1079 929 9395 751 684 1313 109873 938
leaf_count=572 1614 544 982 133842 685 601 227598 1079 929 9395 751 684 1313 109873 938
internal_value=-3.52256e-06 4.0172e-06 -1.6424e-06 -3.61711e-06 2.9194e-07 -2.17375e-05 -3.73324e-06 -4.77083e-06 -1.04769e-05 2.30632e-06 8.48336e-06 4.34785e-06 8.82919e-06 -4.4486e-06 2.42335e-06
internal_weight=0 6086 5542 485314 14001 1173 471313 4560 2543 12828 3433 2682 1997 243715 2017
internal_count=491400 6086 5542 485314 14001 1173 471313 4560 2543 12828 3433 2682 1997 243715 2017
is_linear=0
shrinkage=1


Tree=1
num_leaves=16
num_cat=0
split_feature=53 37 48 48 49 54 17 7 40 21 37 45 49 19 65
split_gain=2.89505e-05 5.80172e-05 6.9129e-05 3.8731e-05 2.75321e-05 2.35814e-05 2.28436e-05 2.24551e-05 2.21262e-05 1.41983e-05 2.99102e-05 1.35964e-05 1.33584e-05 1.29754e-05 1.22845e-05
threshold=-0.0025985606016572511 7057.5000000000009 -0.0015246118419552921 -0.0015246118419552921 0.0010211446574845964 0.00015015132730422656 150.50000000000003 250.00000000000003 76170.500000000015 420.00000000000006 142468.00000000003 -0.036854999999999992 -0.00094972488435174352 1350.0000000000002 -0.0025001776599976595
decision_type=2 2 2 2 2 2 2 2 2 2 2 2 2 2 2
left_child=1 2 -1 6 11 -2 8 14 -3 10 -7 12 -5 -11 -4
right_child=5 3 7 4 -6 9 -8 -9 -10 13 -12 -13 -14 -15 -16
leaf_value=-4.0162913828616821e-05 -8.2431449915855532e-07 1.717365743674536e-05 -1.5953403267742998e-05 9.5768591780446324e-06 2.5209144813423929e-05 1.1911634165854399e-06 3.4869111750238381e-06 1.503398089113034e-05 4.1773726464723089e-05 -1.1093023194620359e-06 1.9590528158659349e-05 -1.5960347266334477e-06 -3.1484244347659569e-07 1.1268389199894308e-06 2.6741026486735816e-06
leaf_weight=569 244295 1298 797 3793 592 121252 765 625 509 67015 890 3884 2133 42346 637
leaf_count=569 244295 1298 797 3793 592 121252 765 625 509 67015 890 3884 2133 42346 637
internal_value=0 4.23869e-06 -9.31047e-06 6.9832e-06 4.26632e-06 -1.38992e-07 1.79711e-05 -7.84469e-07 2.41031e-05 5.84199e-07 1.32523e-06 3.00249e-06 6.01645e-06 -2.43439e-07 -7.67884e-06
internal_weight=0 15602 2628 12974 10402 475798 2572 2059 1807 231503 122142 9810 5926 109361 1434
internal_count=491400 15602 2628 12974 10402 475798 2572 2059 1807 231503 122142 9810 5926 109361 1434
is_linear=0
shrinkage=0.1


Tree=2
num_leaves=16
num_cat=0
split_feature=32 44 50 55 72 17 50 72 63 51 53 42 36 71 51
split_gain=2.3663e-05 5.95765e-05 3.08639e-05 3.7723e-05 2.13256e-05 2.03962e-05 1.94154e-05 2.96204e-05 3.07364e-05 1.85437e-05 1.78004e-05 1.66129e-05 2.03632e-05 2.53799e-05 1.64717e-05
threshold=39529.500000000007 -0.37632499999999997 -0.0013076046591791732 -0.0018546042442100783 -0.0052358204859629933 150.50000000000003 -0.0018524591914753639 -0.016431720319689699 -0.0070114982570537157 8.9074956752588377e-05 -0.0034498707406890867 100.50000000000001 5.5000000000000009 -0.004560717024830018 0.00062878568639157539
decision_type=2 2 2 2 2 2 2 2 2 2 2 2 2 2 2
left_child=6 -2 4 -4 -3 14 7 8 -1 -8 -9 12 -11 -14 -5
right_child=1 2 3 5 -6 -7 9 10 -10 11 -12 -13 13 -15 -16
leaf_value=-2.7793306274478943e-05 3.2531900843419877e-05 -2.4255807474255565e-05 3.0544897530026359e-05 -7.2393361713282044e-06 1.5186691995371471e-06 -9.6902179593907012e-06 -8.0405734118630003e-07 1.1089223824480126e-05 4.3122728994070004e-06 7.3184546404976159e-07 2.7196909246509923e-06 -7.3726884681962887e-08 2.0782910247452135e-05 3.8293120682386711e-06 1.1991647071684011e-05
leaf_weight=588 753 625 573 579 660 944 239592 3466 605 46781 9523 167367 933 16481 1930
leaf_count=588 753 625 573 579 660 944 239592 3466 605 46781 9523 167367 933 16481 1930
internal_value=0 6.2081e-06 2.47588e-06 6.78265e-06 -1.10176e-05 2.83948e-06 -7.75669e-08 3.568e-06 -1.15118e-05 -1.873e-07 4.95303e-06 4.50844e-07 1.81849e-06 4.73764e-06 7.55373e-06
internal_weight=0 6064 5311 4026 1285 3453 485336 14182 1193 471154 12989 231562 64195 17414 2509
internal_count=491400 6064 5311 4026 1285 3453 485336 14182 1193 471154 12989 231562 64195 17414 2509
is_linear=0
shrinkage=0.1


Tree=3
num_leaves=16
num_cat=0
split_feature=60 37 72 25 69 66 57 48 54 48 51 33 62 40 25
split_gain=2.2986e-05 3.31439e-05 6.24748e-05 3.66951e-05 2.74947e-05 2.46837e-05 1.89492e-05 2.45283e-05 1.78613e-05 1.78044e-05 1.93294e-05 1.72693e-05 1.7136e-05 1.55866e-05 1.82196e-05
threshold=-0.0037654239969748256 7057.5000000000009 -0.016431720319689699 0.50500000000000012 -0.0065284176173669431 0.003039959229007239 -0.0044245165778448161 -0.00052770476396041255 -0.002306866889682679 -0.0011540388322318627 1.0000000180025095e-35 1700.5000000000002 0.0065704261166171793 76170.500000000015 0.43500000000000005
decision_type=2 2 2 2 2 2 2 2 2 2 2 2 2 2 2
left_child=1 2 -1 5 -4 8 7 -2 -3 11 -11 -8 13 14 -13
right_child=6 3 4 -5 -6 -7 9 -9 -10 10 -12 12 -14 -15 -16
leaf_value=-3.7593437835227618e-05 -2.8430777314081236e-05 6.6434020460595039e-06 1.7624014227533461e-05 3.1970075905373465e-05 -6.4529569647623704e-06 2.3208720349920053e-05 -6.0691667603441478e-06 -5.8782829544453442e-08 -1.4510146350678181e-06 -8.7835347773136683e-07 4.1555766902785188e-07 7.6073374631416104e-06 -9.7871275828831718e-06 2.278992372560228e-05 -8.7504010268927721e-06
leaf_weight=516 542 7521 689 517 1522 687 1422 696 4276 214275 250340 6399 647 589 762
leaf_count=516 542 7521 689 517 1522 687 1422 696 4276 214275 250340 6399 647 589 762
internal_value=0 3.76124e-06 -6.26207e-06 5.86366e-06 1.05e-06 4.78251e-06 -1.24364e-07 -1.24801e-05 3.70946e-06 -9.2123e-08 -1.81179e-07 4.12182e-06 5.84763e-06 7.15288e-06 5.86672e-06
internal_weight=0 15728 2727 13001 2211 12484 475672 1238 11797 474434 464615 9819 8397 7750 7161
internal_count=491400 15728 2727 13001 2211 12484 475672 1238 11797 474434 464615 9819 8397 7750 7161
is_linear=0
shrinkage=0.1


Tree=4
num_leaves=16
num_cat=0
split_feature=37 25 25 25 40 72 48 50 72 48 48 34 54 60 17
split_gain=1.98181e-05 0.000154147 1.8925e-05 1.8496e-05 2.2862e-05 1.5523e-05 2.12564e-05 1.54307e-05 3.46869e-05 7.21414e-05 2.39984e-05 1.77535e-05 1.41899e-05 1.38365e-05 1.28679e-05
threshold=142468.00000000003 0.10500000000000002 0.045000000000000005 1.4650000000000001 165.50000000000003 -0.0074551936546426991 -4.2972904607085909e-05 -0.0018524591914753639 -0.016431720319689699 -0.0011540388322318627 -0.0015246118419552921 1493.5000000000002 0.00015015132730422656 -0.0018817744025853009 49.500000000000007
decision_type=2 2 2 2 2 2 2 2 2 2 2 2 2 2 2
left_child=3 2 5 7 -5 6 -2 8 9 -1 11 13 -9 -10 -7
right_child=1 -3 -4 4 -6 14 -8 12 10 -11 -12 -13 -14 -15 -16
leaf_value=-4.1721175454320414e-05 -2.1347439689976672e-05 5.6467687097531723e-05 1.3277283066512862e-05 6.5795524636699265e-07 -2.846790156354473e-05 -1.2539861707962109e-05 3.4400273483893101e-06 -6.688996563095108e-07 1.2935867363756353e-05 8.931324623946874e-06 2.3708409501664885e-06 2.4333449376810366e-05 4.3027840320914555e-07 -5.0740786704100293e-06 4.7177007065965538e-06
leaf_weight=504 808 544 982 569 512 517 605 243538 1408 636 9786 905 226844 612 2630
leaf_count=504 808 544 982 569 512 517 605 243538 1408 636 9786 905 226844 612 2630
internal_value=0 5.67099e-06 6.84811e-07 -7.11159e-08 -1.31371e-05 -2.02699e-06 -1.07343e-05 -4.19475e-08 3.24771e-06 -1.34624e-05 4.74638e-06 1.26941e-05 -1.38816e-07 7.47939e-06 1.88257e-06
internal_weight=0 6086 5542 485314 1081 4560 1413 484233 13851 1140 12711 2925 470382 2020 3147
internal_count=491400 6086 5542 485314 1081 4560 1413 484233 13851 1140 12711 2925 470382 2020 3147
is_linear=0
shrinkage=0.1


Tree=5
num_leaves=16
num_cat=0
split_feature=60 49 19 49 53 45 25 29 62 48 49 63 51 56 19
split_gain=1.78853e-05 2.44988e-05 2.23255e-05 3.20975e-05 2.26984e-05 2.1118e-05 2.6686e-05 1.87659e-05 1.59907e-05 4.02243e-05 2.32685e-05 1.6197e-05 1.49941e-05 1.75694e-05 1.47691e-05
threshold=-0.0037654239969748256 0.0021696067181060656 101.50000000000001 -0.0020470825389273246 -0.0034498707406890867 -0.16185499999999997 0.10500000000000002 31852.500000000004 -0.0062306547516143276 -0.00040084844772125811 -0.0020470825389273246 -0.0070114982570537157 -0.0015026325758926149 -0.00032813482763593965 1450.0000000000002
decision_type=2 2 2 2 2 2 2 2 2 2 2 2 2 2 2
left_child=1 2 3 -1 5 6 -4 -5 9 -2 12 -11 -10 -14 -12
right_child=8 -3 4 7 -6 -7 -8 -9 10 11 14 -13 13 -15 -16
leaf_value=-2.012478861402958e-05 -2.7093569184183529e-05 2.3744850297698705e-05 3.8314525332627483e-05 -3.2336212821445904e-06 1.6898088940174707e-06 6.0616175153272586e-06 8.0031918851373074e-06 1.6145797354387647e-05 1.1431036026854264e-05 1.1998553902415907e-05 -4.5637943142347668e-07 -1.1043858570185727e-05 -1.5840417269595661e-05 8.3362719386867766e-06 8.4848576049148782e-07
leaf_weight=940 763 566 552 2183 7728 2498 613 648 2850 708 354767 536 516 720 114812
leaf_count=940 763 566 552 2183 7728 2498 613 648 2850 708 354767 536 516 720 114812
internal_value=0 3.31778e-06 2.55524e-06 -4.11398e-06 4.76309e-06 1.12469e-05 2.23653e-05 1.20222e-06 -1.09702e-07 -9.0169e-06 -7.19604e-08 2.07031e-06 7.44173e-06 -1.75691e-06 -1.3734e-07
internal_weight=0 15728 15162 3771 11391 3663 1165 2831 475672 2007 473665 1244 4086 1236 469579
internal_count=491400 15728 15162 3771 11391 3663 1165 2831 475672 2007 473665 1244 4086 1236 469579
is_linear=0
shrinkage=0.1


Tree=6
num_leaves=16
num_cat=0
split_feature=21 24 37 25 19 50 25 25 42 57 28 29 42 71 17
split_gain=1.70411e-05 5.25445e-05 1.86979e-05 9.88314e-05 1.91915e-05 1.90759e-05 1.38732e-05 1.34845e-05 1.71907e-05 1.37026e-05 1.47025e-05 1.44967e-05 1.30473e-05 1.58747e-05 1.24701e-05
threshold=2450.0000000000005 0.065000000000000016 142468.00000000003 0.095000000000000015 1450.0000000000002 -0.0024733357853174982 0.045000000000000005 1.4650000000000001 1.0000000180025095e-35 -0.0033143401176042304 1341.0000000000002 199.50000000000003 22520.500000000004 -0.013739021523635262 40.500000000000007
decision_type=2 2 2 2 2 2 2 2 2 2 2 2 2 2 2
left_child=2 -2 4 6 7 -6 14 9 -9 10 12 -11 13 -1 -4
right_child=1 -3 3 -5 5 -7 -8 8 -10 11 -12 -13 -14 -15 -16
leaf_value=1.6416900831720105e-05 -1.1840988334682751e-06 -3.3457541290883503e-05 -1.5556330198444526e-05 4.6064680738604786e-05 1.7237905485577328e-05 1.4119101002245632e-06 1.3230515648431791e-05 1.0772879256747867e-06 -2.4421039215281883e-05 9.3261844435073788e-07 7.6838575476904382e-06 -6.2590046903822153e-07 -1.4820941361603974e-05 -2.3119303889935222e-07 1.072399012592182e-06
leaf_weight=644 72630 508 536 557 769 79435 780 539 519 79202 4572 242161 527 5178 2843
leaf_count=644 72630 508 536 557 769 79435 780 539 519 79202 4572 242161 527 5178 2843
internal_value=0 -1.40826e-06 2.46251e-07 6.50731e-06 1.74851e-07 1.56365e-06 1.20953e-06 -1.59302e-07 -1.14309e-05 -1.23413e-07 3.36007e-06 -2.41793e-07 2.46453e-07 1.61033e-06 -1.56536e-06
internal_weight=0 73138 418262 4716 413546 80204 4159 333342 1058 332284 10921 321363 6349 5822 3379
internal_count=491400 73138 418262 4716 413546 80204 4159 333342 1058 332284 10921 321363 6349 5822 3379
is_linear=0
shrinkage=0.1


Tree=7
num_leaves=16
num_cat=0
split_feature=21 37 25 19 65 49 60 51 58 44 51 9 60 49 60
split_gain=1.61315e-05 3.05573e-05 7.66493e-05 1.54875e-05 1.50636e-05 3.66252e-05 3.24963e-05 2.7566e-05 2.53704e-05 1.37059e-05 2.65849e-05 1.28576e-05 1.21141e-05 1.12134e-05 1.56747e-05
threshold=550.00000000000011 110251.00000000001 0.10500000000000002 807.50000000000011 -0.0083791497535711783 -0.0010843123252839424 -0.0050095124815982542 -0.0028505926408321498 -0.0024697865400938319 -6.9990099999999993 -0.001751039928700515 650.00000000000011 -0.0026788011331781432 -0.0020470825389273246 -0.0050095124815982542
decision_type=2 2 2 2 2 2 2 2 2 2 2 2 2 2 2
left_child=1 3 12 9 5 6 -2 -6 -7 10 -1 -9 -3 14 -11
right_child=4 2 -4 -5 7 8 -8 11 -10 13 -12 -13 -14 -15 -16
leaf_value=-2.1014660834127172e-05 -6.6968616857574609e-06 1.2121230130162324e-05 4.2805611457001291e-05 1.9034819153084674e-06 1.0835165627563035e-05 1.2486408541144022e-05 -4.0886738890433221e-05 -2.2761005863596459e-06 -1.0943188936563962e-05 -4.9368165854203742e-06 -2.0120525084137856e-06 -2.8552175209998608e-07 -6.8127477678393346e-07 1.0903898011212515e-07 1.0705187773150381e-05
leaf_weight=785 623 1092 580 53325 2102 937 502 40336 912 903 11848 165949 2287 207014 2205
leaf_count=785 623 1092 580 53325 2102 937 502 40336 912 903 11848 165949 2287 207014 2205
internal_value=0 4.97763e-07 9.2209e-06 3.72673e-07 -6.59502e-07 -7.7262e-06 -2.19531e-05 -5.5865e-07 9.30004e-07 6.21437e-09 -3.19285e-06 -6.7475e-07 3.45614e-06 1.98549e-07 6.16055e-06
internal_weight=0 280039 3959 276080 211361 2974 1125 208387 1849 222755 12633 206285 3379 210122 3108
internal_count=491400 280039 3959 276080 211361 2974 1125 208387 1849 222755 12633 206285 3379 210122 3108
is_linear=0
shrinkage=0.1


Tree=8
num_leaves=16
num_cat=0
split_feature=21 37 25 19 19 25 63 45 49 52 49 9 45 41 50
split_gain=1.34996e-05 2.26717e-05 7.05382e-05 1.51278e-05 1.30244e-05 2.60561e-05 1.20071e-05 3.0938e-05 2.7195e-05 2.08499e-05 1.79261e-05 1.25311e-05 1.04848e-05 1.23092e-05 1.33626e-05
threshold=650.00000000000011 110251.00000000001 0.13500000000000004 807.50000000000011 250.00000000000003 0.045000000000000005 -0.0070114982570537157 -1.0000000180025095e-35 -1.0000000180025095e-35 -0.0031617597139225735 -0.0010843123252839424 650.00000000000011 0.30953000000000003 15225.500000000002 0.001109041532407651
decision_type=2 2 2 2 2 2 2 2 2 2 2 2 2 2 2
left_child=1 3 4 12 -3 -6 7 9 -9 -2 -8 -12 -1 -14 -15
right_child=6 2 -4 -5 5 -7 10 8 -10 -11 11 -13 13 14 -16
leaf_value=-3.3023010146201503e-07 1.7139132715005807e-05 -8.695814338307821e-06 4.236029991519942e-05 1.7408365206652328e-06 1.3978400675171921e-06 2.4740999659239237e-05 3.478919896844862e-06 -3.7206090128308058e-05 -4.8749269654025448e-06 -7.1162035256022156e-06 -2.7422515376941819e-06 -4.3638094280803012e-07 1.8520812704145822e-06 1.5306535486069297e-06 -2.0281242161176932e-05
leaf_weight=199152 552 771 514 59341 2523 590 10381 511 530 990 27910 151489 35019 595 532
leaf_count=199152 552 771 514 59341 2523 590 10381 511 530 990 27910 151489 35019 595 532
internal_value=0 4.20379e-07 7.54722e-06 3.13998e-07 2.94013e-06 5.82202e-06 -6.53498e-07 -7.42558e-06 -2.07455e-05 1.56664e-06 -5.61326e-07 -7.95117e-07 -4.58433e-08 1.52103e-06 -8.76565e-06
internal_weight=0 299037 4398 294639 3884 3113 192363 2583 1041 1542 189780 179399 235298 36146 1127
internal_count=491400 299037 4398 294639 3884 3113 192363 2583 1041 1542 189780 179399 235298 36146 1127
is_linear=0
shrinkage=0.1


Tree=9
num_leaves=16
num_cat=0
split_feature=21 24 53 49 37 29 44 17 19 31 9 44 19 11 44
split_gain=1.23684e-05 2.69083e-05 1.43551e-05 5.98143e-05 5.31479e-05 8.74278e-05 2.31586e-05 1.18327e-05 2.03318e-05 1.78459e-05 1.33702e-05 1.97519e-05 1.08996e-05 1.32955e-05 1.09331e-05
threshold=3050.0000000000005 0.045000000000000005 -0.0034498707406890867 0.00063052634655247364 7057.5000000000009 3625.5000000000005 -2.6973449999999999 190.50000000000003 807.50000000000011 7860.5000000000009 420.50000000000006 -0.11498999999999999 1950.0000000000002 25900.000000000004 5.0783400000000007
decision_type=2 2 2 2 2 2 2 2 2 2 2 2 2 2 2
left_child=2 -2 3 4 5 -1 -6 8 10 -9 -8 -12 13 14 -4
right_child=1 -3 12 -5 6 -7 7 9 -10 -11 11 -13 -14 -15 -16
leaf_value=7.9480431431586597e-06 -1.1582684262686638e-06 -2.0591505567848036e-05 -2.8823570323762416e-07 3.4175475519031097e-05 2.1541896230127888e-05 -4.6643488323706152e-05 8.7610607577957905e-06 6.3309688428521154e-06 1.7660465397970813e-05 -1.6883836626478535e-05 5.2737769224673853e-06 -2.0665219249064846e-05 1.2410438795389187e-06 1.3083535379334873e-05 2.0352588099454275e-06
leaf_weight=630 54259 722 336394 624 809 549 1155 692 1085 635 655 532 70349 761 21549
leaf_count=630 54259 722 336394 624 809 549 1155 692 1085 635 655 532 70349 761 21549
internal_value=0 -1.41346e-06 1.78071e-07 4.55522e-06 1.81374e-06 -1.74724e-05 5.90118e-06 3.23956e-06 6.34405e-06 -4.77785e-06 1.10139e-06 -6.35179e-06 1.02924e-07 -1.20284e-07 -1.48356e-07
internal_weight=0 54981 436419 7366 6742 1179 5563 4754 3427 1327 2342 1187 429053 358704 357943
internal_count=491400 54981 436419 7366 6742 1179 5563 4754 3427 1327 2342 1187 429053 358704 357943
is_linear=0
shrinkage=0.1


Tree=10
num_leaves=16
num_cat=0
split_feature=48 30 17 44 63 37 48 48 5 25 49 34 30 44 54
split_gain=1.22796e-05 2.49719e-05 4.86756e-05 3.44738e-05 1.89981e-05 3.33651e-05 7.05138e-05 3.1244e-05 2.87772e-05 2.37648e-05 1.93018e-05 1.75825e-05 1.62048e-05 1.51065e-05 2.6555e-05
threshold=1.0000000180025095e-35 37416.000000000007 130.50000000000003 0.19803500000000004 -0.0070114982570537157 7650.5000000000009 -0.00072703698719156485 -0.0011540388322318627 120.50000000000001 0.35500000000000004 -0.0020470825389273246 2773.5000000000005 1252.5000000000002 2.7363200000000005 0.0018664722311818596
decision_type=2 2 2 2 2 2 2 2 2 2 2 2 2 2 2
left_child=4 12 3 -3 5 6 -1 8 10 -7 11 -6 -2 -14 -15
right_child=1 2 -4 -5 7 9 -8 -9 -10 -11 -12 -13 13 14 -16
leaf_value=-4.8661210763328835e-05 1.776022585436261e-06 7.7679782109773104e-06 -1.0673874128147361e-05 3.6611708060168608e-05 8.7856324091929401e-06 -6.2815785622995804e-06 6.743674484809573e-07 -5.4381464356953696e-07 -3.7121418857399733e-06 1.232052605772766e-05 4.5400177824271003e-06 2.5956269038611637e-05 1.5037874559000707e-07 -9.4391303216967894e-07 -1.2874768420993559e-05
leaf_weight=522 64547 978 745 719 1716 3019 651 265436 3036 889 6244 914 131891 7623 2470
leaf_count=522 64547 978 745 719 1716 3019 651 265436 3036 889 6244 914 131891 7623 2470
internal_value=0 5.81143e-07 1.06343e-05 1.99887e-05 -4.29999e-07 -6.48953e-06 -2.12806e-05 -3.18988e-07 4.69169e-06 -2.04993e-06 7.56683e-06 1.47529e-05 4.62276e-07 -1.34963e-07 -3.86368e-06
internal_weight=0 208973 2442 1697 282427 5081 1173 277346 11910 3908 8874 2630 206531 141984 10093
internal_count=491400 208973 2442 1697 282427 5081 1173 277346 11910 3908 8874 2630 206531 141984 10093
is_linear=0
shrinkage=0.1


Tree=11
num_leaves=16
num_cat=0
split_feature=25 42 52 24 49 5 48 45 69 65 19 51 32 34 25
split_gain=1.12586e-05 1.40935e-05 1.26964e-05 2.98364e-05 2.69681e-05 1.83263e-05 2.58542e-05 1.95828e-05 1.76585e-05 1.68028e-05 1.53537e-05 1.34136e-05 1.30684e-05 1.29534e-05 1.26402e-05
threshold=1.4650000000000001 1.0000000180025095e-35 -0.0023687475776736351 0.065000000000000016 0.0010211446574845964 175.50000000000003 -0.0015246118419552921 0.104035 -0.010619194694856724 -0.0051162336541184508 1650.0000000000002 8.9074956752588377e-05 15835.500000000002 400.50000000000006 0.49500000000000005
decision_type=2 2 2 2 2 2 2 2 2 2 2 2 2 2 2
left_child=2 -2 3 4 5 6 9 -8 -7 13 -10 -4 -11 -1 -13
right_child=1 -3 11 -5 -6 8 7 -9 10 12 -12 14 -14 -15 -16
leaf_value=1.6474960545792369e-05 1.0760088961398422e-06 -2.1730599958649795e-05 -5.9420604262212194e-07 -2.0438086771958454e-05 2.5092193030595651e-05 -1.9669431950798773e-05 3.9693714482904995e-06 -1.0730588426985847e-05 -3.9347136073811018e-06 1.0714081362781363e-05 1.4805612489807473e-05 3.053372070342774e-07 3.0971180450421714e-05 -4.4996627973629561e-06 3.766485740079568e-06
leaf_weight=549 549 535 240483 532 565 569 7542 1030 2296 585 540 223216 699 635 11075
leaf_count=549 549 535 240483 532 565 569 7542 1030 2296 585 540 223216 699 635 11075
internal_value=0 -1.018e-05 2.25062e-08 2.835e-06 3.65987e-06 2.82157e-06 4.79969e-06 2.20304e-06 -3.59206e-06 1.38185e-05 -3.66386e-07 -6.95625e-08 2.17419e-05 5.2259e-06 4.68947e-07
internal_weight=0 1084 490316 15542 15010 14445 11040 8572 3405 2468 2836 474774 1284 1184 234291
internal_count=491400 1084 490316 15542 15010 14445 11040 8572 3405 2468 2836 474774 1284 1184 234291
is_linear=0
shrinkage=0.1


Tree=12
num_leaves=16
num_cat=0
split_feature=60 62 48 55 55 49 25 48 19 15 49 39 44 72 68
split_gain=1.0136e-05 3.24605e-05 4.22637e-05 1.45655e-05 1.3704e-05 2.57493e-05 1.75124e-05 1.34085e-05 1.17663e-05 2.44101e-05 1.18871e-05 1.01167e-05 1.18768e-05 2.14406e-05 2.67544e-05
threshold=-0.0023522518263558441 -0.0062306547516143276 -0.00011289230074507105 -0.00026075303469164085 -0.0018546042442100783 0.0016175899094519333 0.72500000000000009 -0.0015246118419552921 350.00000000000006 3450.0000000000005 -0.0010843123252839424 163.50000000000003 -2.6973449999999999 -0.00145621665518586 -0.0075833194776813708
decision_type=2 2 2 2 2 2 2 2 2 2 2 2 2 2 2
left_child=4 2 -2 8 5 6 11 -6 9 -3 -10 -1 13 14 -13
right_child=1 3 -4 -5 7 -7 -8 -9 10 -11 -12 12 -14 -15 -16
leaf_value=-1.0591224409940133e-05 -3.8566225620982526e-05 -1.8288768817224194e-06 8.4493683169643254e-07 2.8496823399352278e-07 1.4618584961244912e-05 2.1322941202820146e-05 -1.4486421944432649e-05 -1.3346185982009052e-06 3.9705987433912631e-06 -2.3654121650554912e-05 -5.1711793399586832e-07 3.6066585767363742e-05 2.354574671306072e-06 -7.4409046206405668e-07 8.0067293820250866e-06
leaf_weight=543 505 58224 590 312795 546 746 595 15019 6423 517 72811 504 19358 1181 1043
leaf_count=543 505 58224 590 312795 546 746 595 15019 6423 517 72811 504 19358 1181 1043
internal_value=0 -1.34339e-07 -1.7331e-05 -9.25656e-08 1.53543e-06 3.03572e-06 2.4483e-06 -7.75001e-07 -9.4845e-07 -2.02097e-06 -1.53327e-07 2.89357e-06 3.2251e-06 9.40242e-06 1.71484e-05
internal_weight=0 451865 1095 450770 39535 23970 23224 15565 137975 58741 79234 22629 22086 2728 1547
internal_count=491400 451865 1095 450770 39535 23970 23224 15565 137975 58741 79234 22629 22086 2728 1547
is_linear=0
shrinkage=0.1


Tree=13
num_leaves=16
num_cat=0
split_feature=21 37 44 12 17 68 23 45 48 44 2 49 28 19 48
split_gain=1.0224e-05 1.51167e-05 3.62747e-05 1.50812e-05 1.29559e-05 1.2501e-05 1.68623e-05 1.32122e-05 1.10874e-05 3.82118e-05 3.01483e-05 1.61239e-05 1.1965e-05 1.0968e-05 1.1589e-05
threshold=650.00000000000011 110251.00000000001 0.34521000000000007 99.985000000000014 99.500000000000014 0.0045984179190126104 110.50000000000001 -0.018274999999999996 -0.00072703698719156485 -1.0000000180025095e-35 109.45500000000001 0.00018303843824241109 191.00000000000003 807.50000000000011 0.0015561977388317552
decision_type=2 2 2 2 2 2 2 2 2 2 2 2 2 2 2
left_child=1 13 3 -3 -5 6 7 -6 9 11 -11 12 -2 14 -1
right_child=8 2 -4 4 5 -7 -8 -9 -10 10 -12 -13 -14 -15 -16
leaf_value=5.3930354527766623e-08 -1.0737400522445082e-05 1.8685378107213685e-05 3.0959723763089208e-05 -9.6815531053705094e-06 2.9885903881426678e-06 1.6538447522038182e-05 1.4318020785363884e-05 -1.7674203838013408e-05 -7.7291007454384138e-07 -3.1868574169527014e-05 -1.4674254070261819e-06 2.087041844668759e-05 4.0534185048704511e-06 1.4938994230276041e-06 -6.0814996369374106e-06
leaf_weight=232178 577 521 521 924 677 616 569 570 179386 543 817 547 10493 59341 3120
leaf_count=232178 577 521 521 924 677 616 569 570 179386 543 817 547 10493 59341 3120
internal_value=0 3.6584e-07 6.1853e-06 2.85606e-06 3.98648e-07 4.22846e-06 5.28267e-08 -6.45631e-06 -5.68714e-07 2.25396e-06 -1.36055e-05 4.11063e-06 3.28248e-06 2.78974e-07 -2.74241e-08
internal_weight=0 299037 4398 3877 3356 2432 1816 1247 192363 12977 1360 11617 11070 294639 235298
internal_count=491400 299037 4398 3877 3356 2432 1816 1247 192363 12977 1360 11617 11070 294639 235298
is_linear=0
shrinkage=0.1


Tree=14
num_leaves=16
num_cat=0
split_feature=48 61 63 37 28 48 5 51 53 11 56 33 13 40 72
split_gain=1.03141e-05 2.63907e-05 1.92161e-05 4.51156e-05 2.28529e-05 2.15268e-05 2.16572e-05 1.98739e-05 1.89482e-05 1.89232e-05 1.63359e-05 1.7112e-05 1.14704e-05 1.67687e-05 1.11842e-05
threshold=-1.0000000180025095e-35 -0.0052008108612714979 -0.0070114982570537157 7650.5000000000009 9293.0000000000018 -0.0011540388322318627 120.50000000000001 -0.0028505926408321498 -0.0034498707406890867 150.50000000000003 -0.0025917599600479564 26581.500000000004 1950.0000000000002 36937.500000000007 0.0047496236997104377
decision_type=2 2 2 2 2 2 2 2 2 2 2 2 2 2 2
left_child=2 8 3 -1 10 6 7 -4 -2 -10 11 -5 13 -8 -3
right_child=1 14 5 4 -6 -7 12 -9 9 -11 -12 -13 -14 -15 -16
leaf_value=-2.6935859781082469e-05 2.1594468555329597e-05 -1.4068248512864697e-07 1.5883682252362719e-05 -3.6961538573072316e-06 -2.0214698072207176e-05 -6.4349658179344461e-07 -2.4405233411709741e-06 3.9117912012539016e-06 1.0574118734028151e-05 -1.214277546637277e-05 -9.2996765332768082e-06 1.3866130996758011e-05 6.0226191927123876e-06 -2.2919034180205085e-05 1.2082083250062051e-06
leaf_weight=903 947 189262 1720 1010 590 191686 1619 7154 1292 512 1023 1231 886 531 91034
leaf_count=903 947 189262 1720 1010 590 191686 1619 7154 1292 512 1023 1231 886 531 91034
internal_value=0 3.93068e-07 -5.33982e-07 -6.81674e-06 -2.10279e-06 -3.87186e-07 3.73801e-06 6.23224e-06 1.01398e-05 4.12675e-06 1.17112e-06 5.95096e-06 -3.55243e-06 -7.49824e-06 2.97408e-07
internal_weight=0 283047 208353 4757 3854 203596 11910 8874 2751 1804 3264 2241 3036 2150 280296
internal_count=491400 283047 208353 4757 3854 203596 11910 8874 2751 1804 3264 2241 3036 2150 280296
is_linear=0
shrinkage=0.1


Tree=15
num_leaves=16
num_cat=0
split_feature=45 25 21 24 71 66 54 50 56 1 31 30 72 50 49
split_gain=1.00078e-05 1.62181e-05 1.20067e-05 3.85584e-05 1.07425e-05 9.67549e-06 9.47412e-06 2.04381e-05 1.24822e-05 1.39604e-05 2.15103e-05 2.05075e-05 1.50912e-05 1.9709e-05 1.34171e-05
threshold=-0.45522999999999997 1.4650000000000001 2450.0000000000005 0.055000000000000007 -0.01041677006361552 -0.0054722431111268724 -0.0027918546830587028 0.0012387081302226435 -0.0022283185765488152 1750.0000000000002 32184.500000000004 22380.000000000004 -0.0074551936546426991 -0.00041150926480737477 -0.00050761695442103061
decision_type=2 2 2 2 2 2 2 2 2 2 2 2 2 2 2
left_child=4 2 6 -4 -1 -6 7 8 9 10 12 -11 14 -14 -2
right_child=1 -3 3 -5 5 -7 -8 -9 -10 11 -12 -13 13 -15 -16
leaf_value=1.1100967833411325e-05 -5.8562385065592515e-06 -1.344119854779406e-05 -8.4688977806282716e-07 -2.7524920837688127e-05 -1.563812225792535e-05 -1.7146521824595053e-06 2.7119053729255785e-07 2.1924911699163804e-05 -5.6166817792975966e-06 3.4424537660156729e-06 2.4376587417603442e-05 -2.0531382648633764e-05 8.8979616468975442e-06 -7.4488780550291164e-06 8.4994636226172863e-06
leaf_weight=645 2340 880 69854 546 507 31985 373284 545 1783 954 529 570 5217 859 902
leaf_count=645 2340 880 69854 546 507 31985 373284 545 1783 954 529 570 5217 859 902
internal_value=0 1.21353e-07 1.47447e-07 -1.0538e-06 -1.67823e-06 -1.93191e-06 3.65977e-07 2.94883e-06 2.1626e-06 3.38241e-06 4.76086e-06 -5.52414e-06 3.64724e-06 6.58691e-06 -1.86215e-06
internal_weight=0 458263 457383 70400 33137 32492 386983 13699 13154 11371 9847 1524 9318 6076 3242
internal_count=491400 458263 457383 70400 33137 32492 386983 13699 13154 11371 9847 1524 9318 6076 3242
is_linear=0
shrinkage=0.1


Tree=16
num_leaves=16
num_cat=0
split_feature=54 25 56 49 15 49 53 57 57 66 11 25 30 64 58
split_gain=8.76052e-06 1.50008e-05 1.31e-05 2.27937e-05 2.00276e-05 1.02187e-05 9.11293e-06 1.28436e-05 8.97698e-06 1.61359e-05 1.29407e-05 9.44057e-06 9.25034e-06 1.32972e-05 1.22381e-05
threshold=0.00015015132730422656 1.135 -0.0015684037927131131 0.0021696067181060656 3250.0000000000005 -0.0020470825389273246 -0.0014301423484430196 -0.0044245165778448161 0.0013686599192342943 0.0010336184062729183 7996.0000000000009 0.9850000000000001 5564.5000000000009 0.0038901343860365816 0.0048992059045149814
decision_type=2 2 2 2 2 2 2 2 2 2 2 2 2 2 2
left_child=1 2 3 4 6 -2 -1 -8 10 12 11 -7 -10 14 -14
right_child=5 -3 -4 -5 -6 8 7 -9 9 -11 -12 -13 13 -15 -16
leaf_value=2.0163623913451786e-06 1.0689175927761905e-05 -1.5762209530908038e-05 -7.2123197800401719e-07 1.7628106562530296e-05 -1.8799774982335207e-05 7.7989659599920239e-07 -1.3798196383273405e-05 -2.232908070697957e-07 -8.4938268520689325e-07 6.00323329265362e-07 1.654268411508701e-05 1.4188720059269187e-05 -4.3263845849293719e-06 1.1472109130524571e-05 -1.8505528858003692e-05
leaf_weight=32044 970 634 206177 816 517 143349 724 18669 18286 56191 526 527 10821 504 645
leaf_count=32044 970 634 206177 816 517 143349 724 18669 18286 56191 526 527 10821 504 645
internal_value=0 -3.99012e-07 -3.61397e-07 1.04451e-06 7.84046e-07 4.46796e-07 9.80885e-07 -7.30084e-07 4.03759e-07 -4.022e-07 8.8625e-07 8.29011e-07 -2.26407e-06 -4.42522e-06 -5.12401e-06
internal_weight=0 259581 258947 52770 51954 231819 51437 19393 230849 86447 144402 143876 30256 11970 11466
internal_count=491400 259581 258947 52770 51954 231819 51437 19393 230849 86447 144402 143876 30256 11970 11466
is_linear=0
shrinkage=0.1


Tree=17
num_leaves=16
num_cat=0
split_feature=5 45 25 71 50 21 63 49 51 32 44 34 14 32 70
split_gain=9.0929e-06 8.49186e-06 1.33376e-05 1.02078e-05 1.00153e-05 9.37138e-06 1.90481e-05 2.36512e-05 1.69688e-05 1.26902e-05 3.69041e-05 2.26319e-05 2.39861e-05 1.17932e-05 1.14467e-05
threshold=112439.00000000001 -0.45522999999999997 1.4650000000000001 -0.01041677006361552 -0.001146927265425812 550.00000000000011 -0.0070114982570537157 -0.0020470825389273246 -0.0028505926408321498 39529.500000000007 -0.25321499999999991 9639.5000000000018 120.62500000000001 16929.500000000004 -0.0036190347342346381
decision_type=2 2 2 2 2 2 2 2 2 2 2 2 2 2 2
left_child=1 3 5 -1 -5 9 7 -7 13 -3 -11 12 -12 -8 -15
right_child=-2 2 -4 4 -6 6 8 -9 -10 10 11 -13 -14 14 -16
leaf_value=1.0990047335426169e-05 -1.208316954002503e-05 4.7136425466637276e-07 -1.2200500961758843e-05 -9.5067006147193502e-06 -1.3816957757670966e-06 -2.5532157263169157e-05 -2.1919097466256421e-07 -3.5881743245168564e-06 -3.384116148190239e-07 3.0944625286311472e-05 2.5641799071201125e-05 -1.6960901725352902e-05 6.5510208708095892e-07 4.8300393099805801e-06 2.5022965180649185e-05
leaf_weight=638 622 253818 876 1596 30693 634 797 2180 195241 529 502 508 1637 523 606
leaf_count=638 622 253818 876 1596 30693 634 797 2180 195241 529 502 508 1637 523 606
internal_value=0 1.53139e-08 1.26865e-07 -1.5358e-06 -1.7833e-06 1.50496e-07 -3.62865e-07 -8.5322e-06 -2.46271e-07 5.4997e-07 6.83191e-06 2.01301e-06 6.51921e-06 9.09415e-06 1.56688e-05
internal_weight=0 490778 457851 32927 32289 456975 199981 2814 197167 256994 3176 2647 2139 1926 1129
internal_count=491400 490778 457851 32927 32289 456975 199981 2814 197167 256994 3176 2647 2139 1926 1129
is_linear=0
shrinkage=0.1


Tree=18
num_leaves=16
num_cat=0
split_feature=51 25 53 57 39 72 36 37 45 71 69 68 31 49 63
split_gain=8.08132e-06 2.02798e-05 1.85764e-05 1.08466e-05 1.9875e-05 2.81891e-05 9.33595e-06 2.44335e-05 1.25128e-05 1.48421e-05 2.37786e-05 4.17823e-05 1.05765e-05 1.02722e-05 1.60323e-05
threshold=8.9074956752588377e-05 1.135 -0.0025985606016572511 -0.0016570185016420156 500.50000000000006 -0.0058349574415128549 53.500000000000007 1.0000000180025095e-35 -0.21804499999999996 -0.004560717024830018 -0.0014183139793947361 0.00026785885115154789 25.500000000000004 -0.00084563468590009838 -0.0017391711773909189
decision_type=2 2 2 2 2 2 2 2 2 2 2 2 2 2 2
left_child=1 3 -2 4 5 -1 8 -8 -4 10 -10 -12 -9 14 -14
right_child=2 -3 6 -5 -6 -7 7 12 9 -11 11 -13 13 -15 -16
leaf_value=-2.5068732919981302e-05 1.6619568748700383e-05 -1.7699289653036329e-05 -8.3600834730738086e-07 -6.4976840790754114e-07 1.6413051428032431e-06 -1.9554633941968159e-06 -1.7673269249560657e-05 -5.0435100711369414e-06 2.1669110039158935e-06 1.4778415229347351e-06 3.9217567355912143e-05 1.5592833444759641e-06 -5.6490097718009734e-06 -3.2949408765325718e-08 9.9875218401686698e-06
leaf_weight=644 706 675 24061 209042 42698 2921 791 4112 2232 67955 569 611 908 131115 2360
leaf_count=644 706 675 24061 209042 42698 2921 791 4112 2232 67955 569 611 908 131115 2360
internal_value=0 -3.88904e-07 4.22868e-07 -3.43137e-07 1.04239e-06 -6.13076e-06 3.7415e-07 -1.47878e-07 1.1361e-06 1.80098e-06 8.23683e-06 1.97182e-05 -4.77839e-08 1.05081e-07 5.64298e-06
internal_weight=0 255980 235420 255305 46263 3565 234714 139286 95428 71367 3412 1180 138495 134383 3268
internal_count=491400 255980 235420 255305 46263 3565 234714 139286 95428 71367 3412 1180 138495 134383 3268
is_linear=0
shrinkage=0.1


Tree=19
num_leaves=16
num_cat=0
split_feature=48 61 71 71 49 48 31 61 49 48 28 33 32 34 11
split_gain=8.21056e-06 1.91829e-05 2.56544e-05 1.60638e-05 4.16173e-05 2.03309e-05 1.5615e-05 2.52585e-05 1.90294e-05 2.1447e-05 2.23147e-05 1.3467e-05 1.26934e-05 1.19051e-05 1.04844e-05
threshold=-1.0000000180025095e-35 -0.0052008108612714979 -0.013739021523635262 -0.013739021523635262 -0.0020470825389273246 -0.0011540388322318627 22745.500000000004 0.0029360444693158354 -0.0020470825389273246 -0.00064646581208327436 2587.0000000000005 13866.500000000002 18195.500000000004 4195.5000000000009 25900.000000000004
decision_type=2 2 2 2 2 2 2 2 2 2 2 2 2 2 2
left_child=3 2 -2 4 -1 -6 8 12 9 10 11 -5 -8 -12 -3
right_child=1 14 -4 6 5 -7 7 -9 -10 -11 13 -13 -14 -15 -16
leaf_value=-2.4619205861465128e-05 2.4038838620051016e-05 2.4202691058871132e-07 2.5964771136377166e-06 7.8812002463347926e-06 1.5219297374392558e-05 -5.0745103767995862e-06 -1.031139783770948e-05 -2.6824428240364979e-05 -3.8943136388393429e-07 -1.0214168988886616e-05 2.8076961407555702e-05 -6.6159567707776054e-06 1.9622855443548157e-06 1.0558541265899779e-05 1.406233258206736e-05
leaf_weight=983 778 279746 1973 1927 619 2438 1501 533 195144 726 660 960 1921 941 550
leaf_count=983 778 279746 1973 1927 619 2438 1501 533 195144 726 660 960 1921 941 550
internal_value=0 3.50703e-07 8.66051e-06 -4.76429e-07 -6.72069e-06 -9.65296e-07 -3.52958e-07 -6.57529e-06 -2.30131e-07 5.732e-06 8.31153e-06 3.06053e-06 -3.42135e-06 1.77804e-05 2.69145e-07
internal_weight=0 283047 2751 208353 4040 3057 204313 3955 200358 5214 4488 2887 3422 1601 280296
internal_count=491400 283047 2751 208353 4040 3057 204313 3955 200358 5214 4488 2887 3422 1601 280296
is_linear=0
shrinkage=0.1


Tree=20
num_leaves=16
num_cat=0
split_feature=5 44 11 37 39 49 47 32 37 25 44 72 55 25 44
split_gain=7.42354e-06 7.41063e-06 9.64732e-06 7.82584e-06 2.50108e-05 1.06028e-05 9.64387e-06 6.90262e-06 1.76352e-05 3.19932e-05 3.36841e-05 1.31032e-05 1.90169e-05 1.52173e-05 1.63423e-05
threshold=112439.00000000001 7.306350000000001 25900.000000000004 1025.5000000000002 2100.5000000000005 -0.00042100574731268598 513.42500000000007 19687.000000000004 19512.500000000004 0.50500000000000012 -0.48125499999999993 -0.016431720319689699 -0.0039479242560548347 0.45500000000000007 -0.13670499999999997
decision_type=2 2 2 2 2 2 2 2 2 2 2 2 2 2 2
left_child=1 2 7 4 -3 -5 -7 -1 -9 11 -11 12 -10 14 -13
right_child=-2 3 -4 5 -6 6 -8 8 9 10 -12 13 -14 -15 -16
leaf_value=-1.7983245461059119e-07 -1.0917806500790587e-05 2.0116126444589115e-06 1.2822509639080544e-05 7.145518807740553e-06 2.1708770517077415e-05 -1.7830149651084575e-05 3.6821876071550165e-07 -1.6889882344550194e-05 2.2237719503665602e-05 3.2323407693676902e-05 1.8341033186097097e-06 4.9277220172503507e-06 2.1656135562503564e-06 -1.34690074047693e-05 -5.3457164767678504e-07
leaf_weight=439408 622 12741 581 564 679 639 535 527 682 679 777 7140 1533 773 23520
leaf_count=439408 622 12741 581 564 679 639 535 527 682 679 777 7140 1533 773 23520
internal_value=0 1.3837e-08 -5.55337e-08 2.19051e-06 3.00821e-06 -4.12336e-06 -9.53703e-06 -7.12843e-08 1.26735e-06 1.53994e-06 1.60527e-05 9.1195e-07 8.34583e-06 3.88104e-07 7.37469e-07
internal_weight=0 490778 475620 15158 13420 1738 1174 475039 35631 35104 1456 33648 2215 31433 30660
internal_count=491400 490778 475620 15158 13420 1738 1174 475039 35631 35104 1456 33648 2215 31433 30660
is_linear=0
shrinkage=0.1


Tree=21
num_leaves=16
num_cat=0
split_feature=19 52 65 15 70 29 11 24 36 57 17 44 13 29 32
split_gain=8.4203e-06 1.80924e-05 1.23397e-05 1.02435e-05 4.55697e-05 1.01893e-05 1.65172e-05 9.86471e-06 8.93288e-06 7.39909e-06 1.56387e-05 1.09433e-05 1.93853e-05 2.45226e-05 2.2591e-05
threshold=1550.0000000000002 -0.0031617597139225735 -0.0051162336541184508 3450.0000000000005 -0.0032685154689348623 199.50000000000003 1902.5000000000002 0.27500000000000008 5.5000000000000009 -0.0023524069662038123 7.5000000000000009 -0.69219499999999989 1550.0000000000002 43701.000000000007 10752.500000000002
decision_type=2 2 2 2 2 2 2 2 2 2 2 2 2 2 2
left_child=3 2 -2 5 -5 6 8 9 -1 10 -7 12 13 -12 -14
right_child=1 -3 -4 4 -6 7 -8 -9 -10 -11 11 -13 14 -15 -16
leaf_value=1.2675103059106763e-07 2.6720865606898217e-06 6.2720238501055782e-07 2.322368065537024e-05 -3.2942190543109872e-05 -1.6787867747404315e-06 1.5035493504769521e-05 1.668191703391217e-05 -8.8814889051094277e-06 2.6127804171225456e-06 -5.5454459910205714e-07 3.5093903145968148e-06 -9.4485405145091568e-07 2.9179534869720502e-06 -1.5517577541454525e-05 3.1507599314430821e-05
leaf_weight=63733 574 112121 595 509 5549 798 651 1378 18693 263259 7462 14217 612 745 504
leaf_count=63733 574 112121 595 509 5549 798 651 1378 18693 263259 7462 14217 612 745 504
internal_value=0 7.5624e-07 1.31325e-05 -2.26586e-07 -4.30557e-06 -1.60169e-07 8.15856e-07 -4.40765e-07 6.90546e-07 -4.00322e-07 1.26787e-06 8.01151e-07 3.4637e-06 1.7822e-06 1.58294e-05
internal_weight=0 113290 1169 378110 6058 372052 83077 288975 82426 287597 24338 23540 9323 8207 1116
internal_count=491400 113290 1169 378110 6058 372052 83077 288975 82426 287597 24338 23540 9323 8207 1116
is_linear=0
shrinkage=0.1


Tree=22
num_leaves=16
num_cat=0
split_feature=53 25 57 16 61 40 44 41 52 70 62 70 49 53 41
split_gain=7.43113e-06 1.24676e-05 8.69515e-06 1.14791e-05 7.54976e-06 1.04335e-05 1.10873e-05 9.42728e-06 9.14035e-06 8.12647e-06 1.04929e-05 8.79947e-06 1.38687e-05 2.12531e-05 1.58163e-05
threshold=-5.6925265275342689e-05 1.135 -0.0015001677988434878 93.171200000000013 0.001062956340305621 99.500000000000014 -11.393949999999998 9876.5000000000018 0.0012805707701921689 0.0091050656113339529 -0.0046617990831279701 -0.0057887555833148188 -0.00046080187434582859 -0.0034498707406890867 77166.000000000015
decision_type=2 2 2 2 2 2 2 2 2 2 2 2 2 2 2
left_child=1 2 3 -1 5 -5 -7 -6 9 11 -11 12 14 -14 -8
right_child=-2 -3 -4 4 7 6 8 -9 -10 10 -12 -13 13 -15 -16
leaf_value=1.3560267317906306e-05 3.3854333998424408e-07 -1.4841288017729919e-05 -7.897201948275925e-07 -1.166303708361381e-05 -9.4806843970555848e-07 1.5172128456348148e-05 -2.2948752669429879e-06 -1.6728288825467096e-05 1.3920920478785074e-05 -1.6523051987888465e-05 -1.5054061737462575e-06 1.7009427105364177e-06 1.9030110012713097e-05 1.4635471532626138e-07 -1.608372523040368e-05
leaf_weight=682 279539 600 155556 672 1191 537 6948 555 520 586 2258 35932 695 4184 945
leaf_count=682 279539 600 155556 672 1191 537 6948 555 520 586 2258 35932 695 4184 945
internal_value=0 -4.46689e-07 -4.05807e-07 6.66267e-07 5.06449e-07 7.18503e-07 8.7667e-07 -5.96412e-06 7.29235e-07 5.96161e-07 -4.59976e-06 8.9957e-07 -1.35497e-06 2.83629e-06 -3.94576e-06
internal_weight=0 211861 211261 55705 55023 53277 52605 1746 52068 51548 2844 48704 12772 4879 7893
internal_count=491400 211861 211261 55705 55023 53277 52605 1746 52068 51548 2844 48704 12772 4879 7893
is_linear=0
shrinkage=0.1


Tree=23
num_leaves=16
num_cat=0
split_feature=19 52 3 21 37 48 48 11 37 59 19 1 51 37 40
split_gain=6.82602e-06 1.6989e-05 1.21654e-05 8.79784e-06 1.55707e-05 3.89151e-05 1.09165e-05 2.29442e-05 2.19631e-05 1.62268e-05 1.44137e-05 1.03433e-05 8.67022e-06 1.08852e-05 1.67149e-05
threshold=1450.0000000000002 -0.0031617597139225735 1250.0000000000002 420.00000000000006 142468.00000000003 -0.00031099936640571752 0.0011605491995250186 120.50000000000001 15302.500000000002 0.0027363065050576289 550.00000000000011 550.00000000000011 -0.00038247933144380791 1025.5000000000002 4022.5000000000005
decision_type=2 2 2 2 2 2 2 2 2 2 2 2 2 2 2
left_child=3 2 -2 4 12 -6 -5 8 -8 -9 11 -10 13 14 -1
right_child=1 -3 -4 6 5 -7 7 9 10 -11 -12 -13 -14 -15 -16
leaf_value=-2.3016178163801979e-06 2.0220040798444385e-05 5.364887607432774e-07 1.5612495262323923e-07 -6.6289845655124189e-07 -9.7261986186611041e-06 2.501389580947258e-05 -2.9602804668947077e-05 -3.9810581320878856e-06 -2.2475787737606038e-05 1.8505774834460912e-05 2.9255610325837286e-06 -4.4364533689743547e-06 4.9569276754255159e-07 1.6280633926789385e-08 -1.7764706060032846e-05
leaf_weight=18185 757 117445 503 144858 542 796 526 833 650 522 892 622 163609 39933 727
leaf_count=18185 757 117445 503 144858 542 796 526 833 650 522 892 622 163609 39933 727
internal_value=0 6.60402e-07 1.22104e-05 -2.10341e-07 1.85974e-07 1.09413e-05 -8.05978e-07 -5.92989e-06 -1.12752e-05 4.68177e-06 -6.8203e-06 -1.36547e-05 1.21284e-07 -9.197e-07 -2.89604e-06
internal_weight=0 118705 1260 372695 223792 1338 148903 4045 2690 1355 2164 1272 222454 58845 18912
internal_count=491400 118705 1260 372695 223792 1338 148903 4045 2690 1355 2164 1272 222454 58845 18912
is_linear=0
shrinkage=0.1


Tree=24
num_leaves=16
num_cat=0
split_feature=48 31 62 25 62 72 22 48 44 5 25 31 25 28 32
split_gain=6.5257e-06 1.40972e-05 2.37263e-05 2.54108e-05 2.19506e-05 1.99257e-05 4.73764e-05 1.97915e-05 3.15887e-05 1.81783e-05 1.41552e-05 1.39405e-05 3.34607e-05 1.29545e-05 1.27431e-05
threshold=1.0000000180025095e-35 22745.500000000004 0.0031155833506031354 0.045000000000000005 -0.0062306547516143276 -0.016431720319689699 100.02185000000001 -0.0015246118419552921 -0.84005999999999992 100.50000000000001 0.43500000000000005 32184.500000000004 0.03500000000000001 131.00000000000003 31091.500000000004
decision_type=2 2 2 2 2 2 2 2 2 2 2 2 2 2 2
left_child=1 5 3 4 -3 6 -1 8 9 -7 -8 13 -13 -2 -6
right_child=11 2 -4 -5 14 7 10 -9 -10 -11 -12 12 -14 -15 -16
leaf_value=-3.1704167455253907e-05 1.657869527982815e-06 -2.4756535748455017e-05 -2.2383682943623643e-05 1.5658136560033757e-05 -5.7975337643529163e-06 3.892123185353323e-06 2.4200917248996742e-07 -2.4009180305187595e-07 1.445715407098729e-05 -1.3154277616171847e-05 -1.7779193131595152e-05 5.5739413295670979e-07 2.7178309215797169e-05 -1.3750878522637255e-07 1.1818889528512956e-05
leaf_weight=659 54632 535 725 633 2297 2274 2931 268105 2393 863 512 1659 660 152022 500
leaf_count=659 54632 535 725 633 2297 2274 2931 268105 2393 863 512 1659 660 152022 500
internal_value=0 -3.13464e-07 -5.75028e-06 -2.70886e-06 -6.19815e-06 -2.21656e-07 -7.13961e-06 -1.1795e-07 5.80371e-06 -7.97403e-07 -2.43788e-06 4.23647e-07 8.13385e-06 3.37126e-07 -2.64837e-06
internal_weight=0 282427 4690 3965 3332 277737 4102 273635 5530 3137 3443 208973 2319 206654 2797
internal_count=491400 282427 4690 3965 3332 277737 4102 273635 5530 3137 3443 208973 2319 206654 2797
is_linear=0
shrinkage=0.1


Tree=25
num_leaves=16
num_cat=0
split_feature=5 56 15 42 71 53 49 9 29 31 44 48 51 48 62
split_gain=6.43137e-06 5.84931e-06 9.4562e-06 4.08024e-05 8.91068e-06 8.92494e-06 4.37253e-05 3.12209e-05 2.10529e-05 3.12478e-05 1.57505e-05 1.20185e-05 1.08383e-05 7.95022e-06 7.6945e-06
threshold=112439.00000000001 -0.00014948363672162565 3450.0000000000005 50.500000000000007 0.0041631895918929915 -0.0034498707406890867 0.00058174934517529764 2950.0000000000005 7990.5000000000009 1200.5000000000002 -2.6973449999999999 -0.0015246118419552921 0.0012741291961034797 -0.00021164986739502509 -0.0062306547516143276
decision_type=2 2 2 2 2 2 2 2 2 2 2 2 2 2 2
left_child=1 2 4 -4 5 6 7 8 -1 -10 -11 -12 -7 14 -6
right_child=-2 -3 3 -5 13 12 -8 -9 9 10 11 -13 -14 -15 -16
leaf_value=2.2523397932145668e-05 -1.0162054102903778e-05 2.9579737182078756e-07 -3.0728192115802848e-05 -1.1099031461187965e-06 -1.5584975481033327e-05 7.8034440304878634e-08 3.1940765833489509e-05 -2.0288962081207208e-05 -2.1707181154388488e-05 2.0298843269384552e-05 1.1687183994739832e-05 -1.6896707578556405e-06 -3.8642000707693666e-06 -5.8724174479757203e-07 -3.078056355327108e-06
leaf_weight=538 622 293600 543 3243 510 139824 506 601 510 550 931 2411 7340 25808 13863
leaf_count=538 622 293600 543 3243 510 139824 506 601 510 550 931 2411 7340 25808 13863
internal_value=0 1.28791e-08 -4.08389e-07 -5.35785e-06 -3.11494e-07 3.61233e-08 3.80133e-06 1.23165e-06 3.84985e-06 1.56762e-06 4.61751e-06 2.0368e-06 -1.1859e-07 -1.63697e-06 -3.52184e-06
internal_weight=0 490778 197178 3786 193392 153211 6047 5541 4940 4402 3892 3342 147164 40181 14373
internal_count=491400 490778 197178 3786 193392 153211 6047 5541 4940 4402 3892 3342 147164 40181 14373
is_linear=0
shrinkage=0.1


Tree=26
num_leaves=16
num_cat=0
split_feature=19 52 11 56 21 69 45 40 29 52 52 55 17 64 40
split_gain=5.81822e-06 1.25174e-05 8.37308e-06 8.21984e-06 6.60859e-06 3.87423e-05 6.67586e-06 7.34522e-06 1.74534e-05 1.21293e-05 1.04902e-05 6.84251e-06 6.19533e-06 9.80001e-06 6.39348e-06
threshold=1550.0000000000002 -0.0031617597139225735 25900.000000000004 -0.0042161792944561674 3050.0000000000005 -0.0065284176173669431 -0.45522999999999997 15378.500000000002 3000.5000000000005 0.00023907726208649563 -0.0013050197638144743 -0.001196794819245006 2516.0000000000005 0.0021996590412620702 625.50000000000011
decision_type=2 2 2 2 2 2 2 2 2 2 2 2 2 2 2
left_child=2 3 4 -2 6 -6 7 8 11 10 -10 -1 14 -14 -8
right_child=1 -3 -4 -5 5 -7 12 -9 9 -11 -12 -13 13 -15 -16
leaf_value=6.2418283410640089e-06 2.443771100374242e-06 5.2129284112801893e-07 9.7608061339617906e-06 1.9215631051313657e-05 -2.1384347307404089e-05 -9.8728070337308481e-07 6.5198416438167094e-07 4.4939760687871499e-06 -1.7345120421405114e-05 -1.8359145570961435e-05 -1.9744582952443952e-06 -1.3994381243045383e-06 1.4600296019704498e-06 1.771834543246233e-05 -3.0598505425407776e-07
leaf_weight=1243 578 112121 844 591 965 26599 102348 1846 557 920 2189 20483 1426 501 218189
leaf_count=1243 578 112121 844 591 965 26599 102348 1846 557 920 2189 20483 1426 501 218189
internal_value=0 6.28624e-07 -1.88349e-07 1.0923e-05 -2.10607e-07 -1.70137e-06 -9.31032e-08 -1.59644e-06 -2.03922e-06 -8.42164e-06 -5.09225e-06 -9.62262e-07 3.38816e-08 5.68702e-06 -1.03881e-10
internal_weight=0 113290 378110 1169 377266 27564 349702 27238 25392 3666 2746 21726 322464 1927 320537
internal_count=491400 113290 378110 1169 377266 27564 349702 27238 25392 3666 2746 21726 322464 1927 320537
is_linear=0
shrinkage=0.1


Tree=27
num_leaves=16
num_cat=0
split_feature=19 15 13 61 44 13 17 26 21 40 50 17 57 57 30
split_gain=5.49726e-06 1.79533e-05 5.86179e-05 9.70505e-06 2.71448e-05 1.15589e-05 1.50544e-05 1.09159e-05 8.79091e-06 1.37126e-05 1.05246e-05 8.49678e-06 1.31365e-05 7.58895e-06 1.72705e-05
threshold=250.00000000000003 3450.0000000000005 100.50000000000001 -0.0052008108612714979 -2.6973449999999999 3750.0000000000005 76.500000000000014 996.00000000000011 1150.0000000000002 30720.000000000004 -0.0018524591914753639 2516.0000000000005 0.00076104347525907123 -0.0044245165778448161 13231.500000000002
decision_type=2 2 2 2 2 2 2 2 2 2 2 2 2 2 2
left_child=1 11 -3 4 -2 6 -6 13 9 -8 -11 -1 -13 14 -5
right_child=3 2 -4 7 5 -7 8 -9 -10 10 -12 12 -14 -15 -16
leaf_value=-4.1166959249021569e-07 2.6299907790067103e-05 -3.8834606561669274e-05 8.5846659614751573e-07 6.823307353406909e-06 1.8677421001987989e-05 -7.7919454181667529e-06 7.785993155679386e-06 -1.4527260183234729e-05 1.2563034777155448e-05 1.1488248849600817e-06 -1.7861517114462505e-05 -4.8551220681150094e-07 2.0074761045711186e-05 2.3804826943172937e-07 -1.3899406614714211e-05
leaf_weight=168672 520 517 1327 631 636 925 899 504 567 565 601 779 517 312631 1109
leaf_count=168672 520 517 1327 631 636 925 899 504 567 565 601 779 517 312631 1109
internal_value=0 -4.56167e-07 -1.02702e-05 2.45238e-07 4.7495e-06 2.0769e-06 4.87026e-06 1.77818e-07 1.53388e-06 -1.49447e-06 -8.64982e-06 -3.49693e-07 7.71639e-06 2.01394e-07 -6.38445e-06
internal_weight=0 171812 1844 319588 4713 4193 3268 314875 2632 2065 1166 169968 1296 314371 1740
internal_count=491400 171812 1844 319588 4713 4193 3268 314875 2632 2065 1166 169968 1296 314371 1740
is_linear=0
shrinkage=0.1


Tree=28
num_leaves=16
num_cat=0
split_feature=5 54 60 61 30 49 28 39 49 63 37 29 49 37 14
split_gain=5.50961e-06 5.71315e-06 9.00891e-06 3.43154e-05 1.06555e-05 7.82332e-06 7.4473e-06 9.76819e-06 1.57849e-05 1.05314e-05 1.86086e-05 5.59585e-05 1.01535e-05 9.50591e-06 1.30597e-05
threshold=112439.00000000001 0.00010303436223313424 -0.0015363505371788764 -0.003229144336073519 37416.000000000007 -0.0020470825389273246 9.0000000000000018 625.50000000000011 0.0021696067181060656 -0.005230638457295155 7057.5000000000009 6159.5000000000009 0.0013375101195041152 35983.000000000007 98.965000000000018
decision_type=2 2 2 2 2 2 2 2 2 2 2 2 2 2 2
left_child=1 2 6 -4 -5 -3 -1 -8 9 10 11 -9 -11 -12 -15
right_child=-2 5 3 4 -6 -7 7 8 -10 12 13 -13 -14 14 -16
leaf_value=9.9915106136117766e-06 -9.4056806236601344e-06 9.2704600205003854e-06 -2.6746388204455023e-05 -5.4562951841050885e-07 -1.2576956483403144e-05 3.2635508775611744e-07 -3.6008509169134157e-06 4.9243254445331251e-06 1.7738396053959568e-05 1.6570217606536919e-06 4.0497663563168463e-06 -3.8540486904912717e-05 -9.7865326355443984e-06 1.0903588806507824e-05 -4.3646066359942677e-06
leaf_weight=855 622 982 503 188876 739 237240 5092 690 556 44805 3027 519 789 624 5481
leaf_count=855 622 982 503 188876 739 237240 5092 690 556 44805 3027 519 789 624 5481
internal_value=0 1.19205e-08 -3.19445e-07 -6.61716e-07 -5.9252e-07 3.63225e-07 7.22739e-07 5.94054e-07 9.72176e-07 8.05518e-07 -2.07568e-06 -1.37343e-05 1.45899e-06 -5.32186e-07 -2.80402e-06
internal_weight=0 490778 252556 190118 189615 238222 62438 61583 56491 55935 10341 1209 45594 9132 6105
internal_count=491400 490778 252556 190118 189615 238222 62438 61583 56491 55935 10341 1209 45594 9132 6105
is_linear=0
shrinkage=0.1


Tree=29
num_leaves=16
num_cat=0
split_feature=21 63 11 21 19 72 49 34 37 34 29 25 36 31 41
split_gain=5.13608e-06 1.49786e-05 2.69333e-05 1.69104e-05 9.42319e-06 2.24473e-05 2.3592e-05 2.16408e-05 1.65131e-05 4.64124e-05 9.40305e-06 1.42576e-05 1.34342e-05 2.44212e-05 1.00643e-05
threshold=750.00000000000011 -0.0070114982570537157 80.500000000000014 1150.0000000000002 807.50000000000011 -0.016431720319689699 -0.0002256291582597991 17573.500000000004 142468.00000000003 3983.5000000000005 77310.000000000015 0.075000000000000025 1161.5000000000002 8586.5000000000018 36333.500000000007
decision_type=2 2 2 2 2 2 2 2 2 2 2 2 2 2 2
left_child=4 2 -2 -4 7 6 -6 8 10 -10 12 -12 14 -14 -1
right_child=1 -3 3 -5 5 -7 -8 -9 9 -11 11 -13 13 -15 -16
leaf_value=-1.1091498766412141e-07 -2.77469732999717e-05 -3.2411487516986622e-07 -1.6433756642679023e-05 4.4681857659686675e-06 -3.4717710358466374e-07 1.0526210864627787e-06 2.8300719630071679e-05 -1.8611606037493679e-05 3.3215439608728034e-05 -7.337615478510258e-06 7.4030183977709061e-07 1.9715731239110306e-05 -2.4263103956026223e-05 2.8341069908534317e-06 6.5864118177928941e-06
leaf_weight=239488 550 175518 576 1180 533 65817 624 626 541 590 1157 602 637 696 2265
leaf_count=239488 550 175518 576 1180 533 65817 624 626 541 590 1157 602 637 696 2265
internal_value=0 -4.29313e-07 -8.43635e-06 -2.38803e-06 2.43457e-07 1.29535e-06 1.51034e-05 -4.22249e-08 5.03348e-09 1.20604e-05 -5.06535e-08 7.23445e-06 -1.03369e-07 -1.01148e-05 -4.81673e-08
internal_weight=0 177824 2306 1756 313576 66974 1157 246602 245976 1131 244845 1759 243086 1333 241753
internal_count=491400 177824 2306 1756 313576 66974 1157 246602 245976 1131 244845 1759 243086 1333 241753
is_linear=0
shrinkage=0.1


Tree=30
num_leaves=16
num_cat=0
split_feature=5 44 72 39 63 63 35 25 32 44 50 33 17 30 50
split_gain=5.30135e-06 5.01295e-06 6.61723e-06 6.84066e-06 8.23127e-06 6.83671e-06 1.16468e-05 5.56034e-06 5.82598e-06 3.60514e-05 2.92627e-05 2.86626e-05 2.51569e-05 1.92677e-05 2.28881e-05
threshold=112439.00000000001 7.306350000000001 0.019761680496979909 200.50000000000003 -0.00054189160815587545 -0.0028923107953034983 43583.500000000007 1.4650000000000001 39529.500000000007 -0.37632499999999997 -0.0013076046591791732 128596.50000000001 100.50000000000001 37416.000000000007 0.0026115867504047379
decision_type=2 2 2 2 2 2 2 2 2 2 2 2 2 2 2
left_child=1 7 5 -4 -5 -3 -7 8 -1 -10 11 -11 13 -12 -15
right_child=-2 2 3 4 -6 6 -8 -9 9 10 12 -13 -14 14 -16
leaf_value=-7.1226440282507445e-08 -9.2262036834882389e-06 -1.0995858262173468e-05 1.1620118925775424e-06 1.7758201756146375e-05 4.9225777134423943e-06 -6.4625178095355036e-07 1.4400217619229756e-05 -8.98336951466773e-06 2.4159612454974851e-05 1.9680653600551833e-06 2.6687883169545783e-06 -2.8341694755952847e-05 -7.7895204731209561e-06 6.1490438107786514e-06 3.4869226970170673e-05
leaf_weight=469125 622 553 4161 607 2824 6454 559 695 714 626 1563 622 1163 580 532
leaf_count=469125 622 553 4161 607 2824 6454 559 695 714 626 1563 622 1163 580 532
internal_value=0 1.16931e-08 1.80194e-06 3.88774e-06 7.19341e-06 -2.91025e-07 5.53089e-07 -4.53621e-08 -3.22823e-08 3.11766e-06 1.63675e-07 -1.31382e-05 4.48905e-06 9.82736e-06 1.98893e-05
internal_weight=0 490778 15158 7592 3431 7566 7013 475620 474925 5800 5086 1248 3838 2675 1112
internal_count=491400 490778 15158 7592 3431 7566 7013 475620 474925 5800 5086 1248 3838 2675 1112
is_linear=0
shrinkage=0.1


Tree=31
num_leaves=16
num_cat=0
split_feature=48 71 56 63 37 49 49 25 51 48 13 61 44 23 31
split_gain=4.72397e-06 1.33229e-05 4.26733e-05 1.30876e-05 2.18923e-05 8.56258e-05 1.43631e-05 1.34523e-05 1.19117e-05 1.77082e-05 1.28546e-05 1.0378e-05 1.25461e-05 1.92647e-05 2.16208e-05
threshold=-1.0000000180025095e-35 -0.013739021523635262 -0.0042161792944561674 -0.005230638457295155 7057.5000000000009 -0.0015389413848493903 -0.00084563468590009838 0.9850000000000001 -0.0028505926408321498 -0.0015246118419552921 1950.0000000000002 -0.0014445648248465057 -0.30190999999999996 30.500000000000004 15373.500000000002
decision_type=2 2 2 2 2 2 2 2 2 2 2 2 2 2 2
left_child=3 2 -2 4 5 -1 8 -8 9 -5 -11 12 -6 -14 -15
right_child=1 -3 -4 6 11 -7 7 -9 -10 10 -12 -13 13 14 -16
leaf_value=-4.5785711076756494e-05 3.159169995912029e-05 1.863998394579279e-07 1.7134799520395144e-06 1.6797844989177511e-05 4.2509674346265628e-06 1.9873253204323472e-06 -6.3099669839244419e-07 1.4091404095100744e-05 1.0972377815132101e-06 -4.6342011243914104e-06 1.3699336930300736e-05 -1.1816230803445947e-05 1.3019842953181598e-05 -1.4802362905003646e-06 -1.8655018039477234e-05
leaf_weight=571 562 279286 3199 1248 3118 1094 163942 623 31223 1197 562 911 552 2217 1095
leaf_count=571 562 279286 3199 1248 3118 1094 163942 623 31223 1197 562 911 552 2217 1095
internal_value=0 2.66015e-07 6.17813e-06 -3.61381e-07 -3.97589e-06 -1.43961e-05 -1.87597e-07 -5.75262e-07 1.67615e-06 7.68726e-06 1.22336e-06 -1.77778e-06 -4.67983e-07 -4.27587e-06 -7.15849e-06
internal_weight=0 283047 3761 208353 9558 1665 198795 164565 34230 3007 1759 7893 6982 3864 3312
internal_count=491400 283047 3761 208353 9558 1665 198795 164565 34230 3007 1759 7893 6982 3864 3312
is_linear=0
shrinkage=0.1


Tree=32
num_leaves=16
num_cat=0
split_feature=21 69 3 1 19 7 45 37 0 41 9 44 48 21 37
split_gain=4.40236e-06 1.98404e-05 4.40757e-05 8.56748e-06 5.39573e-06 7.24592e-06 2.35493e-05 1.00693e-05 3.28525e-05 2.84037e-05 1.29845e-05 1.34434e-05 7.63342e-06 1.3087e-05 2.60984e-05
threshold=3050.0000000000005 -0.0065284176173669431 2750.0000000000005 1450.0000000000002 1950.0000000000002 2450.0000000000005 0.13768500000000003 142468.00000000003 100.04500000000002 77166.000000000015 1350.0000000000002 -0.017704999999999995 0.0015561977388317552 350.00000000000006 21877.500000000004
decision_type=2 2 2 2 2 2 2 2 2 2 2 2 2 2 2
left_child=4 2 3 -2 5 7 -7 12 -9 -10 -11 -12 -1 -14 -15
right_child=1 -3 -4 -5 -6 6 -8 8 9 10 11 -13 13 14 -16
leaf_value=1.5065876377499921e-09 8.5168982363741282e-06 -5.1092226821486499e-07 -3.6396022286301414e-05 -8.919760121124686e-06 9.0332160067847212e-07 -1.2787327623227911e-06 -2.3076061711115372e-05 2.8761208697488495e-05 1.8000785785166556e-05 -1.3338463658466437e-05 1.495415443052523e-05 -5.7496969070800413e-06 2.5932401586251552e-07 -2.9238450808772087e-05 -3.1292102110487869e-06
leaf_weight=352603 529 53348 501 603 71092 3891 568 511 766 931 503 833 2829 533 1359
leaf_count=352603 529 53348 501 603 71092 3891 568 511 766 931 503 833 2829 533 1359
internal_value=0 -8.43278e-07 -1.17009e-05 -7.71357e-07 1.06238e-07 -4.88731e-08 -4.05534e-06 6.32021e-10 5.30472e-06 1.35276e-06 -4.27246e-06 2.04524e-06 -5.19748e-08 -4.0464e-06 -1.04845e-05
internal_weight=0 54981 1633 1132 436419 365327 4459 360868 3544 3033 2267 1336 357324 4721 1892
internal_count=491400 54981 1633 1132 436419 365327 4459 360868 3544 3033 2267 1336 357324 4721 1892
is_linear=0
shrinkage=0.1


Tree=33
num_leaves=16
num_cat=0
split_feature=53 25 60 62 28 5 69 53 1 33 9 44 45 49 53
split_gain=4.45371e-06 9.4592e-06 8.70887e-06 3.37702e-05 1.07124e-05 8.35912e-06 1.53936e-05 8.92976e-06 2.5731e-05 4.58089e-05 2.2234e-05 1.89128e-05 1.25445e-05 8.50917e-06 8.30098e-06
threshold=-0.00011250133019680141 1.135 -0.0023522518263558441 -0.0062306547516143276 14.500000000000002 165.50000000000003 -0.010619194694856724 -0.0034498707406890867 1550.0000000000002 65310.500000000007 1032.5000000000002 -0.073914999999999995 -0.055554999999999993 0.0011541013704802208 -0.001147232787525043
decision_type=2 2 2 2 2 2 2 2 2 2 2 2 2 2 2
left_child=1 2 4 -4 -1 7 -7 8 9 10 12 -11 -6 -9 -8
right_child=-2 -3 3 -5 5 6 14 13 -10 11 -12 -13 -14 -15 -16
leaf_value=1.5325451486136139e-05 2.4534559027845186e-07 -1.2969544317309905e-05 -2.482531899991243e-05 -5.4779343584314684e-07 1.2319047791423829e-05 -1.5008598199031625e-05 1.4900128287926397e-06 1.3461967918474076e-06 -1.2308096714961917e-05 4.0662703142895367e-05 -1.6493797933542417e-05 1.3428470806385845e-05 -2.7965211120727836e-06 -8.4866597878300613e-06 -6.7973457600658993e-06
leaf_weight=524 295285 594 575 161578 1441 812 5196 19814 668 513 510 507 887 921 1575
leaf_count=524 295285 594 575 161578 1441 812 5196 19814 668 513 510 507 887 921 1575
internal_value=0 -3.6941e-07 -3.3113e-07 -6.33882e-07 1.1401e-06 9.13787e-07 -1.99798e-06 1.78786e-06 5.81215e-06 8.94961e-06 2.41698e-06 2.71257e-05 6.55981e-06 9.09444e-07 -4.37707e-07
internal_weight=0 196115 195521 162153 33368 32844 7583 25261 4526 3858 2838 1020 2328 20735 6771
internal_count=491400 196115 195521 162153 33368 32844 7583 25261 4526 3858 2838 1020 2328 20735 6771
is_linear=0
shrinkage=0.1


Tree=34
num_leaves=16
num_cat=0
split_feature=5 51 53 25 51 62 16 32 28 33 38 25 72 11 48
split_gain=4.34434e-06 4.25731e-06 1.31235e-05 1.22234e-05 7.86675e-06 1.1795e-05 1.00935e-05 9.80519e-06 9.9699e-06 1.40742e-05 1.1095e-05 9.75896e-06 9.58636e-06 8.90455e-06 8.04658e-06
threshold=112439.00000000001 8.9074956752588377e-05 -0.0025985606016572511 1.135 0.0018693107354925689 -0.00073575284132826313 98.952500000000015 1100.5000000000002 1085.0000000000002 76124.000000000015 465.30039500000004 0.89500000000000013 -0.0024937407607136248 7996.0000000000009 5.9932875203783105e-05
decision_type=2 2 2 2 2 2 2 2 2 2 2 2 2 2 2
left_child=1 3 -3 -1 11 6 -6 -8 10 12 -9 13 -10 14 -4
right_child=-2 2 4 -5 5 -7 7 8 9 -11 -12 -13 -14 -15 -16
leaf_value=-2.3646598218646706e-07 -8.3520217915439914e-06 1.3931216368657504e-05 -2.393950361831834e-07 -1.3781348035969175e-05 8.5401193214708875e-06 -2.3503918640269093e-07 -2.0399956176225828e-06 -2.8594580002887103e-05 8.0483456915298686e-06 -1.9335227960583858e-05 -8.0039382549655725e-06 1.1392671637777553e-05 -9.4271594931203943e-06 1.2152665744071731e-05 1.1157905460281151e-06
leaf_weight=254997 622 706 79567 668 522 49412 3062 506 687 531 542 834 578 659 97507
leaf_count=254997 622 706 79567 668 522 49412 3062 506 687 531 542 834 578 659 97507
internal_value=0 1.05851e-08 3.17715e-07 -2.71856e-07 2.76713e-07 -7.5924e-07 -4.78877e-06 -5.96684e-06 -1.01947e-05 -5.67188e-06 -1.79456e-05 6.00668e-07 6.34904e-08 5.50028e-07 5.06847e-07
internal_weight=0 490778 235113 255665 234407 55840 6428 5906 2844 1796 1048 178567 1265 177733 177074
internal_count=491400 490778 235113 255665 234407 55840 6428 5906 2844 1796 1048 178567 1265 177733 177074
is_linear=0
shrinkage=0.1


Tree=35
num_leaves=16
num_cat=0
split_feature=21 31 34 30 70 58 50 16 62 9 33 38 57 49 51
split_gain=4.25546e-06 8.05167e-06 4.00651e-05 7.26978e-06 1.1666e-05 1.66543e-05 1.32862e-05 1.26583e-05 1.23497e-05 1.12464e-05 1.09516e-05 9.76145e-06 1.4277e-05 9.74701e-06 7.69699e-06
threshold=420.00000000000006 32184.500000000004 8009.5000000000009 25298.500000000004 0.0042486647729858005 -7.7014902497729562e-05 9.7448535625321866e-05 450.67500000000007 -0.0046617990831279701 420.50000000000006 128596.50000000001 522.07513500000016 0.0046842781264949682 -0.0020470825389273246 0.00037612428470346076
decision_type=2 2 2 2 2 2 2 2 2 2 2 2 2 2 2
left_child=1 3 -3 10 5 8 -7 -8 9 -5 -1 12 14 -10 -6
right_child=-2 2 -4 4 11 6 7 -9 13 -11 -12 -13 -14 -15 -16
leaf_value=3.0397102628498689e-07 -3.0240631617357425e-07 2.4363989170592438e-05 -1.1485280797050087e-05 -1.2883906791298588e-06 -8.83145044099365e-06 -2.7491855935659262e-05 -1.8528965487813622e-05 3.42176362436071e-06 1.5522876765317051e-05 -1.7642437640151523e-05 1.2629762302213354e-05 -8.5502527458664344e-06 1.8998278242549261e-05 -4.8012731189256132e-07 8.5166835001945033e-06
leaf_weight=242944 239006 694 566 1042 512 500 532 519 512 705 723 524 627 1483 511
leaf_count=242944 239006 694 566 1042 512 500 532 519 512 705 723 524 627 1483 511
internal_value=0 2.86365e-07 8.26027e-06 2.46358e-07 -2.82714e-06 -5.36032e-06 -1.40731e-05 -7.68936e-06 -1.74899e-06 -7.88805e-06 3.40544e-07 3.34035e-06 7.11651e-06 3.62691e-06 -1.65863e-07
internal_weight=0 252394 1260 251134 7467 5293 1551 1051 3742 1747 243667 2174 1650 1995 1023
internal_count=491400 252394 1260 251134 7467 5293 1551 1051 3742 1747 243667 2174 1650 1995 1023
is_linear=0
shrinkage=0.1


Tree=36
num_leaves=16
num_cat=0
split_feature=19 52 37 1 25 52 49 25 44 45 5 34 37 49 72
split_gain=4.12697e-06 2.4234e-05 8.84948e-05 2.24463e-05 2.35066e-05 2.1787e-05 3.67769e-05 1.50785e-05 1.12302e-05 1.80945e-05 1.76226e-05 1.60523e-05 2.05212e-05 8.57983e-06 9.12381e-06
threshold=250.00000000000003 -0.0031617597139225735 7650.5000000000009 628.00000000000011 0.36500000000000005 -0.0031617597139225735 -0.00025352662030581058 0.9850000000000001 -0.13670499999999997 0.036375000000000011 175.50000000000003 2773.5000000000005 38194.500000000007 -0.0020470825389273246 -0.0047165680450024774
decision_type=2 2 2 2 2 2 2 2 2 2 2 2 2 2 2
left_child=1 2 -1 4 -4 6 8 -7 10 -10 11 12 -2 14 -3
right_child=5 13 3 -5 -6 7 -8 -9 9 -11 -12 -13 -14 -15 -16
leaf_value=-3.7961011568919499e-05 1.752328340628291e-05 1.7663627326235934e-05 -3.4955390760202349e-06 -1.7224234744982255e-05 1.9546407478278033e-05 8.0829161277717424e-08 2.835592311091927e-05 1.5009885223219749e-05 -1.2595623450111704e-05 1.0436604592345051e-05 -8.0963338549452558e-06 2.4237187392852919e-05 -8.695496064946318e-06 -3.0569393109697082e-07 1.9868917693799088e-06
leaf_weight=794 628 531 1087 545 747 314333 689 678 885 555 564 687 569 166874 1234
leaf_count=794 628 531 1087 545 747 314333 689 678 885 555 564 687 569 166874 1234
internal_value=0 -3.95245e-07 -9.05349e-06 5.94497e-07 5.88959e-06 2.12486e-07 7.06225e-06 1.12961e-07 3.28876e-06 -3.71862e-06 7.41074e-06 1.2053e-05 5.06005e-06 -2.32337e-07 6.70324e-06
internal_weight=0 171812 3173 2379 1834 319588 4577 315011 3888 1440 2448 1884 1197 168639 1765
internal_count=491400 171812 3173 2379 1834 319588 4577 315011 3888 1440 2448 1884 1197 168639 1765
is_linear=0
shrinkage=0.1


Tree=37
num_leaves=16
num_cat=0
split_feature=40 39 70 48 37 41 45 48 44 50 38 42 48 35 63
split_gain=3.79095e-06 2.08217e-05 1.59763e-05 4.96281e-05 1.01227e-05 2.88678e-05 1.22915e-05 1.48695e-05 1.06885e-05 1.21202e-05 2.29558e-05 2.40614e-05 1.00366e-05 1.00217e-05 8.75892e-06
threshold=625.50000000000011 5696.5000000000009 -0.0067274057422767033 -8.8817834621279776e-05 500.50000000000006 9160.5000000000018 0.045575000000000011 0.00053800807902193448 -2.6973449999999999 -0.0010170650408873325 448.33647000000002 25926.500000000004 0.00065474141915622408 40852.000000000007 -0.00092848714660354037
decision_type=2 2 2 2 2 2 2 2 2 2 2 2 2 2 2
left_child=1 2 3 -1 5 6 12 -8 9 10 -6 13 14 -12 -2
right_child=4 -3 -4 -5 8 -7 7 -9 -10 -11 11 -13 -14 -15 -16
leaf_value=-3.4847873726071508e-05 -5.5969816796737674e-06 2.0430929688137898e-05 4.9347919259540829e-07 8.1895537858583365e-07 1.7479430162466214e-05 -2.0297559673227151e-05 -2.8605303558809567e-08 1.2008874689858955e-05 -1.5941219342077816e-07 6.3810715943972064e-07 3.2565012963569838e-06 -1.490877670347775e-05 -1.659455807908558e-05 1.7152413914712497e-05 -8.9040602131352724e-07
leaf_weight=527 5863 519 138301 1502 1377 840 5883 1243 306620 12119 2640 662 514 646 12144
leaf_count=527 5863 519 138301 1502 1377 840 5883 1243 306620 12119 2640 662 514 646 12144
internal_value=0 4.38182e-07 3.64241e-07 -8.44493e-06 -1.76059e-07 -2.05569e-06 -1.45822e-06 2.07111e-06 -2.24294e-08 2.38537e-06 6.36191e-06 2.4843e-06 -2.81614e-06 5.98832e-06 -2.42285e-06
internal_weight=0 140849 140330 2029 350551 26487 25647 7126 324064 17444 5325 3948 18521 3286 18007
internal_count=491400 140849 140330 2029 350551 26487 25647 7126 324064 17444 5325 3948 18521 3286 18007
is_linear=0
shrinkage=0.1


Tree=38
num_leaves=16
num_cat=0
split_feature=5 19 25 36 37 55 49 23 10 39 17 57 69 21 23
split_gain=3.97703e-06 3.8781e-06 1.54301e-05 1.01707e-05 3.31259e-05 1.9597e-05 1.3602e-05 1.31243e-05 1.68545e-05 1.30783e-05 1.19514e-05 1.61052e-05 1.48816e-05 1.6471e-05 1.5468e-05
threshold=112439.00000000001 750.00000000000011 0.68500000000000016 1161.5000000000002 52465.000000000007 -0.0039479242560548347 -0.0015389413848493903 80.500000000000014 115.70005000000002 75166.500000000015 100.50000000000001 0.00090056085659473439 -1.0000000180025095e-35 1050.0000000000002 190.50000000000003
decision_type=2 2 2 2 2 2 2 2 2 2 2 2 2 2 2
left_child=1 3 -3 9 -5 6 -6 8 -7 -1 12 -12 13 -9 -14
right_child=-2 2 -4 4 5 7 -8 10 -10 -11 11 -13 14 -15 -16
leaf_value=-1.4208624844082347e-07 -7.9911501652941434e-06 3.2712816500792961e-07 1.6996802852440567e-05 -2.8572090853024089e-05 2.5692958037315875e-07 1.2980635150486797e-05 2.0728478973199216e-05 -2.2649273238861061e-05 -8.3585745322141268e-06 1.5278282945471969e-05 -4.804764910906311e-06 -2.7601011407088099e-05 -4.371435399186883e-06 -8.3631202714334894e-07 1.666772838224051e-05
leaf_weight=302106 622 180030 557 505 772 827 560 682 670 551 648 594 1049 703 524
leaf_count=302106 622 180030 557 505 772 827 560 682 670 551 648 594 1049 703 524
internal_value=0 1.01278e-08 3.78544e-07 -2.04357e-07 -3.83367e-06 -2.05633e-06 8.86359e-06 -4.60948e-06 3.43002e-06 -1.14013e-07 -7.47499e-06 -1.57073e-05 -4.01842e-06 -1.15774e-05 2.63716e-06
internal_weight=0 490778 180587 310191 7534 7029 1332 5697 1497 302657 4200 1242 2958 1385 1573
internal_count=491400 490778 180587 310191 7534 7029 1332 5697 1497 302657 4200 1242 2958 1385 1573
is_linear=0
shrinkage=0.1


Tree=39
num_leaves=16
num_cat=0
split_feature=21 11 65 49 54 34 26 48 48 36 49 62 64 45 54
split_gain=3.65077e-06 1.18956e-05 6.91373e-06 3.79126e-05 2.80114e-05 2.30203e-05 1.55313e-05 1.07146e-05 1.00275e-05 1.10982e-05 9.43305e-06 1.12235e-05 1.04235e-05 1.09308e-05 9.49551e-06
threshold=420.00000000000006 25900.000000000004 -0.0083791497535711783 -0.0010843123252839424 -0.0027918546830587028 1493.5000000000002 500.50000000000006 0.00041895547577974762 -0.00082640454057880664 83.500000000000014 -0.0020470825389273246 -0.0012709294153940285 -0.0023144924005688568 -0.036854999999999992 -0.002306866889682679
decision_type=2 2 2 2 2 2 2 2 2 2 2 2 2 2 2
left_child=1 -1 3 5 -5 -2 8 -6 9 -4 11 -11 14 -14 -12
right_child=2 -3 6 4 7 -7 -8 -9 -10 10 12 -13 13 -15 -16
leaf_value=2.3389695137893983e-07 -3.4761108623215194e-05 1.5302243686857677e-05 -7.4715256203255136e-06 2.1910559862651409e-05 2.5097340046347389e-06 -7.5072037710959893e-06 -1.7562154179468186e-05 -1.4921571959465328e-05 -3.2778452911642781e-07 1.5571297038919652e-05 -9.7167009199169336e-06 -1.0444721392979815e-06 6.5797686241597061e-06 -5.1984944182814252e-06 1.7420652506161652e-06
leaf_weight=251869 510 525 992 594 999 790 515 545 223177 1235 1136 606 4981 936 1990
leaf_count=251869 510 525 992 594 999 790 515 545 223177 1235 1136 606 4981 936 1990
internal_value=0 2.6524e-07 -2.80098e-07 -4.73212e-06 3.45643e-06 -1.81991e-05 -2.15123e-07 -3.64316e-06 -1.77116e-07 2.6543e-06 3.57719e-06 1.01019e-05 2.24887e-06 4.71659e-06 -2.42209e-06
internal_weight=0 252394 239006 3438 2138 1300 235568 1544 235053 11876 10884 1841 9043 5917 3126
internal_count=491400 252394 239006 3438 2138 1300 235568 1544 235053 11876 10884 1841 9043 5917 3126
is_linear=0
shrinkage=0.1


Tree=40
num_leaves=16
num_cat=0
split_feature=56 19 52 71 52 9 1 31 1 30 72 66 60 70 67
split_gain=3.69706e-06 1.04075e-05 1.71138e-05 1.76971e-05 1.45493e-05 5.04859e-05 2.16083e-05 1.51023e-05 1.06564e-05 9.25513e-06 1.20924e-05 8.17885e-06 1.14006e-05 1.09643e-05 2.51643e-05
threshold=-0.00014948363672162565 350.00000000000006 -0.0031617597139225735 -0.013739021523635262 -0.0031617597139225735 1250.0000000000002 628.00000000000011 2701.5000000000005 101.50000000000001 37416.000000000007 0.0089068064629096461 -0.0054722431111268724 -0.0023522518263558441 -0.0057887555833148188 -0.0019465543497826918
decision_type=2 2 2 2 2 2 2 2 2 2 2 2 2 2 2
left_child=1 4 3 -3 5 6 7 8 -1 10 -5 12 -6 14 -13
right_child=-2 2 -4 9 11 -7 -8 -9 -10 -11 -12 13 -14 -15 -16
leaf_value=-1.4977649701158637e-05 2.2479843154563912e-07 2.1901830894968795e-05 7.1097166349652366e-08 9.9414398180919044e-06 5.8306723387821004e-06 -3.3711361890526568e-05 -2.0929716751550001e-05 1.0096034547555115e-05 2.8387199113745333e-06 -8.5159806226651492e-06 -7.3730966159571691e-06 -2.7721864099130613e-06 -2.7134246029418877e-06 -9.0901938830211137e-07 -2.4423502246062532e-05
leaf_weight=629 293955 658 109048 1929 3995 606 506 1159 720 508 510 3225 2564 70744 644
leaf_count=629 293955 658 109048 1929 3995 606 506 1159 720 508 510 3225 2564 70744 644
internal_value=0 -3.34679e-07 2.95199e-07 7.07408e-06 -1.17152e-06 -7.37439e-06 -2.07903e-06 1.72418e-06 -5.46854e-06 3.76337e-06 6.32093e-06 -8.94895e-07 2.49067e-06 -1.19251e-06 -6.37608e-06
internal_weight=0 197445 112653 3605 84792 3620 3014 2508 1349 2947 2439 81172 6559 74613 3869
internal_count=491400 197445 112653 3605 84792 3620 3014 2508 1349 2947 2439 81172 6559 74613 3869
is_linear=0
shrinkage=0.1


Tree=41
num_leaves=16
num_cat=0
split_feature=44 71 25 31 33 32 69 42 57 42 42 49 49 5 1
split_gain=3.45194e-06 9.08824e-06 8.14107e-06 4.02744e-05 4.06755e-05 1.53309e-05 1.23735e-05 1.55904e-05 9.93043e-06 1.8156e-05 1.13157e-05 1.01398e-05 8.80032e-06 7.99595e-06 7.77399e-06
threshold=-6.9990099999999993 -0.0073704488402425708 0.49500000000000005 6200.5000000000009 30705.000000000004 23711.500000000004 0.006126784287072585 6042.5000000000009 0.002207134903764119 200.50000000000003 621.50000000000011 -0.00034815222178263822 -0.00038618228818854122 112439.00000000001 550.00000000000011
decision_type=2 2 2 2 2 2 2 2 2 2 2 2 2 2 2
left_child=1 -1 13 4 5 6 7 8 10 -10 11 -4 -12 -2 -8
right_child=2 -3 3 -5 -6 -7 14 -9 9 -11 12 -13 -14 -15 -16
leaf_value=9.6377864379478122e-06 -1.2458554876153805e-08 -1.989872316194603e-06 -1.1543683769999986e-05 2.9110744925442658e-05 -2.6033513192764092e-05 1.8039124746834954e-05 3.8155907393111575e-06 -1.3879629275347534e-05 1.3256717090699199e-06 -2.1145593114111022e-05 2.1140770491001605e-05 2.569059475523807e-06 4.0157916830202307e-06 -1.2627480436805229e-05 1.6144857608686096e-05
leaf_weight=704 460485 14879 628 542 523 598 5581 852 1076 540 512 2689 725 503 563
leaf_count=704 460485 14879 628 542 523 598 5581 852 1076 540 512 2689 725 503 563
internal_value=0 -1.46456e-06 4.79645e-08 2.35423e-06 1.33918e-06 2.37928e-06 1.66801e-06 -1.19957e-06 5.51393e-07 -6.18329e-06 2.94121e-06 -1.02874e-07 1.11039e-05 -2.62232e-08 4.94537e-06
internal_weight=0 15583 475817 14829 14287 13764 13166 7022 6170 1616 4554 3317 1237 460988 6144
internal_count=491400 15583 475817 14829 14287 13764 13166 7022 6170 1616 4554 3317 1237 460988 6144
is_linear=0
shrinkage=0.1


Tree=42
num_leaves=16
num_cat=0
split_feature=21 70 48 9 57 3 45 55 25 64 17 64 48 57 3
split_gain=3.26043e-06 2.13602e-05 3.41101e-05 3.15657e-05 6.97017e-06 6.06399e-06 4.8368e-06 9.2031e-06 7.77206e-06 7.73395e-06 6.90557e-06 9.51662e-06 5.21093e-06 4.81686e-06 1.45809e-05
threshold=2550.0000000000005 -0.0067274057422767033 -8.8817834621279776e-05 2850.0000000000005 -0.0023524069662038123 650.00000000000011 -0.45522999999999997 -0.0029684340264929383 1.4650000000000001 -0.00406234070225192 2516.0000000000005 0.0031392502386380365 0.00065474141915622408 0.0013686599192342943 1650.0000000000002
decision_type=2 2 2 2 2 2 2 2 2 2 2 2 2 2 2
left_child=6 2 3 -2 5 -3 7 -1 10 -9 13 -12 -11 -8 -15
right_child=1 4 -4 -5 -6 -7 8 9 -10 12 11 -13 -14 14 -16
leaf_value=1.177160462381643e-05 -7.7084502375329554e-06 1.4049620609949521e-05 2.2813832357990237e-06 -4.1039262481207848e-05 -4.9989885249409638e-07 2.1110295826923827e-06 3.6952168580346894e-07 -1.2070924692887876e-05 -9.2201868340679936e-06 -9.0962117964097387e-07 2.3658221373687833e-06 1.6970201086156703e-05 -1.0395523648419105e-05 7.8834150661694629e-09 -3.9861690644205193e-06
leaf_weight=545 653 574 1119 503 65103 1644 302605 657 874 28776 2524 542 591 74267 10423
leaf_count=545 653 574 1119 503 65103 1644 302605 657 874 28776 2524 542 591 74267 10423
internal_value=0 -6.34137e-07 -1.01642e-05 -2.22114e-05 -3.12085e-07 5.20064e-06 1.0463e-07 -1.10681e-06 1.99286e-07 -1.34058e-06 2.20375e-07 4.94755e-06 -1.10052e-06 1.82953e-07 -4.83674e-07
internal_weight=0 69596 2275 1156 67321 2218 421804 30569 391235 30024 390361 3066 29367 387295 84690
internal_count=491400 69596 2275 1156 67321 2218 421804 30569 391235 30024 390361 3066 29367 387295 84690
is_linear=0
shrinkage=0.1


Tree=43
num_leaves=16
num_cat=0
split_feature=19 44 25 39 25 34 39 63 50 15 72 9 48 5 37
split_gain=3.41396e-06 5.85396e-06 5.01296e-06 7.31146e-06 5.29861e-06 1.72686e-05 6.73472e-06 5.91003e-06 5.5646e-06 4.65517e-06 3.45515e-05 5.73057e-06 5.56831e-06 2.44969e-05 1.44999e-05
threshold=1950.0000000000002 -3.8914049999999993 0.20500000000000004 10140.500000000002 0.03500000000000001 2634.5000000000005 75166.500000000015 -0.0070114982570537157 -0.00033211002435462594 3450.0000000000005 -0.0052358204859629933 420.50000000000006 -0.0011540388322318627 120.50000000000001 142468.00000000003
decision_type=2 2 2 2 2 2 2 2 2 2 2 2 2 2 2
left_child=9 -2 4 -4 6 -6 7 -3 -8 12 -11 -12 13 14 -1
right_child=1 2 3 -5 5 -7 8 -9 -10 10 11 -13 -14 -15 -16
leaf_value=3.477711474977236e-06 8.6114227541544467e-06 1.0807768900550026e-05 -9.8657023157387879e-08 -1.4235285662971768e-05 1.7625547324254985e-06 2.0262993351906343e-05 -1.4969105904334634e-05 3.5002543943518297e-07 -1.1054528268524036e-06 -2.6730656815682643e-05 -8.5055029790636664e-06 5.7498663994363433e-07 -1.5118051964899684e-07 -5.6322300464354207e-06 1.8067488479421725e-05
leaf_weight=8188 890 544 1038 565 8346 537 517 81610 658 551 798 5384 377936 3095 743
leaf_count=8188 890 544 1038 565 8346 537 517 81610 658 551 798 5384 377936 3095 743
internal_value=0 5.39453e-07 4.62876e-07 -5.08131e-06 5.59256e-07 2.88095e-06 3.11759e-07 4.19274e-07 -7.20546e-06 -1.28786e-07 -2.73582e-06 -5.97163e-07 -8.3774e-08 2.03458e-06 4.69148e-06
internal_weight=0 94705 93815 1603 92212 8883 83329 82154 1175 396695 6733 6182 389962 12026 8931
internal_count=491400 94705 93815 1603 92212 8883 83329 82154 1175 396695 6733 6182 389962 12026 8931
is_linear=0
shrinkage=0.1


Tree=44
num_leaves=16
num_cat=0
split_feature=54 71 51 39 32 40 45 13 38 69 61 7 69 64 17
split_gain=3.41554e-06 7.09063e-06 1.29279e-05 1.29333e-05 8.59064e-06 1.20979e-05 8.57735e-06 1.05997e-05 8.87456e-06 7.97461e-06 7.70263e-06 1.13783e-05 9.34217e-06 8.85645e-06 7.75004e-06
threshold=0.00043890554513359442 0.0015991036925409043 0.0018693107354925689 75166.500000000015 1700.5000000000002 8453.5000000000018 -1.0000000180025095e-35 1350.0000000000002 118.93047500000002 -0.0015914147363347284 0.0026059335209267513 1550.0000000000002 -0.0079263660732410961 -0.0020984743067933294 300.50000000000006
decision_type=2 2 2 2 2 2 2 2 2 2 2 2 2 2 2
left_child=-1 2 3 10 -4 -6 9 8 -8 -7 12 13 -2 -12 -14
right_child=1 -3 4 -5 5 6 7 -9 -10 -11 11 -13 14 -15 -16
leaf_value=-1.9907891969041923e-07 7.3244067754585178e-06 9.5888236126512418e-07 -8.3934942006336608e-07 1.532725561245353e-05 -1.9085756054560305e-05 -4.9986026801508416e-06 -2.1890683074133019e-05 -7.292824190172455e-07 -7.6312522032049164e-06 9.1135866119956636e-06 -1.3648390059807349e-05 -1.6672978634679173e-05 -6.5514193588263891e-08 -8.6118209431833696e-07 3.6232876440277126e-06
leaf_weight=312954 1978 92189 8318 565 610 812 556 1816 2030 790 576 530 52204 9079 6393
leaf_count=312954 1978 92189 8318 565 610 812 556 1816 2030 790 576 530 52204 9079 6393
internal_value=0 3.49139e-07 -3.02536e-07 2.57614e-07 -2.97818e-06 -5.66805e-06 -4.30483e-06 -6.58497e-06 -1.06971e-05 1.96059e-06 1.37287e-07 -2.40715e-06 5.65105e-07 -1.62404e-06 3.36938e-07
internal_weight=0 178446 86257 71325 14932 6614 6004 4402 2586 1602 70760 10185 60575 9655 58597
internal_count=491400 178446 86257 71325 14932 6614 6004 4402 2586 1602 70760 10185 60575 9655 58597
is_linear=0
shrinkage=0.1


Tree=45
num_leaves=16
num_cat=0
split_feature=48 31 62 25 62 32 35 66 16 28 54 49 44 64 27
split_gain=3.29502e-06 1.15175e-05 1.91629e-05 2.09255e-05 1.58024e-05 1.20787e-05 1.1071e-05 1.10461e-05 1.64424e-05 1.51665e-05 1.71479e-05 1.25319e-05 1.97724e-05 1.03324e-05 3.73498e-05
threshold=-7.9425574873392954e-05 22745.500000000004 0.0028040782987810435 0.045000000000000005 -0.0062306547516143276 19687.000000000004 103444.00000000001 -0.0054722431111268724 98.952500000000015 41.000000000000007 0.0018664722311818596 -0.00061732052867891063 0.096285000000000023 -0.0057417975068725915 98.997280000000018
decision_type=2 2 2 2 2 2 2 2 2 2 2 2 2 2 2
left_child=1 13 3 4 -3 6 -6 8 -2 -10 11 12 -11 14 -1
right_child=7 2 -4 -5 5 -7 -8 -9 9 10 -12 -13 -14 -15 -16
leaf_value=-2.7803393991448412e-05 1.6003316120318194e-05 -2.1936976003880595e-05 -2.0523404286281224e-05 1.4717001311738636e-05 -5.4825996301548192e-08 5.2981471418644547e-06 -1.8274179444863247e-05 8.4142252614086831e-08 1.472215303395878e-05 3.1039676276427695e-06 -1.0998031974905673e-05 4.4271122008824683e-06 -2.0658514082859836e-05 -4.8625877465787532e-08 -1.7903095881160002e-06
leaf_weight=596 936 510 707 589 685 1080 650 299928 873 943 1065 6455 557 168357 7469
leaf_count=596 936 510 707 589 685 1080 650 299928 873 943 1065 6455 557 168357 7469
internal_value=0 -3.39634e-07 -5.50186e-06 -2.4796e-06 -5.94244e-06 -2.56471e-06 -8.92567e-06 1.97429e-07 3.33511e-06 2.13654e-06 9.18443e-07 2.5138e-06 -5.71983e-06 -2.16125e-07 -3.71267e-06
internal_weight=0 180643 4221 3514 2925 2415 1335 310757 10829 9893 9020 7955 1500 176422 8065
internal_count=491400 180643 4221 3514 2925 2415 1335 310757 10829 9893 9020 7955 1500 176422 8065
is_linear=0
shrinkage=0.1


Tree=46
num_leaves=16
num_cat=0
split_feature=56 60 58 26 17 51 63 11 58 52 35 53 31 32 2
split_gain=3.01776e-06 9.55444e-06 2.94282e-05 1.45814e-05 8.59606e-06 8.5658e-06 8.41801e-06 8.05954e-06 7.93254e-06 6.7397e-06 1.17198e-05 6.71871e-06 6.66438e-06 1.60688e-05 1.34372e-05
threshold=-0.00014948363672162565 -0.0012652180076345718 -0.003468978818507273 1.0000000180025095e-35 1.5000000000000002 0.0010468279664839211 0.0072964181364074685 25900.000000000004 -0.0012809332875146626 0.00097561883606556165 40852.000000000007 -0.001147232787525043 4383.5000000000009 16929.500000000004 116.51500000000001
decision_type=2 2 2 2 2 2 2 2 2 2 2 2 2 2 2
left_child=1 3 -3 4 -1 6 9 -2 11 12 -11 -7 -6 -14 -15
right_child=7 2 -4 -5 5 8 -8 -9 -10 10 -12 -13 13 14 -16
leaf_value=9.8601419108502386e-06 1.8088706381141496e-07 -2.4876677922493831e-05 -7.5717305782145649e-07 1.7018696823701861e-05 1.2541409382057211e-06 2.5114972707269957e-06 -6.0084217848053659e-06 1.2546869446382381e-05 2.7329884712368793e-06 1.2123630712299099e-06 1.89748399987303e-05 -9.4773711751792875e-06 -3.5256030057068193e-06 5.8431307779355625e-06 -1.7302452856035567e-06
leaf_weight=959 293427 508 119872 535 47704 589 1885 528 1184 1140 551 2265 10879 4770 4604
leaf_count=959 293427 508 119872 535 47704 589 1885 528 1184 1140 551 2265 10879 4770 4604
internal_value=0 -3.02372e-07 -8.58957e-07 5.67045e-07 4.52036e-07 3.32647e-07 5.85597e-07 2.03099e-07 -4.14837e-06 7.64062e-07 7.00014e-06 -7.00314e-06 6.08888e-07 -9.10944e-07 2.1235e-06
internal_weight=0 197445 120380 77065 76530 75571 71533 293955 4038 69648 1691 2854 67957 20253 9374
internal_count=491400 197445 120380 77065 76530 75571 71533 293955 4038 69648 1691 2854 67957 20253 9374
is_linear=0
shrinkage=0.1


Tree=47
num_leaves=16
num_cat=0
split_feature=40 39 61 33 65 70 33 37 41 33 38 13 19 30 30
split_gain=3.06876e-06 1.6078e-05 1.3849e-05 9.39874e-06 1.02751e-05 9.72044e-06 1.25339e-05 7.83082e-06 2.32338e-05 7.5241e-06 1.04733e-05 9.84415e-06 8.79614e-06 8.61665e-06 8.29863e-06
threshold=625.50000000000011 5696.5000000000009 -0.0039037082267522334 737.50000000000011 -0.0038488088430077556 -0.0067274057422767033 89.500000000000014 500.50000000000006 9160.5000000000018 1160.5000000000002 545.29343500000016 100.50000000000001 3150.0000000000005 2328.5000000000005 544.50000000000011
decision_type=2 2 2 2 2 2 2 2 2 2 2 2 2 2 2
left_child=1 2 -1 5 -5 6 -4 8 9 10 12 -11 -2 14 -13
right_child=7 -3 3 4 -6 -7 -8 -9 -10 11 -12 13 -14 -15 -16
leaf_value=-1.2426610126687946e-05 -2.5388973030710699e-06 1.7962583897770824e-05 -1.9029088745395269e-05 1.3821927579836205e-05 1.7741616492699568e-06 1.0793594683847877e-07 1.0739151157049723e-06 -2.3280657535776048e-08 -1.8176850038192545e-05 6.3968371215317899e-06 -1.4792062514454657e-05 -2.2817919906563996e-06 9.5145702820800454e-06 -1.3073483096915422e-05 5.5933330248507995e-06
leaf_weight=846 14944 519 609 728 25641 111874 632 324064 840 2470 673 4480 631 541 1908
leaf_count=846 14944 519 609 728 25641 111874 632 324064 840 2470 673 4480 631 541 1908
internal_value=0 3.94242e-07 3.29266e-07 4.06634e-07 2.10678e-06 1.03012e-08 -8.7913e-06 -1.58404e-07 -1.81161e-06 -1.27561e-06 -2.57833e-06 9.76389e-07 -2.05057e-06 -9.55853e-07 7.039e-08
internal_weight=0 140849 140330 139484 26369 113115 1241 350551 26487 25647 16248 9399 15575 6929 6388
internal_count=491400 140849 140330 139484 26369 113115 1241 350551 26487 25647 16248 9399 15575 6929 6388
is_linear=0
shrinkage=0.1


Tree=48
num_leaves=16
num_cat=0
split_feature=30 37 25 71 21 25 48 42 31 37 60 50 72 49 25
split_gain=2.99529e-06 4.1714e-05 1.33209e-05 1.96048e-05 1.0468e-05 9.14018e-06 1.56099e-05 9.1681e-06 9.66636e-06 9.01086e-06 1.63946e-05 8.13106e-06 1.98999e-05 1.19445e-05 7.787e-06
threshold=13231.500000000002 11052.500000000002 0.50500000000000012 -0.0011735709815948734 250.00000000000003 0.45500000000000007 -2.0922471966333674e-05 9700.5000000000018 684.50000000000011 110251.00000000001 1.0000000180025095e-35 -0.001520093338015893 -0.016431720319689699 -0.00011798941929497263 0.24500000000000002
decision_type=2 2 2 2 2 2 2 2 2 2 2 2 2 2 2
left_child=9 -2 5 -4 -5 7 -7 8 -3 11 -11 12 -1 -14 -9
right_child=1 2 3 4 -6 6 -8 14 -10 10 -12 -13 13 -15 -16
leaf_value=-1.6562733799219134e-05 -2.6699385776545999e-05 3.3234669636560128e-06 1.8593906722445458e-05 -1.0932807559172558e-05 8.709400504720106e-06 -1.8398975424299189e-05 3.4180449777161576e-06 -6.404603047048835e-07 -5.9488464869488514e-06 2.1332886887566105e-05 -3.1736060489197625e-06 4.1770402131789562e-09 2.716796265587028e-06 1.4818845339245197e-05 2.3008898722947835e-06
leaf_weight=504 608 1431 900 557 529 748 584 44006 5246 550 542 413901 9083 896 11315
leaf_count=504 608 1431 900 557 529 748 584 44006 5246 550 542 413901 9083 896 11315
internal_value=0 -6.27216e-07 -3.84521e-07 7.67987e-06 -1.36492e-06 -6.37417e-07 -8.83356e-06 -4.61326e-07 -3.96162e-06 9.7182e-08 9.16941e-06 7.38379e-08 2.82426e-06 3.80342e-06 -3.88555e-08
internal_weight=0 65924 65316 1986 1086 63330 1332 61998 6677 425476 1092 424384 10483 9979 55321
internal_count=491400 65924 65316 1986 1086 63330 1332 61998 6677 425476 1092 424384 10483 9979 55321
is_linear=0
shrinkage=0.1


Tree=49
num_leaves=16
num_cat=0
split_feature=62 26 26 51 14 68 11 70 13 52 41 39 73 62 72
split_gain=3.04104e-06 9.1282e-06 8.80926e-06 8.67993e-06 1.061e-05 1.19396e-05 7.65828e-06 7.20606e-06 1.07266e-05 6.20196e-06 8.70456e-06 6.59113e-06 1.844e-05 1.43627e-05 1.56865e-05
threshold=-0.00048332725761746071 194.50000000000003 703.00000000000011 0.0010468279664839211 98.965000000000018 -0.0022844879074540021 25900.000000000004 0.0025589055312309488 7250.0000000000009 -0.00094809354561076187 28674.000000000004 75166.500000000015 3.5000000000000004 0.0048903765246242079 0.0029410529021287606
decision_type=2 2 2 2 2 2 2 2 2 2 2 2 2 2 2
left_child=1 3 6 7 5 -5 9 -1 -9 10 -2 -11 13 14 -13
right_child=2 -3 -4 4 -6 -7 -8 8 -10 11 -12 12 -14 -15 -16
leaf_value=1.2099926184698337e-07 2.763978303564029e-06 1.2468120617283244e-05 -1.2889915591413846e-05 1.7692200768609978e-05 -3.3522279124542535e-06 -2.1458036222306268e-06 1.165998721162427e-05 -1.4558834880849677e-06 -1.3775187087122042e-05 1.0538616840636076e-07 -2.4767293152610205e-06 -4.5257574470073551e-06 -2.0376725162892689e-05 -1.0051343092171278e-05 1.8937827719611227e-05
leaf_weight=129903 17608 554 515 527 14747 715 582 19768 733 299278 3865 579 597 868 561
leaf_count=129903 17608 554 515 527 14747 715 582 19768 733 299278 3865 579 597 868 561
internal_value=0 -3.46801e-07 1.78446e-07 -3.89468e-07 -2.60465e-06 6.27177e-06 1.99222e-07 -1.53978e-07 -1.89635e-06 1.78594e-07 1.82069e-06 6.17921e-08 -4.94655e-06 -3.58993e-07 7.0208e-06
internal_weight=0 166947 324453 166393 15989 1242 323938 150404 20501 323356 21473 301883 2605 2008 1140
internal_count=491400 166947 324453 166393 15989 1242 323938 150404 20501 323356 21473 301883 2605 2008 1140
is_linear=0
shrinkage=0.1


Tree=50
num_leaves=16
num_cat=0
split_feature=5 53 25 60 62 17 45 72 53 53 1 17 62 48 41
split_gain=2.99314e-06 3.06014e-06 5.72186e-06 6.04624e-06 2.54594e-05 9.09017e-06 1.73042e-05 1.17585e-05 1.04254e-05 7.49727e-06 1.83949e-05 3.3307e-05 1.97874e-05 1.10876e-05 9.96608e-06
threshold=112439.00000000001 -0.00011250133019680141 1.135 -0.0023522518263558441 -0.0062306547516143276 700.50000000000011 -0.52850999999999992 -0.0009978088427877172 -0.0021395716232078805 -0.0034498707406890867 1050.0000000000002 67.500000000000014 -0.0062306547516143276 0.0011605491995250186 43686.000000000007
decision_type=2 2 2 2 2 2 2 2 2 2 2 2 2 2 2
left_child=1 2 3 5 -5 6 -1 8 -7 10 11 -8 -12 -11 -13
right_child=-2 -3 -4 4 -6 7 9 -9 -10 13 12 14 -14 -15 -16
leaf_value=1.9681972742316279e-05 -6.9325544251506351e-06 2.1227443793867758e-07 -1.0155836037745672e-05 -2.1543518643345983e-05 -4.4561055786060357e-07 -2.2544701184545247e-05 2.8151012261077335e-05 5.1153558982355947e-06 -2.8523863796077117e-06 6.7963507874652614e-07 -2.0233266465829068e-05 1.0549376583764897e-06 4.6004138758341128e-06 -1.1355505461946037e-05 1.3657609469668755e-05
leaf_weight=506 622 294924 587 574 161376 525 659 589 551 24666 563 2923 746 790 799
leaf_count=506 622 294924 587 574 161376 525 659 589 551 24666 563 2923 746 790 799
internal_value=0 8.78615e-09 -2.97634e-07 -2.67999e-07 -5.20388e-07 9.58836e-07 1.33768e-06 -6.24306e-06 -1.24606e-05 1.03966e-06 4.32128e-06 7.42925e-06 -6.08053e-06 3.06137e-07 3.76035e-06
internal_weight=0 490778 195854 195267 161950 33317 31652 1665 1076 31146 5690 4381 1309 25456 3722
internal_count=491400 490778 195854 195267 161950 33317 31652 1665 1076 31146 5690 4381 1309 25456 3722
is_linear=0
shrinkage=0.1


Tree=51
num_leaves=16
num_cat=0
split_feature=51 61 56 56 30 19 72 54 37 50 7 9 52 72 30
split_gain=3.03167e-06 1.20598e-05 1.83337e-05 1.23751e-05 9.73055e-06 7.13699e-06 1.40782e-05 3.85751e-05 1.35471e-05 1.23812e-05 2.17933e-05 1.27369e-05 1.1622e-05 2.10919e-05 1.13767e-05
threshold=8.9074956752588377e-05 -0.0052008108612714979 -0.0031399301532139541 -0.0025917599600479564 13231.500000000002 350.00000000000006 -0.016431720319689699 -0.0037387248623579335 142468.00000000003 -0.0024733357853174982 110.50000000000001 525.00000000000011 -0.0031617597139225735 -0.016431720319689699 25298.500000000004
decision_type=2 2 2 2 2 2 2 2 2 2 2 2 2 2 2
left_child=5 2 -2 4 -3 6 7 -1 9 10 11 -8 13 -7 -15
right_child=1 3 -4 -5 -6 12 8 -9 -10 -11 -12 -13 -14 14 -16
leaf_value=-3.0363032504445106e-05 2.172631304568043e-05 -2.7312899678482414e-06 -1.9702485954488508e-06 2.7190123134607062e-07 -1.7764634298739331e-05 2.3708319341814196e-05 4.6518181394943597e-06 -8.3089764438458344e-07 -1.5338001686610295e-05 -7.7725676511139513e-07 1.7614934258745054e-05 -1.332078786601249e-05 7.5413017802454964e-08 7.4102174375177364e-06 -4.788116246898058e-06
leaf_weight=601 651 1287 655 232180 647 555 1393 1675 627 104216 1020 550 142144 1935 1264
leaf_count=601 651 1287 655 232180 647 555 1393 1675 627 104216 1020 550 142144 1935 1264
internal_value=0 2.59003e-07 9.84174e-06 2.05546e-07 -7.76054e-06 -2.382e-07 -8.46084e-07 -8.62915e-06 -6.81769e-07 -5.96029e-07 5.77819e-06 -4.35641e-07 2.20457e-07 5.7125e-06 2.59037e-06
internal_weight=0 235420 1306 234114 1934 255980 110082 2276 107806 107179 2963 1943 145898 3754 3199
internal_count=491400 235420 1306 234114 1934 255980 110082 2276 107806 107179 2963 1943 145898 3754 3199
is_linear=0
shrinkage=0.1


Tree=52
num_leaves=16
num_cat=0
split_feature=21 11 31 14 39 69 49 42 54 44 63 65 49 54 18
split_gain=2.96064e-06 8.00951e-06 7.65388e-06 3.19588e-05 1.8893e-05 1.53772e-05 1.2758e-05 6.21262e-06 1.00932e-05 5.85478e-06 8.11193e-06 5.55769e-06 2.9121e-05 2.17051e-05 1.6918e-05
threshold=420.00000000000006 25900.000000000004 22745.500000000004 107.105 75166.500000000015 1.0000000180025095e-35 -0.00031509782184030438 45230.000000000007 -0.0017373518594982482 11.504385000000001 -0.001424395167204495 -0.0083791497535711783 -0.0010843123252839424 -0.0027918546830587028 110.53500000000001
decision_type=2 2 2 2 2 2 2 2 2 2 2 2 2 2 2
left_child=1 2 4 -4 7 -6 -5 9 -9 -1 -11 12 14 -14 -2
right_child=11 -3 3 6 5 -7 -8 8 -10 10 -12 -13 13 -15 -16
leaf_value=6.6898767684124263e-08 -2.9623108670603641e-05 1.2577609292098456e-05 2.6124589364803254e-05 -1.0557661475037733e-05 -2.4069024952160187e-05 -9.9167098577794668e-07 6.63911647705585e-06 1.0019798819843586e-05 7.0319324206001286e-07 1.4057303907762299e-05 1.9840862053291994e-06 -1.9398245105944595e-07 1.9177279877241211e-05 -3.3167755132338393e-06 -6.4610520648474264e-06
leaf_weight=237053 538 525 586 764 581 574 991 1674 3808 623 5215 235568 594 1544 762
leaf_count=237053 538 525 586 764 581 574 991 1674 3808 623 5215 235568 594 1544 762
internal_value=0 2.38858e-07 2.13139e-07 5.90445e-06 1.59745e-07 -1.26003e-05 -8.47116e-07 2.19082e-07 3.54814e-06 1.43946e-07 3.27248e-06 -2.52238e-07 -4.24385e-06 2.93274e-06 -1.60466e-05
internal_weight=0 252394 251869 2341 249528 1155 1755 248373 5482 242891 5838 239006 3438 2138 1300
internal_count=491400 252394 251869 2341 249528 1155 1755 248373 5482 242891 5838 239006 3438 2138 1300
is_linear=0
shrinkage=0.1


Tree=53
num_leaves=16
num_cat=0
split_feature=60 56 69 39 34 69 23 53 68 61 25 39 9 59 9
split_gain=2.78277e-06 2.20622e-05 8.89881e-06 7.40839e-06 1.05529e-05 1.69576e-05 1.14843e-05 8.64091e-06 7.21027e-06 6.5582e-06 6.02837e-06 1.02218e-05 1.5898e-05 1.55757e-05 5.95017e-06
threshold=0.0022467355988593511 -0.0025917599600479564 -0.000953860328099576 55273.000000000007 394.50000000000006 0.011480440074589817 67.500000000000014 -0.0018378768985208291 0.0041389383374754738 0.0019194482963227346 0.47500000000000003 625.50000000000011 304.00000000000006 0.0038367202503366564 304.00000000000006
decision_type=2 2 2 2 2 2 2 2 2 2 2 2 2 2 2
left_child=-1 -2 9 7 -5 6 -6 -4 -8 14 -9 -12 13 -13 -3
right_child=1 2 3 4 5 -7 8 10 -10 -11 11 12 -14 -15 -16
leaf_value=1.0520302513445373e-07 -1.8944091454794164e-05 -3.7638912186931408e-06 1.1462147616988863e-05 8.8533147694154952e-06 1.0429341459444807e-05 -2.1182338983793836e-05 -1.508924131109058e-05 -1.962546898780399e-07 -1.6881089673884082e-06 -4.8074398572116888e-06 4.1377670752960657e-07 3.1628707196845229e-06 -2.3521869559207192e-06 2.4785382471378286e-05 4.3437287249100285e-06
leaf_weight=411062 646 1758 682 501 510 643 638 57539 1083 7181 5115 595 824 757 1866
leaf_count=411062 646 1758 682 501 510 643 638 57539 1083 7181 5115 595 824 757 1866
internal_value=0 -5.38288e-07 -3.89086e-07 2.94202e-08 -4.53953e-06 -6.8742e-06 -2.75042e-06 2.648e-07 -6.65611e-06 -3.05727e-06 1.47006e-07 2.85595e-06 8.59662e-06 1.52696e-05 4.10728e-07
internal_weight=0 80338 79692 68887 3375 2874 2231 65512 1721 10805 64830 7291 2176 1352 3624
internal_count=491400 80338 79692 68887 3375 2874 2231 65512 1721 10805 64830 7291 2176 1352 3624
is_linear=0
shrinkage=0.1


Tree=54
num_leaves=16
num_cat=0
split_feature=42 37 25 55 31 16 1 31 48 61 9 48 4 25 13
split_gain=2.81871e-06 2.24387e-05 2.56088e-05 9.33684e-06 2.02345e-05 1.49591e-05 9.55885e-06 7.67388e-06 1.37455e-05 1.73173e-05 9.84823e-06 8.22692e-06 3.15384e-05 1.84034e-05 7.02139e-06
threshold=29867.500000000004 13491.500000000002 0.50500000000000012 0.0042051340365991683 32184.500000000004 110.46500000000002 550.00000000000011 22745.500000000004 0.0008305628657142573 0.0002366023900519654 704.50000000000011 -0.0015246118419552921 116.46005000000001 0.025000000000000005 1350.0000000000002
decision_type=2 2 2 2 2 2 2 2 2 2 2 2 2 2 2
left_child=-1 -2 3 7 5 -5 -7 11 10 -10 -9 12 13 -3 -12
right_child=1 2 -4 4 -6 6 -8 8 9 -11 14 -13 -14 -15 -16
leaf_value=-9.5715005717827308e-08 -1.8368320483834902e-05 6.9989804877273416e-06 2.2627019692786544e-05 -1.9946849047526691e-05 1.2437877488043524e-05 -1.2704075574553582e-05 5.2083681920124088e-06 -1.4301538453210238e-05 1.8898798581416172e-05 -4.3824577142646771e-06 5.417740600102622e-06 9.894827823361982e-07 -6.6959768875062128e-06 3.0845583369292557e-05 -4.1644915112933647e-06
leaf_weight=423725 618 763 532 846 514 529 682 820 641 637 920 54122 959 562 4530
leaf_count=423725 618 763 532 846 514 529 682 820 641 637 920 54122 959 562 4530
internal_value=0 5.99288e-07 7.74095e-07 5.99337e-07 -5.30934e-06 -9.74399e-06 -2.61631e-06 8.3687e-07 -2.1576e-06 7.2946e-06 -4.08422e-06 1.23758e-06 7.11646e-06 1.71135e-05 -2.54694e-06
internal_weight=0 67675 67057 66525 2571 2057 1211 63954 7548 1278 6270 56406 2284 1325 5450
internal_count=491400 67675 67057 66525 2571 2057 1211 63954 7548 1278 6270 56406 2284 1325 5450
is_linear=0
shrinkage=0.1


Tree=55
num_leaves=16
num_cat=0
